{"learner":{"attributes":{"best_iteration":"299","best_ntree_limit":"300","scikit_learn":"{\"use_label_encoder\": true, \"n_estimators\": 300, \"objective\": \"binary:logistic\", \"max_depth\": null, \"learning_rate\": null, \"verbosity\": null, \"booster\": null, \"tree_method\": null, \"gamma\": null, \"min_child_weight\": null, \"max_delta_step\": null, \"subsample\": null, \"colsample_bytree\": null, \"colsample_bylevel\": null, \"colsample_bynode\": null, \"reg_alpha\": null, \"reg_lambda\": null, \"scale_pos_weight\": null, \"base_score\": null, \"missing\": NaN, \"num_parallel_tree\": null, \"random_state\": null, \"n_jobs\": null, \"monotone_constraints\": null, \"interaction_constraints\": null, \"importance_type\": null, \"gpu_id\": null, \"validate_parameters\": null, \"predictor\": null, \"enable_categorical\": false, \"classes_\": [0, 1], \"n_classes_\": 2, \"_le\": {\"classes_\": [0, 1]}, \"_estimator_type\": \"classifier\"}"},"feature_names":[],"feature_types":[],"gradient_booster":{"model":{"gbtree_model_param":{"num_trees":"300","size_leaf_vector":"0"},"tree_info":[0,0,0,0,0,0,0,0,0,0,0,0,0,0,0,0,0,0,0,0,0,0,0,0,0,0,0,0,0,0,0,0,0,0,0,0,0,0,0,0,0,0,0,0,0,0,0,0,0,0,0,0,0,0,0,0,0,0,0,0,0,0,0,0,0,0,0,0,0,0,0,0,0,0,0,0,0,0,0,0,0,0,0,0,0,0,0,0,0,0,0,0,0,0,0,0,0,0,0,0,0,0,0,0,0,0,0,0,0,0,0,0,0,0,0,0,0,0,0,0,0,0,0,0,0,0,0,0,0,0,0,0,0,0,0,0,0,0,0,0,0,0,0,0,0,0,0,0,0,0,0,0,0,0,0,0,0,0,0,0,0,0,0,0,0,0,0,0,0,0,0,0,0,0,0,0,0,0,0,0,0,0,0,0,0,0,0,0,0,0,0,0,0,0,0,0,0,0,0,0,0,0,0,0,0,0,0,0,0,0,0,0,0,0,0,0,0,0,0,0,0,0,0,0,0,0,0,0,0,0,0,0,0,0,0,0,0,0,0,0,0,0,0,0,0,0,0,0,0,0,0,0,0,0,0,0,0,0,0,0,0,0,0,0,0,0,0,0,0,0,0,0,0,0,0,0,0,0,0,0,0,0,0,0,0,0,0,0,0,0,0,0,0,0,0,0,0,0,0,0],"trees":[{"base_weights":[1.044505E-1,-8.0803014E-2,1.8486998E0,-2.2210036E-1,1.4269006E0,1.8755981E0,-2.2222222E-1,-3.2823768E-1,1.7826087E0,1.5258359E0,-8.235294E-1,1.902439E0,3.3333334E-1,-2.024754E-1,-1.5625E0,1.8444444E0,-5E-1,1.5692308E0,-1E0,-1.8181819E-1,-1.2E0,1.9211823E0,-0E0,5E-1,-0E0,-2.7985445E-1,1.5757576E0,-1.6166134E0,5.4545456E-1,1.8636364E0,5E-1,1.6100628E0,-1.8181819E-1,1.9395466E0,7.692308E-1,-3.5496053E-1,1.6491228E0,1.6875E0,-1E0,-1.6504854E0,5E-1,1.8837209E0,5E-1,1.6612378E0,1.3333334E-1,1.9491094E0,5E-1,-0E0,1.1111112E0],"categories":[],"categories_nodes":[],"categories_segments":[],"categories_sizes":[],"default_left":[true,true,true,true,true,true,false,true,true,true,true,true,true,true,true,true,false,true,false,false,false,true,false,false,false,true,true,true,false,true,false,true,false,true,true,false,false,false,false,false,false,false,false,false,false,false,false,false,false],"id":0,"left_children":[1,3,5,7,9,11,-1,13,15,17,19,21,23,25,27,29,-1,31,-1,-1,-1,33,-1,-1,-1,35,37,39,-1,41,-1,43,-1,45,47,-1,-1,-1,-1,-1,-1,-1,-1,-1,-1,-1,-1,-1,-1],"loss_changes":[3.5591364E2,2.1255257E2,6.3075256E0,1.945822E2,2.0292877E1,3.691742E0,0E0,1.3422372E2,7.414963E0,1.0584518E1,8.085561E-1,3.6549377E0,1.6666666E-1,1.0883377E2,1.0007278E1,2.2929382E-1,0E0,6.1020355E0,0E0,0E0,0E0,6.552429E-1,0E0,0E0,0E0,1.1007685E2,1.1185608E1,6.4352875E0,0E0,2.632141E-1,0E0,5.786438E0,0E0,3.9172363E-1,8.547008E-1,0E0,0E0,0E0,0E0,0E0,0E0,0E0,0E0,0E0,0E0,0E0,0E0,0E0,0E0],"parents":[2147483647,0,0,1,1,2,2,3,3,4,4,5,5,7,7,8,8,9,9,10,10,11,11,12,12,13,13,14,14,15,15,17,17,21,21,25,25,26,26,27,27,29,29,31,31,33,33,34,34],"right_children":[2,4,6,8,10,12,-1,14,16,18,20,22,24,26,28,30,-1,32,-1,-1,-1,34,-1,-1,-1,36,38,40,-1,42,-1,44,-1,46,48,-1,-1,-1,-1,-1,-1,-1,-1,-1,-1,-1,-1,-1,-1],"split_conditions":[3.590826E-2,1.7058814E-2,7.5E-1,2.5E-1,2.657047E-1,4.5380044E-1,-6.666667E-2,4.935604E-2,1.9255379E-1,2.0784315E-1,3.979091E-1,3.907755E-1,1.25E-1,2.6466457E-2,3.570947E-1,7.5E-1,-1.5E-1,4.7682303E-1,-3E-1,-5.454546E-2,-3.6E-1,6.1321706E-1,-0E0,1.5E-1,-0E0,8.303089E-2,1.9561277E-1,8.703156E-2,1.6363637E-1,1.9672912E-1,1.5E-1,4.1957802E-1,-5.454546E-2,4.0948704E-1,4.775113E-2,-1.0648816E-1,4.9473688E-1,5.0625E-1,-3E-1,-4.9514565E-1,1.5E-1,5.651163E-1,1.5E-1,4.9837136E-1,4.0000003E-2,5.8473283E-1,1.5E-1,-0E0,3.3333337E-1],"split_indices":[6136,1239,23,0,1239,13669,0,819,4782,4296,1239,10488,1,7658,11875,25,0,9425,0,0,0,6905,0,0,0,11717,5041,338,0,1862,0,4593,0,1262,1239,0,0,0,0,0,0,0,0,0,0,0,0,0,0],"split_type":[0,0,0,0,0,0,0,0,0,0,0,0,0,0,0,0,0,0,0,0,0,0,0,0,0,0,0,0,0,0,0,0,0,0,0,0,0,0,0,0,0,0,0,0,0,0,0,0,0],"sum_hessian":[1.1E3,9.9525E2,1.0475E2,9.1075E2,8.45E1,1.035E2,1.25E0,8.6575E2,4.5E1,8.125E1,3.25E0,1.015E2,2E0,7.8675E2,7.9E1,4.4E1,1E0,8.025E1,1E0,1.75E0,1.5E0,1.005E2,1E0,1E0,1E0,7.5475E2,3.2E1,7.725E1,1.75E0,4.3E1,1E0,7.85E1,1.75E0,9.825E1,2.25E0,7.2725E2,2.75E1,3.1E1,1E0,7.625E1,1E0,4.2E1,1E0,7.575E1,2.75E0,9.725E1,1E0,1E0,1.25E0],"tree_param":{"num_deleted":"0","num_feature":"16915","num_nodes":"49","size_leaf_vector":"0"}},{"base_weights":[7.9294324E-2,-5.5517133E-2,1.4265041E0,-1.560912E-1,1.0619527E0,1.4492576E0,-1.8531317E-1,-2.3226322E-1,1.3721166E0,1.2024205E0,-1.6627653E-1,1.4669251E0,1.6500764E-2,-3.058145E-1,1.4600044E0,1.4315097E0,-3.8260564E-1,1.2413316E0,-5.984401E-1,-8.657607E-1,1.0198928E0,1.4846629E0,3.358632E-2,-2.1747626E-1,-1.1913788E0,1.5520881E0,-6.08519E-1,1.4733527E0,-6.034668E-3,1.2752119E0,-4.0190017E-1,-3.7707287E-1,-1.0289816E0,1.5036587E0,3.5154647E-1,-1.3425739E-1,-1.3499014E0,-1.3676243E0,-6.036023E-1,1.6510526E0,-6.08519E-1,1.4960172E0,3.7666637E-1,1.3119498E0,-3.038513E-1,1.5225054E0,4.7229284E-1],"categories":[],"categories_nodes":[],"categories_segments":[],"categories_sizes":[],"default_left":[true,true,true,true,true,true,false,true,true,true,true,true,false,true,true,true,false,true,false,true,false,true,false,true,true,true,false,true,false,true,false,false,false,true,false,false,false,false,false,false,false,false,false,false,false,false,false],"id":1,"left_children":[1,3,5,7,9,11,-1,13,15,17,19,21,-1,23,25,27,-1,29,-1,31,-1,33,-1,35,37,39,-1,41,-1,43,-1,-1,-1,45,-1,-1,-1,-1,-1,-1,-1,-1,-1,-1,-1,-1,-1],"loss_changes":[1.9535574E2,1.10121574E2,3.856903E0,1.0490353E2,1.4159241E1,2.4208832E0,0E0,1.0707151E2,5.0083313E0,5.839226E0,8.501618E0,2.375763E0,0E0,6.402872E1,7.773987E0,2.511795E0,0E0,4.4940186E0,0E0,1.1586857E-1,0E0,1.4993286E0,0E0,7.035402E1,6.873253E0,8.404755E0,0E0,4.4161224E-1,0E0,4.4774704E0,0E0,0E0,0E0,1.0761871E0,0E0,0E0,0E0,0E0,0E0,0E0,0E0,0E0,0E0,0E0,0E0,0E0,0E0],"parents":[2147483647,0,0,1,1,2,2,3,3,4,4,5,5,7,7,8,8,9,9,10,10,11,11,13,13,14,14,15,15,17,17,19,19,21,21,23,23,24,24,25,25,27,27,29,29,33,33],"right_children":[2,4,6,8,10,12,-1,14,16,18,20,22,-1,24,26,28,-1,30,-1,32,-1,34,-1,36,38,40,-1,42,-1,44,-1,-1,-1,46,-1,-1,-1,-1,-1,-1,-1,-1,-1,-1,-1,-1,-1],"split_conditions":[3.590826E-2,1.7058814E-2,7.5E-1,2.5E-1,1.89437E-1,3.75E-1,-5.5593953E-2,9.229866E-2,3.4042567E-1,9.628519E-2,1.3433024E-1,2.2963849E-1,4.950229E-3,5.0720513E-2,1.7837681E-1,3.7634367E-1,-1.147817E-1,1.6930223E-1,-1.7953204E-1,2.3966599E-1,3.0596787E-1,3.2830352E-1,1.0075896E-2,7.456471E-2,1.3896087E-1,1.9434743E-1,-1.825557E-1,3.4472498E-1,-1.8104005E-3,3.5665962E-1,-1.20570056E-1,-1.1312187E-1,-3.0869448E-1,4.9063438E-1,1.05463944E-1,-4.027722E-2,-4.0497044E-1,-4.102873E-1,-1.810807E-1,4.953158E-1,-1.825557E-1,4.4880518E-1,1.12999916E-1,3.9358497E-1,-9.1155395E-2,4.5675164E-1,1.4168786E-1],"split_indices":[6136,1239,23,0,1239,16895,0,3811,4593,4296,1862,11810,0,819,2970,5765,0,14321,0,1239,0,15286,0,9055,819,10218,0,3156,0,10488,0,0,0,14624,0,0,0,0,0,0,0,0,0,0,0,0,0],"split_type":[0,0,0,0,0,0,0,0,0,0,0,0,0,0,0,0,0,0,0,0,0,0,0,0,0,0,0,0,0,0,0,0,0,0,0,0,0,0,0,0,0,0,0,0,0,0,0],"sum_hessian":[1.074197E3,9.7735474E2,9.6842316E1,8.9744366E2,7.991105E1,9.5593704E1,1.2486122E0,8.55643E2,4.1800674E1,7.172873E1,8.182323E0,9.440573E1,1.1879743E0,8.2078827E2,3.4854748E1,4.0610306E1,1.1903673E0,7.051579E1,1.2129306E0,5.3170056E0,2.8653183E0,9.3216354E1,1.1893753E0,7.474709E2,7.331733E1,3.3608284E1,1.2464631E0,3.943748E1,1.1728249E0,6.931071E1,1.205092E0,2.1600263E0,3.1569793E0,9.135781E1,1.8585424E0,6.9734357E2,5.0127342E1,5.538369E1,1.793364E1,3.236182E1,1.2464631E0,3.82822E1,1.1552824E0,6.7900116E1,1.410584E0,8.925067E1,2.1071415E0],"tree_param":{"num_deleted":"0","num_feature":"16915","num_nodes":"47","size_leaf_vector":"0"}},{"base_weights":[6.202784E-2,-3.9240077E-2,1.211076E0,-1.0427187E-1,1.329745E0,1.2335771E0,-1.5470444E-1,-1.5268694E-1,1.5153599E0,1.399029E0,-1.2336994E-1,1.2599447E0,7.702406E-2,-1.9566296E-1,1.3467915E0,1.4667069E0,1.1721496E-1,1.2808247E0,-3.100361E-2,-2.3637827E-1,1.3258322E0,1.4945465E0,-4.3354843E-2,1.5259677E0,-4.2966645E-2,1.3009433E0,2.1941376E-1,-2.7509373E-1,1.2661334E0,1.7140981E0,-8.310108E-1,1.5358844E0,3.4796113E-1,8.874977E-1,-9.6621615E-1,1.5634573E0,1.3427192E-1,1.3124404E0,2.2268793E-1],"categories":[],"categories_nodes":[],"categories_segments":[],"categories_sizes":[],"default_left":[true,true,true,true,true,true,false,true,false,true,false,true,false,true,true,true,false,true,false,true,true,true,true,true,false,true,false,false,false,false,false,false,false,false,false,false,false,false,false],"id":2,"left_children":[1,3,5,7,9,11,-1,13,-1,15,-1,17,-1,19,21,23,-1,25,-1,27,29,31,33,35,-1,37,-1,-1,-1,-1,-1,-1,-1,-1,-1,-1,-1,-1,-1],"loss_changes":[1.2026808E2,8.4755005E1,2.7634048E0,7.145349E1,4.5193634E0,2.417801E0,0E0,5.7153976E1,0E0,3.4101105E0,0E0,2.211258E0,0E0,5.3532906E1,5.143154E0,3.5666351E0,0E0,1.4080353E0,0E0,4.9069324E1,2.0301464E1,5.2618027E-1,3.7329173E0,1.7561417E0,0E0,6.700592E-1,0E0,0E0,0E0,0E0,0E0,0E0,0E0,0E0,0E0,0E0,0E0,0E0,0E0],"parents":[2147483647,0,0,1,1,2,2,3,3,4,4,5,5,7,7,9,9,11,11,13,13,14,14,15,15,17,17,19,19,20,20,21,21,22,22,23,23,25,25],"right_children":[2,4,6,8,10,12,-1,14,-1,16,-1,18,-1,20,22,24,-1,26,-1,28,30,32,34,36,-1,38,-1,-1,-1,-1,-1,-1,-1,-1,-1,-1,-1,-1,-1],"split_conditions":[3.590826E-2,4.9719125E-2,7.5E-1,2.5E-1,3.5598618E-1,4.5380044E-1,-4.641133E-2,8.936817E-2,4.54608E-1,8.941527E-2,-3.7010983E-2,6.3007617E-1,2.3107218E-2,3.4553283E-1,3.4587008E-1,3.0065214E-2,3.516449E-2,4.2216522E-1,-9.301083E-3,9.028393E-2,2.1684033E-1,2.1428573E-1,8.213447E-2,1.8772607E-1,-1.2889994E-2,3.9082092E-1,6.582413E-2,-8.252812E-2,3.7984005E-1,5.142295E-1,-2.4930325E-1,4.6076533E-1,1.0438834E-1,2.6624933E-1,-2.8986487E-1,4.690372E-1,4.028158E-2,3.9373213E-1,6.680638E-2],"split_indices":[6136,3762,23,5,12092,13669,0,4962,0,515,0,6152,0,6093,11717,1529,0,9831,0,11717,830,16820,5765,6065,0,2089,0,0,0,0,0,0,0,0,0,0,0,0,0],"split_type":[0,0,0,0,0,0,0,0,0,0,0,0,0,0,0,0,0,0,0,0,0,0,0,0,0,0,0,0,0,0,0,0,0,0,0,0,0,0,0],"sum_hessian":[1.0321625E3,9.494513E2,8.271119E1,9.072762E2,4.21751E1,8.146585E1,1.2453405E0,8.818219E2,2.5454262E1,4.0291245E1,1.8838532E0,7.956255E1,1.9032998E0,8.580978E2,2.372412E1,3.8133606E1,2.1576383E0,7.8303894E1,1.2586551E0,8.3655615E2,2.1541653E1,2.137692E1,2.3471975E0,3.6682858E1,1.4507462E0,7.662582E1,1.6780813E0,8.163383E2,2.021782E1,1.8429352E1,3.112301E0,2.0305326E1,1.0715953E0,1.1876166E0,1.159581E0,3.5600437E1,1.0824234E0,7.560249E1,1.0233222E0],"tree_param":{"num_deleted":"0","num_feature":"16915","num_nodes":"39","size_leaf_vector":"0"}},{"base_weights":[5.3384107E-2,-2.2637032E-2,1.0717975E0,-6.401496E-2,1.4161131E0,1.1124841E0,1.3508879E-1,-1.14661686E-1,1.1056199E0,1.569004E0,4.132106E-1,1.1438065E0,-6.289474E-2,5.5922633E-1,-5.420374E-1,-6.659617E-2,-1.2185619E0,1.1828381E0,-6.926204E-1,1.6051458E0,4.4868493E-1,1.1429827E0,-6.8177104E-1,1.1821312E0,2.9188177E-1,-7.7102897E-3,-1.059943E0,-1.3231642E0,1.1111298E0,1.2739801E0,-5.3119785E-1,1.2124289E0,4.2442802E-1,8.5304564E-1,-6.448502E-1,-4.570597E-2,1.2918901E0,-1.1721947E0,1.513501E0,-1.3811809E0,8.6542875E-2,1.3455764E0,-1.09528445E-1,1.225267E0,2.4866936E-1,-2.4981579E-1,7.9761857E-1],"categories":[],"categories_nodes":[],"categories_segments":[],"categories_sizes":[],"default_left":[true,true,true,true,true,true,true,true,true,true,true,true,false,false,false,true,true,true,false,false,false,false,false,true,true,true,true,true,false,true,false,true,true,false,false,false,false,false,false,false,false,false,false,false,false,false,false],"id":3,"left_children":[1,3,5,7,9,11,13,15,17,19,21,23,-1,-1,-1,25,27,29,-1,-1,-1,-1,-1,31,33,35,37,39,-1,41,-1,43,45,-1,-1,-1,-1,-1,-1,-1,-1,-1,-1,-1,-1,-1,-1],"loss_changes":[7.722931E1,5.539175E1,2.4904099E0,5.367281E1,3.3401985E0,2.5115662E0,1.4583708E0,4.5937435E1,6.041668E0,1.7922592E-1,4.613611E0,1.764061E0,0E0,0E0,0E0,4.866892E1,1.0274788E1,6.367985E0,0E0,0E0,0E0,0E0,0E0,8.970032E-1,2.7099035E0,3.8901096E1,1.5225029E1,2.984848E0,0E0,3.6029472E0,0E0,4.2020416E-1,1.1812879E0,0E0,0E0,0E0,0E0,0E0,0E0,0E0,0E0,0E0,0E0,0E0,0E0,0E0,0E0],"parents":[2147483647,0,0,1,1,2,2,3,3,4,4,5,5,6,6,7,7,8,8,9,9,10,10,11,11,15,15,16,16,17,17,23,23,24,24,25,25,26,26,27,27,29,29,31,31,32,32],"right_children":[2,4,6,8,10,12,14,16,18,20,22,24,-1,-1,-1,26,28,30,-1,-1,-1,-1,-1,32,34,36,38,40,-1,42,-1,44,46,-1,-1,-1,-1,-1,-1,-1,-1,-1,-1,-1,-1,-1,-1],"split_conditions":[3.590826E-2,6.565007E-2,2.9228747E-1,9.229866E-2,3.8252252E-1,4.5380044E-1,2.6909366E-1,1.8690574E-1,1.283776E-1,3.9674702E-1,1.7189792E-1,1.6666667E-1,-1.8868422E-2,1.6776791E-1,-1.6261123E-1,7.456471E-2,1.3627024E-1,1.7977774E-1,-2.0778613E-1,4.8154375E-1,1.3460548E-1,3.4289482E-1,-2.0453133E-1,4.681341E-1,1.500009E-1,1.090747E-1,1.628816E-1,1.9747663E-1,3.3333895E-1,3.6436468E-1,-1.5935937E-1,1.3697144E-1,6.222304E-1,2.559137E-1,-1.9345507E-1,-1.37117915E-2,3.8756707E-1,-3.5165843E-1,4.5405033E-1,-4.143543E-1,2.5962863E-2,4.0367293E-1,-3.2858536E-2,3.6758012E-1,7.460081E-2,-7.494474E-2,2.3928557E-1],"split_indices":[6136,16040,10488,3811,8279,13669,5765,1446,6471,5765,10002,16724,0,0,0,9055,515,4465,0,0,0,0,0,6169,4593,6093,12501,7859,0,4523,0,6120,6169,0,0,0,0,0,0,0,0,0,0,0,0,0,0],"split_type":[0,0,0,0,0,0,0,0,0,0,0,0,0,0,0,0,0,0,0,0,0,0,0,0,0,0,0,0,0,0,0,0,0,0,0,0,0,0,0,0,0,0,0,0,0,0,0],"sum_hessian":[9.962114E2,9.2792285E2,6.828856E1,9.02911E2,2.5011883E1,6.526603E1,3.0225303E0,8.6630096E2,3.6610004E1,2.1213459E1,3.798424E0,6.359808E1,1.667949E0,1.9655004E0,1.05703E0,8.3117084E2,3.5130127E1,3.5430794E1,1.1792085E0,2.0131262E1,1.0821974E0,2.2530181E0,1.5454059E0,6.0489307E1,3.1087708E0,7.856076E2,4.5563282E1,3.4034058E1,1.0960723E0,3.3885696E1,1.5451E0,5.75865E1,2.902809E0,1.9999865E0,1.1087844E0,7.6422906E2,2.1378502E1,4.4180656E1,1.3826253E0,3.270818E1,1.3258756E0,3.224447E1,1.6412258E0,5.6561703E1,1.0247945E0,1.1520298E0,1.7507792E0],"tree_param":{"num_deleted":"0","num_feature":"16915","num_nodes":"47","size_leaf_vector":"0"}},{"base_weights":[4.3110497E-2,-2.320809E-2,1.0317174E0,-9.885642E-2,8.3458465E-1,1.0833145E0,-6.112548E-1,-1.4964189E-1,1.0779403E0,9.581509E-1,-3.420079E-2,1.124636E0,-5.1127285E-1,-1.8393175E-1,1.3635827E0,1.1476213E0,-4.9118567E-1,1.0104792E0,-2.5784627E-1,-4.311343E-1,7.968356E-1,1.1584878E0,-3.484094E-1,-2.1267071E-1,1.7180322E0,1.7495211E0,-1.0904656E-1,1.1700637E0,2.6377845E-1,1.0455235E0,-2.2897236E-1,-8.657517E-1,4.6066546E-1,-2.7497848E-2,-6.1145186E-1,1.1987307E0,-2.0545945E-1,-2.390628E-1,1.7526257E0,1.8599454E0,3.2962608E-1,-1.0036108E0,9.0633845E-1,1.1928514E0,2.5291917E-1,1.0737921E0,-2.816708E-1,-5.4566123E-2,1.1671476E-2,-7.615313E-1,-1.5647057E-1,1.2320694E0,-1.724297E-1],"categories":[],"categories_nodes":[],"categories_segments":[],"categories_sizes":[],"default_left":[true,true,true,true,true,true,false,true,true,true,true,true,false,true,true,true,false,true,true,true,false,true,false,true,false,true,true,true,false,true,false,false,false,true,true,true,false,false,false,false,false,false,false,false,false,false,false,false,false,false,false,false,false],"id":4,"left_children":[1,3,5,7,9,11,-1,13,15,17,19,21,-1,23,25,27,-1,29,31,33,-1,35,-1,37,-1,39,41,43,-1,45,-1,-1,-1,47,49,51,-1,-1,-1,-1,-1,-1,-1,-1,-1,-1,-1,-1,-1,-1,-1,-1,-1],"loss_changes":[6.319698E1,5.8740406E1,5.799057E0,4.9860386E1,7.9086113E0,4.4699097E0,0E0,4.1660847E1,4.338585E0,4.3497047E0,3.6754396E0,3.292366E0,0E0,4.3069363E1,1.0308632E1,3.5301208E-1,0E0,2.9243927E0,1.9048967E0,5.279398E-1,0E0,3.3673477E0,0E0,4.038452E1,0E0,1.6077423E0,5.122475E0,3.7210083E-1,0E0,2.5646133E0,0E0,0E0,0E0,4.197443E-3,2.308904E-1,2.743904E0,0E0,0E0,0E0,0E0,0E0,0E0,0E0,0E0,0E0,0E0,0E0,0E0,0E0,0E0,0E0,0E0,0E0],"parents":[2147483647,0,0,1,1,2,2,3,3,4,4,5,5,7,7,8,8,9,9,10,10,11,11,13,13,14,14,15,15,17,17,18,18,19,19,21,21,23,23,25,25,26,26,27,27,29,29,33,33,34,34,35,35],"right_children":[2,4,6,8,10,12,-1,14,16,18,20,22,-1,24,26,28,-1,30,32,34,-1,36,-1,38,-1,40,42,44,-1,46,-1,-1,-1,48,50,52,-1,-1,-1,-1,-1,-1,-1,-1,-1,-1,-1,-1,-1,-1,-1,-1,-1],"split_conditions":[1.9553319E-2,1.7058814E-2,2.541329E-1,2.5E-1,1.7995024E-1,1.9195336E-1,-1.8337645E-1,2.2606389E-1,3.9206594E-1,4.244245E-1,1.314165E-1,1.5289626E-1,-1.5338185E-1,2.8634733E-1,2.1842483E-1,3.5099673E-1,-1.473557E-1,3.5665962E-1,4.8084667E-1,2.0456645E-1,2.3905069E-1,5.084864E-1,-1.0452283E-1,1.4126053E-1,5.154097E-1,1.0378566E-1,2.2547888E-2,3.2393503E-1,7.913354E-2,3.669898E-1,-6.869171E-2,-2.597255E-1,1.3819964E-1,1.9169368E-1,1.1752066E-1,3.0614707E-1,-6.1637837E-2,-7.171884E-2,5.257877E-1,5.5798364E-1,9.888783E-2,-3.0108327E-1,2.7190155E-1,3.5785544E-1,7.587575E-2,3.2213765E-1,-8.4501244E-2,-1.6369838E-2,3.501443E-3,-2.284594E-1,-4.6941172E-2,3.6962083E-1,-5.172891E-2],"split_indices":[7658,1239,5149,0,1239,16325,0,13601,5765,4593,1862,5041,0,8002,3389,3156,0,10488,4593,1239,0,8842,0,12501,0,14321,1529,515,0,15826,0,0,0,1239,515,10572,0,0,0,0,0,0,0,0,0,0,0,0,0,0,0,0,0],"split_type":[0,0,0,0,0,0,0,0,0,0,0,0,0,0,0,0,0,0,0,0,0,0,0,0,0,0,0,0,0,0,0,0,0,0,0,0,0,0,0,0,0,0,0,0,0,0,0,0,0,0,0,0,0],"sum_hessian":[9.625468E2,9.029508E2,5.9596E1,8.3058655E2,7.236427E1,5.811166E1,1.4843409E0,7.9706165E2,3.3524895E1,6.3263523E1,9.100751E0,5.6931087E1,1.180573E0,7.8025934E2,1.6802328E1,3.2356644E1,1.1682519E0,6.0815445E1,2.4480748E0,6.4846516E0,2.6160994E0,5.58609E1,1.0701854E0,7.6951996E2,1.0739375E1,1.3164282E1,3.638047E0,3.1239573E1,1.117072E0,5.929539E1,1.5200557E0,1.2151008E0,1.232974E0,2.3582542E0,4.1263976E0,5.4377632E1,1.4832705E0,7.6018964E2,9.3302765E0,1.1926823E1,1.2374588E0,1.9402572E0,1.6977899E0,3.0188877E1,1.0506955E0,5.8245716E1,1.0496737E0,1.1620955E0,1.1961585E0,2.5962417E0,1.5301561E0,5.31859E1,1.1917317E0],"tree_param":{"num_deleted":"0","num_feature":"16915","num_nodes":"53","size_leaf_vector":"0"}},{"base_weights":[3.7888847E-2,-5.344768E-3,1.0805845E0,4.713871E-2,-7.738897E-1,1.1377647E0,-3.448473E-1,1.4500962E-2,1.2411282E0,-8.4889466E-1,4.541072E-1,1.1803137E0,-1.1889321E-1,-1.8987756E-2,1.1845765E0,-9.1274387E-1,7.0192945E-1,9.6744245E-1,-3.5547227E-1,1.2239637E0,-5.702036E-2,-4.0114373E-2,1.7084256E0,1.3403764E0,-7.694283E-1,-9.6045125E-1,7.2964716E-1,1.2691287E0,-4.342077E-2,-8.189673E-2,8.700025E-1,1.8714224E0,1.6964501E-1,1.4709877E0,-1.4920618E-1,-1.0214554E0,4.8322868E-1,1.3193783E0,3.6630058E-1],"categories":[],"categories_nodes":[],"categories_segments":[],"categories_sizes":[],"default_left":[true,true,true,true,true,true,false,true,false,true,true,true,false,true,true,true,false,false,false,true,false,true,true,true,false,true,false,true,false,false,false,false,false,false,false,false,false,false,false],"id":5,"left_children":[1,3,5,7,9,11,-1,13,-1,15,17,19,-1,21,23,25,-1,-1,-1,27,-1,29,31,33,-1,35,-1,37,-1,-1,-1,-1,-1,-1,-1,-1,-1,-1,-1],"loss_changes":[4.1921383E1,3.608839E1,3.4099846E0,3.2622528E1,5.653225E0,2.056034E0,0E0,3.2009636E1,0E0,6.012314E0,1.9828264E0,1.9464188E0,0E0,2.9066805E1,7.9510136E0,4.817375E0,0E0,0E0,0E0,1.9787903E0,0E0,2.9959253E1,2.0962753E0,4.3860817E0,0E0,5.0280685E0,0E0,9.903717E-1,0E0,0E0,0E0,0E0,0E0,0E0,0E0,0E0,0E0,0E0,0E0],"parents":[2147483647,0,0,1,1,2,2,3,3,4,4,5,5,7,7,9,9,10,10,11,11,13,13,14,14,15,15,19,19,21,21,22,22,23,23,25,25,27,27],"right_children":[2,4,6,8,10,12,-1,14,-1,16,18,20,-1,22,24,26,-1,-1,-1,28,-1,30,32,34,-1,36,-1,38,-1,-1,-1,-1,-1,-1,-1,-1,-1,-1,-1],"split_conditions":[1.5470695E-1,5.0720513E-2,2.7232605E-1,2.5E-1,2.9164332E-1,3.6578077E-1,-1.03454195E-1,2.8003015E-2,3.7233847E-1,3.570947E-1,2.353234E-1,1.2668334E-1,-3.5667967E-2,1.818847E-1,2.4890342E-1,6.871984E-1,2.1057884E-1,2.9023275E-1,-1.0664169E-1,2.9407978E-1,-1.7106108E-2,1.0120413E-1,1.9512406E-1,1.3917266E-1,-2.3082851E-1,1.3746443E-1,2.1889415E-1,9.695997E-2,-1.3026231E-2,-2.456902E-2,2.6100075E-1,5.6142676E-1,5.0893504E-2,4.412963E-1,-4.4761855E-2,-3.0643663E-1,1.4496861E-1,3.958135E-1,1.0989018E-1],"split_indices":[3762,819,15470,5,819,8165,0,15038,0,11875,515,3189,0,8690,14127,238,0,0,0,4465,0,6136,15826,6900,0,515,0,515,0,0,0,0,0,0,0,0,0,0,0],"split_type":[0,0,0,0,0,0,0,0,0,0,0,0,0,0,0,0,0,0,0,0,0,0,0,0,0,0,0,0,0,0,0,0,0,0,0,0,0,0,0],"sum_hessian":[9.2881506E2,8.927919E2,3.602323E1,8.365996E2,5.6192226E1,3.4827946E1,1.1952858E0,8.153248E2,2.127479E1,5.324857E1,2.943657E0,3.374609E1,1.0818543E0,7.9359515E2,2.1729706E1,5.153813E1,1.7104385E0,1.6820897E0,1.2615672E0,3.260662E1,1.1394725E0,7.8497156E2,8.623584E0,2.0415907E1,1.3137978E0,5.0486824E1,1.051306E0,3.1483294E1,1.1233251E0,7.5138635E2,3.3585217E1,7.602147E0,1.0214369E0,1.8781563E1,1.6343441E0,4.872055E1,1.7662729E0,2.9386328E1,2.0969675E0],"tree_param":{"num_deleted":"0","num_feature":"16915","num_nodes":"39","size_leaf_vector":"0"}},{"base_weights":[3.1855837E-2,2.3647868E-4,1.1331431E0,-2.5991455E-2,1.3260741E0,1.1972364E0,-8.500928E-2,-4.762053E-2,1.5798856E0,1.418246E0,2.0491399E-1,1.2352631E0,2.0152278E-1,-6.982984E-2,1.5038016E0,1.7835662E0,-1.2559911E-2,-1.0670305E-1,9.0238905E-1,1.6106939E0,4.272222E-1,2.0051851E0,3.478718E-2,-1.3617884E-1,1.0810286E0,9.933403E-1,-7.076134E-1],"categories":[],"categories_nodes":[],"categories_segments":[],"categories_sizes":[],"default_left":[true,true,true,true,true,true,false,true,true,false,false,false,false,true,true,true,false,true,true,false,false,false,false,false,false,false,false],"id":6,"left_children":[1,3,5,7,9,11,-1,13,15,-1,-1,-1,-1,17,19,21,-1,23,25,-1,-1,-1,-1,-1,-1,-1,-1],"loss_changes":[3.1439789E1,3.0589676E1,2.06921E0,3.0037024E1,1.472786E0,6.600189E-1,0E0,2.9465763E1,3.7502136E0,0E0,0E0,0E0,0E0,3.024702E1,7.0095253E-1,3.8821602E0,0E0,2.8547253E1,5.218651E0,0E0,0E0,0E0,0E0,0E0,0E0,0E0,0E0],"parents":[2147483647,0,0,1,1,2,2,3,3,4,4,5,5,7,7,8,8,13,13,14,14,15,15,17,17,18,18],"right_children":[2,4,6,8,10,12,-1,14,16,-1,-1,-1,-1,18,20,22,-1,24,26,-1,-1,-1,-1,-1,-1,-1,-1],"split_conditions":[4.5454547E-2,1.07639045E-1,3.4042567E-1,2.685687E-1,2.4197792E-1,3.4918606E-1,-2.5502784E-2,9.7273946E-2,7.0683375E-2,4.2547384E-1,6.14742E-2,3.7057894E-1,6.045684E-2,9.229866E-2,3.375836E-1,2.0356268E-1,-3.7679735E-3,6.565007E-2,3.271867E-1,4.832082E-1,1.2816666E-1,6.015556E-1,1.0436155E-2,-4.0853653E-2,3.2430857E-1,2.980021E-1,-2.1228403E-1],"split_indices":[2,6944,4593,2560,9110,3156,0,10778,1862,0,0,0,0,3811,14624,13002,0,16040,10218,0,0,0,0,0,0,0,0],"split_type":[0,0,0,0,0,0,0,0,0,0,0,0,0,0,0,0,0,0,0,0,0,0,0,0,0,0,0],"sum_hessian":[9.018793E2,8.776802E2,2.41991E1,8.616159E2,1.6064228E1,2.3005814E1,1.1932867E0,8.5112274E2,1.0493171E1,1.4599045E1,1.4651841E0,2.1927801E1,1.0780131E0,8.40052E2,1.1070735E1,9.196838E0,1.2963327E0,8.1021344E2,2.9838604E1,9.619503E0,1.4512316E0,8.032303E0,1.1645358E0,7.914573E2,1.8756153E1,2.8605652E1,1.2329534E0],"tree_param":{"num_deleted":"0","num_feature":"16915","num_nodes":"27","size_leaf_vector":"0"}},{"base_weights":[2.8358951E-2,-1.1722814E-2,7.9127437E-1,-5.8660477E-2,6.3239753E-1,9.31887E-1,9.1270335E-2,3.159119E-2,-4.2066208E-1,7.82478E-1,2.5692564E-3,9.9230474E-1,-4.3104824E-1,-2.4639025E-1,8.055653E-1,7.037927E-2,-9.871222E-1,-4.603157E-1,1.5399668E0,8.294043E-1,-5.99329E-1,-2.6235434E-1,5.4598165E-1,1.0389977E0,-3.0319387E-1,-6.7044675E-1,6.9825464E-1,9.486224E-2,-1.3186537E0,-1.1297705E0,8.867861E-1,-5.0698096E-1,1.1696005E0,8.7480086E-1,-2.8492793E-1,-8.5154146E-2,-7.531057E-1,1.0876286E0,-2.6039276E-1,-1.0267044E0,-6.1245024E-2,1.24629706E-1,-1.0415819E0,-1.1941153E0,4.6342116E-2,-5.405779E-1,1.5464823E0,9.7037345E-1,2.1179914E-1,1.12602204E-1,-6.179881E-1,1.1366836E0,-2.2680025E-1],"categories":[],"categories_nodes":[],"categories_segments":[],"categories_sizes":[],"default_left":[true,true,true,true,true,true,true,true,true,true,true,true,false,true,false,true,true,true,false,true,false,true,false,true,false,true,false,true,false,true,false,true,false,true,false,true,false,true,false,false,false,false,false,false,false,false,false,false,false,false,false,false,false],"id":7,"left_children":[1,3,5,7,9,11,13,15,17,19,21,23,-1,25,-1,27,29,31,-1,33,-1,35,-1,37,-1,39,-1,41,-1,43,-1,45,-1,47,-1,49,-1,51,-1,-1,-1,-1,-1,-1,-1,-1,-1,-1,-1,-1,-1,-1,-1],"loss_changes":[2.7074282E1,2.5490412E1,4.2649136E0,2.5680593E1,5.4111805E0,3.449215E0,2.2488353E0,2.4954353E1,1.2903259E1,3.4956837E0,1.8741682E0,2.4586906E0,0E0,3.0871937E0,0E0,2.0788433E1,7.1943817E0,1.2345013E1,0E0,2.5329742E0,0E0,6.975046E-1,0E0,2.4589348E0,0E0,1.0271883E0,0E0,2.0360178E1,0E0,1.7177334E0,0E0,1.1247055E1,0E0,2.5586433E0,0E0,8.664385E-1,0E0,2.4102592E0,0E0,0E0,0E0,0E0,0E0,0E0,0E0,0E0,0E0,0E0,0E0,0E0,0E0,0E0,0E0],"parents":[2147483647,0,0,1,1,2,2,3,3,4,4,5,5,6,6,7,7,8,8,9,9,10,10,11,11,13,13,15,15,16,16,17,17,19,19,21,21,23,23,25,25,27,27,29,29,31,31,33,33,35,35,37,37],"right_children":[2,4,6,8,10,12,14,16,18,20,22,24,-1,26,-1,28,30,32,-1,34,-1,36,-1,38,-1,40,-1,42,-1,44,-1,46,-1,48,-1,50,-1,52,-1,-1,-1,-1,-1,-1,-1,-1,-1,-1,-1,-1,-1,-1,-1],"split_conditions":[1.9553319E-2,1.7058814E-2,2.4001801E-1,2.709744E-1,1.609946E-1,1.8129233E-1,1.0270375E-1,1.9047138E-1,1.3862793E-1,9.177657E-2,1.11576185E-1,1.5289626E-1,-1.2931448E-1,2.1824102E-1,2.416696E-1,1.203002E-1,1.3627024E-1,2.9170322E-1,4.6199006E-1,1.6930223E-1,-1.797987E-1,3.979091E-1,1.637945E-1,1.7977534E-1,-9.095816E-2,2.9958904E-1,2.094764E-1,3.4753972E-1,-3.9559612E-1,2.634223E-1,2.6603585E-1,1.6973945E-1,3.5088015E-1,2.3481E-1,-8.547838E-2,2.4046375E-1,-2.2593172E-1,2.2303551E-1,-7.811783E-2,-3.0801135E-1,-1.8373508E-2,3.7388913E-2,-3.1247458E-1,-3.5823458E-1,1.3902635E-2,-1.6217338E-1,4.639447E-1,2.9111204E-1,6.353974E-2,3.3780664E-2,-1.8539643E-1,3.410051E-1,-6.804008E-2],"split_indices":[7658,1239,15826,5765,1239,8171,4782,1446,3466,2679,1862,5041,0,6136,0,11132,515,6093,0,14321,0,1239,0,4782,0,15826,0,515,0,5509,0,15397,0,15826,0,9425,0,5149,0,0,0,0,0,0,0,0,0,0,0,0,0,0,0],"split_type":[0,0,0,0,0,0,0,0,0,0,0,0,0,0,0,0,0,0,0,0,0,0,0,0,0,0,0,0,0,0,0,0,0,0,0,0,0,0,0,0,0,0,0,0,0,0,0,0,0,0,0,0,0],"sum_hessian":[8.840848E2,8.40891E2,4.3193783E1,7.8462366E2,5.626734E1,3.5692776E1,7.501008E0,6.287747E2,1.5584892E2,4.5243904E1,1.1023439E1,3.44381E1,1.2546761E0,5.5381017E0,1.9629061E0,6.066087E2,2.2166054E1,1.5350941E2,2.3395011E0,4.414452E1,1.0993838E0,7.7583227E0,3.2651167E0,3.3431152E1,1.006947E0,4.0225997E0,1.5155022E0,5.970174E2,9.591268E0,2.0967073E1,1.1989812E0,1.4990648E2,3.6029367E0,4.2623062E1,1.5214576E0,6.5623217E0,1.196001E0,3.2382187E1,1.0489634E0,2.105808E0,1.9167914E0,5.826462E2,1.4371217E1,1.986496E1,1.1021138E0,1.4821822E2,1.6882684E0,3.6847797E1,5.775266E0,5.361226E0,1.2010959E0,3.1347511E1,1.034676E0],"tree_param":{"num_deleted":"0","num_feature":"16915","num_nodes":"53","size_leaf_vector":"0"}},{"base_weights":[2.1451836E-2,-5.138148E-3,9.961207E-1,2.4411261E-2,-9.124437E-1,1.0845098E0,-1.6366109E-1,-9.870087E-4,1.0876839E0,-1.2399265E0,1.1372387E0,1.1748068E0,-5.880217E-2,-1.711842E-2,1.6420469E0,1.2394718E0,-7.6903045E-1,-1.4245155E0,2.8898504E-1,1.3041574E0,3.260081E-1,1.2183232E0,2.0484282E-1,1.4042971E-2,-1.0062871E0,1.7743608E0,3.9312977E-1,1.4012417E0,-4.3528822E-1,-1.5079968E0,-3.4190875E-2,-5.2783364E-1,1.0179669E0,1.2536583E0,3.5829127E-1,-9.75714E-3,1.1362121E0,-1.1314341E0,7.26904E-1,1.4980903E0,2.366947E-1,-1.551986E0,-4.4712862E-1],"categories":[],"categories_nodes":[],"categories_segments":[],"categories_sizes":[],"default_left":[true,true,true,true,true,true,false,true,true,true,true,true,false,true,true,true,false,true,true,false,false,true,false,true,true,false,false,true,false,true,false,false,false,false,false,false,false,false,false,false,false,false,false],"id":8,"left_children":[1,3,5,7,9,11,-1,13,15,17,19,21,-1,23,25,27,-1,29,31,-1,-1,33,-1,35,37,-1,-1,39,-1,41,-1,-1,-1,-1,-1,-1,-1,-1,-1,-1,-1,-1,-1],"loss_changes":[2.23681E1,2.2568909E1,2.5271187E0,2.2021635E1,1.9232119E1,2.2813053E0,0E0,2.1162561E1,6.3147373E0,7.0076485E0,1.4075422E-1,5.9072495E-1,0E0,2.438439E1,5.852833E-1,5.478321E0,0E0,2.3884583E0,2.5315259E0,0E0,0E0,1.2368584E-1,0E0,2.0508469E1,6.06283E0,0E0,0E0,1.5203018E0,0E0,2.3046875E-1,0E0,0E0,0E0,0E0,0E0,0E0,0E0,0E0,0E0,0E0,0E0,0E0,0E0],"parents":[2147483647,0,0,1,1,2,2,3,3,4,4,5,5,7,7,8,8,9,9,10,10,11,11,13,13,14,14,15,15,17,17,18,18,21,21,23,23,24,24,27,27,29,29],"right_children":[2,4,6,8,10,12,-1,14,16,18,20,22,-1,24,26,28,-1,30,32,-1,-1,34,-1,36,38,-1,-1,40,-1,42,-1,-1,-1,-1,-1,-1,-1,-1,-1,-1,-1,-1,-1],"split_conditions":[8.936817E-2,1.0640783E-1,4.106521E-1,2.0307815E-1,1.1174424E-1,4.257666E-1,-4.909833E-2,4.1863942E-1,4.118479E-1,1.547912E-1,5.8346767E-2,5.261054E-1,-1.7640652E-2,1.7367265E-1,2.0538783E-1,1.2095204E-1,-2.3070915E-1,3.1044698E-1,3.868001E-1,3.9124724E-1,9.780244E-2,8.501908E-2,6.1452847E-2,2.5E-1,1.3627024E-1,5.323083E-1,1.17938936E-1,2.0998546E-1,-1.3058648E-1,1.7232645E-1,-1.0257263E-2,-1.583501E-1,3.0539006E-1,3.760975E-1,1.0748739E-1,-2.927142E-3,3.4086365E-1,-3.3943024E-1,2.180712E-1,4.494271E-1,7.1008414E-2,-4.655958E-1,-1.341386E-1],"split_indices":[4962,12307,14033,5103,8690,11717,0,7027,9352,6558,14984,4963,0,1446,14162,14162,0,10372,12307,0,0,1862,0,5,515,0,0,15826,0,515,0,0,0,0,0,0,0,0,0,0,0,0,0],"split_type":[0,0,0,0,0,0,0,0,0,0,0,0,0,0,0,0,0,0,0,0,0,0,0,0,0,0,0,0,0,0,0,0,0,0,0,0,0,0,0,0,0,0,0],"sum_hessian":[8.6188824E2,8.399678E2,2.192047E1,8.144167E2,2.555108E1,2.0428478E1,1.491991E0,7.963924E2,1.8024261E1,2.2371756E1,3.179325E0,1.8907637E1,1.5208414E0,7.896294E2,6.76305E0,1.6969435E1,1.0548269E0,2.0022655E1,2.3491008E0,2.1328433E0,1.0464817E0,1.7850733E1,1.0569042E0,7.6646936E2,2.3159979E1,5.734772E0,1.0282779E0,1.5623622E1,1.3458117E0,1.880866E1,1.2139937E0,1.2379345E0,1.1111662E0,1.670664E1,1.1440928E0,7.5152167E2,1.4947735E1,2.192412E1,1.2358592E0,1.4159632E1,1.4639901E0,1.76153E1,1.193362E0],"tree_param":{"num_deleted":"0","num_feature":"16915","num_nodes":"43","size_leaf_vector":"0"}},{"base_weights":[1.7750593E-2,3.5677735E-2,-1.3720185E0,1.7342016E-2,1.419807E0,-1.2193759E-2,9.226345E-1,1.4924304E0,4.3366915E-1,2.5653023E-2,-7.2866803E-1,1.0201398E0,1.4276488E-1,1.0474467E-2,1.6470028E0,-8.7660533E-1,7.543124E-1,1.0891154E0,-2.201013E-1,-3.1228098E-1,6.868487E-1,-7.3385565E-3,1.403226E0,4.07225E-1,1.9634664E0,-9.57111E-1,7.5786215E-1,8.7398154E-1,2.0751859E-1,1.146537E0,-1.144082E-2],"categories":[],"categories_nodes":[],"categories_segments":[],"categories_sizes":[],"default_left":[true,true,false,true,true,true,true,false,false,true,true,true,true,true,true,true,true,true,false,false,false,false,false,false,false,false,false,false,false,false,false],"id":9,"left_children":[1,3,-1,5,7,9,11,-1,-1,13,15,17,19,21,23,25,27,29,-1,-1,-1,-1,-1,-1,-1,-1,-1,-1,-1,-1,-1],"loss_changes":[2.1146322E1,2.121706E1,0E0,2.2125294E1,1.3556862E-1,2.1763342E1,1.8423519E0,0E0,0E0,1.8751041E1,9.495602E0,2.2137318E0,1.2216893E0,1.8780123E1,1.9731026E0,5.6042347E0,9.281182E-2,1.40518E0,0E0,0E0,0E0,0E0,0E0,0E0,0E0,0E0,0E0,0E0,0E0,0E0,0E0],"parents":[2147483647,0,0,1,1,3,3,4,4,5,5,6,6,9,9,10,10,11,11,12,12,13,13,14,14,15,15,16,16,17,17],"right_children":[2,4,-1,6,8,10,12,-1,-1,14,16,18,20,22,24,26,28,30,-1,-1,-1,-1,-1,-1,-1,-1,-1,-1,-1,-1,-1],"split_conditions":[1.2467417E-1,9.627229E-2,-4.1160557E-1,1.5470695E-1,2.55531E-1,2.0962247E-1,4.2645603E-1,4.4772914E-1,1.3010076E-1,1.00467294E-1,1.2180806E-1,3.891051E-1,2.121925E-1,2.8634733E-1,2.2263724E-1,1.6615203E-1,1.5284356E-1,2.3571888E-1,-6.603039E-2,-9.36843E-2,2.0605461E-1,-2.201567E-3,4.2096782E-1,1.22167505E-1,5.890399E-1,-2.871333E-1,2.2735865E-1,2.6219448E-1,6.225558E-2,3.439611E-1,-3.4322462E-3],"split_indices":[6044,12501,0,3762,9110,9055,14588,0,0,2354,3811,10572,5765,8002,2324,13601,5765,13938,0,0,0,0,0,0,0,0,0,0,0,0,0],"split_type":[0,0,0,0,0,0,0,0,0,0,0,0,0,0,0,0,0,0,0,0,0,0,0,0,0,0,0,0,0,0,0],"sum_hessian":[8.4578784E2,8.359786E2,9.809267E0,8.2604834E2,9.930228E0,8.0090485E2,2.5143528E1,8.770892E0,1.1593364E0,7.616366E2,3.9268223E1,2.2075401E1,3.0681274E0,7.5556964E2,6.0669403E0,3.6078083E1,3.190142E0,2.10278E1,1.0476015E0,1.9027773E0,1.16535E0,7.4701025E2,8.559386E0,1.6987433E0,4.368197E0,3.477944E1,1.2986401E0,2.1263926E0,1.0637492E0,1.9945368E1,1.0824312E0],"tree_param":{"num_deleted":"0","num_feature":"16915","num_nodes":"31","size_leaf_vector":"0"}},{"base_weights":[1.5266504E-2,-1.3531769E-2,8.008562E-1,-2.9505558E-2,1.4531153E0,8.684935E-1,-4.5765513E-1,-5.523809E-2,9.071669E-1,1.757064E0,-2.6434612E-1,9.2212087E-1,-2.744507E-1,-7.4318536E-2,1.2071769E0,1.0212296E0,-1.92102E-1,9.7275585E-1,-1.5293826E-1,-8.194501E-3,-4.909234E-1,1.3527158E0,-2.0277288E-2,1.2010856E0,1.2061877E-1,1.0061221E0,7.177641E-2,-3.13144E-2,1.0264508E0,-5.660714E-1,6.6597503E-1,1.4844546E0,3.891511E-1,1.2484205E0,2.9775348E-1,6.0592526E-1,-6.1998385E-1,1.0349771E0,1.800152E-1],"categories":[],"categories_nodes":[],"categories_segments":[],"categories_sizes":[],"default_left":[true,true,true,true,true,true,false,true,true,false,false,true,false,true,true,true,false,true,false,true,true,true,false,true,true,true,false,false,false,false,false,false,false,false,false,false,false,false,false],"id":10,"left_children":[1,3,5,7,9,11,-1,13,15,-1,-1,17,-1,19,21,23,-1,25,-1,27,29,31,-1,33,35,37,-1,-1,-1,-1,-1,-1,-1,-1,-1,-1,-1,-1,-1],"loss_changes":[1.8894653E1,1.8929556E1,2.9113865E0,1.929526E1,5.0089207E0,1.9920712E0,0E0,1.8830942E1,2.8802242E0,0E0,0E0,1.6364746E0,0E0,2.11362E1,2.1072807E0,3.0222073E0,0E0,7.1650314E-1,0E0,1.5898991E1,9.514425E0,7.454281E-1,0E0,3.2037544E-1,1.9450079E0,4.149227E-1,0E0,0E0,0E0,0E0,0E0,0E0,0E0,0E0,0E0,0E0,0E0,0E0,0E0],"parents":[2147483647,0,0,1,1,2,2,3,3,4,4,5,5,7,7,8,8,11,11,13,13,14,14,15,15,17,17,19,19,20,20,21,21,23,23,24,24,25,25],"right_children":[2,4,6,8,10,12,-1,14,16,-1,-1,18,-1,20,22,24,-1,26,-1,28,30,32,-1,34,36,38,-1,-1,-1,-1,-1,-1,-1,-1,-1,-1,-1,-1,-1],"split_conditions":[1.1414246E-1,5.539967E-2,1.3016066E-1,8.303089E-2,1.4497785E-1,3.2830352E-1,-1.3729654E-1,1.5961894E-1,3.4973064E-1,5.271192E-1,-7.930384E-2,5.244685E-1,-8.233521E-2,2.6920563E-1,2.4457206E-1,6.137339E-2,-5.7630602E-2,5.881475E-1,-4.588148E-2,1.9871521E-1,4.4777182E-1,5.512521E-1,-6.0831867E-3,1.6272661E-1,7.3447995E-2,3.9505965E-1,2.1532925E-2,-9.39432E-3,3.0793524E-1,-1.6982143E-1,1.9979252E-1,4.453364E-1,1.1674533E-1,3.7452614E-1,8.932605E-2,1.8177758E-1,-1.8599516E-1,3.1049314E-1,5.4004565E-2],"split_indices":[6136,16097,14984,11717,11335,15286,0,8690,5765,0,0,9514,0,3156,15826,1862,0,8324,0,10468,14033,13206,0,6394,9110,10372,0,0,0,0,0,0,0,0,0,0,0,0,0],"split_type":[0,0,0,0,0,0,0,0,0,0,0,0,0,0,0,0,0,0,0,0,0,0,0,0,0,0,0,0,0,0,0,0,0,0,0,0,0,0,0],"sum_hessian":[8.3369446E2,8.051615E2,2.8532967E1,7.97456E2,7.7055025E0,2.7371801E1,1.1611639E0,7.770497E2,2.0406303E1,6.5272756E0,1.178227E0,2.6329613E1,1.0421896E0,7.6640717E2,1.0642535E1,1.8552269E1,1.8540349E0,2.5236156E1,1.0934556E0,6.62305E2,1.04102196E2,9.423181E0,1.2193545E0,1.5185935E1,3.366333E0,2.4222424E1,1.0137328E0,6.487773E2,1.3527667E1,9.823209E1,5.8701053E0,7.8142314E0,1.6089495E0,1.4066813E1,1.1191218E0,2.1435459E0,1.222787E0,2.3160612E1,1.0618114E0],"tree_param":{"num_deleted":"0","num_feature":"16915","num_nodes":"39","size_leaf_vector":"0"}},{"base_weights":[1.4640888E-2,-4.652698E-3,1.1598374E0,-2.2647802E-2,1.2120076E0,1.3642725E0,-6.51174E-2,-4.5139074E-2,9.8572034E-1,1.4370606E0,9.86284E-2,1.552612E0,2.1473698E-1,-6.735467E-2,1.0381595E0,1.0630456E0,-1.2629873E-1,6.6043526E-1,1.6484767E0,3.071588E-1,-1.6290988E-1,-8.6051494E-2,1.2596552E0,1.2650684E0,1.5850861E-3,1.116958E0,1.1809843E-1,-1.0189667E-1,1.2159548E0,-1.0446147E-1,1.2399765E0,1.4250315E0,4.426877E-3,1.3239508E0,3.0925837E-1,-5.372462E-1,6.943781E-1],"categories":[],"categories_nodes":[],"categories_segments":[],"categories_sizes":[],"default_left":[true,true,true,true,true,true,false,true,true,true,true,false,false,true,true,true,false,true,false,false,false,true,true,true,true,false,false,false,false,false,false,false,false,false,false,false,false],"id":11,"left_children":[1,3,5,7,9,11,-1,13,15,17,19,-1,-1,21,23,25,-1,27,-1,-1,-1,29,31,33,35,-1,-1,-1,-1,-1,-1,-1,-1,-1,-1,-1,-1],"loss_changes":[1.8184694E1,1.7764698E1,3.5036297E0,1.8172625E1,2.8215485E0,2.2064667E0,0E0,1.8909733E1,1.6376019E0,5.1444626E-1,2.1704903E-1,0E0,0E0,1.9164211E1,3.7124481E0,7.062664E-1,0E0,1.7152404E0,0E0,0E0,0E0,1.8641453E1,2.2220955E0,3.1965828E-1,1.8055391E0,0E0,0E0,0E0,0E0,0E0,0E0,0E0,0E0,0E0,0E0,0E0,0E0],"parents":[2147483647,0,0,1,1,2,2,3,3,4,4,5,5,7,7,8,8,9,9,10,10,13,13,14,14,15,15,17,17,21,21,22,22,23,23,24,24],"right_children":[2,4,6,8,10,12,-1,14,16,18,20,-1,-1,22,24,26,-1,28,-1,-1,-1,30,32,34,36,-1,-1,-1,-1,-1,-1,-1,-1,-1,-1,-1,-1],"split_conditions":[2.8578994E-1,2.6794428E-1,2.0934749E-1,4.5454547E-2,3.826055E-1,1.6961989E-1,-1.953522E-2,3.4553283E-1,3.4042567E-1,5.2784447E-2,2.7547525E-2,4.657836E-1,6.4421095E-2,2.7086782E-1,5.7486653E-2,3.2457078E-1,-3.788962E-2,3.4557566E-1,4.9454305E-1,9.214764E-2,-4.8872966E-2,1.07639045E-1,7.0683375E-2,2.7654428E-2,9.72556E-2,3.3508742E-1,3.542953E-2,-3.0569004E-2,3.6478645E-1,-3.1338442E-2,3.7199298E-1,4.275095E-1,1.3280632E-3,3.9718524E-1,9.277751E-2,-1.6117388E-1,2.0831344E-1],"split_indices":[6992,10429,15587,2,8279,3389,0,6093,4593,5765,1862,0,0,2560,515,9925,0,14033,0,0,0,6944,1862,1377,5765,0,0,0,0,0,0,0,0,0,0,0,0],"split_type":[0,0,0,0,0,0,0,0,0,0,0,0,0,0,0,0,0,0,0,0,0,0,0,0,0,0,0,0,0,0,0,0,0,0,0,0,0],"sum_hessian":[8.2178076E2,8.091447E2,1.263605E1,7.9831854E2,1.0826203E1,1.0731342E1,1.9047078E0,7.818352E2,1.6483307E1,8.763976E0,2.0622272E0,8.919355E0,1.811987E0,7.67043E2,1.4792205E1,1.545282E1,1.0304861E0,2.7576747E0,6.0063014E0,1.0503376E0,1.0118896E0,7.573081E2,9.734893E0,1.1954828E1,2.8373764E0,1.4446563E1,1.0062574E0,1.5066683E0,1.2510064E0,7.4784656E2,9.461542E0,8.4821E0,1.2527937E0,1.0898283E1,1.056545E0,1.7223282E0,1.1150482E0],"tree_param":{"num_deleted":"0","num_feature":"16915","num_nodes":"37","size_leaf_vector":"0"}},{"base_weights":[1.6265914E-2,3.1556282E-2,-1.2500414E0,5.1121958E-2,-9.793953E-1,-1.3318282E0,-3.5476986E-1,9.004438E-2,-4.6086052E-1,-5.864708E-1,-1.2183431E0,1.1276172E-1,-8.08082E-1,-3.349209E-1,-1.2412753E0,-1.1731833E0,1.6983263E-1,1.3304864E-1,-9.312546E-1,-1.0115575E0,8.7162393E-1,-4.2680907E-1,5.700087E-1,-1.3931066E0,-1.8277055E-1,5.591008E-1,-4.4746083E-1,1.5759568E-1,-7.678888E-1,-1.234186E0,9.529324E-2,-1.1729125E0,4.2830983E-1,-4.8674363E-1,5.46189E-1,1.3427138E0,-3.4116504E-1],"categories":[],"categories_nodes":[],"categories_segments":[],"categories_sizes":[],"default_left":[true,true,true,true,true,false,false,true,true,true,false,true,true,true,true,false,true,true,true,true,false,true,true,false,false,false,false,false,false,false,false,false,false,false,false,false,false],"id":12,"left_children":[1,3,5,7,9,-1,-1,11,13,15,-1,17,19,21,23,-1,25,27,29,31,-1,33,35,-1,-1,-1,-1,-1,-1,-1,-1,-1,-1,-1,-1,-1,-1],"loss_changes":[1.5739557E1,1.5916766E1,2.3766422E-1,1.5742077E1,7.2006035E-1,0E0,0E0,1.5047621E1,5.071398E0,3.6187708E0,0E0,1.5285416E1,7.104453E0,4.3543935E0,9.327326E-1,0E0,1.2690462E0,1.5669776E1,4.399686E0,4.3828754E0,0E0,2.9166183E0,3.968354E0,0E0,0E0,0E0,0E0,0E0,0E0,0E0,0E0,0E0,0E0,0E0,0E0,0E0,0E0],"parents":[2147483647,0,0,1,1,2,2,3,3,4,4,7,7,8,8,9,9,11,11,12,12,13,13,14,14,16,16,17,17,18,18,19,19,21,21,22,22],"right_children":[2,4,6,8,10,-1,-1,12,14,16,-1,18,20,22,24,-1,26,28,30,32,-1,34,36,-1,-1,-1,-1,-1,-1,-1,-1,-1,-1,-1,-1,-1,-1],"split_conditions":[4.0071547E-1,4.2297542E-2,8.860519E-2,5.6395054E-2,2.5110725E-1,-3.995485E-1,-1.0643096E-1,3.4089777E-1,2.9172918E-1,1.4484599E-1,-3.6550295E-1,1.04280174E-1,1.4508146E-1,1.4318502E-1,3.1888807E-1,-3.51955E-1,2.0757927E-1,2.637433E-2,7.686468E-2,2.154411E-1,2.614872E-1,2.4074496E-1,4.751462E-1,-4.17932E-1,-5.4831166E-2,1.6773024E-1,-1.3423826E-1,4.7278706E-2,-2.3036665E-1,-3.7025583E-1,2.8587973E-2,-3.5187376E-1,1.2849295E-1,-1.460231E-1,1.6385671E-1,4.0281418E-1,-1.0234951E-1],"split_indices":[15522,1856,14197,1529,1856,0,0,12307,2026,1856,0,10887,8690,8842,3389,0,1856,2388,1862,6558,0,14183,8842,0,0,0,0,0,0,0,0,0,0,0,0,0,0],"split_type":[0,0,0,0,0,0,0,0,0,0,0,0,0,0,0,0,0,0,0,0,0,0,0,0,0,0,0,0,0,0,0,0,0,0,0,0,0],"sum_hessian":[8.0985956E2,8.0116077E2,8.698752E0,7.8688116E2,1.4279647E1,7.523797E0,1.1749558E0,7.320525E2,5.482867E1,6.7062755E0,7.573371E0,7.148455E2,1.720696E1,4.84407E1,6.38797E0,3.4661531E0,3.2401223E0,7.020756E2,1.2769896E1,1.5702567E1,1.5043936E0,4.445501E1,3.9856892E0,5.3101745E0,1.0777956E0,2.044881E0,1.1952411E0,6.842573E2,1.7818274E1,9.704002E0,3.0658932E0,1.4286941E1,1.415627E0,4.2346317E1,2.108693E0,1.9004427E0,2.0852466E0],"tree_param":{"num_deleted":"0","num_feature":"16915","num_nodes":"37","size_leaf_vector":"0"}},{"base_weights":[7.5771203E-3,-9.600685E-3,1.1000652E0,-2.2077149E-2,1.5371356E0,-4.2308014E-2,9.483937E-1,1.9142058E0,1.6567321E-1,-6.760983E-2,7.1272814E-1,1.2004049E0,-3.2773393E-1,-3.9482463E-2,-7.831032E-1,8.786934E-1,-4.0290314E-1,1.3683501E0,-1.0356537E-1,-7.797957E-1,3.703231E-1,-5.2996717E-2,1.4486539E0,-8.6598665E-1,6.0760766E-1,9.6729326E-1,-2.4725136E-1,3.2636926E-1,-8.00323E-1,1.4800076E0,2.0598525E-1],"categories":[],"categories_nodes":[],"categories_segments":[],"categories_sizes":[],"default_left":[true,true,false,true,true,true,true,false,false,true,true,true,true,true,true,true,true,true,false,false,false,false,false,false,false,false,false,false,false,false,false],"id":13,"left_children":[1,3,-1,5,7,9,11,-1,-1,13,15,17,19,21,23,25,27,29,-1,-1,-1,-1,-1,-1,-1,-1,-1,-1,-1,-1,-1],"loss_changes":[1.5084255E1,1.5313522E1,0E0,1.5480452E1,2.9665823E0,1.478345E1,5.571848E0,0E0,0E0,1.5007055E1,5.0007563E0,3.1334476E0,1.3746367E0,1.4557125E1,3.7779503E0,2.4498863E0,1.4018346E0,1.2750092E0,0E0,0E0,0E0,0E0,0E0,0E0,0E0,0E0,0E0,0E0,0E0,0E0,0E0],"parents":[2147483647,0,0,1,1,3,3,4,4,5,5,6,6,9,9,10,10,11,11,12,12,13,13,14,14,15,15,16,16,17,17],"right_children":[2,4,-1,6,8,10,12,-1,-1,14,16,18,20,22,24,26,28,30,-1,-1,-1,-1,-1,-1,-1,-1,-1,-1,-1,-1,-1],"split_conditions":[1.25E-1,4.871301E-1,3.300196E-1,2.2606389E-1,3.7745798E-1,9.229866E-2,2.1842483E-1,5.742618E-1,4.9701966E-2,2.7826473E-1,1.5684512E-1,2.6862246E-1,1.2704556E-1,2.3707703E-1,4.3987405E-1,3.6623532E-1,1.7152156E-1,1.1611684E-1,-3.1069612E-2,-2.3393872E-1,1.1109693E-1,-1.5899016E-2,4.345962E-1,-2.59796E-1,1.822823E-1,2.9018798E-1,-7.417541E-2,9.7910784E-2,-2.4009691E-1,4.440023E-1,6.1795577E-2],"split_indices":[3,9026,0,13601,11484,3811,3389,0,0,9055,6394,13002,4523,5128,4570,4523,8279,16339,0,0,0,0,0,0,0,0,0,0,0,0,0],"split_type":[0,0,0,0,0,0,0,0,0,0,0,0,0,0,0,0,0,0,0,0,0,0,0,0,0,0,0,0,0,0,0],"sum_hessian":[8.0222144E2,7.9077875E2,1.1442647E1,7.8542896E2,5.3497915E0,7.703268E2,1.5102171E1,3.8857124E0,1.4640793E0,7.462305E2,2.409628E1,1.2661167E1,2.4410045E0,7.190197E2,2.721081E1,2.1160715E1,2.9355633E0,1.11727915E1,1.4883752E0,1.4104818E0,1.0305227E0,7.135045E2,5.51518E0,2.6036404E1,1.1744068E0,1.9747688E1,1.413028E0,1.0985268E0,1.8370364E0,9.944265E0,1.2285256E0],"tree_param":{"num_deleted":"0","num_feature":"16915","num_nodes":"31","size_leaf_vector":"0"}},{"base_weights":[8.616823E-3,-1.4583248E-3,1.7590593E0,-2.1938212E-2,8.422477E-1,-4.076836E-2,9.9093515E-1,9.672348E-1,-6.300066E-1,2.6749823E-2,-3.6369383E-1,1.2301613E0,2.2222945E-1,1.0948989E0,-5.244215E-1,1.6678126E-3,1.0048482E0,-4.3385622E-1,8.8214016E-1,1.3285233E0,1.6110122E-1,-3.6023185E-1,6.9284725E-1,1.2111136E0,-2.4480349E-1,-1.9928658E-2,1.0379434E0,1.2363265E0,-4.6309692E-1,-4.8192647E-1,1.1159484E0,1.0505655E0,4.5461267E-2,1.3514197E0,2.7831173E-1],"categories":[],"categories_nodes":[],"categories_segments":[],"categories_sizes":[],"default_left":[true,true,false,true,true,true,true,true,false,true,true,true,true,true,false,true,true,true,true,false,false,false,false,true,false,false,false,false,false,false,false,false,false,false,false],"id":14,"left_children":[1,3,-1,5,7,9,11,13,-1,15,17,19,21,23,-1,25,27,29,31,-1,-1,-1,-1,33,-1,-1,-1,-1,-1,-1,-1,-1,-1,-1,-1],"loss_changes":[1.3965065E1,1.3637344E1,0E0,1.4735234E1,4.0511217E0,1.6522894E1,2.3198586E0,3.9323902E0,0E0,1.5388425E1,1.1836832E1,8.937082E-1,1.5015978E0,2.8760529E0,0E0,1.3731672E1,5.901636E0,9.829523E0,9.8319054E-1,0E0,0E0,0E0,0E0,1.6412258E0,0E0,0E0,0E0,0E0,0E0,0E0,0E0,0E0,0E0,0E0,0E0],"parents":[2147483647,0,0,1,1,3,3,4,4,5,5,6,6,7,7,9,9,10,10,11,11,12,12,13,13,15,15,16,16,17,17,18,18,23,23],"right_children":[2,4,-1,6,8,10,12,14,-1,16,18,20,22,24,-1,26,28,30,32,-1,-1,-1,-1,34,-1,-1,-1,-1,-1,-1,-1,-1,-1,-1,-1],"split_conditions":[3.113435E-1,2.8003015E-2,5.277178E-1,3.5069385E-1,2.4890342E-1,2.0193735E-1,3.2348385E-1,1.5286365E-1,-1.8900199E-1,1.4665276E-1,7.24008E-2,7.3696196E-1,2.5160054E-2,1.8758826E-1,-1.5732646E-1,7.052846E-2,2.0880772E-1,1.5113562E-1,1.5E-1,3.98557E-1,4.833037E-2,-1.0806956E-1,2.0785418E-1,6.7994766E-2,-7.344105E-2,-5.978598E-3,3.11383E-1,3.7089795E-1,-1.3892908E-1,-1.4457795E-1,3.3478454E-1,3.1516966E-1,1.3638381E-2,4.0542594E-1,8.349352E-2],"split_indices":[10759,15038,0,9982,14127,15826,8279,3758,0,10468,1757,9982,1862,15043,0,5103,4593,6992,16707,0,0,0,0,1862,0,0,0,0,0,0,0,0,0,0,0],"split_type":[0,0,0,0,0,0,0,0,0,0,0,0,0,0,0,0,0,0,0,0,0,0,0,0,0,0,0,0,0,0,0,0,0,0,0],"sum_hessian":[7.907059E2,7.8717426E2,3.5316284E0,7.6947034E2,1.7703913E1,7.563686E2,1.3101762E1,1.6634731E1,1.0691813E0,6.2633075E2,1.3003786E2,9.534319E0,3.5674434E0,1.55682955E1,1.066436E0,6.116476E2,1.4683167E1,1.23721886E2,6.3159657E0,8.508745E0,1.0255737E0,1.6991016E0,1.8683419E0,1.441392E1,1.1543758E0,6.001215E2,1.1526046E1,1.28194685E1,1.8636991E0,1.2066817E2,3.0537217E0,5.044799E0,1.2711667E0,1.2139238E1,2.2746823E0],"tree_param":{"num_deleted":"0","num_feature":"16915","num_nodes":"35","size_leaf_vector":"0"}},{"base_weights":[1.0093795E-2,2.2923362E-2,-1.3539616E0,8.385638E-3,1.1769189E0,-8.326751E-4,1.8133453E0,1.260092E0,2.3391661E-1,-1.2932571E-2,1.3404238E0,-3.4355104E-2,7.736895E-1,1.4921435E0,2.934546E-1,6.1173674E-2,-2.3745516E-1,8.76125E-1,-5.5219956E-2],"categories":[],"categories_nodes":[],"categories_segments":[],"categories_sizes":[],"default_left":[true,true,false,true,true,true,false,false,false,true,true,true,true,false,false,false,false,false,false],"id":15,"left_children":[1,3,-1,5,7,9,-1,-1,-1,11,13,15,17,-1,-1,-1,-1,-1,-1],"loss_changes":[1.3734286E1,1.3020738E1,0E0,1.2781073E1,4.625864E-1,1.2435169E1,0E0,0E0,0E0,1.2822039E1,6.5031147E-1,1.4374581E1,1.7612638E0,0E0,0E0,0E0,0E0,0E0,0E0],"parents":[2147483647,0,0,1,1,3,3,4,4,5,5,9,9,10,10,11,11,12,12],"right_children":[2,4,-1,6,8,10,-1,-1,-1,12,14,16,18,-1,-1,-1,-1,-1,-1],"split_conditions":[2.5E-1,9.627229E-2,-4.061885E-1,4.1255903E-1,1.02248676E-1,1.1327977E-1,5.440036E-1,3.7802762E-1,7.0174985E-2,1.5470695E-1,3.3446112E-1,1.2915397E-1,8.941527E-2,4.4764307E-1,8.803638E-2,1.8352102E-2,-7.123655E-2,2.628375E-1,-1.6565988E-2],"split_indices":[32,12501,0,244,15786,14467,0,0,0,3762,5765,5765,515,0,0,0,0,0,0],"split_type":[0,0,0,0,0,0,0,0,0,0,0,0,0,0,0,0,0,0,0],"sum_hessian":[7.8203217E2,7.7571936E2,6.3128014E0,7.6706335E2,8.655991E0,7.6416016E2,2.90319E0,7.6454067E0,1.0105836E0,7.583096E2,5.8505907E0,7.3913654E2,1.9173008E1,4.738689E0,1.1119016E0,5.0316843E2,2.3596812E2,1.7013538E1,2.1594696E0],"tree_param":{"num_deleted":"0","num_feature":"16915","num_nodes":"19","size_leaf_vector":"0"}},{"base_weights":[9.267531E-3,-2.1979115E-3,1.3814363E0,-1.6037289E-2,1.154891E0,-3.632361E-2,7.590382E-1,1.279366E0,2.2280104E-1,-2.0264182E-2,-1.0845813E0,1.0830135E0,-3.603206E-1,-3.5522275E-2,1.0326048E0,-1.1939517E0,-5.5657856E-2,1.3064677E0,-3.519733E-1,-6.012876E-1,3.0720845E-1,-4.842662E-2,1.2079325E0,-1.290426E0,-1.7185055E-1,1.470783E0,-1.6198665E-1,-5.1490664E-2,-9.138192E-1],"categories":[],"categories_nodes":[],"categories_segments":[],"categories_sizes":[],"default_left":[true,true,false,true,true,true,true,false,false,true,true,true,true,true,false,true,false,true,false,true,false,false,false,false,false,false,false,false,false],"id":16,"left_children":[1,3,-1,5,7,9,11,-1,-1,13,15,17,19,21,-1,23,-1,25,-1,27,-1,-1,-1,-1,-1,-1,-1,-1,-1],"loss_changes":[1.2224772E1,1.2371351E1,0E0,1.2028878E1,7.743597E-1,1.2515654E1,7.466734E0,0E0,0E0,1.18369465E1,1.196023E0,5.3925095E0,1.0099643E0,1.1692098E1,0E0,7.733574E-1,0E0,3.5011349E0,0E0,6.5878654E-1,0E0,0E0,0E0,0E0,0E0,0E0,0E0,0E0,0E0],"parents":[2147483647,0,0,1,1,3,3,4,4,5,5,6,6,9,9,10,10,11,11,12,12,13,13,15,15,17,17,19,19],"right_children":[2,4,-1,6,8,10,12,-1,-1,14,16,18,20,22,-1,24,-1,26,-1,28,-1,-1,-1,-1,-1,-1,-1,-1,-1],"split_conditions":[1.18911944E-1,9.7273946E-2,4.1443092E-1,7.1193255E-2,3.375836E-1,4.4573796E-1,5.1470123E-2,3.8380983E-1,6.684031E-2,2.5E-1,3.4574547E-1,2.959423E-1,1.720593E-1,4.1863942E-1,3.0978146E-1,1.6902813E-1,-1.6697358E-2,2.0384425E-1,-1.0559199E-1,1.6614947E-1,9.2162535E-2,-1.4527987E-2,3.6237976E-1,-3.8712782E-1,-5.1555168E-2,4.4123492E-1,-4.8596E-2,-1.54472E-2,-2.7414578E-1],"split_indices":[13480,10778,0,8171,14624,3562,515,0,0,5,3156,3156,13980,7027,0,5362,0,13181,0,9425,0,0,0,0,0,0,0,0,0],"split_type":[0,0,0,0,0,0,0,0,0,0,0,0,0,0,0,0,0,0,0,0,0,0,0,0,0,0,0,0,0],"sum_hessian":[7.758452E2,7.704063E2,5.438893E0,7.6227527E2,8.131064E0,7.4376166E2,1.85136E1,6.8444505E0,1.2866137E0,7.33543E2,1.0218635E1,1.4383161E1,4.130439E0,7.240169E2,9.5261345E0,9.091821E0,1.1268139E0,1.2522704E1,1.8604568E0,3.1078057E0,1.022633E0,7.1753156E2,6.485357E0,8.067794E0,1.0240273E0,1.1261044E1,1.2616605E0,1.548493E0,1.5593127E0],"tree_param":{"num_deleted":"0","num_feature":"16915","num_nodes":"29","size_leaf_vector":"0"}},{"base_weights":[9.043845E-3,2.2046842E-2,-1.151196E0,5.7362456E-2,-3.9677775E-1,-7.208259E-2,1.8824525E-1,1.756888E-2,-6.6284937E-1,-8.757761E-2,1.6672671E0,1.1546854E0,5.3856406E-2,2.3208678E-1,-7.760589E-1,-7.4873024E-1,9.0428567E-1,-1.1594255E-1,8.5650826E-1,1.3240854E0,-1.1881664E0,1.8703477E-1,-1.9786853E-1,4.244989E-1,-8.692646E-1,-1.006817E0,8.292961E-2,-8.3329105E-1,1.0136906E0,-1.3680853E-1,1.1741755E0,9.8421127E-1,-1.6958521E-1,1.4358779E0,-9.017248E-1,2.1802448E-1,-1.1220406E0,-2.3505616E-1,1.3971204E0,5.637247E-1,-7.983696E-1,-9.2400295E-1,7.841036E-1],"categories":[],"categories_nodes":[],"categories_segments":[],"categories_sizes":[],"default_left":[true,true,false,true,true,true,true,true,true,true,false,true,true,true,true,true,false,true,true,true,false,true,true,true,false,false,false,true,false,false,false,false,false,false,false,false,false,false,false,false,false,false,false],"id":17,"left_children":[1,3,-1,5,7,9,11,13,15,17,-1,19,21,23,25,27,-1,29,31,33,-1,35,37,39,-1,-1,-1,41,-1,-1,-1,-1,-1,-1,-1,-1,-1,-1,-1,-1,-1,-1,-1],"loss_changes":[1.1631553E1,1.12899685E1,0E0,1.1930582E1,6.556224E0,9.696549E0,4.539955E1,4.298013E0,5.545844E0,9.530426E0,0E0,1.851318E1,1.0374205E1,4.5671654E0,1.1493149E0,6.0374565E0,0E0,9.38846E0,1.528615E0,1.1317032E1,0E0,8.446363E0,6.6854362E0,3.4357064E0,0E0,0E0,0E0,5.683092E0,0E0,0E0,0E0,0E0,0E0,0E0,0E0,0E0,0E0,0E0,0E0,0E0,0E0,0E0,0E0],"parents":[2147483647,0,0,1,1,3,3,4,4,5,5,6,6,7,7,8,8,9,9,11,11,12,12,13,13,14,14,15,15,17,17,18,18,19,19,21,21,22,22,23,23,27,27],"right_children":[2,4,-1,6,8,10,12,14,16,18,-1,20,22,24,26,28,-1,30,32,34,-1,36,38,40,-1,-1,-1,42,-1,-1,-1,-1,-1,-1,-1,-1,-1,-1,-1,-1,-1,-1,-1],"split_conditions":[1.2467417E-1,2.4346057E-1,-3.4535882E-1,3.890921E-2,5.4698326E-2,3.0768532E-1,4.693567E-2,2.3876062E-1,2.7438048E-1,2.8003015E-2,5.001801E-1,1.1703249E-1,1.2881179E-1,3.5877794E-1,2.1428573E-1,1.9653216E-1,2.712857E-1,1.4461088E-1,2.220538E-1,4.573887E-1,-3.5644993E-1,2.5E-1,2.6238286E-1,1.081488E-1,-2.6077938E-1,-3.020451E-1,2.4878884E-2,1.3581352E-1,3.041072E-1,-4.104256E-2,3.5225266E-1,2.9526338E-1,-5.0875567E-2,4.307634E-1,-2.7051747E-1,6.540734E-2,-3.366122E-1,-7.0516855E-2,4.1913614E-1,1.6911742E-1,-2.3951088E-1,-2.772009E-1,2.3523109E-1],"split_indices":[6044,9110,0,1862,1862,1525,1862,14243,6093,15038,0,11096,5765,3156,16861,11702,0,8002,10488,11296,0,32,11810,1529,0,0,0,9982,0,0,0,0,0,0,0,0,0,0,0,0,0,0,0],"split_type":[0,0,0,0,0,0,0,0,0,0,0,0,0,0,0,0,0,0,0,0,0,0,0,0,0,0,0,0,0,0,0,0,0,0,0,0,0,0,0,0,0,0,0],"sum_hessian":[7.6830365E2,7.6075867E2,7.5449476E0,7.023952E2,5.836347E1,3.533631E2,3.490321E2,2.3187748E1,3.517572E1,3.511842E2,2.1788812E0,4.1682884E1,3.0734924E2,1.8810755E1,4.376992E0,3.38433E1,1.332423E0,3.417923E2,9.391916E0,3.927775E1,2.4051392E0,2.0117302E2,1.06176216E2,1.6536333E1,2.2744224E0,3.314493E0,1.0624992E0,3.2796898E1,1.0464029E0,3.3723196E2,4.5603313E0,8.388712E0,1.0032043E0,3.7737267E1,1.5404783E0,1.9733496E2,3.8380554E0,1.04590294E2,1.5859247E0,1.5329999E1,1.206334E0,3.1461103E1,1.3357936E0],"tree_param":{"num_deleted":"0","num_feature":"16915","num_nodes":"43","size_leaf_vector":"0"}},{"base_weights":[7.3725157E-3,-8.314689E-3,9.729619E-1,-1.8221507E-2,1.5175157E0,1.0115453E0,2.799192E-1,-3.1831317E-2,1.1162353E0,-4.7263417E-2,8.6765915E-1,-6.142229E-2,9.672921E-1,1.0242027E0,-4.456613E-1,-7.562845E-2,9.9490774E-1,1.1082468E0,-3.9080765E-2,1.1876915E0,-3.7061576E-2],"categories":[],"categories_nodes":[],"categories_segments":[],"categories_sizes":[],"default_left":[true,true,true,true,false,false,false,true,false,true,true,true,true,true,false,false,false,false,false,false,false],"id":18,"left_children":[1,3,5,7,-1,-1,-1,9,-1,11,13,15,17,19,-1,-1,-1,-1,-1,-1,-1],"loss_changes":[1.1465105E1,1.1293221E1,4.040718E-2,1.1483311E1,0E0,0E0,0E0,1.0224567E1,0E0,1.043387E1,3.0111113E0,1.0777895E1,1.4618263E0,2.0229645E0,0E0,0E0,0E0,0E0,0E0,0E0,0E0],"parents":[2147483647,0,0,1,1,2,2,3,3,7,7,9,9,10,10,11,11,12,12,13,13],"right_children":[2,4,6,8,-1,-1,-1,10,-1,12,14,16,18,20,-1,-1,-1,-1,-1,-1,-1],"split_conditions":[2.1818657E-1,2.7070367E-1,3.4741217E-1,1.818847E-1,4.552547E-1,3.034636E-1,8.397576E-2,3.4553283E-1,3.3487058E-1,2.685687E-1,1.8493138E-1,2.6794428E-1,7.0683375E-2,6.241298E-2,-1.336984E-1,-2.2688536E-2,2.9847234E-1,3.3247405E-1,-1.172423E-2,3.5630745E-1,-1.11184735E-2],"split_indices":[6136,9751,2683,8690,0,0,0,6093,0,2560,7950,10429,1862,515,0,0,0,0,0,0,0],"split_type":[0,0,0,0,0,0,0,0,0,0,0,0,0,0,0,0,0,0,0,0,0],"sum_hessian":[7.553686E2,7.442684E2,1.110018E1,7.404489E2,3.819484E0,1.0079459E1,1.0207204E0,7.3263165E2,7.817268E0,7.2120575E2,1.1425902E1,7.122058E2,8.9999E0,1.0405718E1,1.0201848E0,7.0367084E2,8.534988E0,7.805426E0,1.1944733E0,8.913462E0,1.4922563E0],"tree_param":{"num_deleted":"0","num_feature":"16915","num_nodes":"21","size_leaf_vector":"0"}},{"base_weights":[9.25257E-3,2.1784898E-2,-1.1084125E0,3.7958626E-2,-7.903576E-1,5.908366E-2,-6.2051296E-1,-9.2891455E-1,3.545848E-1,7.577278E-2,-7.871104E-1,-7.4515384E-1,2.2277285E-1,-1.1598796E0,-2.8953075E-1,5.137546E-2,1.0181419E0,-1.0060246E0,6.3221234E-1,-8.2774305E-1,1.8610404E-1,7.294494E-1,-4.1626132E-1,5.930363E-1,-8.2328135E-1,6.2239032E-2,-1.2111013E0,1.399509E0,-4.25287E-1,-1.3230909E0,-4.5414346E-1,-9.6370333E-1,2.1988992E-1],"categories":[],"categories_nodes":[],"categories_segments":[],"categories_sizes":[],"default_left":[true,true,false,true,true,true,true,true,false,true,true,true,true,false,true,true,true,true,false,true,false,false,false,false,false,false,false,false,false,false,false,false,false],"id":19,"left_children":[1,3,-1,5,7,9,11,13,-1,15,17,19,21,-1,23,25,27,29,-1,31,-1,-1,-1,-1,-1,-1,-1,-1,-1,-1,-1,-1,-1],"loss_changes":[1.0499902E1,9.757857E0,0E0,1.015049E1,2.6306887E0,1.0021329E1,2.5506802E0,1.6159668E0,0E0,1.5872821E1,4.9023314E0,1.6920166E0,1.498854E0,0E0,2.7682176E0,9.349915E0,1.0188242E1,1.548255E0,0E0,2.854269E0,0E0,0E0,0E0,0E0,0E0,0E0,0E0,0E0,0E0,0E0,0E0,0E0,0E0],"parents":[2147483647,0,0,1,1,3,3,4,4,5,5,6,6,7,7,9,9,10,10,11,11,12,12,14,14,15,15,16,16,17,17,19,19],"right_children":[2,4,-1,6,8,10,12,14,-1,16,18,20,22,-1,24,26,28,30,-1,32,-1,-1,-1,-1,-1,-1,-1,-1,-1,-1,-1,-1,-1],"split_conditions":[3.1306988E-1,3.4753972E-1,-3.3252376E-1,1.009404E-1,6.4163756E-1,3.47328E-1,5.8521464E-2,3.75E-1,1.0637545E-1,9.970642E-2,5.3664553E-1,5.727275E-1,4.7363803E-1,-3.4796387E-1,2.296742E-1,4.7898477E-1,2.8961915E-1,6.618643E-2,1.8966371E-1,2.587595E-1,5.5831216E-2,2.1883483E-1,-1.248784E-1,1.779109E-1,-2.469844E-1,1.867171E-2,-3.633304E-1,4.198527E-1,-1.2758611E-1,-3.969273E-1,-1.3624305E-1,-2.8911102E-1,6.596698E-2],"split_indices":[7913,515,0,2892,515,349,6394,16620,0,2324,291,2895,2892,0,1862,7618,2470,515,0,8842,0,0,0,0,0,0,0,0,0,0,0,0,0],"split_type":[0,0,0,0,0,0,0,0,0,0,0,0,0,0,0,0,0,0,0,0,0,0,0,0,0,0,0,0,0,0,0,0,0],"sum_hessian":[7.468972E2,7.395848E2,7.3124228E0,7.2607825E2,1.3506509E1,7.043903E2,2.1687923E1,1.2216759E1,1.2897497E0,6.916595E2,1.2730847E1,1.899653E1,2.6913927E0,8.376759E0,3.8399997E0,6.7523267E2,1.6426815E1,1.1281933E1,1.4489145E0,1.7551151E1,1.4453791E0,1.422241E0,1.2691517E0,1.4052755E0,2.4347243E0,6.704145E2,4.8181944E0,1.3017817E1,3.4089985E0,6.277797E0,5.004135E0,1.5605948E1,1.9452031E0],"tree_param":{"num_deleted":"0","num_feature":"16915","num_nodes":"33","size_leaf_vector":"0"}},{"base_weights":[3.684108E-3,-1.2760977E-2,8.12915E-1,-2.9012308E-2,8.642098E-1,9.8012525E-1,-1.6373919E-1,-4.4502765E-2,8.482151E-1,9.786958E-1,-2.6565242E-1,1.0684094E0,1.802203E-2,-5.720606E-2,1.017135E0,9.417295E-1,-9.671285E-2,1.0645416E0,2.0227408E-2,1.1608317E0,1.9105655E-1,-6.894019E-2,1.0858092E0,1.2675611E0,-3.04167E-1,1.0034474E0,1.5648511E-1,1.1605397E0,3.7249628E-1,-5.3836305E-2,-1.0756887E0,1.3750923E0,-5.9927102E-2,1.4564074E0,4.2015085E-1],"categories":[],"categories_nodes":[],"categories_segments":[],"categories_sizes":[],"default_left":[true,true,true,true,true,true,false,true,true,true,false,true,false,true,true,true,false,true,false,false,false,true,true,true,false,false,false,false,false,false,false,false,false,false,false],"id":20,"left_children":[1,3,5,7,9,11,-1,13,15,17,-1,19,-1,21,23,25,-1,27,-1,-1,-1,29,31,33,-1,-1,-1,-1,-1,-1,-1,-1,-1,-1,-1],"loss_changes":[9.886205E0,1.04048815E1,2.5767746E0,9.767565E0,1.978241E0,1.0659447E0,0E0,9.559968E0,1.1933641E0,9.884367E-1,0E0,7.257414E-1,0E0,9.425459E0,3.1597328E0,3.9759827E-1,0E0,3.1485462E-1,0E0,0E0,0E0,1.0449653E1,2.450244E0,5.469847E-1,0E0,0E0,0E0,0E0,0E0,0E0,0E0,0E0,0E0,0E0,0E0],"parents":[2147483647,0,0,1,1,2,2,3,3,4,4,5,5,7,7,8,8,9,9,11,11,13,13,14,14,15,15,17,17,21,21,22,22,23,23],"right_children":[2,4,6,8,10,12,-1,14,16,18,-1,20,-1,22,24,26,-1,28,-1,-1,-1,30,32,34,-1,-1,-1,-1,-1,-1,-1,-1,-1,-1,-1],"split_conditions":[8.936817E-2,8.700069E-2,2.9756182E-1,4.5454547E-2,2.3247308E-1,1.6971879E-1,-4.912176E-2,5.539967E-2,2.3617262E-1,5.331106E-1,-7.969573E-2,9.724926E-2,5.4066093E-3,4.88124E-1,1.4497785E-1,3.1319487E-1,-2.9013855E-2,3.3633226E-1,6.0682227E-3,3.4824952E-1,5.7316966E-2,1.2425705E-1,1.7771962E-1,3.170855E-1,-9.125011E-2,3.0103424E-1,4.6945535E-2,3.4816194E-1,1.1174889E-1,-1.6150892E-2,-3.2270664E-1,4.125277E-1,-1.7978132E-2,4.3692225E-1,1.2604526E-1],"split_indices":[4962,11717,14033,2,2026,4963,0,16097,4593,3724,0,515,0,14210,11335,3156,0,8279,0,0,0,15522,3156,5765,0,0,0,0,0,0,0,0,0,0,0],"split_type":[0,0,0,0,0,0,0,0,0,0,0,0,0,0,0,0,0,0,0,0,0,0,0,0,0,0,0,0,0,0,0,0,0,0,0],"sum_hessian":[7.411045E2,7.273084E2,1.3796037E1,7.150251E2,1.2283362E1,1.1776297E1,2.0197408E0,7.035507E2,1.1474333E1,1.1274716E1,1.0086457E0,1.0685302E1,1.0909944E0,6.961667E2,7.3840437E0,1.0444119E1,1.0302132E0,1.0246328E1,1.0283883E0,9.374649E0,1.3106533E0,6.9002264E2,6.1440487E0,6.241724E0,1.1423198E0,9.425429E0,1.0186899E0,8.403634E0,1.8426948E0,6.808614E2,9.161243E0,4.745653E0,1.3983958E0,4.516549E0,1.7251747E0],"tree_param":{"num_deleted":"0","num_feature":"16915","num_nodes":"35","size_leaf_vector":"0"}},{"base_weights":[5.8478243E-3,-3.5217502E-3,1.3361459E0,-1.4844703E-2,1.0516579E0,4.2142513E-1,1.6085564E0,-2.5078628E-2,1.1724397E0,1.3102118E0,-1.8153262E-1,5.211465E-3,-4.4678494E-1,1.3812612E0,1.5524527E-1,1.4710295E0,3.3834997E-1,-2.1207556E-2,5.7394403E-1,-5.1816666E-1,1.262957E0,-4.6410605E-2,5.995895E-1,6.8838686E-1,-1.003887E0,-6.0676825E-1,6.6730547E-1],"categories":[],"categories_nodes":[],"categories_segments":[],"categories_sizes":[],"default_left":[true,true,true,true,true,false,false,true,true,true,false,true,true,false,false,false,false,true,true,true,false,false,false,false,false,false,false],"id":21,"left_children":[1,3,5,7,9,-1,-1,11,13,15,-1,17,19,-1,-1,-1,-1,21,23,25,-1,-1,-1,-1,-1,-1,-1],"loss_changes":[9.144032E0,8.726809E0,6.0062027E-1,8.806411E0,2.7104292E0,0E0,0E0,9.162974E0,1.1012745E0,5.23242E-1,0E0,1.0080478E1,6.521244E0,0E0,0E0,0E0,0E0,1.0061696E1,6.068679E0,5.326173E0,0E0,0E0,0E0,0E0,0E0,0E0,0E0],"parents":[2147483647,0,0,1,1,2,2,3,3,4,4,7,7,8,8,9,9,11,11,12,12,17,17,18,18,19,19],"right_children":[2,4,6,8,10,-1,-1,12,14,16,-1,18,20,-1,-1,-1,-1,22,24,26,-1,-1,-1,-1,-1,-1,-1],"split_conditions":[3.570056E-1,1.7143147E-1,5.398485E-2,4.0841198E-1,4.1028747E-1,1.2642755E-1,4.8256692E-1,1.6722915E-1,1.8274173E-1,1.5931389E-1,-5.4459788E-2,7.4714586E-2,1.4671604E-1,4.1437837E-1,4.6573583E-2,4.413089E-1,1.01505E-1,2.2249144E-2,3.073412E-1,1.9029307E-1,3.7888712E-1,-1.3923182E-2,1.7987686E-1,2.0651607E-1,-3.0116612E-1,-1.8203048E-1,2.0019165E-1],"split_indices":[9222,2886,5765,7824,3952,0,0,10488,15826,11484,0,314,15716,0,0,0,0,7658,1155,6065,0,0,0,0,0,0,0],"split_type":[0,0,0,0,0,0,0,0,0,0,0,0,0,0,0,0,0,0,0,0,0,0,0,0,0,0,0],"sum_hessian":[7.3223865E2,7.281078E2,4.1308665E0,7.21353E2,6.754784E0,1.532372E0,2.5984945E0,7.161589E2,5.194131E0,5.532392E0,1.2223923E0,6.6908765E2,4.7071224E1,4.012488E0,1.1816431E0,4.3062067E0,1.2261852E0,6.403066E2,2.8781097E1,4.5853764E1,1.2174623E0,6.162148E2,2.4091778E1,2.736032E1,1.4207785E0,4.3119217E1,2.7345455E0],"tree_param":{"num_deleted":"0","num_feature":"16915","num_nodes":"27","size_leaf_vector":"0"}},{"base_weights":[7.0990114E-3,-1.5170921E-3,1.389428E0,-1.2600106E-2,1.0523835E0,-2.8287394E-2,7.4554616E-1,1.1532505E0,2.6081413E-1,-3.9962165E-2,1.0102875E0,9.511394E-1,-3.0476412E-1,-1.5362524E-2,-5.853635E-1,1.163765E0,-1.8167289E-2,1.1123409E0,-4.5046676E-2,2.3227924E-1,-6.742127E-1,-2.9431535E-2,9.0708387E-1,-6.6701347E-1,8.846828E-1,1.2001268E0,2.201226E-1],"categories":[],"categories_nodes":[],"categories_segments":[],"categories_sizes":[],"default_left":[true,true,false,true,true,true,true,false,false,true,true,true,true,true,true,false,false,true,false,false,false,false,false,false,false,false,false],"id":22,"left_children":[1,3,-1,5,7,9,11,-1,-1,13,15,17,19,21,23,-1,-1,25,-1,-1,-1,-1,-1,-1,-1,-1,-1],"loss_changes":[8.6774235E0,8.480091E0,0E0,8.564254E0,3.024645E-1,8.58521E0,3.442216E0,0E0,0E0,9.353829E0,1.2636747E0,2.0496273E0,7.810261E-1,8.705794E0,4.20181E0,0E0,0E0,5.782814E-1,0E0,0E0,0E0,0E0,0E0,0E0,0E0,0E0,0E0],"parents":[2147483647,0,0,1,1,3,3,4,4,5,5,6,6,9,9,10,10,11,11,12,12,13,13,14,14,17,17],"right_children":[2,4,-1,6,8,10,12,-1,-1,14,16,18,20,22,24,-1,-1,26,-1,-1,-1,-1,-1,-1,-1,-1,-1],"split_conditions":[4.3237302E-1,3.2133767E-1,4.1682842E-1,1.0267973E-1,1.5E-1,1.07639045E-1,2.1842483E-1,3.4597516E-1,7.824424E-2,3.209746E-1,2.3050676E-1,2.6862246E-1,3.5610735E-1,3.267699E-2,3.1713173E-1,3.491295E-1,-5.450187E-3,1.1611684E-1,-1.3514004E-2,6.9683775E-2,-2.0226382E-1,-8.8294605E-3,2.7212518E-1,-2.0010404E-1,2.6540485E-1,3.6003804E-1,6.603678E-2],"split_indices":[3466,12501,0,13601,16779,6944,3389,0,0,13002,9110,13002,14586,1089,9005,0,0,16339,0,0,0,0,0,0,0,0,0],"split_type":[0,0,0,0,0,0,0,0,0,0,0,0,0,0,0,0,0,0,0,0,0,0,0,0,0,0,0],"sum_hessian":[7.2738837E2,7.238753E2,3.5130367E0,7.173199E2,6.5554247E0,7.0372144E2,1.359846E1,5.4092293E0,1.1461952E0,6.9684955E2,6.871866E0,1.1451336E1,2.147124E0,6.677593E2,2.9090277E1,5.8650517E0,1.0068146E0,9.756028E0,1.695308E0,1.0263977E0,1.1207262E0,6.586813E2,9.0780115E0,2.807707E1,1.0132064E0,8.567922E0,1.1881063E0],"tree_param":{"num_deleted":"0","num_feature":"16915","num_nodes":"27","size_leaf_vector":"0"}},{"base_weights":[8.129701E-3,1.7557723E-2,-1.2075629E0,1.0335989E-2,1.5596658E0,2.6011812E-2,-7.2601336E-1,1.5963748E-2,1.2729461E0,-1.0764514E0,7.3438354E-2,8.9902745E-4,7.8699106E-1,1.4385803E0,2.9832977E-1,-6.1753505E-1,-1.3410387E0,5.0942934E-1,-5.142019E-1,1.3134675E-2,-1.093592E0,9.515588E-1,-5.9607303E-1,-7.8167194E-1,4.878389E-2,6.431516E-1,1.1671808E-1],"categories":[],"categories_nodes":[],"categories_segments":[],"categories_sizes":[],"default_left":[true,true,false,true,false,true,true,true,true,true,true,true,true,false,false,true,false,true,false,false,false,false,false,false,false,false,false],"id":23,"left_children":[1,3,-1,5,-1,7,9,11,13,15,17,19,21,-1,-1,23,-1,25,-1,-1,-1,-1,-1,-1,-1,-1,-1],"loss_changes":[8.299592E0,7.97669E0,0E0,8.276221E0,0E0,8.767907E0,4.2663455E0,8.093089E0,4.739113E-1,4.4135094E-1,1.6688007E0,9.1806345E0,3.6063967E0,0E0,0E0,6.5901065E-1,0E0,1.1685258E-1,0E0,0E0,0E0,0E0,0E0,0E0,0E0,0E0,0E0],"parents":[2147483647,0,0,1,1,3,3,5,5,6,6,7,7,8,8,9,9,10,10,11,11,12,12,15,15,17,17],"right_children":[2,4,-1,6,-1,8,10,12,14,16,18,20,22,-1,-1,24,-1,26,-1,-1,-1,-1,-1,-1,-1,-1,-1],"split_conditions":[5.5257237E-1,4.9643528E-1,-3.622689E-1,4.7618034E-1,4.6789977E-1,5.7589844E-2,6.2713087E-1,2.884652E-1,5.7707902E-2,6.3408285E-2,7.98548E-1,2.5E-1,1.3296372E-1,4.315741E-1,8.949894E-2,5.8896307E-2,-4.0231162E-1,8.337449E-2,-1.5426058E-1,3.9404025E-3,-3.280776E-1,2.8546765E-1,-1.7882192E-1,-2.3450159E-1,1.4635168E-2,1.9294548E-1,3.5015427E-2],"split_indices":[12664,4735,0,3389,0,10670,3389,14678,1862,1862,3389,26,15522,0,0,515,0,1862,0,0,0,0,0,0,0,0,0],"split_type":[0,0,0,0,0,0,0,0,0,0,0,0,0,0,0,0,0,0,0,0,0,0,0,0,0,0,0],"sum_hessian":[7.212731E2,7.1670044E2,4.572647E0,7.1436176E2,2.3386734E0,7.004156E2,1.3946168E1,6.958213E2,4.5942736E0,9.4550705E0,4.4910975E0,6.834685E2,1.2352787E1,3.5200076E0,1.074266E0,4.676983E0,4.7780876E0,2.6546283E0,1.836469E0,6.768894E2,6.5791526E0,1.1318068E1,1.0347196E0,3.613689E0,1.0632937E0,1.5045815E0,1.150047E0],"tree_param":{"num_deleted":"0","num_feature":"16915","num_nodes":"27","size_leaf_vector":"0"}},{"base_weights":[5.024643E-3,-2.2709502E-3,1.5185423E0,-1.291973E-2,1.0331256E0,-2.7815463E-2,7.5363773E-1,-4.086107E-2,8.7714225E-1,9.8989516E-1,1.3850554E-2,-2.5413362E-2,-8.200276E-1,1.0754797E0,-1.1217044E-1,1.1615767E0,-1.6545631E-1,-5.107795E-1,6.972105E-1,-3.5196126E-2,1.2463766E0,-9.577174E-1,3.332446E-1,1.2412014E0,9.363487E-2,1.2756784E0,1.6100593E-1],"categories":[],"categories_nodes":[],"categories_segments":[],"categories_sizes":[],"default_left":[true,true,false,true,false,true,true,true,true,true,true,true,true,true,false,true,false,false,false,false,false,false,false,false,false,false,false],"id":24,"left_children":[1,3,-1,5,-1,7,9,11,13,15,17,19,21,23,-1,25,-1,-1,-1,-1,-1,-1,-1,-1,-1,-1,-1],"loss_changes":[7.9446692E0,7.915816E0,0E0,8.1328745E0,0E0,8.274404E0,2.3593445E0,8.270794E0,2.0752559E0,2.2305975E0,1.8979602E0,8.460914E0,2.4406815E0,1.2493258E0,0E0,8.303127E-1,0E0,0E0,0E0,0E0,0E0,0E0,0E0,0E0,0E0,0E0,0E0],"parents":[2147483647,0,0,1,1,3,3,5,5,6,6,7,7,8,8,9,9,10,10,11,11,12,12,13,13,15,15],"right_children":[2,4,-1,6,-1,8,10,12,14,16,18,20,22,24,-1,26,-1,-1,-1,-1,-1,-1,-1,-1,-1,-1,-1],"split_conditions":[1.8173143E-1,2.5E-1,4.555627E-1,2.1338117E-1,3.0993772E-1,2.8578994E-1,6.547654E-2,3.7868816E-1,2.0934749E-1,2.8420272E-1,2.931298E-1,1.1707695E-1,5.7835296E-2,1.6961989E-1,-3.3651136E-2,2.075159E-1,-4.9636897E-2,-1.5323386E-1,2.0916316E-1,-1.0558838E-2,3.73913E-1,-2.8731525E-1,9.997338E-2,3.7236044E-1,2.8090464E-2,3.8270354E-1,4.8301782E-2],"split_indices":[1800,4,0,15171,0,6992,1862,9130,15587,4593,8279,11948,1757,3389,0,9110,0,0,0,0,0,0,0,0,0,0,0],"split_type":[0,0,0,0,0,0,0,0,0,0,0,0,0,0,0,0,0,0,0,0,0,0,0,0,0,0,0],"sum_hessian":[7.1818256E2,7.15731E2,2.4515314E0,7.094223E2,6.308698E0,6.96845E2,1.2577367E1,6.878835E2,8.961479E0,9.276694E0,3.300673E0,6.755232E2,1.2360265E1,7.39236E0,1.5691186E0,8.071854E0,1.2048398E0,2.0100565E0,1.2906166E0,6.7133154E2,4.191639E0,1.1193439E1,1.1668259E0,6.0988135E0,1.2935469E0,6.998786E0,1.0730681E0],"tree_param":{"num_deleted":"0","num_feature":"16915","num_nodes":"27","size_leaf_vector":"0"}},{"base_weights":[6.537622E-3,-3.9409776E-3,1.039962E0,-1.394136E-2,1.0854287E0,1.3624185E0,7.564073E-2,-2.3810433E-2,1.0845681E0,1.2276416E0,2.16382E-1,-3.101719E-2,1.4906893E0,1.3454359E0,1.4048763E-1,-4.3382436E-2,8.619303E-1,-5.529939E-2,8.955593E-1,1.0188309E0,-7.2665274E-2],"categories":[],"categories_nodes":[],"categories_segments":[],"categories_sizes":[],"default_left":[true,true,true,true,true,false,false,true,true,false,false,true,false,false,false,true,true,false,false,false,false],"id":25,"left_children":[1,3,5,7,9,-1,-1,11,13,-1,-1,15,-1,-1,-1,17,19,-1,-1,-1,-1],"loss_changes":[7.7347546E0,7.7251716E0,2.1264024E0,7.6393766E0,5.315733E-1,0E0,0E0,7.653737E0,1.3562884E0,0E0,0E0,7.707701E0,0E0,0E0,0E0,7.726998E0,1.4724107E0,0E0,0E0,0E0,0E0],"parents":[2147483647,0,0,1,1,2,2,3,3,4,4,7,7,8,8,11,11,15,15,16,16],"right_children":[2,4,6,8,10,-1,-1,12,14,-1,-1,16,-1,-1,-1,18,20,-1,-1,-1,-1],"split_conditions":[1.0032081E-1,9.3420394E-2,2.6622206E-1,4.871301E-1,2.8960037E-1,4.087256E-1,2.269222E-2,4.424581E-1,3.7745798E-1,3.6829248E-1,6.49146E-2,2.685687E-1,4.472068E-1,4.0363076E-1,4.2146288E-2,2.1818657E-1,5.6127593E-2,-1.6589819E-2,2.6866782E-1,3.0564928E-1,-2.1799583E-2],"split_indices":[9784,3124,5765,9026,5765,0,0,5743,11484,0,0,2560,0,0,0,6136,515,0,0,0,0],"split_type":[0,0,0,0,0,0,0,0,0,0,0,0,0,0,0,0,0,0,0,0,0],"sum_hessian":[7.128951E2,7.0672534E2,6.1697865E0,7.0127484E2,5.4504805E0,4.314311E0,1.8554754E0,6.9600024E2,5.274583E0,4.32938E0,1.1211002E0,6.936789E2,2.3213558E0,3.7995617E0,1.4750208E0,6.851427E2,8.536217E0,6.774852E2,7.6574697E0,7.231977E0,1.3042393E0],"tree_param":{"num_deleted":"0","num_feature":"16915","num_nodes":"21","size_leaf_vector":"0"}},{"base_weights":[8.770065E-3,-8.3637494E-4,1.0919048E0,-7.9908045E-3,1.4675725E0,1.2091975E0,2.7885622E-1,6.2116263E-3,-8.441219E-1,1.9857517E-2,-7.6643384E-1,-9.910646E-1,1.6194396E-1,3.4330692E-2,-6.996533E-1,-9.357285E-1,2.2543792E-1,-1.0929662E0,-1.161423E-1,4.397769E-2,-1.1175432E0,-8.8504535E-1,6.2688583E-1,-1.069315E0,7.117085E-2],"categories":[],"categories_nodes":[],"categories_segments":[],"categories_sizes":[],"default_left":[true,true,true,true,false,false,false,true,true,true,true,true,false,true,true,true,false,false,false,false,false,false,false,false,false],"id":26,"left_children":[1,3,5,7,-1,-1,-1,9,11,13,15,17,-1,19,21,23,-1,-1,-1,-1,-1,-1,-1,-1,-1],"loss_changes":[7.372714E0,7.3998365E0,2.568469E-1,8.327752E0,0E0,0E0,0E0,7.2915025E0,1.8920517E0,7.0961313E0,2.2263408E0,7.967653E-1,0E0,7.457424E0,3.8596625E0,1.4812365E0,0E0,0E0,0E0,0E0,0E0,0E0,0E0,0E0,0E0],"parents":[2147483647,0,0,1,1,2,2,3,3,7,7,8,8,9,9,10,10,11,11,13,13,14,14,15,15],"right_children":[2,4,6,8,-1,-1,-1,10,12,14,16,18,-1,20,22,24,-1,-1,-1,-1,-1,-1,-1,-1,-1],"split_conditions":[2.736631E-1,1.6291289E-1,6.470729E-2,1.401139E-1,4.4027176E-1,3.6275926E-1,8.365687E-2,1.6431679E-1,9.95705E-2,1.9002873E-1,5.267201E-1,4.2784208E-1,4.858319E-2,1.18591E-1,1.3627024E-1,2.216348E-1,6.763138E-2,-3.2788986E-1,-3.4842692E-2,1.3193307E-2,-3.3526298E-1,-2.6551363E-1,1.8806575E-1,-3.207945E-1,2.1351255E-2],"split_indices":[10778,2456,5362,1201,0,0,0,3189,1862,1446,4593,2324,0,10838,515,8842,0,0,0,0,0,0,0,0,0],"split_type":[0,0,0,0,0,0,0,0,0,0,0,0,0,0,0,0,0,0,0,0,0,0,0,0,0],"sum_hessian":[7.074816E2,7.022525E2,5.229127E0,6.998373E2,2.4152122E0,4.1440544E0,1.0850724E0,6.8912445E2,1.0712822E1,6.7812225E2,1.10021925E1,9.360559E0,1.3522625E0,6.6568414E2,1.2438148E1,9.446456E0,1.5557368E0,8.160855E0,1.1997042E0,6.6110913E2,4.574999E0,1.1204997E1,1.233151E0,8.2852545E0,1.1612015E0],"tree_param":{"num_deleted":"0","num_feature":"16915","num_nodes":"25","size_leaf_vector":"0"}},{"base_weights":[5.2763135E-3,-5.9678094E-3,9.194867E-1,8.1695E-3,-7.528902E-1,1.0686862E0,-8.977123E-2,1.8844487E-2,-9.4631904E-1,-8.195662E-1,-3.9484194E-3,1.2435609E0,7.842661E-3,2.8031876E-2,-1.082975E0,-9.234065E-1,-1.330137E-1,6.633626E-2,-2.4573606E-1,9.6893504E-2,-4.6389458E-1,-3.0435237E-1,8.9656454E-1],"categories":[],"categories_nodes":[],"categories_segments":[],"categories_sizes":[],"default_left":[true,true,true,true,true,true,false,true,false,true,false,false,false,true,false,false,false,true,true,false,false,false,false],"id":27,"left_children":[1,3,5,7,9,11,-1,13,-1,15,-1,-1,-1,17,-1,-1,-1,19,21,-1,-1,-1,-1],"loss_changes":[7.2426405E0,7.3605857E0,1.3849688E0,6.9926047E0,6.433592E-1,1.3881712E0,0E0,6.893024E0,0E0,7.244787E-1,0E0,0E0,0E0,7.0769434E0,0E0,0E0,0E0,9.627877E0,5.8206735E0,0E0,0E0,0E0,0E0],"parents":[2147483647,0,0,1,1,2,2,3,3,4,4,5,5,7,7,9,9,13,13,17,17,18,18],"right_children":[2,4,6,8,10,12,-1,14,-1,16,-1,-1,-1,18,-1,-1,-1,20,22,-1,-1,-1,-1],"split_conditions":[3.0836007E-1,4.2297542E-2,3.1516883E-1,3.3072758E-1,3.3467978E-1,7.545322E-1,-2.6931372E-2,2.7857435E-1,-2.8389573E-1,1.5103447E-1,-1.1845259E-3,3.7306827E-1,2.3527984E-3,3.4744626E-1,-3.2489252E-1,-2.7702194E-1,-3.990411E-2,1.6632941E-1,7.740545E-2,2.9068053E-2,-1.3916838E-1,-9.130572E-2,2.689694E-1],"split_indices":[3112,1856,8842,13938,8279,3112,0,1757,0,515,0,0,0,8279,0,0,0,6394,2531,0,0,0,0],"split_type":[0,0,0,0,0,0,0,0,0,0,0,0,0,0,0,0,0,0,0,0,0,0,0],"sum_hessian":[7.0303784E2,6.954774E2,7.560395E0,6.8352905E2,1.1948375E1,6.5353804E0,1.0250143E0,6.769385E2,6.5906134E0,1.0885017E1,1.0633577E0,5.4626517E0,1.0727285E0,6.7230707E2,4.6313934E0,9.155298E0,1.7297189E0,5.904514E2,8.185563E1,5.5905054E2,3.1400867E1,7.8558044E1,3.2975867E0],"tree_param":{"num_deleted":"0","num_feature":"16915","num_nodes":"23","size_leaf_vector":"0"}},{"base_weights":[2.6823971E-3,-1.403892E-2,6.0323364E-1,-2.1630838E-3,-9.2318434E-1,7.171617E-1,-5.99892E-1,-1.44949285E-2,9.885951E-1,-1.0464119E0,-6.1137876E-3,8.560142E-1,-3.4824398E-1,6.2950714E-3,-5.380898E-1,1.2299032E0,-1.8920377E-1,-1.1511407E0,-1.9648309E-1,9.570381E-1,-3.2730514E-1,1.7385459E-2,-1.031468E0,-7.132202E-1,6.921017E-1,1.3476114E0,3.3534938E-1,-1.252509E0,-3.0072737E-1,1.0637599E0,-1.4818203E-1,2.586129E-2,-1.2194669E0,-1.1462021E0,-3.0345085E-1,-7.9957104E-1,4.6822393E-1,4.425777E-2,1.1901777E0,1.4763447E0,3.6995044E-1,1.1476611E0,3.3141452E-1],"categories":[],"categories_nodes":[],"categories_segments":[],"categories_sizes":[],"default_left":[true,true,true,true,true,true,false,true,true,true,false,true,false,true,true,true,false,true,false,true,false,true,true,true,true,true,false,false,false,true,false,false,false,false,false,false,false,false,false,false,false,false,false],"id":28,"left_children":[1,3,5,7,9,11,-1,13,15,17,-1,19,-1,21,23,25,-1,27,-1,29,-1,31,33,35,37,39,-1,-1,-1,41,-1,-1,-1,-1,-1,-1,-1,-1,-1,-1,-1,-1,-1],"loss_changes":[7.0450096E0,7.369088E0,3.0351372E0,8.260243E0,9.881444E-1,2.9336805E0,0E0,7.270506E0,2.5949745E0,4.6386433E-1,0E0,2.2320213E0,0E0,7.419347E0,5.988929E0,2.8848553E-1,0E0,2.0056534E-1,0E0,1.9319906E0,0E0,6.712269E0,2.215519E-1,2.7025204E0,1.136762E0,1.9420719E-1,0E0,0E0,0E0,4.7008896E-1,0E0,0E0,0E0,0E0,0E0,0E0,0E0,0E0,0E0,0E0,0E0,0E0,0E0],"parents":[2147483647,0,0,1,1,2,2,3,3,4,4,5,5,7,7,8,8,9,9,11,11,13,13,14,14,15,15,17,17,19,19,21,21,22,22,23,23,24,24,25,25,29,29],"right_children":[2,4,6,8,10,12,-1,14,16,18,-1,20,-1,22,24,26,-1,28,-1,30,-1,32,34,36,38,40,-1,-1,-1,42,-1,-1,-1,-1,-1,-1,-1,-1,-1,-1,-1,-1,-1],"split_conditions":[2.4874805E-1,1.5498652E-1,1.7977774E-1,1.1523085E-1,1.3166492E-1,1.1128122E-1,-1.7996761E-1,3.951599E-1,1.8502718E-1,3.75E-1,-1.8341363E-3,3.912744E-1,-1.04473196E-1,2.5472137E-1,1.9203341E-1,9.441072E-2,-5.6761134E-2,1.4690779E-1,-5.894493E-2,2.0976424E-1,-9.8191544E-2,5.20118E-1,1.1891224E-1,7.1766496E-2,1.0803194E-1,5.6830548E-2,1.0060482E-1,-3.7575272E-1,-9.0218216E-2,2.8392643E-1,-4.445461E-2,7.758387E-3,-3.6584008E-1,-3.4386063E-1,-9.103526E-2,-2.3987132E-1,1.4046718E-1,1.3277332E-2,3.570533E-1,4.4290343E-1,1.1098514E-1,3.4429833E-1,9.942436E-2],"split_indices":[3811,12324,4465,14461,10372,10377,0,3156,4593,16876,0,7247,0,2627,5362,11409,0,9425,0,15736,0,9352,4782,1239,5765,15139,0,0,0,12359,0,0,0,0,0,0,0,0,0,0,0,0,0],"split_type":[0,0,0,0,0,0,0,0,0,0,0,0,0,0,0,0,0,0,0,0,0,0,0,0,0,0,0,0,0,0,0,0,0,0,0,0,0,0,0,0,0,0,0],"sum_hessian":[6.997106E2,6.8170624E2,1.8004316E1,6.7390564E2,7.8006053E0,1.6815882E1,1.1884354E0,6.66594E2,7.3116426E0,6.7522607E0,1.0483447E0,1.5050864E1,1.7650169E0,6.420871E2,2.4506907E1,6.031638E0,1.2800043E0,5.695999E0,1.0562618E0,1.4043178E1,1.0076869E0,6.362706E2,5.8164616E0,2.1820738E1,2.6861694E0,4.8826957E0,1.1489426E0,4.6668878E0,1.0291114E0,1.2840765E1,1.2024119E0,6.3291254E2,3.3580956E0,4.5283813E0,1.2880802E0,2.0635714E1,1.1850232E0,1.6408215E0,1.0453478E0,3.8638468E0,1.018849E0,1.1012065E1,1.8287002E0],"tree_param":{"num_deleted":"0","num_feature":"16915","num_nodes":"43","size_leaf_vector":"0"}},{"base_weights":[1.3351833E-3,-1.1070807E-2,8.0308604E-1,-2.040024E-2,1.0649363E0,1.0597618E0,-4.639179E-2,-3.0357905E-2,9.798806E-1,1.1553046E0,3.3401978E-1,1.1325948E0,3.384443E-1,4.6404612E-1,-4.6599436E-1,-1.5174658E-2,-8.0083495E-1,1.0697433E0,2.3821272E-1,-4.6881925E-2,3.1930745E-1,-9.7784114E-1,5.0955766E-1,3.0896908E-1,1.2222289E0,-5.566632E-2,1.3081752E0,4.314526E-1,-8.9544034E-1,-1.0186522E0,-2.8170827E-1],"categories":[],"categories_nodes":[],"categories_segments":[],"categories_sizes":[],"default_left":[true,true,true,true,true,true,true,true,true,false,false,false,false,false,false,true,true,true,false,true,true,true,false,false,false,false,false,false,false,false,false],"id":29,"left_children":[1,3,5,7,9,11,13,15,17,-1,-1,-1,-1,-1,-1,19,21,23,-1,25,27,29,-1,-1,-1,-1,-1,-1,-1,-1,-1],"loss_changes":[6.9250646E0,6.905425E0,2.3623595E0,6.810971E0,4.6844482E-3,4.690647E-2,9.487026E-1,7.885091E0,1.9442749E-1,0E0,0E0,0E0,0E0,0E0,0E0,7.0469213E0,3.5197992E0,2.865944E-1,0E0,7.2922983E0,8.224809E0,4.881859E-2,0E0,0E0,0E0,0E0,0E0,0E0,0E0,0E0,0E0],"parents":[2147483647,0,0,1,1,2,2,3,3,4,4,5,5,6,6,7,7,8,8,15,15,16,16,17,17,19,19,20,20,21,21],"right_children":[2,4,6,8,10,12,14,16,18,-1,-1,-1,-1,-1,-1,20,22,24,-1,26,28,30,-1,-1,-1,-1,-1,-1,-1,-1,-1],"split_conditions":[3.4553283E-1,2.3707703E-1,1.269412E-1,4.1863942E-1,6.7263514E-2,6.53518E-2,5.9979655E-2,8.8362716E-2,6.898937E-2,3.4659138E-1,1.00205936E-1,3.3977845E-1,1.0153329E-1,1.3921385E-1,-1.3979831E-1,1.6870055E-2,1.3627024E-1,6.428243E-1,7.1463816E-2,2.7070367E-1,2.7857435E-1,1.0457097E-1,1.528673E-1,9.269073E-2,3.6666867E-1,-1.6699897E-2,3.9245257E-1,1.294358E-1,-2.686321E-1,-3.0559567E-1,-8.451249E-2],"split_indices":[6093,5128,4782,7027,9110,4465,1862,1446,515,0,0,0,0,0,0,1757,515,7027,0,9751,1757,15826,0,0,0,0,0,0,0,0,0],"split_type":[0,0,0,0,0,0,0,0,0,0,0,0,0,0,0,0,0,0,0,0,0,0,0,0,0,0,0,0,0,0,0],"sum_hessian":[6.943365E2,6.847275E2,9.609023E0,6.798143E2,4.9132338E0,7.189208E0,2.4198153E0,6.740736E2,5.7406635E0,3.85588E0,1.0573539E0,6.0119896E0,1.1772184E0,1.0439515E0,1.3758638E0,6.620468E2,1.20267935E1,4.7257314E0,1.0149323E0,6.055075E2,5.6539307E1,1.0819138E1,1.2076553E0,1.294331E0,3.4314003E0,6.025602E2,2.9472835E0,5.235109E1,4.1882157E0,9.782342E0,1.0367957E0],"tree_param":{"num_deleted":"0","num_feature":"16915","num_nodes":"31","size_leaf_vector":"0"}},{"base_weights":[3.056448E-3,-6.85977E-3,9.526096E-1,-1.5746096E-2,1.0484561E0,-2.9362075E-2,6.857953E-1,-3.682636E-2,1.261035E0,8.189382E-1,-3.9123616E-1,-5.914305E-2,3.9910778E-1,9.998561E-1,-1.02561556E-1,-7.122537E-2,8.0892223E-1,5.4214287E-1,-9.5600736E-1,1.0966222E0,1.2873402E-1],"categories":[],"categories_nodes":[],"categories_segments":[],"categories_sizes":[],"default_left":[true,true,false,true,false,true,true,true,false,true,false,true,true,true,false,false,false,false,false,false,false],"id":30,"left_children":[1,3,-1,5,-1,7,9,11,-1,13,-1,15,17,19,-1,-1,-1,-1,-1,-1,-1],"loss_changes":[6.492201E0,6.4184875E0,0E0,6.4960566E0,0E0,6.4613194E0,2.177229E0,6.475084E0,0E0,2.0776906E0,0E0,6.683259E0,6.8030157E0,7.014513E-1,0E0,0E0,0E0,0E0,0E0,0E0,0E0],"parents":[2147483647,0,0,1,1,3,3,5,5,6,6,7,7,9,9,11,11,12,12,13,13],"right_children":[2,4,-1,6,-1,8,10,12,-1,14,-1,16,18,20,-1,-1,-1,-1,-1,-1,-1],"split_conditions":[2.5E-1,2.8627217E-1,2.857829E-1,2.7813858E-1,3.1453684E-1,4.1255903E-1,1.8891138E-1,2.6024628E-1,3.783105E-1,5.0994515E-1,-1.1737085E-1,2.6627192E-1,2.4385417E-1,3.7851116E-1,-3.0768467E-2,-2.1367611E-2,2.4267668E-1,1.6264287E-1,-2.8680223E-1,3.2898667E-1,3.8620207E-2],"split_indices":[5,8002,0,9982,0,244,15286,14624,0,10002,0,15716,7618,12359,0,0,0,0,0,0,0],"split_type":[0,0,0,0,0,0,0,0,0,0,0,0,0,0,0,0,0,0,0,0,0],"sum_hessian":[6.8779376E2,6.816679E2,6.125907E0,6.7695264E2,4.715226E0,6.6500397E2,1.19486885E1,6.6214526E2,2.8587108E0,1.0847368E1,1.1013205E0,6.307212E2,3.1424055E1,8.996128E0,1.8512402E0,6.2296826E2,7.7529407E0,2.896651E1,2.4575446E0,7.863745E0,1.1323831E0],"tree_param":{"num_deleted":"0","num_feature":"16915","num_nodes":"21","size_leaf_vector":"0"}},{"base_weights":[4.829557E-3,-1.5248662E-3,1.4344112E0,1.0486782E-2,-7.507149E-1,1.9166406E-2,-1.057472E0,-8.5883206E-1,4.5263E-2,2.7738374E-2,-1.0788653E0,-9.4019884E-1,-9.3854934E-2,3.6494937E-2,-1.0661324E0,-1.0267922E0,-1.7626385E-1,4.9068436E-2,-7.305655E-1],"categories":[],"categories_nodes":[],"categories_segments":[],"categories_sizes":[],"default_left":[true,true,false,true,true,true,false,true,false,true,false,true,false,true,false,false,false,false,false],"id":31,"left_children":[1,3,-1,5,7,9,-1,11,-1,13,-1,15,-1,17,-1,-1,-1,-1,-1],"loss_changes":[6.2038016E0,6.1331525E0,0E0,6.23923E0,9.6439505E-1,6.3030367E0,0E0,5.042238E-1,0E0,6.382715E0,0E0,3.8080645E-1,0E0,6.3820186E0,0E0,0E0,0E0,0E0,0E0],"parents":[2147483647,0,0,1,1,3,3,4,4,5,5,7,7,9,9,11,11,13,13],"right_children":[2,4,-1,6,8,10,-1,12,-1,14,-1,16,-1,18,-1,-1,-1,-1,-1],"split_conditions":[2.994288E-1,1.0625355E-1,4.3032336E-1,2.5E-1,8.194063E-2,1.1703249E-1,-3.172416E-1,8.8595465E-2,1.35789E-2,2.5E-1,-3.236596E-1,1.5873295E-1,-2.8156482E-2,4.0781128E-1,-3.1983975E-1,-3.0803767E-1,-5.287916E-2,1.4720531E-2,-2.1916966E-1],"split_indices":[8171,12734,0,32,9425,11096,0,5149,0,30,0,13980,0,349,0,0,0,0,0],"split_type":[0,0,0,0,0,0,0,0,0,0,0,0,0,0,0,0,0,0,0],"sum_hessian":[6.816839E2,6.7966174E2,2.0221314E0,6.699072E2,9.754517E0,6.654807E2,4.4265103E0,8.518491E0,1.2360262E0,6.6129297E2,4.1877556E0,7.4924965E0,1.0259942E0,6.5700024E2,4.2927275E0,6.4206247E0,1.0718718E0,6.4732544E2,9.674797E0],"tree_param":{"num_deleted":"0","num_feature":"16915","num_nodes":"19","size_leaf_vector":"0"}},{"base_weights":[1.0456499E-3,8.435319E-3,-1.2022134E0,1.7198505E-2,-1.016455E0,2.6209027E-2,-9.864535E-1,-1.1371495E0,-2.657743E-1,3.8543917E-2,-6.849522E-1,5.0338462E-2,-7.5850266E-1,-9.790524E-1,1.3521567E-1,6.3157596E-2,-7.5091565E-1,-8.6861634E-1,8.657811E-2,-1.067606E0,-1.7609248E-1,-2.836649E-1,6.409737E-1],"categories":[],"categories_nodes":[],"categories_segments":[],"categories_sizes":[],"default_left":[true,true,false,true,true,true,false,false,false,true,true,true,true,true,true,false,false,false,false,false,false,false,false],"id":32,"left_children":[1,3,-1,5,7,9,-1,-1,-1,11,13,15,17,19,21,-1,-1,-1,-1,-1,-1,-1,-1],"loss_changes":[6.0573263E0,6.0972505E0,0E0,6.10467E0,2.1925116E-1,5.878911E0,0E0,0E0,0E0,6.212119E0,2.8889294E0,6.7043796E0,9.7215223E-1,4.1874027E-1,1.0069733E0,0E0,0E0,0E0,0E0,0E0,0E0,0E0,0E0],"parents":[2147483647,0,0,1,1,3,3,4,4,5,5,9,9,10,10,11,11,12,12,13,13,14,14],"right_children":[2,4,-1,6,8,10,-1,-1,-1,12,14,16,18,20,22,-1,-1,-1,-1,-1,-1,-1,-1],"split_conditions":[8.919553E-2,1.0444276E-1,-3.6066404E-1,1.2467417E-1,2.1148804E-1,1.04280174E-1,-2.9593605E-1,-3.4114486E-1,-7.97323E-2,3.5265154E-1,7.686468E-2,1.360485E-1,4.463863E-1,1.8333913E-1,9.152653E-2,1.894728E-2,-2.252747E-1,-2.6058492E-1,2.5973434E-2,-3.202818E-1,-5.2827746E-2,-8.509947E-2,1.9229211E-1],"split_indices":[11912,7596,0,6044,12359,10887,0,0,0,4465,1862,1348,4523,10810,4782,0,0,0,0,0,0,0,0],"split_type":[0,0,0,0,0,0,0,0,0,0,0,0,0,0,0,0,0,0,0,0,0,0,0],"sum_hessian":[6.790943E2,6.759361E2,3.1581898E0,6.711805E2,4.7556186E0,6.6617365E2,5.0068445E0,3.6534007E0,1.1022179E0,6.557457E2,1.042792E1,6.471068E2,8.638922E0,7.5329814E0,2.8949392E0,6.3782355E2,9.283258E0,7.618397E0,1.020524E0,6.487884E0,1.0450971E0,1.8236659E0,1.0712733E0],"tree_param":{"num_deleted":"0","num_feature":"16915","num_nodes":"23","size_leaf_vector":"0"}},{"base_weights":[-2.819094E-3,-9.0323575E-3,1.3980496E0,-1.674784E-2,1.1246636E0,-2.3337837E-2,1.2642246E0,-3.184619E-2,9.847213E-1,-3.985133E-2,1.0573663E0,1.3204316E0,3.3211902E-1,-5.2862182E-2,6.498042E-1,3.2570758E-1,1.2646761E0],"categories":[],"categories_nodes":[],"categories_segments":[],"categories_sizes":[],"default_left":[true,true,false,true,false,true,false,true,true,true,true,false,false,false,false,false,false],"id":33,"left_children":[1,3,-1,5,-1,7,-1,9,11,13,15,-1,-1,-1,-1,-1,-1],"loss_changes":[5.90468E0,5.922571E0,0E0,5.696913E0,0E0,5.768565E0,0E0,5.8342085E0,7.948904E-1,5.960115E0,3.2871246E-1,0E0,0E0,0E0,0E0,0E0,0E0],"parents":[2147483647,0,0,1,1,3,3,5,5,7,7,8,8,9,9,10,10],"right_children":[2,4,-1,6,-1,8,-1,10,12,14,16,-1,-1,-1,-1,-1,-1],"split_conditions":[5E-1,1.18911944E-1,4.194149E-1,3.1129804E-1,3.373991E-1,3.7521276E-1,3.7926742E-1,3.570056E-1,5.0376013E-2,2.0307815E-1,5.398485E-2,3.961295E-1,9.963571E-2,-1.5858656E-2,1.9494127E-1,9.771228E-2,3.7940285E-1],"split_indices":[325,13480,0,1402,0,15628,0,9222,1862,5103,5765,0,0,0,0,0,0],"split_type":[0,0,0,0,0,0,0,0,0,0,0,0,0,0,0,0,0],"sum_hessian":[6.759388E2,6.739432E2,1.9955833E0,6.7036615E2,3.5770173E0,6.6791187E2,2.4543092E0,6.632819E2,4.6299114E0,6.593991E2,3.8828242E0,2.381495E0,2.2484162E0,6.480957E2,1.1303445E1,1.4249308E0,2.4578934E0],"tree_param":{"num_deleted":"0","num_feature":"16915","num_nodes":"17","size_leaf_vector":"0"}},{"base_weights":[1.8064294E-3,1.1263752E-2,-9.0587693E-1,2.2690322E-2,-7.3531073E-1,-1.2008706E0,3.1142062E-1,1.0397543E-2,7.611109E-1,-9.2668253E-1,3.8421062E-1,-1.1071092E-3,7.713316E-1,9.0134805E-1,-6.5176085E-2,-1.1134825E0,5.687232E-2,1.5469526E-2,-7.204508E-1,9.327745E-1,-2.8114343E-1,1.0434288E0,2.4448863E-1,2.986404E-2,-6.4423275E-1,-8.628419E-1,4.0620697E-1,1.0436821E0,1.3067618E-1],"categories":[],"categories_nodes":[],"categories_segments":[],"categories_sizes":[],"default_left":[true,true,true,true,true,false,false,true,true,true,false,true,true,true,false,false,false,true,true,true,false,false,false,false,false,false,false,false,false],"id":34,"left_children":[1,3,5,7,9,-1,-1,11,13,15,-1,17,19,21,-1,-1,-1,23,25,27,-1,-1,-1,-1,-1,-1,-1,-1,-1],"loss_changes":[5.7934074E0,5.713028E0,2.873025E0,5.970755E0,2.5190248E0,0E0,0E0,5.681267E0,1.3068843E0,1.7012777E0,0E0,7.6451616E0,1.9045868E0,6.1058474E-1,0E0,0E0,0E0,5.9710593E0,2.667317E0,6.2971306E-1,0E0,0E0,0E0,0E0,0E0,0E0,0E0,0E0,0E0],"parents":[2147483647,0,0,1,1,2,2,3,3,4,4,7,7,8,8,9,9,11,11,12,12,13,13,17,17,18,18,19,19],"right_children":[2,4,6,8,10,-1,-1,12,14,16,-1,18,20,22,-1,-1,-1,24,26,28,-1,-1,-1,-1,-1,-1,-1,-1,-1],"split_conditions":[2.6663047E-1,2.229259E-1,4.0469745E-1,8.936817E-2,5.452114E-1,-3.602612E-1,9.342619E-2,1.5957911E-1,3.4587008E-1,8.888573E-2,1.1526319E-1,1.0791107E-1,3.2972716E-2,3.4231517E-1,-1.9552827E-2,-3.3404475E-1,1.7061697E-2,3.374009E-1,2.154411E-1,2.8219652E-1,-8.434303E-2,3.1302863E-1,7.334659E-2,8.959212E-3,-1.9326983E-1,-2.5885257E-1,1.2186209E-1,3.1310463E-1,3.9202854E-2],"split_indices":[4296,9501,12092,4962,8873,0,0,8690,11717,1529,0,12307,1529,8279,0,0,0,2892,6558,5765,0,0,0,0,0,0,0,0,0],"split_type":[0,0,0,0,0,0,0,0,0,0,0,0,0,0,0,0,0,0,0,0,0,0,0,0,0,0,0,0,0],"sum_hessian":[6.726989E2,6.667396E2,5.959295E0,6.576438E2,9.095849E0,4.8077126E0,1.151582E0,6.478725E2,9.771309E0,7.9150887E0,1.18076E0,6.392068E2,8.665698E0,8.275887E0,1.4954221E0,6.5407486E0,1.3743399E0,6.257651E2,1.3441704E1,7.6118255E0,1.0538726E0,6.3202796E0,1.9556073E0,6.13337E2,1.2428103E1,1.214139E1,1.3003142E0,6.422575E0,1.1892503E0],"tree_param":{"num_deleted":"0","num_feature":"16915","num_nodes":"29","size_leaf_vector":"0"}},{"base_weights":[7.4442214E-4,-7.283416E-3,1.0526326E0,-1.6133387E-2,9.193029E-1,-2.5919328E-2,8.2971525E-1,1.0747805E0,1.1610884E-1,-3.3486962E-2,1.111733E0,1.074266E0,-3.0340835E-1,-4.289885E-2,8.821965E-1,1.2270305E0,3.6769426E-1,-5.7253115E-2,5.921611E-1,9.7005594E-1,2.1053287E-1],"categories":[],"categories_nodes":[],"categories_segments":[],"categories_sizes":[],"default_left":[true,true,false,true,true,true,true,false,false,true,false,true,false,true,true,false,false,false,false,false,false],"id":35,"left_children":[1,3,-1,5,7,9,11,-1,-1,13,-1,15,-1,17,19,-1,-1,-1,-1,-1,-1],"loss_changes":[5.648795E0,5.459528E0,0E0,5.4735756E0,6.618061E-1,5.6514125E0,2.421836E0,0E0,0E0,5.6291056E0,0E0,2.4407959E-1,0E0,5.8964567E0,1.8801689E-1,0E0,0E0,0E0,0E0,0E0,0E0],"parents":[2147483647,0,0,1,1,3,3,4,4,5,5,6,6,9,9,11,11,13,13,14,14],"right_children":[2,4,-1,6,8,10,12,-1,-1,14,-1,16,-1,18,20,-1,-1,-1,-1,-1,-1],"split_conditions":[4.1552132E-1,1.00467294E-1,3.157898E-1,5.539967E-2,1.7687109E-1,3.7129748E-1,1.4497785E-1,3.2243416E-1,3.4832653E-2,9.627229E-2,3.335199E-1,3.024029E-1,-9.102251E-2,1.5470695E-1,2.9743755E-1,3.6810917E-1,1.1030828E-1,-1.7175935E-2,1.7764834E-1,2.910168E-1,6.315987E-2],"split_indices":[16040,2354,0,16097,1039,9819,11335,0,0,12501,0,16097,0,3762,5765,0,0,0,0,0,0],"split_type":[0,0,0,0,0,0,0,0,0,0,0,0,0,0,0,0,0,0,0,0,0],"sum_hessian":[6.6703284E2,6.6296625E2,4.066574E0,6.5766736E2,5.298895E0,6.511039E2,6.5635085E0,4.1562243E0,1.1426705E0,6.477655E2,3.3383563E0,5.441144E0,1.1223645E0,6.421186E2,5.6468873E0,3.8682175E0,1.5729264E0,6.2881537E2,1.3303273E1,4.600804E0,1.0460835E0],"tree_param":{"num_deleted":"0","num_feature":"16915","num_nodes":"21","size_leaf_vector":"0"}},{"base_weights":[4.1806274E-3,1.2086233E-2,-1.0130732E0,-3.5635154E-3,6.588329E-1,-1.2595359E0,-1.267764E-1,-1.1798681E-2,1.00668E0,9.021543E-1,-1.0140274E0,-1.7384877E-2,1.4896399E0,1.0422355E0,-4.4441507E-3,-2.8826749E-2,7.1641976E-1,1.2540686E0,-3.4841183E-1,-4.6869975E-2,4.9433583E-1,8.181874E-1,-9.160776E-2,1.3444256E0,2.667994E-1],"categories":[],"categories_nodes":[],"categories_segments":[],"categories_sizes":[],"default_left":[true,true,true,true,true,false,false,true,false,true,false,true,false,true,false,true,true,true,false,false,false,false,false,false,false],"id":36,"left_children":[1,3,5,7,9,-1,-1,11,-1,13,-1,15,-1,17,-1,19,21,23,-1,-1,-1,-1,-1,-1,-1],"loss_changes":[5.341953E0,6.668429E0,9.592786E-1,5.3700266E0,7.2507133E0,0E0,0E0,5.3923326E0,0E0,1.7976198E0,0E0,5.381081E0,0E0,4.0406094E0,0E0,5.9663243E0,8.8417053E-1,6.077175E-1,0E0,0E0,0E0,0E0,0E0,0E0,0E0],"parents":[2147483647,0,0,1,1,2,2,3,3,4,4,7,7,9,9,11,11,13,13,15,15,16,16,17,17],"right_children":[2,4,6,8,10,-1,-1,12,-1,14,-1,16,-1,18,-1,20,22,24,-1,-1,-1,-1,-1,-1,-1],"split_conditions":[6.0484344E-1,1.64848E-1,1.1540383E-1,1.1327977E-1,3.9712948E-1,-3.7786078E-1,-3.803292E-2,9.034674E-1,3.02004E-1,4.7545868E-1,-3.0420822E-1,4.5454547E-2,4.46892E-1,6.835611E-1,-1.3332453E-3,5.896861E-2,1.875E-1,2.621247E-1,-1.04523554E-1,-1.4060993E-2,1.4830075E-1,2.4545623E-1,-2.7482329E-2,4.0332767E-1,8.003982E-2],"split_indices":[11484,9026,515,14467,1740,0,0,15132,0,3952,0,2,0,3938,0,666,16689,12781,0,0,0,0,0,0,0],"split_type":[0,0,0,0,0,0,0,0,0,0,0,0,0,0,0,0,0,0,0,0,0,0,0,0,0],"sum_hessian":[6.617336E2,6.576111E2,4.122517E0,6.4304535E2,1.4565696E1,2.8960557E0,1.2264615E0,6.388262E2,4.2191753E0,1.3118318E1,1.4473786E0,6.3744293E2,1.3832257E0,1.1233055E1,1.885262E0,6.286022E2,8.840783E0,9.833379E0,1.399677E0,6.085253E2,2.0076868E1,7.8407054E0,1.0000775E0,8.677439E0,1.1559392E0],"tree_param":{"num_deleted":"0","num_feature":"16915","num_nodes":"25","size_leaf_vector":"0"}},{"base_weights":[4.4482774E-3,-2.9310682E-3,1.0509707E0,8.374287E-3,-7.893297E-1,1.2917386E0,1.7365372E-1,1.8010018E-2,-9.171314E-1,-8.998429E-1,-8.2037814E-2,2.6819492E-2,-9.7893035E-1,-9.596403E-1,-2.4481897E-1,2.0225259E-2,1.2661458E0,-1.170937E0,-1.4981955E-1,3.024946E-2,-8.082612E-1],"categories":[],"categories_nodes":[],"categories_segments":[],"categories_sizes":[],"default_left":[true,true,true,true,true,false,false,true,false,true,false,true,true,false,false,true,false,false,false,false,false],"id":37,"left_children":[1,3,5,7,9,-1,-1,11,-1,13,-1,15,17,-1,-1,19,-1,-1,-1,-1,-1],"loss_changes":[5.0930634E0,5.834166E0,7.510891E-1,5.7880197E0,6.5313053E-1,0E0,0E0,5.6601715E0,0E0,7.6183796E-2,0E0,5.1789613E0,7.2331524E-1,0E0,0E0,5.293853E0,0E0,0E0,0E0,0E0,0E0],"parents":[2147483647,0,0,1,1,2,2,3,3,4,4,7,7,9,9,11,11,12,12,15,15],"right_children":[2,4,6,8,10,-1,-1,12,-1,14,-1,16,18,-1,-1,20,-1,-1,-1,-1,-1],"split_conditions":[1.021918E-1,4.183685E-1,6.746605E-1,2.3969613E-1,3.1007773E-1,3.875216E-1,5.2096117E-2,1.10284366E-1,-2.7513945E-1,1.4961793E-1,-2.4611345E-2,2.1137962E-1,1.2172238E-1,-2.878921E-1,-7.344569E-2,1.654242E-1,3.7984377E-1,-3.512811E-1,-4.4945866E-2,9.074838E-3,-2.4247837E-1],"split_indices":[870,9130,870,16002,4593,0,0,10705,0,4782,0,11311,14033,0,0,8022,0,0,0,0,0],"split_type":[0,0,0,0,0,0,0,0,0,0,0,0,0,0,0,0,0,0,0,0,0],"sum_hessian":[6.580979E2,6.5448016E2,3.617738E0,6.4617993E2,8.300204E0,2.4680426E0,1.1496952E0,6.404921E2,5.6878247E0,6.9431167E0,1.3570875E0,6.3584656E2,4.6455665E0,5.936156E0,1.0069605E0,6.334922E2,2.354379E0,3.437277E0,1.2082895E0,6.268709E2,6.6212816E0],"tree_param":{"num_deleted":"0","num_feature":"16915","num_nodes":"21","size_leaf_vector":"0"}},{"base_weights":[2.1272784E-3,-7.0570433E-3,8.424411E-1,6.21563E-4,-1.0317734E0,-6.554289E-3,1.0807083E0,-1.3480981E-2,1.1275616E0,3.669889E-1,1.4667548E0,-2.4354778E-2,7.19121E-1,1.2997997E0,3.164226E-1,-1.5495614E-2,-9.8841846E-1,9.367663E-1,-1.4841819E-1],"categories":[],"categories_nodes":[],"categories_segments":[],"categories_sizes":[],"default_left":[true,true,false,true,false,true,true,true,true,false,false,true,true,false,false,false,false,false,false],"id":38,"left_children":[1,3,-1,5,-1,7,9,11,13,-1,-1,15,17,-1,-1,-1,-1,-1,-1],"loss_changes":[5.076721E0,5.1223297E0,0E0,5.022283E0,0E0,5.072686E0,6.4006853E-1,5.1228743E0,1.3637352E-1,0E0,0E0,5.386522E0,1.9150424E0,0E0,0E0,0E0,0E0,0E0,0E0],"parents":[2147483647,0,0,1,1,3,3,5,5,6,6,7,7,8,8,11,11,12,12],"right_children":[2,4,-1,6,-1,8,10,12,14,-1,-1,16,18,-1,-1,-1,-1,-1,-1],"split_conditions":[2.1818657E-1,8.9804314E-2,2.5273234E-1,2.9579276E-1,-3.0953205E-1,1.5053254E-1,1.4810453E-1,3.4553283E-1,1.8384492E-1,1.1009667E-1,4.4002646E-1,1.1070355E-1,6.3161686E-2,3.8993993E-1,9.492679E-2,-4.6486845E-3,-2.9652554E-1,2.810299E-1,-4.452546E-2],"split_indices":[6136,9653,0,7303,0,5277,392,6093,16422,0,0,11705,515,0,0,0,0,0,0],"split_type":[0,0,0,0,0,0,0,0,0,0,0,0,0,0,0,0,0,0,0],"sum_hessian":[6.5603094E2,6.499192E2,6.111776E0,6.460772E2,3.8419197E0,6.4280054E2,3.2766895E0,6.3988055E2,2.920002E0,1.8349267E0,1.4417629E0,6.314745E2,8.406037E0,1.9116441E0,1.0083579E0,6.267313E2,4.7432103E0,6.6563234E0,1.7497137E0],"tree_param":{"num_deleted":"0","num_feature":"16915","num_nodes":"19","size_leaf_vector":"0"}},{"base_weights":[3.203399E-3,1.0072082E-2,-1.1008141E0,2.112819E-3,9.490444E-1,1.1173813E-2,-8.4667015E-1,1.9169684E-2,-9.407639E-1,9.101812E-3,9.062317E-1,-1.0799621E0,-2.874688E-1,3.3734974E-2,-3.2968572E-1,1.0758142E0,-2.0024458E-2],"categories":[],"categories_nodes":[],"categories_segments":[],"categories_sizes":[],"default_left":[true,true,false,true,false,true,false,true,true,true,true,false,false,false,false,false,false],"id":39,"left_children":[1,3,-1,5,-1,7,-1,9,11,13,15,-1,-1,-1,-1,-1,-1],"loss_changes":[4.9690027E0,4.861434E0,0E0,4.979943E0,0E0,4.8928533E0,0E0,5.672595E0,1.7648363E-1,5.2684407E0,1.1412339E0,0E0,0E0,0E0,0E0,0E0,0E0],"parents":[2147483647,0,0,1,1,3,3,5,5,7,7,8,8,9,9,10,10],"right_children":[2,4,-1,6,-1,8,-1,10,12,14,16,-1,-1,-1,-1,-1,-1],"split_conditions":[3.7137038E-1,1.25E-1,-3.3024424E-1,3.3072758E-1,2.8471333E-1,2.0175067E-1,-2.5400105E-1,1.5469605E-1,2.2520134E-1,1.6722915E-1,7.328285E-2,-3.2398865E-1,-8.624064E-2,1.0120492E-2,-9.890572E-2,3.2274428E-1,-6.0073375E-3],"split_indices":[1385,3,0,13938,0,7050,0,15038,15826,10488,1862,0,0,0,0,0,0],"split_type":[0,0,0,0,0,0,0,0,0,0,0,0,0,0,0,0,0],"sum_hessian":[6.5280707E2,6.497555E2,3.0515993E0,6.452879E2,4.467577E0,6.394484E2,5.8394537E0,6.350938E2,4.354655E0,6.289655E2,6.1282983E0,3.0513918E0,1.303263E0,5.871727E2,4.1792767E1,5.043457E0,1.084841E0],"tree_param":{"num_deleted":"0","num_feature":"16915","num_nodes":"17","size_leaf_vector":"0"}},{"base_weights":[1.600424E-3,-4.493777E-3,1.2297556E0,-1.0834411E-2,1.1874145E0,-1.9401947E-2,8.8482493E-1,-2.9318927E-2,8.0852365E-1,1.0336665E0,9.363439E-2,-1.8750705E-2,-9.17667E-1,1.037994E0,3.256331E-2,-2.6156122E-2,1.0779494E0,-1.0711738E0,3.164922E-2],"categories":[],"categories_nodes":[],"categories_segments":[],"categories_sizes":[],"default_left":[true,true,false,true,false,true,true,true,true,false,false,true,true,false,false,false,false,false,false],"id":40,"left_children":[1,3,-1,5,-1,7,9,11,13,-1,-1,15,17,-1,-1,-1,-1,-1,-1],"loss_changes":[4.8767333E0,4.914715E0,0E0,4.9756145E0,0E0,5.286864E0,6.267333E-1,5.9387407E0,1.323441E0,0E0,0E0,5.1282363E0,1.1177559E0,0E0,0E0,0E0,0E0,0E0,0E0],"parents":[2147483647,0,0,1,1,3,3,5,5,6,6,7,7,8,8,11,11,12,12],"right_children":[2,4,-1,6,-1,8,10,12,14,-1,-1,16,18,-1,-1,-1,-1,-1,-1],"split_conditions":[3.0768532E-1,4.9643528E-1,3.689267E-1,1.07639045E-1,3.5622436E-1,2.8578994E-1,2.2448778E-1,2.043338E-1,1.6961989E-1,3.1009996E-1,2.8090319E-2,1.215391E-1,2.9380095E-1,3.113982E-1,9.768994E-3,-7.846837E-3,3.2338482E-1,-3.2135215E-1,9.494767E-3],"split_indices":[1525,4735,0,6944,0,6992,9110,14513,3389,0,0,15546,8842,0,0,0,0,0,0],"split_type":[0,0,0,0,0,0,0,0,0,0,0,0,0,0,0,0,0,0,0],"sum_hessian":[6.498285E2,6.476113E2,2.2171564E0,6.451701E2,2.4412222E0,6.400262E2,5.1439104E0,6.334038E2,6.622389E0,4.0714955E0,1.0724144E0,6.2696625E2,6.437589E0,4.850337E0,1.772052E0,6.2373065E2,3.235563E0,5.4310164E0,1.006573E0],"tree_param":{"num_deleted":"0","num_feature":"16915","num_nodes":"19","size_leaf_vector":"0"}},{"base_weights":[3.4948708E-3,-3.2607005E-3,1.1084143E0,6.4257006E-3,-9.979272E-1,-3.6688764E-3,7.8858954E-1,-1.2132401E-2,9.0676427E-1,9.4997805E-1,-1.013236E-1,2.2033015E-2,-2.4989446E-1,1.1746222E0,1.1079044E-1,1.0600193E0,1.9693105E-1,9.010584E-3,1.1836789E0,-3.1404856E-1,7.065039E-1],"categories":[],"categories_nodes":[],"categories_segments":[],"categories_sizes":[],"default_left":[true,true,false,true,false,true,true,true,true,true,false,true,true,false,false,false,false,false,false,false,false],"id":41,"left_children":[1,3,-1,5,-1,7,9,11,13,15,-1,17,19,-1,-1,-1,-1,-1,-1,-1,-1],"loss_changes":[4.8378744E0,6.2179947E0,0E0,5.052001E0,0E0,4.8834033E0,1.2671475E0,5.10278E0,1.1144214E0,3.7110186E-1,0E0,8.302966E0,5.064175E0,0E0,0E0,0E0,0E0,0E0,0E0,0E0,0E0],"parents":[2147483647,0,0,1,1,3,3,5,5,6,6,7,7,8,8,9,9,11,11,12,12],"right_children":[2,4,-1,6,-1,8,10,12,14,16,-1,18,20,-1,-1,-1,-1,-1,-1,-1,-1],"split_conditions":[6.1357397E-1,2.5E-1,3.325243E-1,2.685687E-1,-2.9937816E-1,4.3555218E-1,2.0356268E-1,2.3019353E-1,2.603256E-1,3.4412774E-1,-3.039708E-2,5E-1,7.020986E-2,3.5238665E-1,3.3237133E-2,3.180058E-1,5.9079316E-2,2.7031754E-3,3.5510367E-1,-9.421457E-2,2.1195118E-1],"split_indices":[14678,26,0,2560,0,15845,13002,15826,4593,8279,0,14,1757,0,0,0,0,0,0,0,0],"split_type":[0,0,0,0,0,0,0,0,0,0,0,0,0,0,0,0,0,0,0,0,0],"sum_hessian":[6.466455E2,6.4370685E2,2.9386296E0,6.3848267E2,5.2242217E0,6.3133E2,7.1526127E0,6.2649274E2,4.837298E0,5.9974594E0,1.1551532E0,5.485725E2,7.792025E1,3.263405E0,1.5738927E0,4.8771334E0,1.1203258E0,5.434876E2,5.0849175E0,7.365143E1,4.268818E0],"tree_param":{"num_deleted":"0","num_feature":"16915","num_nodes":"21","size_leaf_vector":"0"}},{"base_weights":[4.4486104E-3,1.1494692E-2,-1.0354797E0,3.9600506E-3,1.1083878E0,-3.950028E-3,1.0307746E0,1.2952434E0,3.5791346E-1,-1.168526E-2,1.1001505E0,1.3297038E0,-4.1670326E-2,-2.69737E-3,-8.9063215E-1,-1.651226E-2,5.6857955E-1,-3.9602643E-1,-1.1612796E0],"categories":[],"categories_nodes":[],"categories_segments":[],"categories_sizes":[],"default_left":[true,true,false,true,true,true,true,false,false,true,false,false,false,true,true,false,false,false,false],"id":42,