{"learner":{"attributes":{"best_iteration":"299","best_ntree_limit":"300","scikit_learn":"{\"use_label_encoder\": true, \"n_estimators\": 300, \"objective\": \"binary:logistic\", \"max_depth\": null, \"learning_rate\": null, \"verbosity\": null, \"booster\": null, \"tree_method\": null, \"gamma\": null, \"min_child_weight\": null, \"max_delta_step\": null, \"subsample\": null, \"colsample_bytree\": null, \"colsample_bylevel\": null, \"colsample_bynode\": null, \"reg_alpha\": null, \"reg_lambda\": null, \"scale_pos_weight\": null, \"base_score\": null, \"missing\": NaN, \"num_parallel_tree\": null, \"random_state\": null, \"n_jobs\": null, \"monotone_constraints\": null, \"interaction_constraints\": null, \"importance_type\": null, \"gpu_id\": null, \"validate_parameters\": null, \"predictor\": null, \"enable_categorical\": false, \"classes_\": [0, 1], \"_le\": {\"classes_\": [0, 1]}, \"n_classes_\": 2, \"_estimator_type\": \"classifier\"}"},"feature_names":[],"feature_types":[],"gradient_booster":{"model":{"gbtree_model_param":{"num_trees":"300","size_leaf_vector":"0"},"tree_info":[0,0,0,0,0,0,0,0,0,0,0,0,0,0,0,0,0,0,0,0,0,0,0,0,0,0,0,0,0,0,0,0,0,0,0,0,0,0,0,0,0,0,0,0,0,0,0,0,0,0,0,0,0,0,0,0,0,0,0,0,0,0,0,0,0,0,0,0,0,0,0,0,0,0,0,0,0,0,0,0,0,0,0,0,0,0,0,0,0,0,0,0,0,0,0,0,0,0,0,0,0,0,0,0,0,0,0,0,0,0,0,0,0,0,0,0,0,0,0,0,0,0,0,0,0,0,0,0,0,0,0,0,0,0,0,0,0,0,0,0,0,0,0,0,0,0,0,0,0,0,0,0,0,0,0,0,0,0,0,0,0,0,0,0,0,0,0,0,0,0,0,0,0,0,0,0,0,0,0,0,0,0,0,0,0,0,0,0,0,0,0,0,0,0,0,0,0,0,0,0,0,0,0,0,0,0,0,0,0,0,0,0,0,0,0,0,0,0,0,0,0,0,0,0,0,0,0,0,0,0,0,0,0,0,0,0,0,0,0,0,0,0,0,0,0,0,0,0,0,0,0,0,0,0,0,0,0,0,0,0,0,0,0,0,0,0,0,0,0,0,0,0,0,0,0,0,0,0,0,0,0,0,0,0,0,0,0,0,0,0,0,0,0,0,0,0,0,0,0,0],"trees":[{"base_weights":[-9.611543E-1,-1.5256029E0,1.9862306E0,-1.743248E0,1.9555556E0,-1.8443804E0,1.8987342E0,-1.8793166E0,1.7241379E0,-1.9005848E0,1.5789474E0,-1.9148936E0,1.4285715E0],"categories":[],"categories_nodes":[],"categories_segments":[],"categories_sizes":[],"default_left":[true,true,false,true,false,true,false,true,false,true,false,false,false],"id":0,"left_children":[1,3,-1,5,-1,7,-1,9,-1,11,-1,-1,-1],"loss_changes":[1.5019766E3,5.7676587E2,0E0,2.6602393E2,0E0,8.9761475E1,0E0,5.3585693E1,0E0,3.5318848E1,0E0,0E0,0E0],"parents":[2147483647,0,0,1,1,3,3,5,5,7,7,9,9],"right_children":[2,4,-1,6,-1,8,-1,10,-1,12,-1,-1,-1],"split_conditions":[2.6492607E-2,2.5E-1,5.958692E-1,1.6666667E-1,5.866667E-1,1.09579995E-1,5.696203E-1,1.3305208E-1,5.172414E-1,1.4030914E-1,4.7368425E-1,-5.7446814E-1,4.2857146E-1],"split_indices":[5768,7,0,13,0,9486,0,9505,0,9498,0,0,0],"split_type":[0,0,0,0,0,0,0,0,0,0,0,0,0],"sum_hessian":[9E2,7.5575E2,1.4425E2,7.1175E2,4.4E1,6.93E2,1.875E1,6.8675E2,6.25E0,6.83E2,3.75E0,6.805E2,2.5E0],"tree_param":{"num_deleted":"0","num_feature":"15718","num_nodes":"13","size_leaf_vector":"0"}},{"base_weights":[-7.3548096E-1,-1.1685554E0,1.5394357E0,-1.3360893E0,1.5186083E0,-1.4145528E0,1.4802165E0,-1.4423221E0,1.3631439E0,-1.4561629E0,1.8731024E0,-1.4735368E0,1.2658515E0],"categories":[],"categories_nodes":[],"categories_segments":[],"categories_sizes":[],"default_left":[true,true,false,true,false,true,false,true,false,true,false,false,false],"id":1,"left_children":[1,3,-1,5,-1,7,-1,9,-1,11,-1,-1,-1],"loss_changes":[8.195094E2,3.161814E2,0E0,1.473645E2,0E0,5.1339355E1,0E0,3.1831787E1,0E0,3.1761719E1,0E0,0E0,0E0],"parents":[2147483647,0,0,1,1,3,3,5,5,7,7,9,9],"right_children":[2,4,-1,6,-1,8,-1,10,-1,12,-1,-1,-1],"split_conditions":[2.6492607E-2,2.5E-1,4.6183074E-1,1.6666667E-1,4.5558253E-1,1.09579995E-1,4.4406497E-1,2.454793E-1,4.089432E-1,1.3305208E-1,5.619308E-1,-4.4206107E-1,3.7975547E-1],"split_indices":[5768,7,0,13,0,9486,0,5880,0,9505,0,0,0],"split_type":[0,0,0,0,0,0,0,0,0,0,0,0,0],"sum_hessian":[8.2898755E2,6.968206E2,1.3216695E2,6.5639954E2,4.042108E1,6.3909186E2,1.7307682E1,6.3324194E2,5.849928E0,6.3116785E2,2.0741198E0,6.2762054E2,3.54727E0],"tree_param":{"num_deleted":"0","num_feature":"15718","num_nodes":"13","size_leaf_vector":"0"}},{"base_weights":[-6.23907E-1,-9.915452E-1,1.3351585E0,-1.1808527E0,8.346982E-1,-1.2117809E0,1.1798701E0,1.1304885E0,-2.6684535E-1,-1.2349726E0,1.1500131E0,1.2437437E0,-6.3574463E-1,-7.5490427E-1,1.0154E0,-1.2538444E0,1.6086875E0,1.3173229E0,-9.088376E-2,-8.94203E-1,5.9208553E-2,-1.2712274E0,1.3991752E0,1.3544093E0,1.822112E-1,-2.769128E-1,-1.0609857E0],"categories":[],"categories_nodes":[],"categories_segments":[],"categories_sizes":[],"default_left":[true,true,false,true,true,true,false,true,true,true,false,true,false,true,false,true,false,true,false,true,false,false,false,false,false,false,false],"id":2,"left_children":[1,3,-1,5,7,9,-1,11,13,15,-1,17,-1,19,-1,21,-1,23,-1,25,-1,-1,-1,-1,-1,-1,-1],"loss_changes":[5.0710843E2,2.0560736E2,0E0,4.0615295E1,1.860532E1,3.0463806E1,0E0,9.687401E0,8.714655E0,3.0221924E1,0E0,4.2573013E0,0E0,1.1612115E0,0E0,2.588269E1,0E0,1.4369736E0,0E0,5.7171965E-1,0E0,0E0,0E0,0E0,0E0,0E0,0E0],"parents":[2147483647,0,0,1,1,3,3,4,4,5,5,7,7,8,8,9,9,11,11,13,13,15,15,17,17,19,19],"right_children":[2,4,-1,6,8,10,-1,12,14,16,-1,18,-1,20,-1,22,-1,24,-1,26,-1,-1,-1,-1,-1,-1,-1],"split_conditions":[2.6492607E-2,7.557598E-2,4.0054756E-1,1.6666667E-1,3.866493E-1,1.09579995E-1,3.5396105E-1,1.3597651E-1,1.6666667E-1,2.5E-1,3.4500393E-1,1.6453406E-1,-1.907234E-1,6.144985E-1,3.0462003E-1,1.4030914E-1,4.8260626E-1,3.523503E-1,-2.726513E-2,1.6666667E-1,1.7762566E-2,-3.8136822E-1,4.1975257E-1,4.063228E-1,5.4663364E-2,-8.307385E-2,-3.1829572E-1],"split_indices":[5768,3454,0,13,3454,9486,0,3458,13,8,0,544,0,3458,0,9498,0,14682,0,1,0,0,0,0,0,0,0],"split_type":[0,0,0,0,0,0,0,0,0,0,0,0,0,0,0,0,0,0,0,0,0,0,0,0,0,0,0],"sum_hessian":[7.0125696E2,5.9086847E2,1.103885E2,5.356923E2,5.5176186E1,5.2924524E2,6.447055E0,4.3475674E1,1.1700513E1,5.2457135E2,4.673923E0,4.113389E1,2.3417842E0,8.7726555E0,2.9278574E0,5.216684E2,2.9029598E0,3.8996918E1,2.1369708E0,7.406918E0,1.3657377E0,5.1879004E2,2.878347E0,3.757604E1,1.4208808E0,2.141435E0,5.265483E0],"tree_param":{"num_deleted":"0","num_feature":"15718","num_nodes":"27","size_leaf_vector":"0"}},{"base_weights":[-5.511986E-1,-8.751952E-1,1.2188474E0,-1.0470867E0,7.118741E-1,-1.075407E0,1.056775E0,1.15776904E-1,1.1964486E0,-1.0950189E0,1.5667856E0,-3.889211E-1,1.1086107E0,-1.1132659E0,1.3596286E0,-6.456812E-1,1.5916413E0,-1.132884E0,1.1862934E0,3.968729E-1,-8.11288E-1],"categories":[],"categories_nodes":[],"categories_segments":[],"categories_sizes":[],"default_left":[true,true,false,true,true,true,false,true,false,true,false,true,false,true,false,true,false,false,false,false,false],"id":3,"left_children":[1,3,-1,5,7,9,-1,11,-1,13,-1,15,-1,17,-1,19,-1,-1,-1,-1,-1],"loss_changes":[3.3068692E2,1.334415E2,0E0,2.7310059E1,1.3763847E1,2.4202057E1,0E0,1.179992E1,0E0,2.0833252E1,0E0,9.053449E0,0E0,2.0684082E1,0E0,2.8569665E0,0E0,0E0,0E0,0E0,0E0],"parents":[2147483647,0,0,1,1,3,3,4,4,5,5,7,7,9,9,11,11,13,13,15,15],"right_children":[2,4,-1,6,8,10,-1,12,-1,14,-1,16,-1,18,-1,20,-1,-1,-1,-1,-1],"split_conditions":[2.6492607E-2,7.557598E-2,3.6565423E-1,1.6666667E-1,2.5E-1,2.1385194E-1,3.1703252E-1,1.6666667E-1,3.5893458E-1,2.5E-1,4.700357E-1,1.5422551E-1,3.3258325E-1,1.3305208E-1,4.078886E-1,1.3161111E-1,4.7749242E-1,-3.398652E-1,3.55888E-1,1.1906188E-1,-2.433864E-1],"split_indices":[5768,3454,0,13,7,5880,0,13,0,8,0,5874,0,9505,0,3454,0,0,0,0,0],"split_type":[0,0,0,0,0,0,0,0,0,0,0,0,0,0,0,0,0,0,0,0,0],"sum_hessian":[5.73763E2,4.8541602E2,8.8347015E1,4.3828653E2,4.7129486E1,4.3294742E2,5.3391113E0,2.1688452E1,2.5441034E1,4.3033875E2,2.6086593E0,1.4782284E1,6.906167E0,4.277058E2,2.6329515E0,1.3682478E1,1.0998055E0,4.2459088E2,3.1149354E0,1.6840842E0,1.1998394E1],"tree_param":{"num_deleted":"0","num_feature":"15718","num_nodes":"21","size_leaf_vector":"0"}},{"base_weights":[-4.9347028E-1,-7.834603E-1,1.1448131E0,-9.4157547E-1,6.699296E-1,-9.735556E-1,1.1205778E0,8.3743364E-1,-6.575409E-1,-9.969354E-1,1.3086998E0,1.0075347E0,-3.568674E-1,-8.2109654E-1,-6.0744636E-2,-1.0237604E0,9.5855844E-1,1.080622E0,-4.0802142E-1,2.5572E-1,-6.4334166E-1,-1.0419823E0,1.3362925E0,1.136979E0,2.6055943E-2],"categories":[],"categories_nodes":[],"categories_segments":[],"categories_sizes":[],"default_left":[true,true,false,true,true,true,false,true,true,true,false,true,true,false,false,true,false,true,false,false,false,false,false,false,false],"id":4,"left_children":[1,3,-1,5,7,9,-1,11,13,15,-1,17,19,-1,-1,21,-1,23,-1,-1,-1,-1,-1,-1,-1],"loss_changes":[2.2087628E2,9.117084E1,0E0,2.455188E1,9.276186E0,2.0025635E1,0E0,7.5276146E0,4.3396592E-1,1.922876E1,0E0,3.6633472E0,1.066073E0,0E0,0E0,1.617044E1,0E0,1.7469063E0,0E0,0E0,0E0,0E0,0E0,0E0,0E0],"parents":[2147483647,0,0,1,1,3,3,4,4,5,5,7,7,8,8,9,9,11,11,12,12,15,15,17,17],"right_children":[2,4,-1,6,8,10,-1,12,14,16,-1,18,20,-1,-1,22,-1,24,-1,-1,-1,-1,-1,-1,-1],"split_conditions":[2.6492607E-2,8.5848495E-2,3.4344393E-1,1.09579995E-1,7.5E-1,1.4030914E-1,3.3617336E-1,3.2246274E-1,2.758764E-1,1.6666667E-1,3.9260998E-1,6.178297E-1,1.6536921E-1,-2.4632896E-1,-1.8223392E-2,1.3174227E-1,2.8756756E-1,1.721801E-1,-1.2240643E-1,7.6716E-2,-1.930025E-1,-3.125947E-1,4.0088776E-1,3.4109372E-1,7.816783E-3],"split_indices":[5768,3454,0,9486,15461,9498,0,3493,544,13,0,3454,544,0,0,9366,0,3456,0,0,0,0,0,0,0],"split_type":[0,0,0,0,0,0,0,0,0,0,0,0,0,0,0,0,0,0,0,0,0,0,0,0,0],"sum_hessian":[4.6203076E2,3.9299E2,6.904078E1,3.547488E2,3.8241177E1,3.4985117E2,4.8976526E0,3.428424E1,3.9569335E0,3.4686102E2,2.990121E0,3.0146885E1,4.1373577E0,2.8107812E0,1.1461523E0,3.426373E2,4.223739E0,2.889177E1,1.2551153E0,1.3525223E0,2.7848353E0,3.4056628E2,2.0710163E0,2.735191E1,1.5398602E0],"tree_param":{"num_deleted":"0","num_feature":"15718","num_nodes":"25","size_leaf_vector":"0"}},{"base_weights":[-4.4662705E-1,-7.078037E-1,1.0939119E0,-8.178319E-1,1.1024832E0,-8.7418544E-1,1.029161E0,-8.9935756E-1,1.4125136E0,-9.262665E-1,9.9444425E-1,-9.499171E-1,1.14477E0],"categories":[],"categories_nodes":[],"categories_segments":[],"categories_sizes":[],"default_left":[true,true,false,true,false,true,false,true,false,true,false,false,false],"id":5,"left_children":[1,3,-1,5,-1,7,-1,9,-1,11,-1,-1,-1],"loss_changes":[1.50072E2,6.421771E1,0E0,3.21501E1,0E0,1.807196E1,0E0,1.5665146E1,0E0,1.5085739E1,0E0,0E0,0E0],"parents":[2147483647,0,0,1,1,3,3,5,5,7,7,9,9],"right_children":[2,4,-1,6,-1,8,-1,10,-1,12,-1,-1,-1],"split_conditions":[2.6492607E-2,2.5E-1,3.2817358E-1,1.6666667E-1,3.3074495E-1,2.1385194E-1,3.087483E-1,1.09579995E-1,4.237541E-1,1.4030914E-1,2.983333E-1,-2.8497514E-1,3.4343103E-1],"split_indices":[5768,7,0,13,0,5880,0,9486,0,9498,0,0,0],"split_type":[0,0,0,0,0,0,0,0,0,0,0,0,0],"sum_hessian":[3.700617E2,3.1687976E2,5.318195E1,2.9924033E2,1.7639414E1,2.9089163E2,8.348696E0,2.8832446E2,2.5671947E0,2.847888E2,3.5356495E0,2.8210855E2,2.6802607E0],"tree_param":{"num_deleted":"0","num_feature":"15718","num_nodes":"13","size_leaf_vector":"0"}},{"base_weights":[-4.0268978E-1,-6.3890195E-1,1.0564355E0,-7.393423E-1,1.1697965E0,-7.9204166E-1,9.688225E-1,-8.666864E-1,1.663183E-1,-8.9388096E-1,8.885149E-1,1.6661692E0,-3.342799E-1,-9.116329E-1,1.2174714E0,2.7527614E0,-3.0193582E-1,-5.2294314E-1,8.720691E-1],"categories":[],"categories_nodes":[],"categories_segments":[],"categories_sizes":[],"default_left":[true,true,false,true,false,true,false,true,true,true,false,true,true,false,false,false,false,false,false],"id":6,"left_children":[1,3,-1,5,-1,7,-1,9,11,13,-1,15,17,-1,-1,-1,-1,-1,-1],"loss_changes":[1.026585E2,4.724237E1,0E0,2.2594452E1,0E0,1.7009933E1,0E0,1.1242249E1,1.3978162E1,9.20752E0,0E0,1.0754512E1,3.69585E0,0E0,0E0,0E0,0E0,0E0,0E0],"parents":[2147483647,0,0,1,1,3,3,5,5,7,7,8,8,9,9,11,11,12,12],"right_children":[2,4,-1,6,-1,8,-1,10,12,14,-1,16,18,-1,-1,-1,-1,-1,-1],"split_conditions":[2.6492607E-2,2.5E-1,3.1693065E-1,1.6666667E-1,3.5093895E-1,3.445512E-2,2.9064676E-1,1.09579995E-1,6.0839236E-2,1.5422551E-1,2.6655447E-1,1.8409815E-1,1.7460859E-1,-2.734899E-1,3.652414E-1,8.2582843E-1,-9.058075E-2,-1.5688294E-1,2.6162076E-1],"split_indices":[5768,8,0,13,0,7208,0,9486,7208,5874,0,3127,9505,0,0,0,0,0,0],"split_type":[0,0,0,0,0,0,0,0,0,0,0,0,0,0,0,0,0,0,0],"sum_hessian":[2.9489337E2,2.5428954E2,4.0603825E1,2.4147142E2,1.2818117E1,2.347649E2,6.7065244E0,2.1788957E2,1.687532E1,2.150484E2,2.841171E0,3.6402748E0,1.3235046E1,2.1381888E2,1.2295355E0,2.088517E0,1.5517578E0,1.1935014E1,1.3000324E0],"tree_param":{"num_deleted":"0","num_feature":"15718","num_nodes":"19","size_leaf_vector":"0"}},{"base_weights":[-3.5667348E-1,-5.663431E-1,1.0267622E0,-7.0655596E-1,6.20609E-1,-7.8746796E-1,5.240906E-1,7.3434037E-1,-6.5832305E-1,-8.168427E-1,1.242327E0,8.4722745E-1,-7.38949E-1,8.3069927E-1,-2.0737626E-1,-8.457989E-1,1.2927995E0,1.6921374E-1,1.4741272E0,9.4616616E-1,-1.9943674E-1,-8.726788E-1,1.3895756E0,5.28674E-1,-6.232787E-1,2.0991552E0,3.5310045E-1,1.0453216E0,1.3311791E-1],"categories":[],"categories_nodes":[],"categories_segments":[],"categories_sizes":[],"default_left":[true,true,false,true,true,true,true,true,false,true,false,true,false,true,false,true,false,true,true,true,false,false,false,false,false,false,false,false,false],"id":7,"left_children":[1,3,-1,5,7,9,11,13,-1,15,-1,17,-1,19,-1,21,-1,23,25,27,-1,-1,-1,-1,-1,-1,-1,-1,-1],"loss_changes":[6.996744E1,3.51168E1,0E0,1.9015564E1,3.7629166E0,1.1490746E1,5.5750475E0,2.0940056E0,0E0,1.1710136E1,0E0,4.0526476E0,0E0,2.4976711E0,0E0,1.1550369E1,0E0,2.036498E0,2.8527374E0,1.2820969E0,0E0,0E0,0E0,0E0,0E0,0E0,0E0,0E0,0E0],"parents":[2147483647,0,0,1,1,3,3,4,4,5,5,6,6,7,7,9,9,11,11,13,13,15,15,17,17,18,18,19,19],"right_children":[2,4,-1,6,8,10,12,14,-1,16,-1,18,-1,20,-1,22,-1,24,26,28,-1,-1,-1,-1,-1,-1,-1,-1,-1],"split_conditions":[2.6492607E-2,8.5848495E-2,3.080287E-1,1.5613751E-1,6.684327E-1,2.1385194E-1,6.410119E-2,3.4289938E-1,-1.9749692E-1,2.5E-1,3.726981E-1,1.3302797E-1,-2.2168471E-1,7.5E-1,-6.221288E-2,1.11782886E-1,3.8783985E-1,2.9484951E-1,2.5E-1,2.1610294E-1,-5.9831023E-2,-2.6180366E-1,4.168727E-1,1.5860221E-1,-1.8698362E-1,6.2974656E-1,1.0593014E-1,3.135965E-1,3.9935376E-2],"split_indices":[5768,3454,0,4689,3454,5880,8146,3493,0,8,0,5439,0,15461,0,10433,0,7788,15489,5439,0,0,0,0,0,0,0,0,0],"split_type":[0,0,0,0,0,0,0,0,0,0,0,0,0,0,0,0,0,0,0,0,0,0,0,0,0,0,0,0,0],"sum_hessian":[2.382087E2,2.0737077E2,3.0837912E1,1.8582436E2,2.154642E1,1.7469849E2,1.1125877E1,2.0177881E1,1.3685381E0,1.727954E2,1.9030802E0,9.121454E0,2.0044231E0,1.8411825E1,1.7660568E0,1.7104675E2,1.748648E0,4.9921703E0,4.1292834E0,1.6629368E1,1.7824559E0,1.6961674E2,1.430002E0,3.6634107E0,1.3287599E0,2.0909474E0,2.038336E0,1.4567147E1,2.0622215E0],"tree_param":{"num_deleted":"0","num_feature":"15718","num_nodes":"29","size_leaf_vector":"0"}},{"base_weights":[-3.1015712E-1,-4.9218562E-1,1.0012716E0,-5.8455247E-1,9.224866E-1,-6.9101447E-1,3.3012545E-1,1.1341468E0,5.149475E-3,-7.962306E-1,4.4997883E-1,-1.12069204E-1,1.2460091E0,-3.2851708E-1,3.298776E-1,-8.9698684E-1,2.647564E-1,1.9167851E-1,1.6237642E0,-5.2689874E-1,1.1985075E0,1.6141608E0,-2.2388647E-1,-9.290005E-1,5.2760756E-1,3.9503777E-1,-5.7762504E-1,-1.0795508E-2,9.5168245E-1,-7.837174E-1,1.4786968E-1,1.5654451E0,2.910636E-1,2.3963864E0,6.559254E-1],"categories":[],"categories_nodes":[],"categories_segments":[],"categories_sizes":[],"default_left":[true,true,false,true,true,true,true,false,true,true,true,true,true,false,false,true,true,true,false,true,true,true,false,false,false,false,false,false,false,false,false,false,false,false,false],"id":8,"left_children":[1,3,-1,5,7,9,11,-1,13,15,17,19,21,-1,-1,23,25,27,-1,29,31,33,-1,-1,-1,-1,-1,-1,-1,-1,-1,-1,-1,-1,-1],"loss_changes":[4.7556087E1,2.3248371E1,0E0,1.6174023E1,2.1376514E0,1.8006104E1,7.3280253E0,0E0,4.4146568E-1,1.4664047E1,3.645442E0,7.6379595E0,3.5334158E0,0E0,0E0,6.121475E0,1.5974185E0,1.8307235E0,0E0,1.9326267E0,6.777477E-1,2.0330944E0,0E0,0E0,0E0,0E0,0E0,0E0,0E0,0E0,0E0,0E0,0E0,0E0,0E0],"parents":[2147483647,0,0,1,1,3,3,4,4,5,5,6,6,8,8,9,9,10,10,11,11,12,12,15,15,16,16,17,17,19,19,20,20,21,21],"right_children":[2,4,-1,6,8,10,12,-1,14,16,18,20,22,-1,-1,24,26,28,-1,30,32,34,-1,-1,-1,-1,-1,-1,-1,-1,-1,-1,-1,-1,-1],"split_conditions":[2.6492607E-2,9.910005E-2,3.0038148E-1,3.707607E-2,4.403884E-1,6.5754816E-2,2.5E-1,3.4024405E-1,1.5826967E-1,7.557598E-2,1.01471856E-1,7.991137E-2,2.355836E-1,-9.8555125E-2,9.896328E-2,2.9515487E-1,6.684327E-1,2.0413655E-1,4.8712927E-1,7.437554E-2,2.4057767E-1,6.1230585E-2,-6.716595E-2,-2.7870017E-1,1.5828228E-1,1.18511334E-1,-1.7328751E-1,-3.2386524E-3,2.8550476E-1,-2.3511523E-1,4.4360906E-2,4.6963355E-1,8.731908E-2,7.1891594E-1,1.9677763E-1],"split_indices":[5768,7281,0,7208,7281,1279,15705,0,1926,3454,1926,14638,3127,0,0,8274,3454,13547,0,1926,7788,7208,0,0,0,0,0,0,0,0,0,0,0,0,0],"split_type":[0,0,0,0,0,0,0,0,0,0,0,0,0,0,0,0,0,0,0,0,0,0,0,0,0,0,0,0,0,0,0,0,0,0,0],"sum_hessian":[1.9615057E2,1.7279152E2,2.3359056E1,1.627519E2,1.0039612E1,1.4600276E2,1.674915E1,7.9653854E0,2.0742264E0,1.3395255E2,1.2050214E1,1.1887449E1,4.861701E0,1.0172784E0,1.056948E0,1.2247622E2,1.1476329E1,1.0830237E1,1.2199762E0,9.483617E0,2.4038322E0,3.8094382E0,1.0522625E0,1.2012464E2,2.351575E0,1.0399072E1,1.0772574E0,9.330324E0,1.4999132E0,6.752237E0,2.7313805E0,1.1953578E0,1.2084743E0,1.2710352E0,2.538403E0],"tree_param":{"num_deleted":"0","num_feature":"15718","num_nodes":"35","size_leaf_vector":"0"}},{"base_weights":[-2.6418203E-1,-4.2129943E-1,9.774133E-1,-4.9827015E-1,1.0110991E0,-6.0358334E-1,2.9052955E-1,-7.117595E-1,3.4066913E-1,-6.7424744E-2,9.436904E-1,-8.0094624E-1,1.0576749E-1,1.6164166E-1,1.2111423E0,-4.4231012E-1,9.673893E-1,1.2086834E0,-1.9337139E-1,-8.4776825E-1,6.8510073E-1,-8.236497E-2,7.048055E-1,3.458697E-1,-5.4574615E-1,-6.4598495E-1,2.0899102E-1,1.2200861E0,2.4897099E-1,1.4124199E0,1.9000748E-1],"categories":[],"categories_nodes":[],"categories_segments":[],"categories_sizes":[],"default_left":[true,true,false,true,false,true,true,true,true,true,true,true,true,true,false,true,true,true,false,false,false,false,false,false,false,false,false,false,false,false,false],"id":9,"left_children":[1,3,-1,5,-1,7,9,11,13,15,17,19,21,23,-1,25,27,29,-1,-1,-1,-1,-1,-1,-1,-1,-1,-1,-1,-1,-1],"loss_changes":[3.2335983E1,1.6596945E1,0E0,1.173819E1,0E0,1.2818886E1,4.054584E0,8.162743E0,1.8818227E0,5.067646E0,2.074669E0,7.539444E0,1.3857536E0,1.7801744E0,0E0,1.3906715E0,3.306043E-1,7.886162E-1,0E0,0E0,0E0,0E0,0E0,0E0,0E0,0E0,0E0,0E0,0E0,0E0,0E0],"parents":[2147483647,0,0,1,1,3,3,5,5,6,6,7,7,8,8,9,9,10,10,11,11,12,12,13,13,15,15,16,16,17,17],"right_children":[2,4,-1,6,-1,8,10,12,14,16,18,20,22,24,-1,26,28,30,-1,-1,-1,-1,-1,-1,-1,-1,-1,-1,-1,-1,-1],"split_conditions":[2.6492607E-2,2.5E-1,2.93224E-1,3.707607E-2,3.0332974E-1,6.5754816E-2,2.5E-1,7.557598E-2,2.1251121E-1,7.991137E-2,2.355836E-1,1.3771449E-1,1.6666667E-1,1.3480338E-1,3.633427E-1,8.146016E-2,2.4057767E-1,8.7416574E-2,-5.8011416E-2,-2.543305E-1,2.0553023E-1,-2.4709491E-2,2.1144165E-1,1.0376091E-1,-1.6372386E-1,-1.9379549E-1,6.269731E-2,3.6602584E-1,7.4691296E-2,4.23726E-1,5.7002246E-2],"split_indices":[5768,7,0,7208,0,1279,15705,3454,1279,14638,3127,7281,13,1279,0,1926,7788,7208,0,0,0,0,0,0,0,0,0,0,0,0,0],"split_type":[0,0,0,0,0,0,0,0,0,0,0,0,0,0,0,0,0,0,0,0,0,0,0,0,0,0,0,0,0,0,0],"sum_hessian":[1.6264987E2,1.4496588E2,1.7683994E1,1.3819218E2,6.7736917E0,1.2212236E2,1.6069828E1,1.0979066E2,1.2331702E1,1.0960096E1,5.109733E0,9.900964E1,1.0781013E1,1.1211552E1,1.1201506E0,8.465752E0,2.4943445E0,4.092893E0,1.0168396E0,9.6401764E1,2.607886E0,8.860735E0,1.920277E0,9.300455E0,1.9110966E0,6.455234E0,2.0105174E0,1.3286941E0,1.1656504E0,3.0886364E0,1.004257E0],"tree_param":{"num_deleted":"0","num_feature":"15718","num_nodes":"31","size_leaf_vector":"0"}},{"base_weights":[-2.1931434E-1,-3.5321268E-1,9.532622E-1,-4.1952845E-1,9.6141934E-1,-4.7547093E-1,8.746501E-1,-5.6308097E-1,4.1611105E-1,-6.081744E-1,1.0922874E0,9.151002E-1,-1.9884592E-1,-6.482199E-1,8.582898E-1,1.2676996E0,-3.7170082E-1,-5.5130714E-1,5.033351E-1],"categories":[],"categories_nodes":[],"categories_segments":[],"categories_sizes":[],"default_left":[true,true,false,true,false,true,false,true,true,true,false,true,true,false,false,false,false,false,false],"id":10,"left_children":[1,3,-1,5,-1,7,-1,9,11,13,-1,15,17,-1,-1,-1,-1,-1,-1],"loss_changes":[2.1989286E1,1.1257773E1,0E0,9.047495E0,0E0,9.211657E0,0E0,8.507507E0,3.5138245E0,6.600834E0,0E0,3.2719193E0,1.6845605E0,0E0,0E0,0E0,0E0,0E0,0E0],"parents":[2147483647,0,0,1,1,3,3,5,5,7,7,8,8,9,9,11,11,12,12],"right_children":[2,4,-1,6,-1,8,-1,10,12,14,-1,16,18,-1,-1,-1,-1,-1,-1],"split_conditions":[2.6492607E-2,2.5E-1,2.8597867E-1,1.6666667E-1,2.884258E-1,1.5613751E-1,2.6239505E-1,1.1509836E-1,2.5E-1,1.766421E-1,3.2768625E-1,1.3099976E-1,5.2717686E-2,-1.9446598E-1,2.5748694E-1,3.803099E-1,-1.11510254E-1,-1.6539215E-1,1.5100054E-1],"split_indices":[5768,7,0,13,0,4689,0,13651,15489,9486,0,4553,7208,0,0,0,0,0,0],"split_type":[0,0,0,0,0,0,0,0,0,0,0,0,0,0,0,0,0,0,0],"sum_hessian":[1.3690921E2,1.2350478E2,1.3404429E1,1.1822202E2,5.282757E0,1.1392987E2,4.2921534E0,1.04071846E2,9.858027E0,1.01927864E2,2.143981E0,5.172709E0,4.685318E0,9.976159E1,2.1662714E0,4.071823E0,1.1008859E0,3.2625427E0,1.4227753E0],"tree_param":{"num_deleted":"0","num_feature":"15718","num_nodes":"19","size_leaf_vector":"0"}},{"base_weights":[-1.7418736E-1,-2.875334E-1,9.273185E-1,-3.480882E-1,9.904601E-1,-4.62533E-1,3.0700046E-1,-5.908752E-1,3.359688E-1,1.3903227E-1,1.384999E0,-7.099093E-1,1.9273439E-1,5.750942E-2,1.152648E0,-1.344585E-2,1.0804198E0,-7.57853E-1,7.7784395E-1,3.5517597E-1,-5.0168294E-1,-1.3321193E-1,7.7543354E-1,-3.8793272E-1,5.8866304E-1],"categories":[],"categories_nodes":[],"categories_segments":[],"categories_sizes":[],"default_left":[true,true,false,true,false,true,true,true,true,true,false,true,true,true,false,true,false,false,false,false,false,false,false,false,false],"id":11,"left_children":[1,3,-1,5,-1,7,9,11,13,15,-1,17,19,21,-1,23,-1,-1,-1,-1,-1,-1,-1,-1,-1],"loss_changes":[1.4925025E1,8.642068E0,0E0,7.871978E0,0E0,9.234379E0,2.6927633E0,7.2560406E0,2.855207E0,2.1530442E0,0E0,5.33086E0,1.4022633E0,1.5591638E0,0E0,3.3421042E0,0E0,0E0,0E0,0E0,0E0,0E0,0E0,0E0,0E0],"parents":[2147483647,0,0,1,1,3,3,5,5,6,6,7,7,8,8,9,9,11,11,12,12,13,13,15,15],"right_children":[2,4,-1,6,-1,8,10,12,14,16,-1,18,20,22,-1,24,-1,-1,-1,-1,-1,-1,-1,-1,-1],"split_conditions":[2.6492607E-2,2.5E-1,2.7819556E-1,4.8132606E-2,2.9713804E-1,3.707607E-2,2.3083383E-1,7.557598E-2,4.4724535E-2,2.1251121E-1,4.1549972E-1,1.655685E-1,1.721801E-1,2.897127E-1,3.457944E-1,2.4209464E-1,3.2412595E-1,-2.273559E-1,2.333532E-1,1.06552795E-1,-1.5050489E-1,-3.996358E-2,2.3263007E-1,-1.1637982E-1,1.7659892E-1],"split_indices":[5768,8,0,1279,0,7208,8274,3454,14083,1279,0,1926,3456,12129,0,14682,0,0,0,0,0,0,0,0,0],"split_type":[0,0,0,0,0,0,0,0,0,0,0,0,0,0,0,0,0,0,0,0,0,0,0,0,0],"sum_hessian":[1.1640677E2,1.06216E2,1.0190767E1,1.0210559E2,4.1104107E0,8.71707E1,1.4934893E1,7.532399E1,1.1846709E1,1.3898304E1,1.0365895E0,6.547245E1,9.851535E0,9.632707E0,2.214002E0,1.2809279E1,1.0890237E0,6.3903725E1,1.5687267E0,8.379813E0,1.4717214E0,8.254335E0,1.378371E0,8.116723E0,4.692557E0],"tree_param":{"num_deleted":"0","num_feature":"15718","num_nodes":"25","size_leaf_vector":"0"}},{"base_weights":[-1.306986E-1,-2.2427113E-1,8.984417E-1,-2.7413502E-1,1.112151E0,-3.8489246E-1,3.3679348E-1,-4.4057027E-1,1.1523303E0,6.3796777E-1,-3.7911856E-1,-5.061836E-1,9.050518E-1,7.733671E-1,-3.0929375E-1,-7.5826484E-1,2.230574E-1,-5.90972E-1,6.6941905E-1,9.331332E-1,-1.0393863E-1],"categories":[],"categories_nodes":[],"categories_segments":[],"categories_sizes":[],"default_left":[true,true,false,true,false,true,true,true,false,true,true,true,false,true,false,false,false,false,false,false,false],"id":12,"left_children":[1,3,-1,5,-1,7,9,11,-1,13,15,17,-1,19,-1,-1,-1,-1,-1,-1,-1],"loss_changes":[1.0119701E1,6.6495876E0,0E0,6.394548E0,0E0,7.2559347E0,3.4206147E0,7.23993E0,0E0,1.6179719E0,1.3090564E0,7.7599983E0,0E0,1.4553471E0,0E0,0E0,0E0,0E0,0E0,0E0,0E0],"parents":[2147483647,0,0,1,1,3,3,5,5,6,6,7,7,9,9,10,10,11,11,13,13],"right_children":[2,4,-1,6,-1,8,10,12,-1,14,16,18,-1,20,-1,-1,-1,-1,-1,-1,-1],"split_conditions":[2.6492607E-2,1.4030914E-1,2.695325E-1,1.0286586E-1,3.336453E-1,2.454793E-1,1.9307056E-1,1.09579995E-1,3.456991E-1,3.9201075E-1,4.6069995E-1,3.8427082E-1,2.7151555E-1,4.9657556E-1,-9.278813E-2,-2.2747946E-1,6.6917226E-2,-1.772916E-1,2.0082572E-1,2.7993998E-1,-3.118159E-2],"split_indices":[5768,9498,0,1926,0,5880,544,9486,0,3486,3454,2728,0,4021,0,0,0,0,0,0,0],"split_type":[0,0,0,0,0,0,0,0,0,0,0,0,0,0,0,0,0,0,0,0,0],"sum_hessian":[1.0199359E2,9.420983E1,7.7837625E0,9.158744E1,2.6223888E0,7.784468E1,1.3742758E1,7.581219E1,2.0324984E0,9.749959E0,3.9927983E0,7.288223E1,2.9299529E0,8.691231E0,1.0587281E0,2.2910702E0,1.701728E0,6.8443184E1,4.4390464E0,7.2984715E0,1.3927594E0],"tree_param":{"num_deleted":"0","num_feature":"15718","num_nodes":"21","size_leaf_vector":"0"}},{"base_weights":[-9.522353E-2,-1.7229773E-1,8.6587614E-1,-2.2616158E-1,1.1597247E0,-2.7363864E-1,1.1912992E0,1.4174283E0,2.689444E-1,-3.4788224E-1,7.2931206E-1,-4.1014963E-1,8.1531775E-1,1.0868796E0,-1.1481343E-1,-4.6081114E-1,9.996974E-1],"categories":[],"categories_nodes":[],"categories_segments":[],"categories_sizes":[],"default_left":[true,true,false,true,true,true,false,false,false,true,true,true,false,false,false,false,false],"id":13,"left_children":[1,3,-1,5,7,9,-1,-1,-1,11,13,15,-1,-1,-1,-1,-1],"loss_changes":[6.9514947E0,6.4215107E0,0E0,5.9348907E0,4.2216206E-1,6.3192835E0,0E0,0E0,0E0,5.8767414E0,1.9168491E0,5.695962E0,0E0,0E0,0E0,0E0,0E0],"parents":[2147483647,0,0,1,1,3,3,4,4,5,5,9,9,10,10,11,11],"right_children":[2,4,-1,6,8,10,-1,-1,-1,12,14,16,-1,-1,-1,-1,-1],"split_conditions":[2.6492607E-2,2.9515487E-1,2.5976285E-1,1.3305208E-1,3.8753605E-1,9.910005E-2,3.5738978E-1,4.252285E-1,8.068333E-2,1.6666667E-1,4.403884E-1,2.1385194E-1,2.4459533E-1,3.260639E-1,-3.444403E-2,-1.3824335E-1,2.9990923E-1],"split_indices":[5768,8274,0,9505,8274,7281,0,0,0,13,7281,5880,0,0,0,0,0],"split_type":[0,0,0,0,0,0,0,0,0,0,0,0,0,0,0,0,0],"sum_hessian":[9.082876E1,8.484541E1,5.9833446E0,8.234576E1,2.4996567E0,8.045782E1,1.8879368E0,1.4802097E0,1.019447E0,7.552054E1,4.937281E0,7.229775E1,3.222784E0,3.2661676E0,1.6711136E0,7.043972E1,1.858036E0],"tree_param":{"num_deleted":"0","num_feature":"15718","num_nodes":"17","size_leaf_vector":"0"}},{"base_weights":[-5.42576E-2,-1.1754375E-1,8.293135E-1,-1.5447953E-1,1.3293781E0,-2.4542691E-1,5.479734E-1,-3.9461225E-1,2.6499617E-1,9.2231935E-1,-6.35408E-2,-5.1641446E-1,3.2792237E-1,6.443081E-1,-1.2345191E-1,1.1318624E0,2.7365726E-1,-3.128125E-1,3.8850963E-1,-6.5160185E-1,2.0211826E-1,-1.8372656E-1,9.355468E-1,7.296544E-1,1.5029427E-2,-2.7764976E-1,5.2667177E-1,-4.5450515E-1,1.0775978E-2],"categories":[],"categories_nodes":[],"categories_segments":[],"categories_sizes":[],"default_left":[true,true,false,true,false,true,true,true,true,true,true,true,true,true,true,false,false,true,false,false,false,false,false,false,false,false,false,false,false],"id":14,"left_children":[1,3,-1,5,-1,7,9,11,13,15,17,19,21,23,25,-1,-1,27,-1,-1,-1,-1,-1,-1,-1,-1,-1,-1,-1],"loss_changes":[4.709466E0,4.365439E0,0E0,5.0409126E0,0E0,5.334891E0,2.1446967E0,4.88237E0,2.456665E0,4.6732855E-1,6.168678E-1,4.620982E0,2.7638102E0,4.3605638E-1,1.029397E0,0E0,0E0,1.6020963E-1,0E0,0E0,0E0,0E0,0E0,0E0,0E0,0E0,0E0,0E0,0E0],"parents":[2147483647,0,0,1,1,3,3,5,5,6,6,7,7,8,8,9,9,10,10,11,11,12,12,13,13,14,14,17,17],"right_children":[2,4,-1,6,-1,8,10,12,14,16,18,20,22,24,26,-1,-1,28,-1,-1,-1,-1,-1,-1,-1,-1,-1,-1,-1],"split_conditions":[2.6492607E-2,3.742013E-1,2.4879406E-1,1.5613751E-1,3.9881346E-1,8.876062E-2,2.5E-1,4.9127594E-2,9.750982E-2,5.1018145E-2,5.2717686E-2,6.574441E-2,2.5E-1,4.2687193E-1,1.9344899E-1,3.3955872E-1,8.209718E-2,1.2552045E-1,1.165529E-1,-1.9548057E-1,6.063548E-2,-5.5117972E-2,2.8066406E-1,2.1889631E-1,4.5088283E-3,-8.329493E-2,1.5800154E-1,-1.3635156E-1,3.2327934E-3],"split_indices":[5768,3087,0,4689,0,1926,15489,7208,1082,4553,7208,1279,15705,4021,1926,0,0,4553,0,0,0,0,0,0,0,0,0,0,0],"split_type":[0,0,0,0,0,0,0,0,0,0,0,0,0,0,0,0,0,0,0,0,0,0,0,0,0,0,0,0,0],"sum_hessian":[8.147791E1,7.68411E1,4.636809E0,7.57994E1,1.0417067E0,6.768656E1,8.112841E0,5.2553288E1,1.513327E1,4.71701E0,3.3958309E0,4.5216187E1,7.3371024E0,7.323421E0,7.8098493E0,3.0022483E0,1.7147615E0,2.3873832E0,1.0084476E0,3.813456E1,7.081627E0,4.3618484E0,2.975254E0,6.3083396E0,1.0150813E0,6.7757006E0,1.0341485E0,1.3789794E0,1.0084038E0],"tree_param":{"num_deleted":"0","num_feature":"15718","num_nodes":"29","size_leaf_vector":"0"}},{"base_weights":[-2.9650997E-2,-6.7202054E-2,1.4107895E0,-1.2458163E-1,8.9528704E-1,-1.7159663E-1,1.1353053E0,-2.2101638E-1,9.5503956E-1,-2.7550843E-1,8.545856E-1,-3.3483803E-1,7.822736E-1],"categories":[],"categories_nodes":[],"categories_segments":[],"categories_sizes":[],"default_left":[true,true,false,true,false,true,false,true,false,true,false,false,false],"id":15,"left_children":[1,3,-1,5,-1,7,-1,9,-1,11,-1,-1,-1],"loss_changes":[4.279798E0,4.328662E0,0E0,4.515388E0,0E0,4.174577E0,0E0,4.2800493E0,0E0,4.431277E0,0E0,0E0,0E0],"parents":[2147483647,0,0,1,1,3,3,5,5,7,7,9,9],"right_children":[2,4,-1,6,-1,8,-1,10,-1,12,-1,-1,-1],"split_conditions":[1.9154161E-1,2.5E-1,4.2323688E-1,5.765275E-1,2.6858613E-1,1.4030914E-1,3.405916E-1,9.974197E-2,2.8651187E-1,1.6666667E-1,2.563757E-1,-1.0045142E-1,2.3468208E-1],"split_indices":[11785,7,0,14739,0,9498,0,9486,0,13,0,0,0],"split_type":[0,0,0,0,0,0,0,0,0,0,0,0,0],"sum_hessian":[7.637077E1,7.535956E1,1.0112132E0,7.1941284E1,3.4182756E0,7.018597E1,1.7553184E0,6.800668E1,2.1792784E0,6.5435455E1,2.5712292E0,6.2607346E1,2.8281105E0],"tree_param":{"num_deleted":"0","num_feature":"15718","num_nodes":"13","size_leaf_vector":"0"}},{"base_weights":[1.6355629E-3,-3.940409E-2,1.1703906E0,-7.694295E-2,1.257324E0,-1.3106212E-1,8.9206386E-1,-1.9540288E-1,6.9554275E-1,1.3324958E0,-1.4586134E-1,-3.2632E-1,2.985317E-1,1.0293028E0,-7.3457286E-2,-4.0880188E-1,6.198258E-1,8.102599E-1,-1.3802212E-2],"categories":[],"categories_nodes":[],"categories_segments":[],"categories_sizes":[],"default_left":[true,true,false,true,false,true,true,true,true,false,false,true,true,false,false,false,false,false,false],"id":16,"left_children":[1,3,-1,5,-1,7,9,11,13,-1,-1,15,17,-1,-1,-1,-1,-1,-1],"loss_changes":[3.470068E0,3.5007622E0,0E0,3.7304041E0,0E0,3.6530895E0,1.9190745E0,4.1154547E0,1.3576629E0,0E0,0E0,4.123832E0,2.175432E0,0E0,0E0,0E0,0E0,0E0,0E0],"parents":[2147483647,0,0,1,1,3,3,5,5,6,6,7,7,8,8,11,11,12,12],"right_children":[2,4,-1,6,-1,8,10,12,14,-1,-1,16,18,-1,-1,-1,-1,-1,-1],"split_conditions":[3.658347E-1,3.018927E-1,3.511172E-1,1.25E-1,3.771972E-1,9.910005E-2,1.5541501E-1,3.388822E-2,4.403884E-1,3.9974877E-1,-4.3758404E-2,1.6557136E-1,6.0839236E-2,3.0879086E-1,-2.2037186E-2,-1.2264057E-1,1.8594775E-1,2.4307798E-1,-4.140664E-3],"split_indices":[8274,11785,0,16,0,7281,3454,7208,7281,0,0,1926,7208,0,0,0,0,0,0],"split_type":[0,0,0,0,0,0,0,0,0,0,0,0,0,0,0,0,0,0,0],"sum_hessian":[7.0383896E1,6.892978E1,1.4541142E0,6.790468E1,1.0251023E0,6.51318E1,2.772875E0,6.113669E1,3.9951115E0,1.7475251E0,1.0253499E0,4.8595753E1,1.2540936E1,2.5499089E0,1.4452026E0,4.5221428E1,3.3743258E0,4.149E0,8.391936E0],"tree_param":{"num_deleted":"0","num_feature":"15718","num_nodes":"19","size_leaf_vector":"0"}},{"base_weights":[2.262606E-2,-1.8399404E-2,1.3806374E0,-1.4093372E-1,3.9561594E-1,-2.1879753E-1,6.1913943E-1,1.9659442E-1,1.5968722E0,-3.6167625E-1,3.394228E-1,-5.0509594E-2,1.1062117E0,5.9533924E-2,9.5524496E-1,-4.2596287E-1,6.406449E-1,4.963537E-1,-5.2582777E-1,-1.6092323E-1,8.6006336E-2,-9.4412684E-2,6.8406284E-1,-4.7792187E-1,7.27483E-1,6.290635E-1,-2.7358294E-1,-2.2793934E-1,5.883261E-1],"categories":[],"categories_nodes":[],"categories_segments":[],"categories_sizes":[],"default_left":[true,true,false,true,true,true,true,true,false,true,true,true,false,true,false,true,false,true,false,false,false,true,false,false,false,false,false,false,false],"id":17,"left_children":[1,3,-1,5,7,9,11,13,-1,15,17,19,-1,21,-1,23,-1,25,-1,-1,-1,27,-1,-1,-1,-1,-1,-1,-1],"loss_changes":[3.8214297E0,3.4610376E0,0E0,3.2444282E0,3.4137635E0,3.9822004E0,1.7332106E0,1.4525619E0,0E0,2.7866745E0,1.6700714E0,6.089545E-2,0E0,1.3492229E0,0E0,2.580832E0,0E0,1.1222069E0,0E0,0E0,0E0,1.1914215E0,0E0,0E0,0E0,0E0,0E0,0E0,0E0],"parents":[2147483647,0,0,1,1,3,3,4,4,5,5,6,6,7,7,9,9,10,10,11,11,13,13,15,15,17,17,21,21],"right_children":[2,4,-1,6,8,10,12,14,-1,16,18,20,-1,22,-1,24,-1,26,-1,-1,-1,28,-1,-1,-1,-1,-1,-1,-1],"split_conditions":[1.8307695E-1,3.584938E-2,4.1419125E-1,2.5E-1,5.4546766E-2,8.480289E-2,2.5E-1,2.115058E-1,4.790617E-1,2.6492607E-2,6.178297E-1,7.231374E-2,3.3186352E-1,2.1265322E-1,2.865735E-1,4.297009E-1,1.9219348E-1,1.721801E-1,-1.5774834E-1,-4.8276972E-2,2.5801903E-2,5.6449678E-2,2.0521887E-1,-1.4337657E-1,2.182449E-1,1.8871905E-1,-8.207488E-2,-6.83818E-2,1.7649783E-1],"split_indices":[8971,1279,0,15663,1817,3454,15705,1279,0,5768,3454,1926,0,10890,0,13620,0,3456,0,0,0,9349,0,0,0,0,0,0,0],"split_type":[0,0,0,0,0,0,0,0,0,0,0,0,0,0,0,0,0,0,0,0,0,0,0,0,0,0,0,0,0],"sum_hessian":[6.713533E1,6.6124176E1,1.0111572E0,5.153205E1,1.4592124E1,4.738949E1,4.1425624E0,1.3516412E1,1.0757122E0,3.8012203E1,9.377284E0,2.121764E0,2.0207982E0,1.2361595E1,1.1548163E0,3.6261497E1,1.7507069E0,8.298524E0,1.0787601E0,1.074182E0,1.047582E0,1.0598008E1,1.763587E0,3.5258858E1,1.0026405E0,7.2345166E0,1.0640076E0,9.421532E0,1.1764767E0],"tree_param":{"num_deleted":"0","num_feature":"15718","num_nodes":"29","size_leaf_vector":"0"}},{"base_weights":[4.2670116E-2,4.6917456E-3,1.1817058E0,-4.124036E-2,1.0002978E0,-7.930831E-2,1.1132362E0,-1.24767706E-1,9.148213E-1,-1.8191732E-1,7.430279E-1,-2.361797E-1,8.131549E-1],"categories":[],"categories_nodes":[],"categories_segments":[],"categories_sizes":[],"default_left":[true,true,false,true,false,true,false,true,false,true,false,false,false],"id":18,"left_children":[1,3,-1,5,-1,7,-1,9,-1,11,-1,-1,-1],"loss_changes":[2.7816558E0,2.9385386E0,0E0,2.7921069E0,0E0,2.8479247E0,0E0,3.0476747E0,0E0,3.2104502E0,0E0,0E0,0E0],"parents":[2147483647,0,0,1,1,3,3,5,5,7,7,9,9],"right_children":[2,4,-1,6,-1,8,-1,10,-1,12,-1,-1,-1],"split_conditions":[1.900936E-1,1.1039099E-1,3.5451177E-1,3.742013E-1,3.0008936E-1,1.0819448E-1,3.3397087E-1,2.6492607E-2,2.744464E-1,1.09579995E-1,2.2290839E-1,-7.085391E-2,2.4394648E-1],"split_indices":[8971,9505,0,3087,0,5880,0,5768,0,9486,0,0,0],"split_type":[0,0,0,0,0,0,0,0,0,0,0,0,0],"sum_hessian":[6.3430946E1,6.2355957E1,1.0749884E0,6.0522346E1,1.8336099E0,5.949195E1,1.0303962E0,5.7726727E1,1.7652225E0,5.4901497E1,2.8252296E0,5.2785686E1,2.11581E0],"tree_param":{"num_deleted":"0","num_feature":"15718","num_nodes":"13","size_leaf_vector":"0"}},{"base_weights":[5.9558865E-2,1.4157977E-2,8.730573E-1,-3.3376228E-2,8.462353E-1,2.655399E-1,1.1013062E0,-8.4154226E-2,7.567381E-1,-1.2524723E-1,1.0077441E0,-1.8030825E-1,7.367843E-1,-2.2498786E-1,9.120875E-1,7.496521E-2,1.003016E0],"categories":[],"categories_nodes":[],"categories_segments":[],"categories_sizes":[],"default_left":[true,true,true,true,false,false,false,true,false,true,false,true,true,false,false,false,false],"id":19,"left_children":[1,3,5,7,-1,-1,-1,9,-1,11,-1,13,15,-1,-1,-1,-1],"loss_changes":[2.2423568E0,2.355392E0,1.5274E-1,2.335299E0,0E0,0E0,0E0,2.5536878E0,0E0,2.6497912E0,0E0,2.677214E0,5.2041614E-1,0E0,0E0,0E0,0E0],"parents":[2147483647,0,0,1,1,2,2,3,3,7,7,9,9,11,11,12,12],"right_children":[2,4,6,8,-1,-1,-1,10,-1,12,-1,14,16,-1,-1,-1,-1],"split_conditions":[3.122896E-1,2.5E-1,1.7043017E-1,1.6666667E-1,2.538706E-1,7.966198E-2,3.3039188E-1,3.7019122E-1,2.2702144E-1,2.387526E-1,3.0232322E-1,2.7287203E-1,1.5865324E-1,-6.749636E-2,2.7362627E-1,2.2489563E-2,3.009048E-1],"split_indices":[8274,8,8515,13,0,0,0,11785,0,13145,0,10236,3127,0,0,0,0],"split_type":[0,0,0,0,0,0,0,0,0,0,0,0,0,0,0,0,0],"sum_hessian":[6.0047947E1,5.7837475E1,2.2104728E0,5.5619953E1,2.2175214E0,1.1945046E0,1.0159682E0,5.310083E1,2.5191212E0,5.2028076E1,1.0727544E0,4.964773E1,2.3803449E0,4.8459743E1,1.1879895E0,1.0505031E0,1.3298417E0],"tree_param":{"num_deleted":"0","num_feature":"15718","num_nodes":"17","size_leaf_vector":"0"}},{"base_weights":[7.250155E-2,2.916944E-2,8.84175E-1,8.720869E-2,-6.874921E-1,4.7823176E-2,1.0291986E0,-1.5610854E-2,6.6600204E-1,-6.3445225E-2,8.7754256E-1,2.6684554E-2,1.1500485E0,-1.175344E-1,7.824487E-1,-2.5422195E-1,2.9330617E-1],"categories":[],"categories_nodes":[],"categories_segments":[],"categories_sizes":[],"default_left":[true,true,false,true,false,true,false,true,true,true,false,true,false,false,false,false,false],"id":20,"left_children":[1,3,-1,5,-1,7,-1,9,11,13,-1,15,-1,-1,-1,-1,-1],"loss_changes":[2.0391338E0,2.4212244E0,0E0,1.9320796E0,0E0,2.061608E0,0E0,2.1242468E0,1.4828744E0,2.2373106E0,0E0,3.0908096E-1,0E0,0E0,0E0,0E0,0E0],"parents":[2147483647,0,0,1,1,3,3,5,5,7,7,8,8,9,9,11,11],"right_children":[2,4,-1,6,-1,8,-1,10,12,14,-1,16,-1,-1,-1,-1,-1],"split_conditions":[1.4030914E-1,2.2395957E-1,2.652525E-1,2.5E-1,-2.0624763E-1,2.560237E-1,3.087596E-1,1.1039099E-1,1.8447733E-1,2.5E-1,2.6326278E-1,1.717386E-1,3.4501457E-1,-3.526032E-2,2.3473462E-1,-7.626659E-2,8.7991856E-2],"split_indices":[9498,3332,0,31,0,11421,0,9505,8515,7,0,5439,0,0,0,0,0],"split_type":[0,0,0,0,0,0,0,0,0,0,0,0,0,0,0,0,0],"sum_hessian":[5.7710133E1,5.576879E1,1.9413426E0,5.24032E1,3.3655908E0,5.13087E1,1.0944982E0,4.741771E1,3.890991E0,4.588901E1,1.5287004E0,2.131234E0,1.7597572E0,4.3940376E1,1.9486357E0,1.0604619E0,1.070772E0],"tree_param":{"num_deleted":"0","num_feature":"15718","num_nodes":"17","size_leaf_vector":"0"}},{"base_weights":[7.391668E-2,1.4114315E-2,6.1843526E-1,-1.3534798E-1,2.7219552E-1,3.5659677E-1,8.6127555E-1,-2.7226612E-1,3.4487212E-1,3.942939E-1,-5.7321787E-1,5.604411E-1,-1.7041728E-2,-3.6633953E-1,5.1202E-1,6.148276E-1,-1.9164994E-1,2.3938723E-1,1.0113544E0,-4.703322E-1,5.133375E-1,1.5047464E-1,6.328794E-1,8.588833E-1,-1.8780573E-1,-3.5733935E-1,9.1165796E-2,6.729175E-2,8.4968114E-1,-6.192579E-2,1.5568967E0,-5.3985286E-1,5.049687E-1,6.954418E-1,7.427069E-2,-4.3733045E-2,6.196855E-1],"categories":[],"categories_nodes":[],"categories_segments":[],"categories_sizes":[],"default_left":[true,true,true,true,true,true,false,true,true,true,false,false,false,true,true,true,true,true,true,true,true,false,false,false,false,false,false,true,false,false,false,false,false,false,false,false,false],"id":21,"left_children":[1,3,5,7,9,11,-1,13,15,17,-1,-1,-1,19,21,23,25,27,29,31,33,-1,-1,-1,-1,-1,-1,35,-1,-1,-1,-1,-1,-1,-1,-1,-1],"loss_changes":[1.8352511E0,2.0444658E0,4.7698498E-2,2.3049078E0,2.2305918E0,3.4404266E-1,0E0,2.159388E0,1.2622874E0,1.4365392E0,0E0,0E0,0E0,2.4777608E0,4.8064888E-2,1.2375777E0,1.9224277E-1,1.5547638E0,1.9781957E0,1.7902894E0,1.9321829E-1,0E0,0E0,0E0,0E0,0E0,0E0,8.279233E-1,0E0,0E0,0E0,0E0,0E0,0E0,0E0,0E0,0E0],"parents":[2147483647,0,0,1,1,2,2,3,3,4,4,5,5,7,7,8,8,9,9,13,13,14,14,15,15,16,16,17,17,18,18,19,19,20,20,27,27],"right_children":[2,4,6,8,10,12,-1,14,16,18,-1,-1,-1,20,22,24,26,28,30,32,34,-1,-1,-1,-1,-1,-1,36,-1,-1,-1,-1,-1,-1,-1,-1,-1],"split_conditions":[1.0737266E-1,1.5057641E-1,2.115058E-1,1.1192522E-1,2.5530517E-1,1.2584719E-1,2.5838268E-1,1.2034723E-1,3.4532672E-1,7.796468E-2,-1.7196536E-1,1.6813233E-1,-5.1125186E-3,2.6953423E-1,1.882599E-1,1.9307056E-1,2.35126E-1,1.9344854E-1,2.5050494E-1,1.3174674E-1,1.6507758E-1,4.5142394E-2,1.8986382E-1,2.57665E-1,-5.634172E-2,-1.0720181E-1,2.734974E-2,1.9733703E-1,2.5490436E-1,-1.8577738E-2,4.6706903E-1,-1.6195586E-1,1.5149061E-1,2.0863254E-1,2.2281207E-2,-1.3119915E-2,1.8590565E-1],"split_indices":[1279,5439,1279,1926,5066,1279,0,14860,3486,3678,0,0,0,3454,10890,1082,544,11820,14682,6498,544,0,0,0,0,0,0,3809,0,0,0,0,0,0,0,0,0],"split_type":[0,0,0,0,0,0,0,0,0,0,0,0,0,0,0,0,0,0,0,0,0,0,0,0,0,0,0,0,0,0,0,0,0,0,0,0,0],"sum_hessian":[5.5627205E1,5.104685E1,4.5803566E0,3.262711E1,1.841974E1,3.3917258E0,1.1886309E0,2.5725431E1,6.9016776E0,1.6561468E1,1.8582728E0,1.8710109E0,1.5207148E0,2.3446032E1,2.2793996E0,4.4943557E0,2.407322E0,1.43476E1,2.2138686E0,2.1383478E1,2.0625527E0,1.1335312E0,1.1458684E0,3.392669E0,1.1016867E0,1.3518348E0,1.055487E0,1.2057728E1,2.2898717E0,1.0448182E0,1.1690505E0,2.0377426E1,1.0060531E0,1.0451603E0,1.0173923E0,1.0806563E1,1.251165E0],"tree_param":{"num_deleted":"0","num_feature":"15718","num_nodes":"37","size_leaf_vector":"0"}},{"base_weights":[7.891481E-2,3.2987606E-2,7.262346E-1,-5.2767335E-3,8.2870066E-1,-5.6382865E-2,6.486608E-1,1.3526066E-2,-6.8218476E-1,7.949697E-1,1.2610427E-1,-2.8903384E-2,9.1452736E-1,-7.519271E-1,-2.0822933E-1,-8.114837E-2,7.0294625E-1],"categories":[],"categories_nodes":[],"categories_segments":[],"categories_sizes":[],"default_left":[true,true,false,true,false,true,true,true,true,false,false,true,false,false,false,false,false],"id":22,"left_children":[1,3,-1,5,-1,7,9,11,13,-1,-1,15,-1,-1,-1,-1,-1],"loss_changes":[1.6134473E0,1.6021128E0,0E0,1.7430556E0,0E0,2.121442E0,1.8884349E-1,1.7241534E0,4.4333935E-3,0E0,0E0,1.7157501E0,0E0,0E0,0E0,0E0,0E0],"parents":[2147483647,0,0,1,1,3,3,5,5,6,6,7,7,8,8,11,11],"right_children":[2,4,-1,6,-1,8,10,12,14,-1,-1,16,-1,-1,-1,-1,-1],"split_conditions":[2.6492607E-2,2.1385194E-1,2.178704E-1,2.9515487E-1,2.4861021E-1,1.7895484E-1,1.9233978E-1,3.742013E-1,2.6704776E-1,2.3849091E-1,3.783128E-2,1.6666667E-1,2.743582E-1,-2.2557813E-1,-6.24688E-2,-2.4344513E-2,2.1088389E-1],"split_indices":[5768,5880,0,8274,0,12008,3127,3087,3127,0,0,13,0,0,0,0,0],"split_type":[0,0,0,0,0,0,0,0,0,0,0,0,0,0,0,0,0],"sum_hessian":[5.407657E1,5.1475365E1,2.6012063E0,5.0061375E1,1.4139885E0,4.7280144E1,2.78123E0,4.3409245E1,3.870902E0,1.765582E0,1.0156481E0,4.2381363E1,1.0278788E0,2.8631043E0,1.0077978E0,4.038733E1,1.9940357E0],"tree_param":{"num_deleted":"0","num_feature":"15718","num_nodes":"17","size_leaf_vector":"0"}},{"base_weights":[7.434176E-2,3.425549E-2,7.53667E-1,-4.4800686E-3,8.2149E-1,-4.59063E-2,7.807287E-1,-1.1539081E-1,4.9856073E-1,-1.6690306E-1,6.60834E-1,7.4657893E-1,-1.4477721E-1,-2.1191874E-1,7.404912E-1],"categories":[],"categories_nodes":[],"categories_segments":[],"categories_sizes":[],"default_left":[true,true,false,true,false,true,false,true,true,true,false,false,false,false,false],"id":23,"left_children":[1,3,-1,5,-1,7,-1,9,11,13,-1,-1,-1,-1,-1],"loss_changes":[1.4252427E0,1.5699826E0,0E0,1.6606284E0,0E0,1.888271E0,0E0,1.8587093E0,1.0119412E0,1.8644819E0,0E0,0E0,0E0,0E0,0E0],"parents":[2147483647,0,0,1,1,3,3,5,5,7,7,8,8,9,9],"right_children":[2,4,-1,6,-1,8,-1,10,12,14,-1,-1,-1,-1,-1],"split_conditions":[9.974197E-2,1.3305208E-1,2.261001E-1,1.4030914E-1,2.4644701E-1,1.6567218E-1,2.3421861E-1,2.6492607E-2,5.120306E-1,2.454793E-1,1.9825022E-1,2.2397369E-1,-4.3433163E-2,-6.3575625E-2,2.2214738E-1],"split_indices":[9486,9505,0,9498,0,1926,0,5768,3454,5880,0,0,0,0,0],"split_type":[0,0,0,0,0,0,0,0,0,0,0,0,0,0,0],"sum_hessian":[5.2285854E1,5.0364334E1,1.9215207E0,4.8950073E1,1.4142597E0,4.7391327E1,1.5587467E0,4.2726646E1,4.6646786E0,4.0803787E1,1.9228619E0,3.2509158E0,1.4137629E0,3.960542E1,1.198365E0],"tree_param":{"num_deleted":"0","num_feature":"15718","num_nodes":"15","size_leaf_vector":"0"}},{"base_weights":[7.953203E-2,1.1969268E-1,-5.2886856E-1,4.818622E-2,5.6555635E-1,1.1144976E-1,-5.962562E-1,8.0346197E-1,3.4008384E-2,4.978566E-2,6.044111E-1,9.447309E-1,1.8816385E-1,-1.7807788E-1,2.3613876E-1,-3.6285063E-3,7.5047964E-1,-3.910084E-2,9.9572355E-1,-5.8595277E-2,6.348422E-1],"categories":[],"categories_nodes":[],"categories_segments":[],"categories_sizes":[],"default_left":[true,true,false,true,true,true,false,true,true,true,true,false,false,false,false,true,false,false,false,false,false],"id":24,"left_children":[1,3,-1,5,7,9,-1,11,13,15,17,-1,-1,-1,-1,19,-1,-1,-1,-1,-1],"loss_changes":[1.3086059E0,1.5230479E0,0E0,1.8194871E0,8.107817E-1,1.1857458E0,0E0,2.1635818E-1,1.7466015E-1,1.3740497E0,1.136136E0,0E0,0E0,0E0,0E0,1.2669158E0,0E0,0E0,0E0,0E0,0E0],"parents":[2147483647,0,0,1,1,3,3,4,4,5,5,7,7,8,8,9,9,10,10,15,15],"right_children":[2,4,-1,6,8,10,-1,12,14,16,18,-1,-1,-1,-1,20,-1,-1,-1,-1,-1],"split_conditions":[1.03624254E-1,1.5062183E-1,-1.5866058E-1,1.8190005E-1,2.5E-1,2.5E-1,-1.7887686E-1,5.3578313E-2,1.7419968E-2,2.5E-1,2.5E-1,2.8341928E-1,5.6449156E-2,-5.3423364E-2,7.084163E-2,1.5389383E-1,2.251439E-1,-1.1730253E-2,2.9871708E-1,-1.7578583E-2,1.9045268E-1],"split_indices":[14330,4689,0,12008,15489,15663,0,7208,7208,8,15705,0,0,0,0,13651,0,0,0,0,0],"split_type":[0,0,0,0,0,0,0,0,0,0,0,0,0,0,0,0,0,0,0,0,0],"sum_hessian":[4.9966522E1,4.7625984E1,2.3405354E0,4.1998455E1,5.6275306E0,3.899724E1,3.001216E0,3.5341809E0,2.0933497E0,3.564005E1,3.3571897E0,2.4388351E0,1.0953459E0,1.0795851E0,1.0137647E0,3.403999E1,1.6000596E0,1.6098592E0,1.7473304E0,3.217797E1,1.8620175E0],"tree_param":{"num_deleted":"0","num_feature":"15718","num_nodes":"21","size_leaf_vector":"0"}},{"base_weights":[7.0425466E-2,3.1504713E-2,6.872009E-1,-9.439129E-2,2.5704414E-1,-1.7271616E-1,4.1119394E-1,3.5537574E-1,-5.0465983E-1,-3.1745788E-1,1.2641187E-1,1.3665114E-1,6.104153E-1,4.875505E-1,-1.4899835E-1,-4.0182075E-1,3.6442173E-1,4.940064E-1,-1.0880382E-1,2.415099E-1,-2.4456132E-2,5.6922126E-1,-2.0133871E-1,-2.9769924E-1,1.5126795E-1,-4.7852743E-1,4.1817334E-1,9.646666E-3,8.9200187E-1,-6.1448276E-1,1.7064215E-1,6.552903E-1,-1.3153532E-1],"categories":[],"categories_nodes":[],"categories_segments":[],"categories_sizes":[],"default_left":[true,true,false,true,true,true,true,true,false,true,true,true,false,true,true,true,false,true,true,false,false,true,false,false,false,false,false,false,false,false,false,false,false],"id":25,"left_children":[1,3,-1,5,7,9,11,13,-1,15,17,19,-1,21,23,25,-1,27,29,-1,-1,31,-1,-1,-1,-1,-1,-1,-1,-1,-1,-1,-1],"loss_changes":[1.1746386E0,1.3850474E0,0E0,1.317924E0,1.4853417E0,1.2510448E0,1.6377854E-1,1.1412818E0,0E0,1.2470492E0,9.0415156E-1,5.977838E-2,0E0,8.42381E-1,2.2784708E-1,1.3009558E0,0E0,7.660004E-1,1.0681812E0,0E0,0E0,7.99443E-1,0E0,0E0,0E0,0E0,0E0,0E0,0E0,0E0,0E0,0E0,0E0],"parents":[2147483647,0,0,1,1,3,3,4,4,5,5,6,6,7,7,9,9,10,10,11,11,13,13,14,14,15,15,17,17,18,18,21,21],"right_children":[2,4,-1,6,8,10,12,14,-1,16,18,20,-1,22,24,26,-1,28,30,-1,-1,32,-1,-1,-1,-1,-1,-1,-1,-1,-1,-1,-1],"split_conditions":[1.6666667E-1,1.5057641E-1,2.0616028E-1,1.10691E-1,2.5530517E-1,1.0314207E-1,2.115058E-1,1.3399784E-1,-1.5139796E-1,1.2034723E-1,1.2748882E-1,1.2491566E-1,1.8312459E-1,4.1172898E-1,4.6080396E-2,3.7387364E-2,1.0932652E-1,1.1199188E-1,1.655685E-1,7.245297E-2,-7.33684E-3,4.0561244E-2,-6.0401615E-2,-8.9309774E-2,4.5380384E-2,-1.4355823E-1,1.2545201E-1,2.894E-3,2.6760057E-1,-1.8434483E-1,5.119265E-2,1.965871E-1,-3.94606E-2],"split_indices":[13,5439,0,1279,5066,1926,1279,4553,0,14860,1926,1279,0,5439,1279,6498,0,1926,1926,0,0,11028,0,0,0,0,0,0,0,0,0,0,0],"split_type":[0,0,0,0,0,0,0,0,0,0,0,0,0,0,0,0,0,0,0,0,0,0,0,0,0,0,0,0,0,0,0,0,0],"sum_hessian":[4.883422E1,4.6924213E1,1.9100074E0,3.048756E1,1.6436655E1,2.6968071E1,3.519489E0,1.5029837E1,1.4068191E0,1.8132742E1,8.835328E0,2.188916E0,1.3305731E0,1.1935429E1,3.0944073E0,1.6501833E1,1.6309084E0,3.0182254E0,5.817103E0,1.0236182E0,1.1652979E0,1.08257065E1,1.1097229E0,2.075237E0,1.0191704E0,1.5471017E1,1.0308168E0,1.8233951E0,1.1948304E0,1.6437247E0,4.1733785E0,9.699292E0,1.1264145E0],"tree_param":{"num_deleted":"0","num_feature":"15718","num_nodes":"33","size_leaf_vector":"0"}},{"base_weights":[5.9027914E-2,2.4220617E-2,7.663884E-1,-1.2652287E-2,6.82678E-1,-5.080092E-2,6.7388874E-1,-8.79996E-2,6.785388E-1,-8.025782E-3,-5.1736444E-1,-4.915337E-2,7.3723215E-1,-6.687246E-1,1.5419169E-1],"categories":[],"categories_nodes":[],"categories_segments":[],"categories_sizes":[],"default_left":[true,true,false,true,false,true,false,true,false,true,true,false,false,false,false],"id":26,"left_children":[1,3,-1,5,-1,7,-1,9,-1,11,13,-1,-1,-1,-1],"loss_changes":[1.1757957E0,1.156237E0,0E0,1.2322444E0,0E0,1.2606137E0,0E0,1.472418E0,0E0,1.178436E0,7.8781104E-1,0E0,0E0,0E0,0E0],"parents":[2147483647,0,0,1,1,3,3,5,5,7,7,9,9,10,10],"right_children":[2,4,-1,6,-1,8,-1,10,-1,12,14,-1,-1,-1,-1],"split_conditions":[1.1039099E-1,2.5E-1,2.2991653E-1,9.974197E-2,2.048034E-1,1.4030914E-1,2.0216663E-1,2.3611185E-1,2.0356165E-1,3.4982115E-1,1.6533986E-1,-1.4746011E-2,2.2116965E-1,-2.0061739E-1,4.6257507E-2],"split_indices":[9505,7,0,9486,0,9498,0,3127,0,11785,11421,0,0,0,0],"split_type":[0,0,0,0,0,0,0,0,0,0,0,0,0,0,0],"sum_hessian":[4.7509125E1,4.626671E1,1.2424185E0,4.474199E1,1.5247183E0,4.326397E1,1.4780198E0,4.200112E1,1.2628491E0,3.6265057E1,5.7360644E0,3.5253605E1,1.0114499E0,4.684463E0,1.0516013E0],"tree_param":{"num_deleted":"0","num_feature":"15718","num_nodes":"15","size_leaf_vector":"0"}},{"base_weights":[6.1754555E-2,1.0976971E-1,-3.9588785E-1,1.4546676E-1,-5.345333E-1,-4.6166685E-1,-9.603585E-2,1.04712084E-1,8.1690884E-1,6.656046E-2,8.03882E-1,1.636244E-2,5.49131E-1,-2.9597862E-2,6.3728815E-1,6.486901E-1,1.6377994E-1],"categories":[],"categories_nodes":[],"categories_segments":[],"categories_sizes":[],"default_left":[true,true,true,true,false,false,false,true,false,true,false,true,true,false,false,false,false],"id":27,"left_children":[1,3,5,7,-1,-1,-1,9,-1,11,-1,13,15,-1,-1,-1,-1],"loss_changes":[1.074788E0,1.0727441E0,4.7849417E-2,1.057633E0,0E0,0E0,0E0,1.0276726E0,0E0,9.484805E-1,0E0,1.06997E0,3.545606E-2,0E0,0E0,0E0,0E0],"parents":[2147483647,0,0,1,1,2,2,3,3,7,7,9,9,11,11,12,12],"right_children":[2,4,6,8,-1,-1,-1,10,-1,12,-1,14,16,-1,-1,-1,-1],"split_conditions":[6.442448E-2,1.862882E-1,2.3490661E-1,3.658347E-1,-1.6036001E-1,-1.3850006E-1,-2.8810756E-2,1.5351117E-1,2.4507266E-1,8.893614E-2,2.4116461E-1,1.6666667E-1,4.2633116E-2,-8.879359E-3,1.9118646E-1,1.9460703E-1,4.9133986E-2],"split_indices":[12947,4351,5439,8274,0,0,0,3087,0,14083,0,13,1926,0,0,0,0],"split_type":[0,0,0,0,0,0,0,0,0,0,0,0,0,0,0,0,0],"sum_hessian":[4.5934658E1,4.2260853E1,3.673805E0,4.0775925E1,1.4849283E0,2.5703042E0,1.1035007E0,3.953237E1,1.243554E0,3.8525356E1,1.007015E0,3.5831947E1,2.6934092E0,3.4249187E1,1.5827582E0,1.5973455E0,1.0960637E0],"tree_param":{"num_deleted":"0","num_feature":"15718","num_nodes":"17","size_leaf_vector":"0"}},{"base_weights":[5.5803817E-2,1.753443E-2,6.4521986E-1,-1.6588219E-2,7.0976883E-1,-5.3647384E-2,6.7965335E-1,-9.265874E-2,6.6229093E-1,-1.4851896E-1,4.1842884E-1,-2.6887637E-1,1.6392142E-1,7.08191E-2,7.4423504E-1],"categories":[],"categories_nodes":[],"categories_segments":[],"categories_sizes":[],"default_left":[true,true,false,true,false,true,false,true,false,true,true,false,false,false,false],"id":28,"left_children":[1,3,-1,5,-1,7,-1,9,-1,11,13,-1,-1,-1,-1],"loss_changes":[1.0338874E0,1.0638391E0,0E0,1.1569047E0,0E0,1.2387927E0,0E0,1.2285492E0,0E0,1.4568083E0,4.328543E-1,0E0,0E0,0E0,0E0],"parents":[2147483647,0,0,1,1,3,3,5,5,7,7,9,9,10,10],"right_children":[2,4,-1,6,-1,8,-1,10,-1,12,14,-1,-1,-1,-1],"split_conditions":[2.6492607E-2,2.1385194E-1,1.9356596E-1,5.765275E-1,2.1293066E-1,2.5E-1,2.0389602E-1,2.5843695E-1,1.9868729E-1,1.0286586E-1,1.0215257E-1,-8.066291E-2,4.917643E-2,2.1245731E-2,2.2327052E-1],"split_indices":[5768,5880,0,14739,0,8,0,8796,0,1926,4689,0,0,0,0],"split_type":[0,0,0,0,0,0,0,0,0,0,0,0,0,0,0],"sum_hessian":[4.5336826E1,4.353965E1,1.7971777E0,4.242444E1,1.1152118E0,4.115672E1,1.2677201E0,3.985557E1,1.3011464E0,3.656819E1,3.2873793E0,2.6499544E1,1.0068648E1,2.1794462E0,1.1079329E0],"tree_param":{"num_deleted":"0","num_feature":"15718","num_nodes":"15","size_leaf_vector":"0"}},{"base_weights":[6.34323E-2,3.147111E-2,7.035004E-1,-2.4447755E-3,6.3690484E-1,-3.4783088E-2,6.511504E-1,-8.5923925E-2,4.682956E-1,-1.2494193E-1,6.4037687E-1,1.7716983E-1,6.6059214E-1,-1.6740151E-1,5.889175E-1],"categories":[],"categories_nodes":[],"categories_segments":[],"categories_sizes":[],"default_left":[true,true,false,true,false,true,false,true,true,true,false,false,false,false,false],"id":29,"left_children":[1,3,-1,5,-1,7,-1,9,11,13,-1,-1,-1,-1,-1],"loss_changes":[8.950559E-1,8.9989346E-1,0E0,9.1934043E-1,0E0,1.1046946E0,0E0,1.1682451E0,1.0537076E-1,1.2285444E0,0E0,0E0,0E0,0E0,0E0],"parents":[2147483647,0,0,1,1,3,3,5,5,7,7,8,8,9,9],"right_children":[2,4,-1,6,-1,8,-1,10,12,14,-1,-1,-1,-1,-1],"split_conditions":[1.1039099E-1,9.974197E-2,2.1105012E-1,3.742013E-1,1.9107147E-1,2.735972E-1,1.9534513E-1,3.6368304E-1,3.1333476E-1,1.6666667E-1,1.9211307E-1,5.315095E-2,1.9817765E-1,-5.0220456E-2,1.7667526E-1],"split_indices":[9505,9486,0,3087,0,8515,0,13549,8274,13,0,0,0,0,0],"split_type":[0,0,0,0,0,0,0,0,0,0,0,0,0,0,0],"sum_hessian":[4.3834576E1,4.274911E1,1.0854671E0,4.1424507E1,1.324604E0,4.0373695E1,1.050811E0,3.7400883E1,2.9728105E0,3.627985E1,1.1210349E0,1.9468018E0,1.0260087E0,3.496563E1,1.3142196E0],"tree_param":{"num_deleted":"0","num_feature":"15718","num_nodes":"15","size_leaf_vector":"0"}},{"base_weights":[7.276868E-2,1.0500263E-1,-5.143289E-1,1.3424046E-1,-5.3634566E-1,7.03958E-2,5.2816534E-1,2.4349041E-2,6.934035E-1,8.272395E-1,-1.9809686E-1,1.2420704E-1,-5.327789E-1,-1.1139475E-2,1.2628562E0,1.7434677E-1,-4.27332E-1,-6.3736844E-1,-3.9139785E-2],"categories":[],"categories_nodes":[],"categories_segments":[],"categories_sizes":[],"default_left":[true,true,false,true,false,true,true,true,false,true,false,true,true,false,false,false,false,false,false],"id":30,"left_children":[1,3,-1,5,-1,7,9,11,-1,13,-1,15,17,-1,-1,-1,-1,-1,-1],"loss_changes":[8.7769103E-1,8.6125624E-1,0E0,9.953451E-1,0E0,1.0297107E0,1.3741634E0,2.0138068E0,0E0,1.5260427E0,0E0,9.178978E-1,2.595365E-1,0E0,0E0,0E0,0E0,0E0,0E0],"parents":[2147483647,0,0,1,1,3,3,5,5,6,6,7,7,9,9,11,11,12,12],"right_children":[2,4,-1,6,-1,8,10,12,-1,14,-1,16,18,-1,-1,-1,-1,-1,-1],"split_conditions":[2.6124626E-1,2.1340835E-1,-1.5429868E-1,8.49029E-2,-1.609037E-1,1.1461622E-1,3.2246274E-1,8.563648E-2,2.0802106E-1,2.2042934E-2,-5.942906E-2,4.0561244E-2,2.4935171E-1,-3.3418427E-3,3.788569E-1,5.2304033E-2,-1.281996E-1,-1.9121054E-1,-1.1741936E-2],"split_indices":[9723,3489,0,3486,0,13651,3493,1082,0,544,0,11028,544,0,0,0,0,0,0],"split_type":[0,0,0,0,0,0,0,0,0,0,0,0,0,0,0,0,0,0,0],"sum_hessian":[4.252487E1,4.109002E1,1.4348527E0,4.005469E1,1.0353265E0,3.5482613E1,4.5720773E0,3.400814E1,1.4744729E0,3.1399937E0,1.4320836E0,2.9498055E1,4.5100875E0,1.4068425E0,1.7331513E0,2.766679E1,1.8312632E0,3.4813216E0,1.0287657E0],"tree_param":{"num_deleted":"0","num_feature":"15718","num_nodes":"19","size_leaf_vector":"0"}},{"base_weights":[4.8348345E-2,1.406773E-2,6.01072E-1,-1.8127538E-2,6.232392E-1,2.7214516E-2,-6.1605716E-1,8.661884E-2,-3.4506032E-1,4.216322E-2,6.7729187E-1,-4.3660823E-1,3.3870906E-2,-8.210513E-3,4.9708426E-1,-1.3599764E-1,-4.887316E-1],"categories":[],"categories_nodes":[],"categories_segments":[],"categories_sizes":[],"default_left":[true,true,false,true,false,true,false,true,true,true,false,true,false,false,false,false,false],"id":31,"left_children":[1,3,-1,5,-1,7,-1,9,11,13,-1,15,-1,-1,-1,-1,-1],"loss_changes":[8.081105E-1,8.2723385E-1,0E0,1.1144053E0,0E0,8.833027E-1,0E0,8.6631835E-1,2.0597202E-1,7.5481546E-1,0E0,4.212022E-3,0E0,0E0,0E0,0E0,0E0],"parents":[2147483647,0,0,1,1,3,3,5,5,7,7,8,8,9,9,11,11],"right_children":[2,4,-1,6,-1,8,-1,10,12,14,-1,16,-1,-1,-1,-1,-1],"split_conditions":[2.6492607E-2,1.4030914E-1,1.803216E-1,2.1925724E-1,1.8697177E-1,2.3594931E-1,-1.8481715E-1,1.8178838E-1,3.021117E-1,5.56416E-2,2.0318757E-1,2.6352113E-1,1.0161272E-2,-2.463154E-3,1.4912528E-1,-4.0799294E-2,-1.4661948E-1],"split_indices":[5768,9498,0,3332,0,3127,0,3809,5439,1817,0,3127,0,0,0,0,0],"split_type":[0,0,0,0,0,0,0,0,0,0,0,0,0,0,0,0,0],"sum_hessian":[4.209578E1,4.060298E1,1.4927962E0,3.9486336E1,1.1166465E0,3.7590286E1,1.896052E0,3.3079136E1,4.5111504E0,3.1760162E1,1.3189725E0,3.5107586E0,1.0003915E0,2.9477995E1,2.2821677E0,1.0521061E0,2.4586525E0],"tree_param":{"num_deleted":"0","num_feature":"15718","num_nodes":"17","size_leaf_vector":"0"}},{"base_weights":[4.2354427E-2,7.480161E-2,-4.8077947E-1,1.0514856E-1,-5.3748584E-1,1.3771336E-1,-4.5309594E-1,9.381361E-2,8.7349707E-1,1.3225462E-1,-3.8321167E-1,7.752485E-2,5.852821E-1,-4.950148E-1,-8.1165165E-2],"categories":[],"categories_nodes":[],"categories_segments":[],"categories_sizes":[],"default_left":[true,true,false,true,false,true,false,true,false,true,true,false,false,false,false],"id":32,"left_children":[1,3,-1,5,-1,7,-1,9,-1,11,13,-1,-1,-1,-1],"loss_changes":[7.546992E-1,8.1341994E-1,0E0,7.8316295E-1,0E0,1.152896E0,0E0,7.327821E-1,0E0,8.2655495E-1,6.216377E-2,0E0,0E0,0E0,0E0],"parents":[2147483647,0,0,1,1,3,3,5,5,7,7,9,9,10,10],"right_children":[2,4,-1,6,-1,8,-1,10,-1,12,14,-1,-1,-1,-1],"split_conditions":[1.3756874E-1,2.602763E-2,-1.4423385E-1,4.9657556E-1,-1.6124576E-1,2.115058E-1,-1.359288E-1,4.589616E-2,2.6204914E-1,1.02528214E-1,1.2461839E-1,2.3257455E-2,1.7558463E-1,-1.4850444E-1,-2.434955E-2],"split_indices":[14330,873,0,4021,0,1279,0,4869,0,9349,5439,0,0,0,0],"split_type":[0,0,0,0,0,0,0,0,0,0,0,0,0,0,0],"sum_hessian":[4.13428E1,3.973525E1,1.6075513E0,3.8648E1,1.0872511E0,3.722955E1,1.4184493E0,3.6197372E1,1.0321759E0,3.4166798E1,2.030575E0,3.1528946E1,2.6378531E0,1.0157307E0,1.0148442E0],"tree_param":{"num_deleted":"0","num_feature":"15718","num_nodes":"15","size_leaf_vector":"0"}},{"base_weights":[2.4505096E-2,-5.5976445E-3,6.0166276E-1,-3.5884272E-2,6.000281E-1,-6.853706E-2,5.828128E-1,-1.0098546E-1,5.361347E-1,-1.362077E-1,5.2352846E-1,-2.023458E-1,2.4479707E-1],"categories":[],"categories_nodes":[],"categories_segments":[],"categories_sizes":[],"default_left":[true,true,false,true,false,true,false,true,false,true,false,false,false],"id":33,"left_children":[1,3,-1,5,-1,7,-1,9,-1,11,-1,-1,-1],"loss_changes":[7.384357E-1,7.772722E-1,0E0,8.5173196E-1,0E0,8.20593E-1,0E0,9.053282E-1,0E0,9.73952E-1,0E0,0E0,0E0],"parents":[2147483647,0,0,1,1,3,3,5,5,7,7,9,9],"right_children":[2,4,-1,6,-1,8,-1,10,-1,12,-1,-1,-1],"split_conditions":[2.5E-1,2.7287203E-1,1.8049884E-1,9.974197E-2,1.8000844E-1,2.6492607E-2,1.7484385E-1,3.658347E-1,1.6084042E-1,1.6567218E-1,1.5705854E-1,-6.0703743E-2,7.343912E-2],"split_indices":[8,10236,0,9486,0,5768,0,8274,0,1926,0,0,0],"split_type":[0,0,0,0,0,0,0,0,0,0,0,0,0],"sum_hessian":[4.130843E1,4.0201923E1,1.1065055E0,3.918317E1,1.0187557E0,3.8063526E1,1.1196434E0,3.6915527E1,1.1480005E0,3.568482E1,1.2307065E0,3.0806139E1,4.8786807E0],"tree_param":{"num_deleted":"0","num_feature":"15718","num_nodes":"13","size_leaf_vector":"0"}},{"base_weights":[3.8876634E-2,7.221251E-2,-4.303745E-1,4.0486336E-2,6.336735E-1,7.7857226E-2,-4.188224E-1,2.8271418E-2,6.248201E-1,-2.6537724E-2,4.7368413E-1,-7.52642E-2,4.474691E-1],"categories":[],"categories_nodes":[],"categories_segments":[],"categories_sizes":[],"default_left":[true,true,false,true,false,true,false,true,false,true,false,false,false],"id":34,"left_children":[1,3,-1,5,-1,7,-1,9,-1,11,-1,-1,-1],"loss_changes":[6.7248684E-1,6.715426E-1,0E0,6.868385E-1,0E0,9.6115756E-1,0E0,8.459628E-1,0E0,7.576247E-1,0E0,0E0,0E0],"parents":[2147483647,0,0,1,1,3,3,5,5,7,7,9,9],"right_children":[2,4,-1,6,-1,8,-1,10,-1,12,-1,-1,-1],"split_conditions":[7.108453E-2,3.742013E-1,-1.2911236E-1,8.0687754E-2,1.9010206E-1,2.9515487E-1,-1.2564673E-1,2.5843695E-1,1.8744604E-1,1.5921782E-1,1.4210525E-1,-2.257926E-2,1.3424073E-1],"split_indices":[9723,3087,0,3734,0,8274,0,8796,0,14638,0,0,0],"split_type":[0,0,0,0,0,0,0,0,0,0,0,0,0],"sum_hessian":[4.0003166E1,3.8139805E1,1.8633633E0,3.7114693E1,1.0251112E0,3.5090134E1,2.0245597E0,3.3137672E1,1.9524615E0,3.0344166E1,2.7935052E0,2.8278444E1,2.0657222E0],"tree_param":{"num_deleted":"0","num_feature":"15718","num_nodes":"13","size_leaf_vector":"0"}},{"base_weights":[3.5537478E-2,3.2737816E-3,6.5567493E-1,4.5053456E-2,-4.0329632E-1,1.3215598E-2,5.9140754E-1,-2.4122475E-2,5.2211934E-1,-7.137677E-2,4.868928E-1,-1.1908112E-1,4.3260142E-1,2.9797772E-2,7.094585E-1],"categories":[],"categories_nodes":[],"categories_segments":[],"categories_sizes":[],"default_left":[true,true,false,true,false,true,false,true,false,true,true,false,false,false,false],"id":35,"left_children":[1,3,-1,5,-1,7,-1,9,-1,11,13,-1,-1,-1,-1],"loss_changes":[8.126381E-1,6.927699E-1,0E0,6.3427514E-1,0E0,6.948088E-1,0E0,8.655505E-1,0E0,8.2962894E-1,2.8813297E-1,0E0,0E0,0E0,0E0],"parents":[2147483647,0,0,1,1,3,3,5,5,7,7,9,9,10,10],"right_children":[2,4,-1,6,-1,8,-1,10,-1,12,14,-1,-1,-1,-1],"split_conditions":[1.0819448E-1,6.442448E-2,1.967025E-1,3.1859273E-1,-1.209889E-1,1.7929766E-1,1.7742227E-1,2.739163E-1,1.566358E-1,7.947088E-2,2.707984E-2,-3.572434E-2,1.2978043E-1,8.939332E-3,2.1283755E-1],"split_indices":[5880,12947,0,3087,0,3809,0,4553,0,1817,1926,0,0,0,0],"split_type":[0,0,0,0,0,0,0,0,0,0,0,0,0,0,0],"sum_hessian":[3.9723095E1,3.8714203E1,1.0088925E0,3.591293E1,2.8012729E0,3.4903194E1,1.0097358E0,3.340489E1,1.4983045E0,3.136486E1,2.0400288E0,2.9350399E1,2.0144613E0,1.0393479E0,1.0006809E0],"tree_param":{"num_deleted":"0","num_feature":"15718","num_nodes":"15","size_leaf_vector":"0"}},{"base_weights":[4.2656694E-2,1.3371692E-2,5.6320196E-1,-4.9804907E-2,3.1148764E-1,1.5653916E-2,-4.9159542E-1,6.685344E-1,-7.508933E-2,-5.5435635E-2,4.7027254E-1,2.140707E-1,8.849672E-1,-2.6996294E-1,2.3466088E-1,-1.8246107E-1,2.4620166E-1,8.1015766E-1,8.207182E-2,9.6170545E-2,-5.107758E-1,-2.9214227E-1,4.5622003E-1,7.4294016E-2,5.9799033E-1],"categories":[],"categories_nodes":[],"categories_segments":[],"categories_sizes":[],"default_left":[true,true,false,true,true,true,false,true,true,true,true,false,false,true,false,true,true,false,false,false,false,false,false,false,false],"id":36,"left_children":[1,3,-1,5,7,9,-1,11,13,15,17,-1,-1,19,-1,21,23,-1,-1,-1,-1,-1,-1,-1,-1],"loss_changes":[6.0459626E-1,7.5079924E-1,0E0,9.642194E-1,1.0114918E0,9.884114E-1,0E0,1.7660916E-1,3.194676E-1,1.0658278E0,4.787051E-1,0E0,0E0,3.1975743E-1,0E0,1.4869103E0,4.5880163E-1,0E0,0E0,0E0,0E0,0E0,0E0,0E0,0E0],"parents":[2147483647,0,0,1,1,3,3,4,4,5,5,7,7,8,8,9,9,10,10,13,13,15,15,16,16],"right_children":[2,4,-1,6,8,10,-1,12,14,16,18,-1,-1,20,-1,22,24,-1,-1,-1,-1,-1,-1,-1,-1],"split_conditions":[2.5E-1,8.480289E-2,1.689606E-1,9.793575E-2,1.0635816E-1,1.2590605E-1,-1.4747863E-1,2.6953423E-1,2.5970152E-1,2.3576236E-1,1.748013E-1,6.422121E-2,2.6549017E-1,2.1428573E-1,7.039826E-2,8.893614E-2,1.2369588E-1,2.4304731E-1,2.4621546E-2,2.8851165E-2,-1.5323275E-1,-8.7642685E-2,1.3686602E-1,2.2288205E-2,1.793971E-1],"split_indices":[31,3454,0,1082,1926,1926,0,3454,544,5439,1926,0,0,15423,0,14083,8796,0,0,0,0,0,0,0,0],"split_type":[0,0,0,0,0,0,0,0,0,0,0,0,0,0,0,0,0,0,0,0,0,0,0,0,0],"sum_hessian":[3.9154842E1,3.8040436E1,1.1144031E0,3.2075867E1,5.9645696E0,2.8776678E1,3.29919E0,2.721548E0,3.2430215E0,2.564464E1,3.1320384E0,1.5196618E0,1.2018863E0,2.0694897E0,1.1735317E0,1.8323395E1,7.3212457E0,1.090397E0,2.0416415E0,1.0594052E0,1.0100846E0,1.610095E1,2.2224438E0,5.7315927E0,1.589653E0],"tree_param":{"num_deleted":"0","num_feature":"15718","num_nodes":"25","size_leaf_vector":"0"}},{"base_weights":[4.8162904E-2,1.8796569E-2,5.5216426E-1,-1.1138755E-2,5.6950396E-1,-4.0557235E-2,5.1508003E-1,-6.989711E-2,4.7013065E-1,-2.4781138E-2,-5.235489E-1,-8.719495E-2,3.0411282E-1],"categories":[],"categories_nodes":[],"categories_segments":[],"categories_sizes":[],"default_left":[true,true,false,true,false,true,false,true,false,true,false,false,false],"id":37,"left_children":[1,3,-1,5,-1,7,-1,9,-1,11,-1,-1,-1],"loss_changes":[5.7558537E-1,6.4014643E-1,0E0,6.005528E-1,0E0,5.7809675E-1,0E0,7.091525E-1,0E0,7.068154E-1,0E0,0E0,0E0],"parents":[2147483647,0,0,1,1,3,3,5,5,7,7,9,9],"right_children":[2,4,-1,6,-1,8,-1,10,-1,12,-1,-1,-1],"split_conditions":[1.6666667E-1,2.5E-1,1.6564928E-1,2.6492607E-2,1.708512E-1,2.5E-1,1.5452401E-1,6.442448E-2,1.4103921E-1,1.8492368E-1,-1.5706468E-1,-2.6158486E-2,9.123385E-2],"split_indices":[13,8,0,5768,0,31,0,12947,0,8515,0,0,0],"split_type":[0,0,0,0,0,0,0,0,0,0,0,0,0],"sum_hessian":[3.8590374E1,3.7445835E1,1.1445388E0,3.6444557E1,1.0012777E0,3.5389046E1,1.0555123E0,3.4282585E1,1.1064605E0,3.214079E1,2.1417966E0,2.7631985E1,4.5088043E0],"tree_param":{"num_deleted":"0","num_feature":"15718","num_nodes":"13","size_leaf_vector":"0"}},{"base_weights":[4.8854098E-2,7.86915E-2,-4.1371813E-1,1.1115491E-1,-3.961264E-1,1.4271532E-1,-4.0595943E-1,1.7544545E-1,-3.911945E-1,2.0752129E-1,-4.194194E-1,1.64245E-1,7.470028E-1],"categories":[],"categories_nodes":[],"categories_segments":[],"categories_sizes":[],"default_left":[true,true,false,true,false,true,false,true,false,true,false,false,false],"id":38,"left_children":[1,3,-1,5,-1,7,-1,9,-1,11,-1,-1,-1],"loss_changes":[5.648627E-1,6.1544675E-1,0E0,6.3697004E-1,0E0,6.658976E-1,0E0,7.146913E-1,0E0,6.2161565E-1,0E0,0E0,0E0],"parents":[2147483647,0,0,1,1,3,3,5,5,7,7,9,9],"right_children":[2,4,-1,6,-1,8,-1,10,-1,12,-1,-1,-1],"split_conditions":[1.1364415E-1,6.1719142E-2,-1.24115445E-1,7.108453E-2,-1.1883792E-1,4.5623767E-1,-1.2178783E-1,3E-1,-1.1735835E-1,2.115058E-1,-1.2582582E-1,4.9273502E-2,2.2410084E-1],"split_indices":[8461,8146,0,9723,0,4021,0,15656,0,1279,0,0,0],"split_type":[0,0,0,0,0,0,0,0,0,0,0,0,0],"sum_hessian":[3.7567493E1,3.60707E1,1.4967935E0,3.4479248E1,1.591454E0,3.317833E1,1.3009168E0,3.1894505E1,1.2838259E0,3.0880533E1,1.01397E0,2.9794888E1,1.0856456E0],"tree_param":{"num_deleted":"0","num_feature":"15718","num_nodes":"13","size_leaf_vector":"0"}},{"base_weights":[2.395553E-2,4.9654096E-2,-4.5503595E-1,7.740994E-2,-4.4840562E-1,1.2467831E-2,3.959184E-1,-3.6803436E-2,4.429965E-1,5.811919E-1,-1.5863565E-1,-1.1229955E-1,2.9283476E-1,-2.266918E-2,6.5519327E-1,1.739435E-1,1.0450426E0,-1.8467227E-1,2.9433084E-1,6.1970246E-1,-1.0104951E-2,3.6539984E-1,-1.564143E-1],"categories":[],"categories_nodes":[],"categories_segments":[],"categories_sizes":[],"default_left":[true,true,false,true,false,true,true,true,true,true,false,true,true,false,false,true,false,false,false,false,false,false,false],"id":39,"left_children":[1,3,-1,5,-1,7,9,11,13,15,-1,17,19,-1,-1,21,-1,-1,-1,-1,-1,-1,-1],"loss_changes":[5.000814E-1,5.561117E-1,0E0,7.516805E-1,0E0,6.827256E-1,7.2536325E-1,7.574107E-1,3.4121877E-1,7.313186E-1,0E0,7.727417E-1,5.709214E-1,0E0,0E0,2.9582882E-1,0E0,0E0,0E0,0E0,0E0,0E0,0E0],"parents":[2147483647,0,0,1,1,3,3,5,5,6,6,7,7,8,8,9,9,11,11,12,12,15,15],"right_children":[2,4,-1,6,-1,8,10,12,14,16,-1,18,20,-1,-1,22,-1,-1,-1,-1,-1,-1,-1],"split_conditions":[3.5360885E-1,1.4892313E-1,-1.3651079E-1,8.480289E-2,-1.345217E-1,1.02528214E-1,3.2246274E-1,1.2403406E-1,2.3826915E-1,2.6927018E-1,-4.7590695E-2,1.5492535E-1,1.6816005E-1,-6.800754E-3,1.9655798E-1,3.1837928E-1,3.135128E-1,-5.5401683E-2,8.829925E-2,1.8591075E-1,-3.0314855E-3,1.0961995E-1,-4.6924293E-2],"split_indices":[12008,3489,0,3454,0,9349,3493,1926,14682,3486,0,4689,1926,0,0,3454,0,0,0,0,0,0,0],"split_type":[0,0,0,0,0,0,0,0,0,0,0,0,0,0,0,0,0,0,0,0,0,0,0],"sum_hessian":[3.7790455E1,3.6716877E1,1.0735759E0,3.5578728E1,1.138152E0,3.0416182E1,5.1625457E0,2.8113308E1,2.3028736E0,3.8336945E0,1.328851E0,2.34109E1,4.702408E0,1.0004832E0,1.3023905E0,2.7735724E0,1.0601221E0,2.0337116E1,3.0737844E0,1.7589239E0,2.9434838E0,1.68878E0,1.0847924E0],"tree_param":{"num_deleted":"0","num_feature":"15718","num_nodes":"23","size_leaf_vector":"0"}},{"base_weights":[2.763329E-2,-1.3092401E-3,5.513449E-1,3.102176E-2,-4.2895326E-1,-8.797854E-4,5.0223935E-1,3.9624568E-2,-4.2994013E-1,7.766665E-2,-4.6155843E-1,1.2778574E-1,-2.785652E-1],"categories":[],"categories_nodes":[],"categories_segments":[],"categories_sizes":[],"default_left":[true,true,false,true,false,true,false,true,false,true,false,false,false],"id":40,"left_children":[1,3,-1,5,-1,7,-1,9,-1,11,-1,-1,-1],"loss_changes":[5.8065647E-1,5.2839214E-1,0E0,5.351263E-1,0E0,6.1332655E-1,0E0,6.510571E-1,0E0,5.8633614E-1,0E0,0E0,0E0],"parents":[2147483647,0,0,1,1,3,3,5,5,7,7,9,9],"right_children":[2,4,-1,6,-1,8,-1,10,-1,12,-1,-1,-1],"split_conditions":[9.974197E-2,4.58375E-2,1.6540347E-1,7.850327E-2,-1.2868598E-1,4.5997941E-1,1.5067181E-1,1.9510407E-2,-1.2898205E-1,2.3611185E-1,-1.3846754E-1,3.8335726E-2,-8.3569564E-2],"split_indices":[9486,4869,0,14622,0,14682,0,1400,0,3127,0,0,0],"split_type":[0,0,0,0,0,0,0,0,0,0,0,0,0],"sum_hessian":[3.726047E1,3.62544E1,1.0060723E0,3.4568398E1,1.686002E0,3.3311344E1,1.2570533E0,3.1267284E1,2.0440605E0,2.9846807E1,1.4204757E0,2.6727709E1,3.1190991E0],"tree_param":{"num_deleted":"0","num_feature":"15718","num_nodes":"13","size_leaf_vector":"0"}},{"base_weights":[1.5405424E-2,-1.1309429E-2,4.7729835E-1,-3.746202E-2,4.620336E-1,-6.832089E-2,4.7548383E-1,-1.3770136E-2,-5.0919193E-1,-6.0346644E-2,7.040843E-1,-6.3646597E-1,-1.5550514E-1,-1.3590052E-2,-5.9331685E-1],"categories":[],"categories_nodes":[],"categories_segments":[],"categories_sizes":[],"default_left":[true,true,false,true,false,true,false,true,true,true,false,false,false,false,false],"id":41,"left_children":[1,3,-1,5,-1,7,-1,9,11,13,-1,-1,-1,-1,-1],"loss_changes":[4.751665E-1,4.7491544E-1,0E0,6.016222E-1,0E0,8.296706E-1,0E0,1.111967E0,7.2212875E-2,7.63425E-1,0E0,0E0,0E0,0E0,0E0],"parents":[2147483647,0,0,1,1,3,3,5,5,7,7,8,8,9,9],"right_children":[2,4,-1,6,-1,8,-1,10,12,14,-1,-1,-1,-1,-1],"split_conditions":[3.3447477E-1,2.4510735E-1,1.431895E-1,3.0267346E-1,1.3861008E-1,1.7094807E-1,1.4264515E-1,1.5870017E-1,1.9900481E-1,1.2748376E-1,2.1122529E-1,-1.909398E-1,-4.6651542E-2,-4.077016E-3,-1.7799506E-1],"split_indices":[13620,1926,0,544,0,1926,0,1926,1926,1926,0,0,0,0,0],"split_type":[0,0,0,0,0,0,0,0,0,0,0,0,0,0,0],"sum_hessian":[3.707061E1,3.596594E1,1.1046743E0,3.4955475E1,1.0104619E0,3.37895E1,1.165973E0,3.0986635E1,2.8028674E0,2.9958757E1,1.0278777E0,1.4732137E0,1.3296536E0,2.8485289E1,1.4734684E0],"tree_param":{"num_deleted":"0","num_feature":"15718","num_nodes":"15","size_leaf_vector":"0"}},{"base_weights":[1.5164008E-2,-1.0276607E-2,4.4937652E-1,-4.301016E-2,3.4944612E-1,-7.4601814E-2,4.2704204E-1,-5.2250866E-2,6.094006E-1,-1.1547322E-1,3.184865E-1,-1.5320307E-1,4.3847373E-1,6.7145773E-3,4.8617348E-1,-1.8703239E-1,4.0605995E-1],"categories":[],"categories_nodes":[],"categories_segments":[],"categories_sizes":[],"default_left":[true,true,false,true,true,true,false,false,false,true,true,true,false,false,false,false,false],"id":42,"left_children":[1,3,-1,5,7,9,-1,-1,-1,11,13,15,-1,-1,-1,-1,-1],"loss_changes":[4.2167175E-1,4.464891E-1,0E0,5.4382014E-1,3.624223E-1,5.694681E-1,0E0,0E0,0E0,7.102258E-1,1.7390412E-1,6.3495225E-1,0E0,0E0,0E0,0E0,0E0],"parents":[2147483647,0,0,1,1,3,3,4,4,5,5,9,9,10,10,11,11],"right_children":[2,4,-1,6,8,10,-1,-1,-1,12,14,16,-1,-1,-1,-1,-1],"split_conditions":[3.7019122E-1,2.739163E-1,1.3481297E-1,1.9733703E-1,5.885636E-2,2.1450025E-1,1.2811261E-1,-1.567526E-2,1.8282017E-1,3.1547725E-1,5.0645344E-2,5.4400265E-1,1.3154213E-1,2.0143732E-3,1.4585204E-1,-5.610972E-2,1.2181799E-1],"split_indices":[11785,4553,0,3809,1926,14638,0,0,0,8796,1926,3458,0,0,0,0,0],"split_type":[0,0,0,0,0,0,0,0,0,0,0,0,0,0,0,0,0],"sum_hessian":[3.6753918E1,3.564198E1,1.1119393E0,3.3476192E1,2.1657853E0,3.2156296E1,1.3198966E0,1.1648265E0,1.0009588E0,2.9767462E1,2.3888342E0,2.8546562E1,1.2208997E0,1.1992227E0,1.1896116E0,2.7545908E1,1.0006543E0],"tree_param":{"num_deleted":"0","num_feature":"15718","num_nodes":"17","size_leaf_vector":"0"}},{"base_weights":[3.063478E-2,3.8001845E-3,5.017522E-1,3.0034322E-2,-4.261039E-1,1.2907406E-3,5.0048244E-1,3.804197E-2,-4.907488E-1,-7.1137743E-3,5.2699995E-1,2.7582994E-2,-4.278105E-1],"categories":[],"categories_nodes":[],"categories_segments":[],"categories_sizes":[],"default_left":[true,true,false,true,false,true,false,true,false,true,false,false,false],"id":43,"left_children":[1,3,-1,5,-1,7,-1,9,-1,11,-1,-1,-1],"loss_changes":[4.6936062E-1,4.2192388E-1,0E0,4.743101E-1,0E0,6.3537186E-1,0E0,7.248957E-1,0E0,4.626532E-1,0E0,0E0,0E0],"parents":[2147483647,0,0,1,1,3,3,5,5,7,7,9,9],"right_children":[2,4,-1,6,-1,8,-1,10,-1,12,-1,-1,-1],"split_conditions":[2.6492607E-2,1.3756874E-1,1.5052566E-1,3.6833978E-1,-1.2783118E-1,7.904652E-2,1.5014474E-1,2.9515487E-1,-1.4722465E-1,6.395633E-2,1.581E-1,8.274899E-3,-1.2834315E-1],"split_indices":[5768,14330,0,3087,0,3734,0,8274,0,12008,0,0,0],"split_type":[0,0,0,0,0,0,0,0,0,0,0,0,0],"sum_hessian":[3.6277187E1,3.5275955E1,1.001233E0,3.412375E1,1.1522046E0,3.31039E1,1.0198487E0,3.166172E1,1.4421802E0,2.9887072E1,1.7746489E0,2.8473194E1,1.4138786E0],"tree_param":{"num_deleted":"0","num_feature":"15718","num_nodes":"13","size_leaf_vector":"0"}},{"base_weights":[2.272039E-2,4.7729567E-2,-3.557395E-1,7.223297E-2,-3.820831E-1,3.892961E-2,4.722983E-1,7.701895E-2,-5.073762E-1,4.3007345E-3,2.9783896E-1,-8.31799E-2,2.7127123E-1,3.928488E-1,-1.558349E-1],"categories":[],"categories_nodes":[],"categories_segments":[],"categories_sizes":[],"default_left":[true,true,false,true,false,true,false,true,false,true,true,false,false,false,false],"id":44,"left_children":[1,3,-1,5,-1,7,-1,9,-1,11,13,-1,-1,-1,-1],"loss_changes":[3.6687964E-1,4.02093E-1,0E0,4.410265E-1,0E0,7.241194E-1,0E0,5.0684446E-1,0E0,6.0221446E-1,3.984818E-1,0E0,0E0,0E0,0E0],"parents":[2147483647,0,0,1,1,3,3,5,5,7,7,9,9,10,10],"right_children":[2,4,-1,6,-1,8,-1,10,-1,12,14,-1,-1,-1,-1],"split_conditions":[6.1719142E-2,1.4892313E-1,-1.06721856E-1,2.5970152E-1,-1.1462493E-1,3.9313632E-1,1.416895E-1,1.0314207E-1,-1.5221286E-1,3.388822E-2,1.25E-1,-2.495397E-2,8.138137E-2,1.1785464E-1,-4.675047E-2],"split_indices":[8146,3489,0,544,0,3454,0,1926,0,7208,6,0,0,0,0],"split_type":[0,0,0,0,0,0,0,0,0,0,0,0,0,0,0],"sum_hessian":[3.596793E1,3.4558163E1,1.4097683E0,3.348135E1,1.0768117E0,3.192137E1,1.5599797E0,3.064385E1,1.2775208E0,2.381937E1,6.8244786E0,1.8459131E1,5.3602395E0,5.753611E0,1.0708675E0],"tree_param":{"num_deleted":"0","num_feature":"15718","num_nodes":"15","size_leaf_vector":"0"}},{"base_weights":[1.1794748E-2,-1.10281445E-2,3.8998267E-1,-3.5953842E-2,3.8640416E-1,-1.0021525E-1,1.5601477E-1,-1.4917894E-1,3.2900143E-1,1.2455601E-2,6.358744E-1,-1.9456264E-1,3.5326663E-1,6.4487094E-1,-1.560685E-1,-9.9284574E-2,2.9779062E-1,-2.859826E-1,2.2121152E-1,-2.8068203E-1,1.882547E-1],"categories":[],"categories_nodes":[],"categories_segments":[],"categories_sizes":[],"default_left":[true,true,false,true,false,true,true,true,true,true,false,true,false,false,false,true,false,false,false,false,false],"id":45,"left_children":[1,3,-1,5,-1,7,9,11,13,15,-1,17,-1,-1,-1,19,-1,-1,-1,-1,-1],"loss_changes":[3.232539E-1,3.6875814E-1,0E0,4.427514E-1,0E0,6.070272E-1,6.172019E-1,6.2781703E-1,5.64965E-1,2.8478548E-1,0E0,9.4250745E-1,0E0,0E0,0E0,3.9198366E-1,0E0,0E0,0E0,0E0,0E0],"parents":[2147483647,0,0,1,1,3,3,5,5,6,6,7,7,8,8,9,9,11,11,15,15],"right_children":[2,4,-1,6,-1,8,10,12,14,16,-1,18,-1,-1,-1,20,-1,-1,-1,-1,-1],"split_conditions":[3.742013E-1,3.032282E-1,1.16994806E-1,3.584938E-2,1.1592125E-1,1.0156023E-1,5.4546766E-2,1.25E-1,2.6478922E-1,2.111483E-1,1.9076233E-1,2.6953423E-1,1.05979994E-1,1.9346128E-1,-4.682055E-2,1.3210389E-1,8.9337185E-2,-8.5794784E-2,6.636346E-2,-8.4204614E-2,5.647641E-2],"split_indices":[3087,4553,0,1279,0,7281,1817,16,7281,1279,0,3454,0,0,0,3127,0,0,0,0,0],"split_type":[0,0,0,0,0,0,0,0,0,0,0,0,0,0,0,0,0,0,0,0,0],"sum_hessian":[3.5952896E1,3.482228E1,1.1306162E0,3.362308E1,1.1991986E0,2.5548645E1,8.074438E0,2.3518202E1,2.0304434E0,7.004781E0,1.0696571E0,2.2131893E1,1.3863078E0,1.0301728E0,1.0002706E0,5.502131E0,1.5026499E0,1.8398598E1,3.7332957E0,3.3883803E0,2.1137507E0],"tree_param":{"num_deleted":"0","num_feature":"15718","num_nodes":"21","size_leaf_vector":"0"}},{"base_weights":[2.7247908E-2,4.881129E-2,-3.6084494E-1,7.385278E-2,-3.2382962E-1,9.81255E-2,-3.5003388E-1,1.2360551E-1,-3.0069715E-1,1.4901578E-1,-2.8060478E-1,1.7943315E-1,-3.0907044E-1],"categories":[],"categories_nodes":[],"categories_segments":[],"categories_sizes":[],"default_left":[true,true,false,true,false,true,false,true,false,true,false,false,false],"id":46,"left_children":[1,3,-1,5,-1,7,-1,9,-1,11,-1,-1,-1],"loss_changes":[3.1960157E-1,3.5114527E-1,0E0,3.8080928E-1,0E0,3.68761E-1,0E0,3.6411986E-1,0E0,4.759373E-1,0E0,0E0,0E0],"parents":[2147483647,0,0,1,1,3,3,5,5,7,7,9,9],"right_children":[2,4,-1,6,-1,8,-1,10,-1,12,-1,-1,-1],"split_conditions":[1.4892313E-1,2.9340434E-1,-1.0825349E-1,5.579845E-1,-9.714889E-2,2.4554032E-1,-1.0501017E-1,7.108453E-2,-9.020915E-2,4.0561244E-2,-8.4181435E-2,5.382995E-2,-9.2721134E-2],"split_indices":[3489,12008,0,4021,0,3332,0,9723,0,11028,0,0,0],"split_type":[0,0,0,0,0,0,0,0,0,0,0,0,0],"sum_hessian":[3.50859E1,3.4067265E1,1.0186325E0,3.2673424E1,1.3938429E0,3.1630686E1,1.042736E0,3.037985E1,1.2508359E0,2.917701E1,1.2028418E0,2.7930681E1,1.2463267E0],"tree_param":{"num_deleted":"0","num_feature":"15718","num_nodes":"13","size_leaf_vector":"0"}},{"base_weights":[3.6755172E-3,-4.2290907E-2,1.9144014E-1,-7.6051556E-2,4.1797304E-1,5.5115014E-1,-2.0582387E-2,-3.2906316E-2,-5.119935E-1,-1.9989973E-1,3.689141E-1,-6.83051E-2,4.35007E-1,-3.310038E-1,8.26334E-2,-1.0766099E-1,3.9754418E-1,-1.4483823E-1,3.7963796E-1],"categories":[],"categories_nodes":[],"categories_segments":[],"categories_sizes":[],"default_left":[true,true,true,true,false,false,true,true,false,true,false,true,false,false,false,true,false,false,false],"id":47,"left_children":[1,3,5,7,-1,-1,9,11,-1,13,-1,15,-1,-1,-1,17,-1,-1,-1],"loss_changes":[3.211124E-1,4.9723238E-1,5.6910884E-1,5.239582E-1,0E0,0E0,4.624425E-1,4.8077342E-1,0E0,1.9253318E-1,0E0,5.228018E-1,0E0,0E0,0E0,5.0660074E-1,0E0,0E0,0E0],"parents":[2147483647,0,0,1,1,2,2,3,3,6,6,7,7,9,9,11,11,15,15],"right_children":[2,4,6,8,-1,-1,10,12,-1,14,-1,16,-1,-1,-1,18,-1,-1,-1],"split_conditions":[2.7022782E-1,7.850327E-2,1.6666667E-1,2.7553773E-1,1.2539192E-1,1.6534504E-1,1.7517143E-1,3.0024832E-1,-1.5359807E-1,8.039271E-2,1.1067423E-1,1.9519138E-1,1.305021E-1,-9.930114E-2,2.479002E-2,2.6649308E-1,1.19263254E-1,-4.345147E-2,1.1389139E-1],"split_indices":[5439,14622,15502,8796,0,0,8274,4553,0,1926,0,11820,0,0,0,10622,0,0,0],"split_type":[0,0,0,0,0,0,0,0,0,0,0,0,0,0,0,0,0,0,0],"sum_hessian":[3.526706E1,2.8953707E1,6.3133545E0,2.7752787E1,1.2009189E0,1.7481003E0,4.565254E0,2.6232079E1,1.520709E0,3.459387E0,1.105867E0,2.518109E1,1.0509889E0,2.245738E0,1.2136489E0,2.3928457E1,1.2526314E0,2.288526E1,1.0431993E0],"tree_param":{"num_deleted":"0","num_feature":"15718","num_nodes":"19","size_leaf_vector":"0"}},{"base_weights":[1.5560637E-2,-8.788702E-3,3.3292118E-1,5.3605366E-2,-3.497946E-1,1.0436639E-1,-2.4525376E-1,-4.6793205E-1,8.373388E-2,5.9972256E-2,5.523185E-1,-3.809472E-1,7.484581E-2,1.9266525E-2,4.0892813E-1,5.856559E-2,-2.9805934E-1],"categories":[],"categories_nodes":[],"categories_segments":[],"categories_sizes":[],"default_left":[true,true,false,true,true,true,true,false,false,true,false,false,false,true,false,false,false],"id":48,"left_children":[1,3,-1,5,7,9,11,-1,-1,13,-1,-1,-1,15,-1,-1,-1],"loss_changes":[2.7787137E-1,7.4256396E-1,0E0,4.7500956E-1,3.1547213E-1,4.8441538E-1,2.2829992E-1,0E0,0E0,3.4439185E-1,0E0,0E0,0E0,3.0750558E-1,0E0,0E0,0E0],"parents":[2147483647,0,0,1,1,3,3,4,4,5,5,6,6,9,9,13,13],"right_children":[2,4,-1,6,8,10,12,-1,-1,14,-1,-1,-1,16,-1,-1,-1],"split_conditions":[4.166667E-1,3.0879653E-1,9.987636E-2,3.098277E-1,3.4656847E-1,3.1385314E-1,4.505597E-2,-1.4037962E-1,2.5120165E-2,8.8428274E-2,1.6569556E-1,-1.14284165E-1,2.2453744E-2,5.216066E-2,1.22678444E-1,1.7569678E-2,-8.941781E-2],"split_indices":[15705,14682,0,7788,7788,8274,1279,0,0,14083,0,0,0,13205,0,0,0],"split_type":[0,0,0,0,0,0,0,0,0,0,0,0,0,0,0,0,0],"sum_hessian":[3.4580036E1,3.301898E1,1.5610588E0,2.8624361E1,4.3946157E0,2.5024714E1,3.5996473E0,3.3911602E0,1.0034556E0,2.3799913E1,1.2248011E0,2.3945034E0,1.2051439E0,2.2258652E1,1.5412614E0,2.0531391E1,1.7272596E0],"tree_param":{"num_deleted":"0","num_feature":"15718","num_nodes":"17","size_leaf_vector":"0"}},{"base_weights":[1.3222334E-2,-1.4821973E-2,2.9270408E-1,1.0446836E-2,-3.8899294E-1,4.6938556E-1,-2.6043063E-2,-3.6497116E-2,2.1010354E-1,-7.6691195E-2,3.3616498E-1,5.471295E-1,-1.17714375E-1,-1.5096945E-1,1.9212802E-1,-2.8338817E-1,5.5085737E-2,-1.9773151E-1,3.7052503E-1,4.3158048E-1,-3.2119162E-2],"categories":[],"categories_nodes":[],"categories_segments":[],"categories_sizes":[],"default_left":[true,true,true,true,false,false,false,true,true,true,false,false,true,true,true,false,false,false,false,false,false],"id":49,"left_children":[1,3,5,7,-1,-1,-1,9,11,13,-1,-1,15,17,19,-1,-1,-1,-1,-1,-1],"loss_changes":[2.8128654E-1,3.1668022E-1,1.9640666E-1,3.0709058E-1,0E0,0E0,0E0,4.2596793E-1,7.52653E-1,5.2679455E-1,0E0,0E0,1.2957484E-1,5.632521E-1,3.272999E-1,0E0,0E0,0E0,0E0,0E0,0E0],"parents":[2147483647,0,0,1,1,2,2,3,3,7,7,8,8,9,9,12,12,13,13,14,14],"right_children":[2,4,6,8,-1,-1,-1,10,12,14,-1,-1,16,18,20,-1,-1,-1,-1,-1,-1],"split_conditions":[1.5E-1,4.908556E-1,6.309277E-2,1.6666667E-1,-1.16697885E-1,1.4081568E-1,-7.812919E-3,1.02528214E-1,1.0635816E-1,1.2403406E-1,1.008495E-1,1.6413885E-1,3.3361238E-1,2.506259E-1,1.6816005E-1,-8.501645E-2,1.6525721E-2,-5.9319455E-2,1.11157514E-1,1.2947415E-1,-9.635749E-3],"split_indices":[15577,14682,1926,0,0,0,0,9349,1926,1926,0,0,3486,11785,1926,0,0,0,0,0,0],"split_type":[0,0,0,0,0,0,0,0,0,0,0,0,0,0,0,0,0,0,0,0,0],"sum_hessian":[3.43346E1,3.2064125E1,2.2704754E0,3.0946314E1,1.1178107E0,1.1567137E0,1.1137617E0,2.5716877E1,5.2294374E0,2.3930067E1,1.7868093E0,2.2486355E0,2.9808016E0,1.909286E1,4.837208E0,1.1950547E0,1.785747E0,1.8091448E1,1.0014113E0,1.8921663E0,2.9450414E0],"tree_param":{"num_deleted":"0","num_feature":"15718","num_nodes":"21","size_leaf_vector":"0"}},{"base_weights":[1.9560667E-2,-2.604881E-2,1.9218197E-1,-5.437659E-2,3.6305967E-1,2.8226155E-1,-1.8905786E-1,-2.3683147E-3,-3.3689395E-1,3.8290006E-1,-6.349007E-2,-5.118271E-2,5.610918E-1,-5.7078487E-1,-4.6048786E-2,4.9067795E-1,6.51149E-2,1.9191948E-3,-5.309846E-1,6.1300206E-1,1.7310221E-1,-6.660868E-2,6.235716E-1],"categories":[],"categories_nodes":[],"categories_segments":[],"categories_sizes":[],"default_left":[true,true,true,true,false,true,false,true,true,true,false,true,false,false,false,true,false,true,false,false,false,false,false],"id":50,"left_children":[1,3,5,7,-1,9,-1,11,13,15,-1,17,-1,-1,-1,19,-1,21,-1,-1,-1,-1,-1],"loss_changes":[2.7998075E-1,3.3396113E-1,3.081356E-1,4.024153E-1,0E0,2.4707144E-1,0E0,6.9386464E-1,2.6345983E-1,1.4275473E-1,0E0,5.913836E-1,0E0,0E0,0E0,3.591323E-2,0E0,9.7272533E-1,0E0,0E0,0E0,0E0,0E0],"parents":[2147483647,0,0,1,1,2,2,3,3,5,5,7,7,8,8,9,9,11,11,15,15,17,17],"right_children":[2,4,6,8,-1,10,-1,12,14,16,-1,18,-1,-1,-1,20,-1,22,-1,-1,-1,-1,-1],"split_conditions":[2.6026002E-1,2.5115675E-1,4.1172898E-1,1.7094807E-1,1.0891791E-1,2.777778E-1,-5.671736E-2,1.6172333E-1,1.9900481E-1,2.5867158E-1,-1.9047022E-2,1.2748376E-1,1.6832754E-1,-1.7123547E-1,-1.38146365E-2,1.6666667E-1,1.953447E-2,1.1192522E-1,-1.5929538E-1,1.8390062E-1,5.1930666E-2,-1.9982606E-2,1.8707147E-1],"split_indices":[5439,1926,5439,1926,0,15502,0,1926,1926,14682,0,1926,0,0,0,15502,0,1926,0,0,0,0,0],"split_type":[0,0,0,0,0,0,0,0,0,0,0,0,0,0,0,0,0,0,0,0,0,0,0],"sum_hessian":[3.3925545E1,2.7506865E1,6.4186816E0,2.6442087E1,1.064777E0,5.401932E0,1.0167497E0,2.3182781E1,3.259307E0,4.100848E0,1.3010833E0,2.2171183E1,1.0115987E0,1.2730476E0,1.9862593E0,2.656001E0,1.4448472E0,2.0858658E1,1.3125247E0,1.2458637E0,1.4101374E0,1.9591806E1,1.2668513E0],"tree_param":{"num_deleted":"0","num_feature":"15718","num_nodes":"23","size_leaf_vector":"0"}},{"base_weights":[2.0345362E-2,-1.10506695E-2,2.7457345E-1,1.6359966E-2,-4.096436E-1,-6.9570735E-2,4.7514582E-1,-1.1304506E-2,3.415982E-1,-4.2203963E-2,4.1329798E-1,-7.426771E-2,3.1945115E-1,-1.0620935E-1,2.9012585E-1],"categories":[],"categories_nodes":[],"categories_segments":[],"categories_sizes":[],"default_left":[true,true,true,true,false,false,false,true,false,true,false,true,false,false,false],"id":51,"left_children":[1,3,5,7,-1,-1,-1,9,-1,11,-1,13,-1,-1,-1],"loss_changes":[2.8002492E-1,3.5468176E-1,2.990313E-1,2.8064394E-1,0E0,0E0,0E0,4.0210095E-1,0E0,3.5116142E-1,0E0,3.42152E-1,0E0,0E0,0E0],"parents":[2147483647,0,0,1,1,2,2,3,3,7,7,9,9,11,11],"right_children":[2,4,6,8,-1,-1,-1,10,-1,12,-1,14,-1,-1,-1],"split_conditions":[2.5E-1,4.908556E-1,2.5E-1,1.2419848E-1,-1.2289308E-1,-2.0871222E-2,1.4254375E-1,1.9733703E-1,1.02479465E-1,2.6688942E-1,1.23989396E-1,2.883188E-1,9.583535E-2,-3.1862807E-2,8.703776E-2],"split_indices":[15663,14682,15705,1817,0,0,0,3809,0,9668,0,4553,0,0,0],"split_type":[0,0,0,0,0,0,0,0,0,0,0,0,0,0,0],"sum_hessian":[3.3702988E1,3.084972E1,2.8532698E0,2.9761988E1,1.0877314E0,1.2911096E0,1.5621603E0,2.8318485E1,1.4435024E0,2.723698E1,1.0815042E0,2.5748781E1,1.4881996E0,2.4325052E1,1.42373E0],"tree_param":{"num_deleted":"0","num_feature":"15718","num_nodes":"15","size_leaf_vector":"0"}},{"base_weights":[2.4945658E-2,2.6883183E-3,3.8209265E-1,3.193369E-2,-4.700511E-1,1.9216571E-3,3.0770087E-1,-2.9005349E-2,3.148464E-1,3.969504E-1,5.7862706E-2,-5.9381206E-2,3.3572257E-1,-9.66328E-2,2.508569E-1],"categories":[],"categories_nodes":[],"categories_segments":[],"categories_sizes":[],"default_left":[true,true,false,true,false,true,true,true,false,false,false,true,false,false,false],"id":52,"left_children":[1,3,-1,5,-1,7,9,11,-1,-1,-1,13,-1,-1,-1],"loss_changes":[2.7214882E-1,4.761794E-1,0E0,2.6714474E-1,0E0,3.012166E-1,4.768926E-2,3.3437634E-1,0E0,0E0,0E0,3.3684927E-1,0E0,0E0,0E0],"parents":[2147483647,0,0,1,1,3,3,5,5,6,6,7,7,11,11],"right_children":[2,4,-1,6,-1,8,10,12,-1,-1,-1,14,-1,-1,-1],"split_conditions":[1.7954034E-1,3.3802342E-1,1.146278E-1,1.5921782E-1,-1.4101534E-1,2.0413655E-1,3.125332E-1,2.115058E-1,9.445392E-2,1.19085126E-1,1.7358813E-2,6.353104E-2,1.0071678E-1,-2.8989842E-2,7.525708E-2],"split_indices":[8058,8796,0,14638,0,13547,14638,1279,0,0,0,14860,0,0,0],"split_type":[0,0,0,0,0,0,0,0,0,0,0,0,0,0,0],"sum_hessian":[3.336547E1,3.2356544E1,1.008927E0,3.1349594E1,1.0069497E0,2.9180786E1,2.1688075E0,2.7381886E1,1.7989001E0,1.1641196E0,1.0046879E0,2.6049574E1,1.3323121E0,2.3871716E1,2.1778572E0],"tree_param":{"num_deleted":"0","num_feature":"15718","num_nodes":"15","size_leaf_vector":"0"}},{"base_weights":[2.7617095E-2,4.9575306E-2,-3.1732595E-1,2.1910613E-2,4.335247E-1,-7.543971E-3,4.0322298E-1,-3.8012445E-2,3.8649908E-1,-6.7634754E-2,3.4665838E-1,-1.2085208E-1,2.004213E-1],"categories":[],"categories_nodes":[],"categories_segments":[],"categories_sizes":[],"default_left":[true,true,false,true,false,true,false,true,false,true,false,false,false],"id":53,"left_children":[1,3,-1,5,-1,7,-1,9,-1,11,-1,-1,-1],"loss_changes":[2.7300724E-1,3.388852E-1,0E0,3.5848916E-1,0E0,3.7918997E-1,0E0,3.5493767E-1,0E0,4.2148024E-1,0E0,0E0,0E0],"parents":[2147483647,0,0,1,1,3,3,5,5,7,7,9,9],"right_children":[2,4,-1,6,-1,8,-1,10,-1,12,-1,-1,-1],"split_conditions":[4.5623767E-1,2.115058E-1,-9.519779E-2,9.910005E-2,1.3005741E-1,3.9022207E-1,1.209669E-1,1.1160338E-1,1.1594973E-1,8.49029E-2,1.0399752E-1,-3.6255628E-2,6.0126394E-2],"split_indices":[4021,1279,0,7281,0,5439,0,13651,0,3486,0,0,0],"split_type":[0,0,0,0,0,0,0,0,0,0,0,0,0],"sum_hessian":[3.2966785E1,3.1798834E1,1.1679542E0,3.0647646E1,1.1511873E0,2.9359943E1,1.2877017E0,2.8091375E1,1.2685688E0,2.6848064E1,1.2433115E0,2.2859005E1,3.989058E0],"tree_param":{"num_deleted":"0","num_feature":"15718","num_nodes":"13","size_leaf_vector":"0"}},{"base_weights":[3.1029014E-2,5.125104E-2,-2.9797643E-1,7.379707E-2,-3.023698E-1,4.2238586E-2,3.630958E-1,8.2852975E-2,-3.3853522E-1,8.094859E-3,2.6789087E-1,6.281981E-2,-3.050048E-1,3.4650737E-1,-7.2984725E-2],"categories":[],"categories_nodes":[],"categories_segments":[],"categories_sizes":[],"default_left":[true,true,false,true,false,true,false,true,false,true,true,false,false,false,false],"id":54,"left_children":[1,3,-1,5,-1,7,-1,9,-1,11,13,-1,-1,-1,-1],"loss_changes":[2.3908193E-1,2.8178746E-1,0E0,2.7132395E-1,0E0,4.8336086E-1,0E0,3.769601E-1,0E0,3.7130368E-1,2.3580515E-1,0E0,0E0,0E0,0E0],"parents":[2147483647,0,0,1,1,3,3,5,5,7,7,9,9,10,10],"right_children":[2,4,-1,6,-1,8,-1,10,-1,12,14,-1,-1,-1,-1],"split_conditions":[1.03624254E-1,2.7082506E-1,-8.939293E-2,1.5E-1,-9.0710945E-2,3.4250063E-1,1.0892874E-1,1.5057641E-1,-1.0156057E-1,1.5256375E-1,1.3294034E-1,1.8845944E-2,-9.1501445E-2,1.03952214E-1,-2.1895418E-2],"split_indices":[14330,5690,0,15577,0,5439,0,5439,0,7788,4553,0,0,0,0],"split_type":[0,0,0,0,0,0,0,0,0,0,0,0,0,0,0],"sum_hessian":[3.263972E1,3.1545057E1,1.0946642E0,3.0398247E1,1.1468104E0,2.844166E1,1.9565876E0,2.6407383E1,2.0342758E0,1.9551876E1,6.855508E0,1.732338E1,2.2284958E0,5.5573E0,1.2982078E0],"tree_param":{"num_deleted":"0","num_feature":"15718","num_nodes":"15","size_leaf_vector":"0"}},{"base_weights":[1.6412057E-2,-6.5068817E-3,3.2118124E-1,1.7615672E-2,-3.4329155E-1,-1.5737608E-2,2.6744565E-1,-4.4205688E-2,3.674261E-1,-1.0268992E-1,4.8591003E-1,-7.0166625E-2,3.088155E-1,1.8865658E-2,-2.4244568E-1],"categories":[],"categories_nodes":[],"categories_segments":[],"categories_sizes":[],"default_left":[true,true,false,true,false,true,true,true,false,false,false,true,false,false,false],"id":55,"left_children":[1,3,-1,5,-1,7,9,11,-1,-1,-1,13,-1,-1,-1],"loss_changes":[2.3647818E-1,2.6755586E-1,0E0,2.624287E-1,0E0,3.2475656E-1,3.4952548E-1,2.7113345E-1,0E0,0E0,0E0,4.059837E-1,0E0,0E0,0E0],"parents":[2147483647,0,0,1,1,3,3,5,5,6,6,7,7,11,11],"right_children":[2,4,-1,6,-1,8,10,12,-1,-1,-1,14,-1,-1,-1],"split_conditions":[3.9022207E-1,3.1697133E-1,9.635437E-2,1.9187665E-1,-1.0298747E-1,1.327163E-1,1.9921552E-1,5.4400265E-1,1.1022783E-1,-3.0806977E-2,1.4577301E-1,1.7988225E-2,9.2644654E-2,5.6596976E-3,-7.273371E-2],"split_indices":[5439,8796,0,2723,0,13081,14682,3458,0,0,0,544,0,0,0],"split_type":[0,0,0,0,0,0,0,0,0,0,0,0,0,0,0],"sum_hessian":[3.255601E1,3.1189205E1,1.3668088E0,2.9988913E1,1.2002926E0,2.7283468E1,2.705443E0,2.6220018E1,1.0634505E0,1.2008451E0,1.5045979E0,2.5170256E1,1.0497636E0,1.7181501E1,7.9887533E0],"tree_param":{"num_deleted":"0","num_feature":"15718","num_nodes":"15","size_leaf_vector":"0"}},{"base_weights":[1.8670673E-2,3.8208243E-2,-2.820476E-1,5.8478694E-2,-2.7803186E-1,2.6474845E-2,3.982528E-1,7.540448E-2,-1.8467529E-1,2.2391196E-1,-4.1535508E-2,-2.9766363E-1,1.6444339E-1,2.8851777E-1,-1.7236248E-1,-2.611688E-1,1.1992114E-1,-4.804036E-1,8.565458E-2],"categories":[],"categories_nodes":[],"categories_segments":[],"categories_sizes":[],"default_left":[true,true,false,true,false,true,false,true,true,true,true,true,false,false,false,false,false,false,false],"id":56,"left_children":[1,3,-1,5,-1,7,-1,9,11,13,15,17,-1,-1,-1,-1,-1,-1,-1],"loss_changes":[2.062411E-1,2.2215828E-1,0E0,3.2667604E-1,0E0,3.1780562E-1,0E0,4.36333E-1,2.7866405E-1,3.3106875E-1,5.490679E-1,3.7425718E-1,0E0,0E0,0E0,0E0,0E0,0E0,0E0],"parents":[2147483647,0,0,1,1,3,3,5,5,7,7,8,8,9,9,10,10,11,11],"right_children":[2,4,-1,6,-1,8,-1,10,12,14,16,18,-1,-1,-1,-1,-1,-1,-1],"split_conditions":[6.1719142E-2,4.5623767E-1,-8.4614284E-2,1.2034723E-1,-8.340956E-2,2.85263E-1,1.1947584E-1,4.2633116E-2,2.5E-1,2.916172E-1,1.0286586E-1,5.387099E-2,4.9333017E-2,8.655533E-2,-5.1708747E-2,-7.835065E-2,3.5976343E-2,-1.4412108E-1,2.5696374E-2],"split_indices":[8146,4021,0,14860,0,14682,0,1926,15487,7788,1926,1279,0,0,0,0,0,0,0],"split_type":[0,0,0,0,0,0,0,0,0,0,0,0,0,0,0,0,0,0,0],"sum_hessian":[3.226884E1,3.111993E1,1.1489086E0,3.0011337E1,1.1085942E0,2.8412992E1,1.5983448E0,2.3589504E1,4.8234878E0,9.989111E0,1.3600392E1,3.7554607E0,1.0680269E0,8.822652E0,1.1664591E0,5.500438E0,8.099955E0,2.371578E0,1.3838829E0],"tree_param":{"num_deleted":"0","num_feature":"15718","num_nodes":"19","size_leaf_vector":"0"}},{"base_weights":[8.247396E-3,-2.3395546E-2,5.0726E-1,-4.0774108E-4,-3.5046276E-1,-2.6824366E-2,3.4196535E-1,-5.2636698E-2,3.2665804E-1,-8.620666E-2,2.7265805E-1,-1.14230946E-1,3.1251588E-1],"categories":[],"categories_nodes":[],"categories_segments":[],"categories_sizes":[],"default_left":[true,true,false,true,false,true,false,true,false,true,false,false,false],"id":57,"left_children":[1,3,-1,5,-1,7,-1,9,-1,11,-1,-1,-1],"loss_changes":[5.3564656E-1,2.4157125E-1,0E0,2.899001E-1,0E0,2.885745E-1,0E0,3.356025E-1,0E0,3.3366567E-1,0E0,0E0,0E0],"parents":[2147483647,0,0,1,1,3,3,5,5,7,7,9,9],"right_children":[2,4,-1,6,-1,8,-1,10,-1,12,-1,-1,-1],"split_conditions":[2.6492607E-2,1.2930322E-1,1.5217802E-1,3.1547725E-1,-1.0513883E-1,1.1509836E-1,1.0258961E-1,2.1450025E-1,9.799742E-2,3.6833978E-1,8.179742E-2,-3.4269284E-2,9.375477E-2],"split_indices":[5768,4869,0,8796,0,13651,0,14638,0,3087,0,0,0],"split_type":[0,0,0,0,0,0,0,0,0,0,0,0,0],"sum_hessian":[3.217108E1,3.1149006E1,1.0220766E0,3.0038975E1,1.1100322E0,2.8742899E1,1.2960764E0,2.7580015E1,1.1628833E0,2.5666279E1,1.9137352E0,2.4647438E1,1.0188416E0],"tree_param":{"num_deleted":"0","num_feature":"15718","num_nodes":"13","size_leaf_vector":"0"}},{"base_weights":[1.7722739E-2,-1.835797E-3,3.1608313E-1,2.4128586E-2,-3.5572776E-1,-4.420205E-3,2.548239E-1,-6.1239902E-2,2.1121933E-1,4.00097E-1,-2.9105125E-2,-1.7851606E-1,1.1036288E-1,4.0661493E-1,-6.8750995E-4,-2.7141148E-1,1.7769422E-1,3.158754E-1,-1.5317704E-1,1.14600524E-1,-1.237897E-1],"categories":[],"categories_nodes":[],"categories_segments":[],"categories_sizes":[],"default_left":[true,true,false,true,false,true,true,true,true,false,false,true,true,false,true,false,false,false,false,false,false],"id":58,"left_children":[1,3,-1,5,-1,7,9,11,13,-1,-1,15,17,-1,19,-1,-1,-1,-1,-1,-1],"loss_changes":[1.9104272E-1,2.991714E-1,0E0,2.0134112E-1,0E0,3.5643536E-1,1.5043221E-1,4.8184347E-1,2.5166515E-1,0E0,0E0,5.1225865E-1,5.867711E-1,0E0,6.9690615E-2,0E0,0E0,0E0,0E0,0E0,0E0],"parents":[2147483647,0,0,1,1,3,3,5,5,6,6,7,7,8,8,11,11,12,12,14,14],"right_children":[2,4,-1,6,-1,8,10,12,14,-1,-1,16,18,-1,20,-1,-1,-1,-1,-1,-1],"split_conditions":[1.7954034E-1,3.1697133E-1,9.482495E-2,2.211757E-1,-1.0671833E-1,3.388822E-2,6.0418714E-2,8.876062E-2,6.982675E-2,1.2002911E-1,-8.7315375E-3,7.0094496E-2,4.084011E-2,1.2198448E-1,6.93393E-2,-8.142345E-2,5.3308267E-2,9.476263E-2,-4.5953114E-2,3.438016E-2,-3.7136912E-2],"split_indices":[8058,8796,0,8274,0,7208,1926,1926,7208,0,0,544,544,0,1926,0,0,0,0,0,0],"split_type":[0,0,0,0,0,0,0,0,0,0,0,0,0,0,0,0,0,0,0,0,0],"sum_hessian":[3.1638624E1,3.0624905E1,1.0137193E0,2.9399721E1,1.2251825E0,2.7034956E1,2.3647652E0,2.196367E1,5.0712852E0,1.2936968E0,1.0710683E0,1.302315E1,8.940521E0,2.1603894E0,2.9108958E0,1.0518189E1,2.5049613E0,4.911708E0,4.028813E0,1.5388186E0,1.3720771E0],"tree_param":{"num_deleted":"0","num_feature":"15718","num_nodes":"21","size_leaf_vector":"0"}},{"base_weights":[1.8958844E-2,-4.993454E-3,2.524617E-1,-2.5808329E-2,2.9868236E-1,9.967047E-3,-4.965194E-1,-3.3849508E-2,2.6790762E-1,-6.0886692E-2,3.0340445E-1,4.7367302E-1,-1.8400623E-1,-9.0568006E-2,2.5646713E-1,1.4904858E-1,5.707114E-1],"categories":[],"categories_nodes":[],"categories_segments":[],"categories_sizes":[],"default_left":[true,true,false,true,false,true,false,true,true,true,false,true,false,false,false,false,false],"id":59,"left_children":[1,3,-1,5,-1,7,-1,9,11,13,-1,15,-1,-1,-1,-1,-1],"loss_changes":[1.8171805E-1,1.9888055E-1,0E0,4.970854E-1,0E0,3.271151E-1,0E0,2.459066E-1,4.7755292E-1,2.4857864E-1,0E0,1.4624E-2,0E0,0E0,0E0,0E0,0E0],"parents":[2147483647,0,0,1,1,3,3,5,5,7,7,8,8,9,9,11,11],"right_children":[2,4,-1,6,-1,8,-1,10,12,14,-1,16,-1,-1,-1,-1,-1],"split_conditions":[1.5E-1,6.07934E-1,7.573851E-2,5.120306E-1,8.960471E-2,1.6666667E-1,-1.4895582E-1,2.4239133E-1,1.6507758E-1,1.0181019E-1,9.102134E-2,2.6953423E-1,-5.520187E-2,-2.7170403E-2,7.694014E-2,4.4714577E-2,1.7121342E-1],"split_indices":[15577,3486,0,3454,0,0,0,1926,544,7281,0,3454,0,0,0,0,0],"split_type":[0,0,0,0,0,0,0,0,0,0,0,0,0,0,0,0,0],"sum_hessian":[3.126527E1,2.924408E1,2.0211895E0,2.8224499E1,1.0195806E0,2.7140566E1,1.0839344E0,2.3942247E1,3.1983173E0,2.2923931E1,1.0183164E0,2.164588E0,1.0337292E0,2.1616783E1,1.3071488E0,1.0817529E0,1.0828352E0],"tree_param":{"num_deleted":"0","num_feature":"15718","num_nodes":"17","size_leaf_vector":"0"}},{"base_weights":[2.2856008E-2,6.31836E-2,-1.191207E-1,2.196245E-2,4.1504708E-1,-5.3511065E-1,7.183781E-2,6.0626928E-2,-2.4512458E-1,4.7395146E-1,-1.10280536E-1,2.4159996E-2,3.931497E-1,-2.4701874E-1,1.737089E-1,-8.698469E-3,3.31594E-1,-4.5110604E-1,7.189171E-2,-4.7161143E-2,3.502807E-1],"categories":[],"categories_nodes":[],"categories_segments":[],"categories_sizes":[],"default_left":[true,true,true,true,false,false,true,true,false,false,true,true,false,true,false,true,false,false,false,false,false],"id":60,"left_children":[1,3,5,7,-1,-1,9,11,-1,-1,13,15,-1,17,-1,19,-1,-1,-1,-1,-1],"loss_changes":[1.9062355E-1,3.6158574E-1,6.2791175E-1,2.6202086E-1,0E0,0E0,4.8928717E-1,2.5374624E-1,0E0,0E0,2.3390904E-1,2.1127418E-1,0E0,2.7538905E-1,0E0,2.8730118E-1,0E0,0E0,0E0,0E0,0E0],"parents":[2147483647,0,0,1,1,2,2,3,3,6,6,7,7,10,10,11,11,13,13,15,15],"right_children":[2,4,6,8,-1,-1,10,12,-1,-1,14,16,-1,18,-1,20,-1,-1,-1,-1,-1],"split_conditions":[1.2748376E-1,2.757074E-1,1.6567218E-1,9.793575E-2,1.24514125E-1,-1.605332E-1,1.7539296E-1,3.9022207E-1,-7.353738E-2,1.4218545E-1,2.5115675E-1,1.0137893E-1,1.1794492E-1,1.8251684E-1,5.2112672E-2,1.5608409E-1,9.94782E-2,-1.3533182E-1,2.1567514E-2,-1.4148343E-2,1.0508422E-1],"split_indices":[1926,3486,1926,544,0,0,1926,5439,0,0,1926,1926,0,544,0,3809,0,0,0,0,0],"split_type":[0,0,0,0,0,0,0,0,0,0,0,0,0,0,0,0,0,0,0,0,0],"sum_hessian":[3.0978786E1,2.4558167E1,6.420621E0,2.2933859E1,1.6243066E0,1.4530395E0,4.9675813E0,2.0708963E1,2.224897E0,1.0489919E0,3.9185896E0,1.9628962E1,1.0800018E0,2.7329051E0,1.1856843E0,1.8611477E1,1.0174836E0,1.4136896E0,1.3192157E0,1.7594904E1,1.0165743E0],"tree_param":{"num_deleted":"0","num_feature":"15718","num_nodes":"21","size_leaf_vector":"0"}},{"base_weights":[2.3742417E-2,-1.2006997E-2,5.6141573E-1,1.5690401E-2,-2.6883146E-1,-1.1439574E-2,3.2594424E-1,2.48592E-2,-3.5423365E-1,-9.946917E-3,3.867615E-1,2.9569218E-2,-3.309957E-1],"categories":[],"categories_nodes":[],"categories_segments":[],"categories_sizes":[],"default_left":[true,true,false,true,false,true,false,true,false,true,false,false,false],"id":61,"left_children":[1,3,-1,5,-1,7,-1,9,-1,11,-1,-1,-1],"loss_changes":[6.1756456E-1,2.2313932E-1,0E0,2.4551146E-1,0E0,3.4950992E-1,0E0,3.2749674E-1,0E0,3.1952342E-1,0E0,0E0,0E0],"parents":[2147483647,0,0,1,1,3,3,5,5,7,7,9,9],"right_children":[2,4,-1,6,-1,8,-1,10,-1,12,-1,-1,-1],"split_conditions":[9.974197E-2,2.7466974E-1,1.6842473E-1,3.1547725E-1,-8.064944E-2,3.4299713E-1,9.7783275E-2,2.9515487E-1,-1.062701E-1,2.3866746E-1,1.1602845E-1,8.870766E-3,-9.9298716E-2],"split_indices":[9486,3127,0,8796,0,5439,0,8274,0,4689,0,0,0],"split_type":[0,0,0,0,0,0,0,0,0,0,0,0,0],"sum_hessian":[3.077814E1,2.9776026E1,1.0021126E0,2.772492E1,2.0511057E0,2.6381163E1,1.3437579E0,2.4693796E1,1.6873677E0,2.3414417E1,1.2793775E0,2.165671E1,1.7577076E0],"tree_param":{"num_deleted":"0","num_feature":"15718","num_nodes":"13","size_leaf_vector":"0"}},{"base_weights":[1.985028E-2,5.11599E-2,-1.4955445E-1,1.8028894E-2,4.62689E-1,-4.9939582E-1,6.102774E-2,5.522295E-2,-4.4945064E-1,2.6158535E-1,-2.5897962E-1,1.9370519E-2,3.8688362E-1,-1.5606563E-2,3.811461E-1,1.5861169E-2,-3.2692719E-1],"categories":[],"categories_nodes":[],"categories_segments":[],"categories_sizes":[],"default_left":[true,true,true,true,false,false,true,true,false,false,false,true,false,true,false,false,false],"id":62,"left_children":[1,3,5,7,-1,-1,9,11,-1,-1,-1,13,-1,15,-1,-1,-1],"loss_changes":[1.7525537E-1,3.654508E-1,4.1239446E-1,4.840804E-1,0E0,0E0,3.3263344E-1,2.9402488E-1,0E0,0E0,0E0,3.0883422E-1,0E0,2.284169E-1,0E0,0E0,0E0],"parents":[2147483647,0,0,1,1,2,2,3,3,6,6,7,7,11,11,13,13],"right_children":[2,4,6,8,-1,-1,10,12,-1,-1,-1,14,-1,16,-1,-1,-1],"split_conditions":[1.7094807E-1,1.6172333E-1,1.9900481E-1,1.2748376E-1,1.3880672E-1,-1.4981875E-1,2.5893205E-1,1.1192522E-1,-1.348352E-1,7.847561E-2,-7.769389E-2,3.9022207E-1,1.1606509E-1,3.1697133E-1,1.1434384E-1,4.7583506E-3,-9.807816E-2],"split_indices":[1926,1926,1926,1926,0,0,1926,1926,0,0,0,5439,0,8796,0,0,0],"split_type":[0,0,0,0,0,0,0,0,0,0,0,0,0,0,0,0,0],"sum_hessian":[3.0599594E1,2.6415455E1,4.1841397E0,2.5413313E1,1.0021421E0,1.0568644E0,3.1272755E0,2.4357248E1,1.056064E0,2.0346608E0,1.0926145E0,2.293625E1,1.4209982E0,2.1786734E1,1.1495174E0,2.0648657E1,1.1380773E0],"tree_param":{"num_deleted":"0","num_feature":"15718","num_nodes":"17",