{"learner":{"attributes":{"best_iteration":"299","best_ntree_limit":"300","scikit_learn":"{\"use_label_encoder\": true, \"n_estimators\": 300, \"objective\": \"binary:logistic\", \"max_depth\": null, \"learning_rate\": null, \"verbosity\": null, \"booster\": null, \"tree_method\": null, \"gamma\": null, \"min_child_weight\": null, \"max_delta_step\": null, \"subsample\": null, \"colsample_bytree\": null, \"colsample_bylevel\": null, \"colsample_bynode\": null, \"reg_alpha\": null, \"reg_lambda\": null, \"scale_pos_weight\": null, \"base_score\": null, \"missing\": NaN, \"num_parallel_tree\": null, \"random_state\": null, \"n_jobs\": null, \"monotone_constraints\": null, \"interaction_constraints\": null, \"importance_type\": null, \"gpu_id\": null, \"validate_parameters\": null, \"predictor\": null, \"enable_categorical\": false, \"classes_\": [0, 1], \"n_classes_\": 2, \"_le\": {\"classes_\": [0, 1]}, \"_estimator_type\": \"classifier\"}"},"feature_names":[],"feature_types":[],"gradient_booster":{"model":{"gbtree_model_param":{"num_trees":"300","size_leaf_vector":"0"},"tree_info":[0,0,0,0,0,0,0,0,0,0,0,0,0,0,0,0,0,0,0,0,0,0,0,0,0,0,0,0,0,0,0,0,0,0,0,0,0,0,0,0,0,0,0,0,0,0,0,0,0,0,0,0,0,0,0,0,0,0,0,0,0,0,0,0,0,0,0,0,0,0,0,0,0,0,0,0,0,0,0,0,0,0,0,0,0,0,0,0,0,0,0,0,0,0,0,0,0,0,0,0,0,0,0,0,0,0,0,0,0,0,0,0,0,0,0,0,0,0,0,0,0,0,0,0,0,0,0,0,0,0,0,0,0,0,0,0,0,0,0,0,0,0,0,0,0,0,0,0,0,0,0,0,0,0,0,0,0,0,0,0,0,0,0,0,0,0,0,0,0,0,0,0,0,0,0,0,0,0,0,0,0,0,0,0,0,0,0,0,0,0,0,0,0,0,0,0,0,0,0,0,0,0,0,0,0,0,0,0,0,0,0,0,0,0,0,0,0,0,0,0,0,0,0,0,0,0,0,0,0,0,0,0,0,0,0,0,0,0,0,0,0,0,0,0,0,0,0,0,0,0,0,0,0,0,0,0,0,0,0,0,0,0,0,0,0,0,0,0,0,0,0,0,0,0,0,0,0,0,0,0,0,0,0,0,0,0,0,0,0,0,0,0,0,0,0,0,0,0,0,0],"trees":[{"base_weights":[-6.8368477E-1,-1.2237413E0,1.9802955E0,-1.7660819E0,1.9634703E0,1.9867768E0,5E-1,-1.8717434E0,1.8918918E0,1.9723502E0,5E-1,-1.9720395E0,1.880597E0,1.9813954E0,5E-1,-1.9900868E0,1.4666667E0,-1.9933665E0,-7.692308E-1],"categories":[],"categories_nodes":[],"categories_segments":[],"categories_sizes":[],"default_left":[true,true,true,true,true,false,false,true,false,true,false,true,false,false,false,true,false,false,false],"id":0,"left_children":[1,3,5,7,9,-1,-1,11,-1,13,-1,15,-1,-1,-1,17,-1,-1,-1],"loss_changes":[1.2986919E3,1.2994513E3,4.6728516E-1,2.5138904E2,4.368286E-1,0E0,0E0,2.3845361E2,0E0,4.5425415E-1,0E0,4.065088E1,0E0,0E0,0E0,8.901367E-1,0E0,0E0,0E0],"parents":[2147483647,0,0,1,1,2,2,3,3,4,4,7,7,9,9,11,11,15,15],"right_children":[2,4,6,8,10,-1,-1,12,-1,14,-1,16,-1,-1,-1,18,-1,-1,-1],"split_conditions":[1.25E-1,5.5523984E-2,7.324394E-1,9.587647E-2,2.162244E-1,5.960331E-1,1.5E-1,7.234418E-2,5.675676E-1,8.699713E-1,1.5E-1,8.4310815E-2,5.641791E-1,5.9441864E-1,1.5E-1,3.511689E-1,4.4000003E-1,-5.9800994E-1,-2.3076925E-1],"split_indices":[0,9718,1878,10347,2645,0,0,4356,0,3135,0,4380,0,0,0,9808,0,0,0],"split_type":[0,0,0,0,0,0,0,0,0,0,0,0,0,0,0,0,0,0,0],"sum_hessian":[9E2,7.4875E2,1.5125E2,6.4025E2,1.085E2,1.5025E2,1E0,6.2275E2,1.75E1,1.075E2,1E0,6.07E2,1.575E1,1.065E2,1E0,6.0425E2,2.75E0,6.02E2,2.25E0],"tree_param":{"num_deleted":"0","num_feature":"15787","num_nodes":"19","size_leaf_vector":"0"}},{"base_weights":[-5.257624E-1,-9.436452E-1,1.5349315E0,-1.3641834E0,1.5226842E0,1.5414613E0,4.081582E-1,-1.4470603E0,1.4756073E0,1.531626E0,4.0876102E-1,-1.5258871E0,1.4680046E0,1.5407798E0,4.0876102E-1,-1.5408725E0,1.1900182E0,-1.5426611E0,-3.6090723E-1],"categories":[],"categories_nodes":[],"categories_segments":[],"categories_sizes":[],"default_left":[true,true,true,true,true,false,false,true,false,true,false,true,false,false,false,true,false,false,false],"id":1,"left_children":[1,3,5,7,9,-1,-1,11,-1,13,-1,15,-1,-1,-1,17,-1,-1,-1],"loss_changes":[7.127898E2,7.150438E2,3.9834595E-1,1.4047498E2,3.7602234E-1,0E0,0E0,1.335929E2,0E0,3.9231873E-1,0E0,2.4505737E1,0E0,0E0,0E0,6.134033E-1,0E0,0E0,0E0],"parents":[2147483647,0,0,1,1,2,2,3,3,4,4,7,7,9,9,11,11,15,15],"right_children":[2,4,6,8,10,-1,-1,12,-1,14,-1,16,-1,-1,-1,18,-1,-1,-1],"split_conditions":[1.25E-1,5.5523984E-2,1.4112195E-1,9.587647E-2,4.2054102E-1,4.6243843E-1,1.2244747E-1,7.234418E-2,4.426822E-1,6.403433E-1,1.2262831E-1,8.4310815E-2,4.404014E-1,4.6223396E-1,1.2262831E-1,5.3186095E-1,3.5700548E-1,-4.6279833E-1,-1.0827217E-1],"split_indices":[0,9718,3500,10347,3705,0,0,4356,0,4526,0,4380,0,0,0,2541,0,0,0],"split_type":[0,0,0,0,0,0,0,0,0,0,0,0,0,0,0,0,0,0,0],"sum_hessian":[8.2505707E2,6.864049E2,1.386522E2,5.867961E2,9.960878E1,1.3748741E2,1.1647907E0,5.706331E2,1.616302E1,9.844356E1,1.1652186E0,5.5607275E2,1.456031E1,9.727834E1,1.1652186E0,5.534517E2,2.62108E0,5.523071E2,1.1445835E0],"tree_param":{"num_deleted":"0","num_feature":"15787","num_nodes":"19","size_leaf_vector":"0"}},{"base_weights":[-4.5227417E-1,-8.1396806E-1,1.3299915E0,-1.1791251E0,1.316535E0,1.3375889E0,2.3016088E-1,-1.252026E0,1.2713144E0,1.3269036E0,2.3075452E-1,-1.3215474E0,1.2639402E0,1.337526E0,2.3075452E-1,-1.3356477E0,1.0183717E0,-1.339273E0,-3.330842E-1],"categories":[],"categories_nodes":[],"categories_segments":[],"categories_sizes":[],"default_left":[true,true,true,true,true,false,false,true,false,true,false,true,false,false,false,true,false,false,false],"id":2,"left_children":[1,3,5,7,9,-1,-1,11,-1,13,-1,15,-1,-1,-1,17,-1,-1,-1],"loss_changes":[4.466349E2,4.4903024E2,6.6963196E-1,8.940271E1,6.4660645E-1,0E0,0E0,8.525421E1,0E0,6.6500854E-1,0E0,1.6718628E1,0E0,0E0,0E0,1.2372437E0,0E0,0E0,0E0],"parents":[2147483647,0,0,1,1,2,2,3,3,4,4,7,7,9,9,11,11,15,15],"right_children":[2,4,6,8,10,-1,-1,12,-1,14,-1,16,-1,-1,-1,18,-1,-1,-1],"split_conditions":[1.25E-1,5.5523984E-2,1.67956E-1,9.587647E-2,5.166071E-1,4.0127668E-1,6.904826E-2,7.234418E-2,3.8139433E-1,7.722708E-2,6.922636E-2,8.4310815E-2,3.7918207E-1,4.012578E-1,6.922636E-2,3.511689E-1,3.0551153E-1,-4.0178192E-1,-9.9925265E-2],"split_indices":[0,9718,6527,10347,5521,0,0,4356,0,7563,0,4380,0,0,0,9808,0,0,0],"split_type":[0,0,0,0,0,0,0,0,0,0,0,0,0,0,0,0,0,0,0],"sum_hessian":[6.901704E2,5.7418774E2,1.1598266E2,4.9055563E2,8.363212E1,1.1497227E2,1.0103898E0,4.7685812E2,1.3697517E1,8.262106E1,1.0110582E0,4.644978E2,1.236031E1,8.161E1,1.0110582E0,4.6214212E2,2.3556807E0,4.6014243E2,1.9997197E0],"tree_param":{"num_deleted":"0","num_feature":"15787","num_nodes":"19","size_leaf_vector":"0"}},{"base_weights":[-4.0924677E-1,-7.386487E-1,1.2120643E0,-1.0724441E0,1.1951168E0,1.221347E0,1.7830065E-1,-1.1401097E0,1.1460139E0,1.2076689E0,1.7888089E-1,-1.2048397E0,1.1379164E0,1.2206023E0,1.7888089E-1,-1.2189229E0,8.965113E-1,-1.2240181E0,-2.2248888E-1],"categories":[],"categories_nodes":[],"categories_segments":[],"categories_sizes":[],"default_left":[true,true,true,true,true,false,false,true,false,true,false,true,false,false,false,true,false,false,false],"id":3,"left_children":[1,3,5,7,9,-1,-1,11,-1,13,-1,15,-1,-1,-1,17,-1,-1,-1],"loss_changes":[2.9706274E2,2.9919293E2,6.84494E-1,6.046936E1,6.566391E-1,0E0,0E0,5.7840515E1,0E0,6.785126E-1,0E0,1.2127136E1,0E0,0E0,0E0,1.6102295E0,0E0,0E0,0E0],"parents":[2147483647,0,0,1,1,2,2,3,3,4,4,7,7,9,9,11,11,15,15],"right_children":[2,4,6,8,10,-1,-1,12,-1,14,-1,16,-1,-1,-1,18,-1,-1,-1],"split_conditions":[1.25E-1,5.5523984E-2,3.9924777E-1,9.587647E-2,4.5974213E-1,3.6640412E-1,5.3490195E-2,7.234418E-2,3.4380418E-1,1.670945E-1,5.3664267E-2,8.4310815E-2,3.4137493E-1,3.661807E-1,5.3664267E-2,3.5057217E-1,2.689534E-1,-3.6720544E-1,-6.674667E-2],"split_indices":[0,9718,6376,10347,8831,0,0,4356,0,9308,0,4380,0,0,0,13141,0,0,0],"split_type":[0,0,0,0,0,0,0,0,0,0,0,0,0,0,0,0,0,0,0],"sum_hessian":[5.535553E2,4.605331E2,9.302216E1,3.931204E2,6.741273E1,9.201445E1,1.0077077E0,3.8195633E2,1.1164055E1,6.640416E1,1.0085685E0,3.7186102E2,1.0095312E1,6.539559E1,1.0085685E0,3.6980255E2,2.058471E0,3.6769397E2,2.108581E0],"tree_param":{"num_deleted":"0","num_feature":"15787","num_nodes":"19","size_leaf_vector":"0"}},{"base_weights":[-3.801978E-1,-6.886101E-1,1.1356869E0,-1.0222214E0,1.0155466E0,1.147096E0,1.6107787E-1,-1.0815004E0,1.0465422E0,1.2909399E-1,1.1132202E0,-1.1331892E0,1.0212854E0,-3.7262964E-1,9.3596375E-1,1.1285647E0,1.6168413E-1,-1.1479617E0,8.020452E-1,9.408747E-2,-5.280679E-1,1.1440264E0,2.0295322E-1,-1.1514133E0,-1.1791822E-1,-6.8770766E-1,-4.8570592E-2],"categories":[],"categories_nodes":[],"categories_segments":[],"categories_sizes":[],"default_left":[true,true,true,true,true,false,false,true,false,true,true,true,false,true,false,true,false,true,false,false,true,false,false,false,false,false,false],"id":4,"left_children":[1,3,5,7,9,-1,-1,11,-1,13,15,17,-1,19,-1,21,-1,23,-1,-1,25,-1,-1,-1,-1,-1,-1],"loss_changes":[2.0411725E2,2.06856E2,6.370239E-1,3.832074E1,5.0313187E0,0E0,0E0,3.325305E1,0E0,3.2081485E0,6.0167694E-1,9.173706E0,0E0,4.175194E-1,0E0,5.218506E-1,0E0,8.8430786E-1,0E0,0E0,2.6932824E-1,0E0,0E0,0E0,0E0,0E0,0E0],"parents":[2147483647,0,0,1,1,2,2,3,3,4,4,7,7,9,9,10,10,11,11,13,13,15,15,17,17,20,20],"right_children":[2,4,6,8,10,-1,-1,12,-1,14,16,18,-1,20,-1,22,-1,24,-1,-1,26,-1,-1,-1,-1,-1,-1],"split_conditions":[1.25E-1,5.4173578E-2,3.4354442E-1,7.234418E-2,5.5523984E-2,3.4412882E-1,4.8323363E-2,9.587647E-2,3.1396267E-1,3E-1,5.396203E-1,8.4310815E-2,3.0638564E-1,2.3420851E-1,2.8078914E-1,7.7344096E-1,4.850524E-2,5.694978E-1,2.4061358E-1,2.8226241E-2,3.844241E-1,3.4320793E-1,6.088597E-2,-3.45424E-1,-3.537547E-2,-2.0631231E-1,-1.4571178E-2],"split_indices":[0,9808,12428,4356,9718,0,0,10347,0,15692,8936,4380,0,9808,0,3135,0,4490,0,0,9808,0,0,0,0,0,0],"split_type":[0,0,0,0,0,0,0,0,0,0,0,0,0,0,0,0,0,0,0,0,0,0,0,0,0,0,0],"sum_hessian":[4.3392535E2,3.610202E2,7.290515E1,3.0225076E2,5.876944E1,7.188663E1,1.0185198E0,2.9429517E2,7.955604E0,6.0632396E0,5.27062E1,2.8768466E2,6.610497E0,4.0703893E0,1.9928501E0,5.1686657E1,1.0195427E0,2.85909E2,1.7756609E0,1.1155493E0,2.95484E0,5.0605362E1,1.0812948E0,2.8483667E2,1.0723146E0,1.8910302E0,1.0638099E0],"tree_param":{"num_deleted":"0","num_feature":"15787","num_nodes":"27","size_leaf_vector":"0"}},{"base_weights":[-3.5731116E-1,-6.499249E-1,1.0817375E0,-9.7174627E-1,9.4626355E-1,1.0964911E0,1.362457E-1,-1.0299768E0,9.7563285E-1,1.1461995E-1,1.052778E0,-1.0811136E0,9.4938034E-1,-3.170137E-1,8.5239094E-1,1.0724114E0,1.2402609E-1,-1.0968388E0,7.24449E-1,7.932572E-2,-4.562654E-1,1.0926046E0,1.3447031E-1,-1.101281E0,-7.582496E-2,-6.0489184E-1,-4.1188326E-2],"categories":[],"categories_nodes":[],"categories_segments":[],"categories_sizes":[],"default_left":[true,true,true,true,true,false,false,true,false,true,true,true,false,true,false,true,false,true,false,false,true,false,false,false,false,false,false],"id":5,"left_children":[1,3,5,7,9,-1,-1,11,-1,13,15,17,-1,19,-1,21,-1,23,-1,-1,25,-1,-1,-1,-1,-1,-1],"loss_changes":[1.4274057E2,1.4523438E2,6.5093994E-1,2.757309E1,4.099842E0,0E0,0E0,2.4101852E1,0E0,2.350188E0,6.349144E-1,7.117798E0,0E0,3.0385104E-1,0E0,6.317177E-1,0E0,9.1967773E-1,0E0,0E0,2.0561892E-1,0E0,0E0,0E0,0E0,0E0,0E0],"parents":[2147483647,0,0,1,1,2,2,3,3,4,4,7,7,9,9,10,10,11,11,13,13,15,15,17,17,20,20],"right_children":[2,4,6,8,10,-1,-1,12,-1,14,16,18,-1,20,-1,22,-1,24,-1,-1,26,-1,-1,-1,-1,-1,-1],"split_conditions":[1.25E-1,5.4173578E-2,3.75E-1,7.234418E-2,5.5523984E-2,3.2894734E-1,4.087371E-2,9.587647E-2,2.9268986E-1,3E-1,3.043737E-1,8.4310815E-2,2.8481412E-1,2.3420851E-1,2.557173E-1,4.0238008E-1,3.7207827E-2,4.0134203E-1,2.173347E-1,2.3797717E-2,3.844241E-1,3.277814E-1,4.0341094E-2,-3.303843E-1,-2.2747489E-2,-1.8146756E-1,-1.2356498E-2],"split_indices":[0,9808,15581,4356,9718,0,0,10347,0,15692,14041,4380,0,9808,0,8831,0,6662,0,0,9808,0,0,0,0,0,0],"split_type":[0,0,0,0,0,0,0,0,0,0,0,0,0,0,0,0,0,0,0,0,0,0,0,0,0,0,0],"sum_hessian":[3.3631293E2,2.7993896E2,5.6373947E1,2.332938E2,4.6645184E1,5.5350544E1,1.023403E0,2.269778E2,6.315996E0,5.5316043E0,4.111358E1,2.2170387E2,5.273928E0,3.8496637E0,1.6819408E0,4.0110966E1,1.002611E0,2.2017879E2,1.5250834E0,1.1127856E0,2.736878E0,3.9104187E1,1.006781E0,2.1914673E2,1.032062E0,1.6785429E0,1.0583352E0],"tree_param":{"num_deleted":"0","num_feature":"15787","num_nodes":"27","size_leaf_vector":"0"}},{"base_weights":[-3.3776388E-1,-6.177303E-1,1.0401521E0,-9.0904844E-1,1.0064409E0,1.0593798E0,1.0774315E-1,-9.761192E-1,9.47681E-1,1.0310222E0,1.09530345E-1,-1.0388123E0,9.2539126E-1,1.0569814E0,1.108836E-1,-1.0555987E0,6.5833247E-1,-1.0656083E0,6.817816E-2],"categories":[],"categories_nodes":[],"categories_segments":[],"categories_sizes":[],"default_left":[true,true,true,true,true,false,false,true,false,true,false,true,false,false,false,true,false,false,false],"id":6,"left_children":[1,3,5,7,9,-1,-1,11,-1,13,-1,15,-1,-1,-1,17,-1,-1,-1],"loss_changes":[1.00906136E2,1.0341928E2,6.79409E-1,2.3866348E1,6.2395096E-1,0E0,0E0,2.221547E1,0E0,6.570015E-1,0E0,5.625534E0,0E0,0E0,0E0,2.0046844E0,0E0,0E0,0E0],"parents":[2147483647,0,0,1,1,2,2,3,3,4,4,7,7,9,9,11,11,15,15],"right_children":[2,4,6,8,10,-1,-1,12,-1,14,-1,16,-1,-1,-1,18,-1,-1,-1],"split_conditions":[1.25E-1,5.5523984E-2,4.0851343E-1,9.587647E-2,3.180023E-1,3.1781396E-1,3.2322947E-2,7.234418E-2,2.8430432E-1,6.4742815E-1,3.2859106E-2,8.4310815E-2,2.776174E-1,3.1709445E-1,3.326508E-2,3.5057217E-1,1.9749975E-1,-3.1968248E-1,2.045345E-2],"split_indices":[0,9718,8519,10347,11640,0,0,4356,0,9808,0,4380,0,0,0,13141,0,0,0],"split_type":[0,0,0,0,0,0,0,0,0,0,0,0,0,0,0,0,0,0,0],"sum_hessian":[2.58905E2,2.1564226E2,4.3262737E1,1.8321954E2,3.2422718E1,4.2255188E1,1.0075473E0,1.7728957E2,5.929967E0,3.1412285E1,1.0104316E0,1.720701E2,5.219481E0,3.0405748E1,1.0065368E0,1.7075912E2,1.310964E0,1.6930289E2,1.4562342E0],"tree_param":{"num_deleted":"0","num_feature":"15787","num_nodes":"19","size_leaf_vector":"0"}},{"base_weights":[-3.2078856E-1,-5.911948E-1,1.0050763E0,-9.0142363E-1,8.488889E-1,1.0297701E0,9.600836E-2,-9.6015036E-1,8.5692966E-1,1.5064819E-1,9.566316E-1,-1.011906E0,8.237356E-1,-2.0012234E-1,7.263554E-1,9.87289E-1,1.0087581E-1,-1.0307642E0,6.007581E-1,-3.1923044E-1,5.682454E-2,1.0206757E0,1.0205336E-1,-1.0460131E0,-7.984125E-2],"categories":[],"categories_nodes":[],"categories_segments":[],"categories_sizes":[],"default_left":[true,true,true,true,true,false,false,true,false,true,true,true,false,true,false,true,false,true,false,false,false,false,false,false,false],"id":7,"left_children":[1,3,5,7,9,-1,-1,11,-1,13,15,17,-1,19,-1,21,-1,23,-1,-1,-1,-1,-1,-1,-1],"loss_changes":[7.194141E1,7.489194E1,6.6620636E-1,1.4969612E1,2.1070366E0,0E0,0E0,1.311689E1,0E0,1.1928353E0,5.756054E-1,4.5648956E0,0E0,1.4077783E-1,0E0,6.2680626E-1,0E0,1.7813721E0,0E0,0E0,0E0,0E0,0E0,0E0,0E0],"parents":[2147483647,0,0,1,1,2,2,3,3,4,4,7,7,9,9,10,10,11,11,13,13,15,15,17,17],"right_children":[2,4,6,8,10,-1,-1,12,-1,14,16,18,-1,20,-1,22,-1,24,-1,-1,-1,-1,-1,-1,-1],"split_conditions":[1.25E-1,5.4173578E-2,3.4718472E-1,7.234418E-2,5.5523984E-2,3.0893105E-1,2.8802508E-2,9.587647E-2,2.5707892E-1,3E-1,5.2303326E-1,8.4310815E-2,2.471207E-1,4.010751E-2,2.1790662E-1,3.4319812E-1,3.0262744E-2,4.4626513E-1,1.8022743E-1,-9.576914E-2,1.7047362E-2,3.062027E-1,3.061601E-2,-3.1380394E-1,-2.3952376E-2],"split_indices":[0,9808,4956,4356,9718,0,0,10347,0,15692,4526,4380,0,554,0,15265,0,4215,0,0,0,0,0,0,0],"split_type":[0,0,0,0,0,0,0,0,0,0,0,0,0,0,0,0,0,0,0,0,0,0,0,0,0],"sum_hessian":[1.9800368E2,1.6492236E2,3.308132E1,1.3599895E2,2.8923414E1,3.2077198E1,1.0041211E0,1.3204283E2,3.9561124E0,4.1870337E0,2.473638E1,1.2874045E2,3.3023775E0,3.0071852E0,1.1798484E0,2.3732462E1,1.0039177E0,1.2760905E2,1.1314077E0,1.8890945E0,1.1180909E0,2.2722485E1,1.0099783E0,1.25496605E2,2.112441E0],"tree_param":{"num_deleted":"0","num_feature":"15787","num_nodes":"25","size_leaf_vector":"0"}},{"base_weights":[-3.018119E-1,-5.6158555E-1,9.7279847E-1,-8.697451E-1,7.9081416E-1,1.004371E0,9.895492E-2,-9.2972255E-1,8.026032E-1,1.4062545E-1,9.1174287E-1,-9.832104E-1,7.681614E-1,-1.6232964E-1,6.6399944E-1,9.496707E-1,9.377115E-2,-1.0002636E0,2.8879896E-1,2.0457326E-2,-3.49371E-1,9.9226797E-1,9.090579E-2,-1.0198317E0,-6.4670786E-2],"categories":[],"categories_nodes":[],"categories_segments":[],"categories_sizes":[],"default_left":[true,true,true,true,true,false,false,true,false,true,true,true,false,true,false,true,false,true,false,false,false,false,false,false,false],"id":8,"left_children":[1,3,5,7,9,-1,-1,11,-1,13,15,17,-1,19,-1,21,-1,23,-1,-1,-1,-1,-1,-1,-1],"loss_changes":[5.123028E1,5.394548E1,6.257038E-1,1.1233162E1,1.7775936E0,0E0,0E0,9.963661E0,0E0,8.9797264E-1,5.393429E-1,2.430687E0,0E0,1.425344E-1,0E0,6.139126E-1,0E0,1.7219086E0,0E0,0E0,0E0,0E0,0E0,0E0,0E0],"parents":[2147483647,0,0,1,1,2,2,3,3,4,4,7,7,9,9,10,10,11,11,13,13,15,15,17,17],"right_children":[2,4,6,8,10,-1,-1,12,-1,14,16,18,-1,20,-1,22,-1,24,-1,-1,-1,-1,-1,-1,-1],"split_conditions":[1.25E-1,5.4173578E-2,2.1326372E-1,7.234418E-2,5.5523984E-2,3.013113E-1,2.9686479E-2,9.587647E-2,2.4078096E-1,3E-1,6.113453E-1,3E-1,2.3044844E-1,1.11423284E-1,1.9919984E-1,3.8769615E-1,2.8131347E-2,4.4626513E-1,8.663969E-2,6.137198E-3,-1.048113E-1,2.976804E-1,2.7271738E-2,-3.059495E-1,-1.9401237E-2],"split_indices":[0,9808,3705,4356,9718,0,0,10347,0,15692,3135,15760,0,7529,0,6103,0,4215,0,0,0,0,0,0,0],"split_type":[0,0,0,0,0,0,0,0,0,0,0,0,0,0,0,0,0,0,0,0,0,0,0,0,0],"sum_hessian":[1.5207283E2,1.2679136E2,2.5281475E1,1.0355262E2,2.3238743E1,2.4255728E1,1.0257468E0,1.0039605E2,3.1565647E0,3.9835505E0,1.9255194E1,9.773797E1,2.6580837E0,2.9599962E0,1.0235542E0,1.8248058E1,1.0071353E0,9.6655785E1,1.082183E0,1.9474596E0,1.0125368E0,1.7237564E1,1.0104939E0,9.458743E1,2.068353E0],"tree_param":{"num_deleted":"0","num_feature":"15787","num_nodes":"25","size_leaf_vector":"0"}},{"base_weights":[-2.8099847E-1,-5.290581E-1,9.405636E-1,-8.0245215E-1,8.7998664E-1,9.8105794E-1,8.4479816E-2,-8.786032E-1,8.145238E-1,9.2552155E-1,8.972717E-2,-9.4822484E-1,7.7757496E-1,9.7736114E-1,9.009818E-2,-9.7522056E-1,5.5457896E-1,-9.997206E-1,-5.2302577E-2],"categories":[],"categories_nodes":[],"categories_segments":[],"categories_sizes":[],"default_left":[true,true,true,true,true,false,false,true,false,true,false,true,false,false,false,true,false,false,false],"id":9,"left_children":[1,3,5,7,9,-1,-1,11,-1,13,-1,15,-1,-1,-1,17,-1,-1,-1],"loss_changes":[3.6409462E1,3.890078E1,6.2306976E-1,1.1004826E1,5.138836E-1,0E0,0E0,9.994446E0,0E0,5.8656883E-1,0E0,3.6847534E0,0E0,0E0,0E0,1.6772766E0,0E0,0E0,0E0],"parents":[2147483647,0,0,1,1,2,2,3,3,4,4,7,7,9,9,11,11,15,15],"right_children":[2,4,6,8,10,-1,-1,12,-1,14,-1,16,-1,-1,-1,18,-1,-1,-1],"split_conditions":[1.25E-1,5.5523984E-2,3.6899203E-1,9.587647E-2,5.474055E-1,2.943174E-1,2.5343945E-2,7.234418E-2,2.4435715E-1,3.1020647E-1,2.6918152E-2,1.4939663E-1,2.332725E-1,2.9320836E-1,2.7029455E-2,4.4626513E-1,1.663737E-1,-2.9991618E-1,-1.5690774E-2],"split_indices":[0,9718,11030,10347,9808,0,0,4356,0,15265,0,11036,0,0,0,4215,0,0,0],"split_type":[0,0,0,0,0,0,0,0,0,0,0,0,0,0,0,0,0,0,0],"sum_hessian":[1.1751304E2,9.814905E1,1.9363989E1,8.256051E1,1.5588544E1,1.8350016E1,1.0139725E0,7.928332E1,3.277191E0,1.4577428E1,1.0111159E0,7.649512E1,2.7882016E0,1.3565748E1,1.0116795E0,7.5490105E1,1.0050056E0,7.345689E1,2.0332224E0],"tree_param":{"num_deleted":"0","num_feature":"15787","num_nodes":"19","size_leaf_vector":"0"}},{"base_weights":[-2.5970176E-1,-5.369656E-1,7.6868427E-1,-8.028455E-1,8.6778957E-1,8.272215E-1,-1.6253261E-1,-8.65916E-1,6.9552994E-1,9.3302584E-1,7.356079E-2,8.7702304E-1,-2.5209099E-2,-9.223861E-1,6.5485793E-1,9.06138E-1,2.0800118E-1,-9.6617323E-1,-1.501564E-1,-9.9210715E-1,2.097059E-1,2.6608828E-1,-5.163489E-1],"categories":[],"categories_nodes":[],"categories_segments":[],"categories_sizes":[],"default_left":[true,true,true,true,true,true,false,true,false,false,false,true,false,true,false,false,false,true,true,false,false,false,false],"id":10,"left_children":[1,3,5,7,9,11,-1,13,-1,-1,-1,15,-1,17,-1,-1,-1,19,21,-1,-1,-1,-1],"loss_changes":[2.653705E1,2.786981E1,1.217452E0,6.432579E0,5.5618286E-1,8.226242E-1,0E0,5.726471E0,0E0,0E0,0E0,1.5909481E-1,0E0,1.8136597E0,0E0,0E0,0E0,1.8741493E0,7.916609E-1,0E0,0E0,0E0,0E0],"parents":[2147483647,0,0,1,1,2,2,3,3,4,4,5,5,7,7,11,11,13,13,17,17,18,18],"right_children":[2,4,6,8,10,12,-1,14,-1,-1,-1,16,-1,18,-1,-1,-1,20,22,-1,-1,-1,-1],"split_conditions":[5.4173578E-2,1.25E-1,5.2303326E-1,7.234418E-2,3.0002266E-1,3.3847475E-1,-4.8759785E-2,9.587647E-2,2.08659E-1,2.7990776E-1,2.2068238E-2,3.366334E-1,-7.56273E-3,1.3155615E-1,1.9645739E-1,2.718414E-1,6.2400356E-2,4.7841638E-1,2.0505647E-1,-2.9763216E-1,6.291177E-2,7.982649E-2,-1.5490468E-1],"split_indices":[9808,0,4526,4356,4474,15265,0,10347,0,0,0,3305,0,433,0,0,0,14443,433,0,0,0,0],"split_type":[0,0,0,0,0,0,0,0,0,0,0,0,0,0,0,0,0,0,0,0,0,0,0],"sum_hessian":[9.0621025E1,7.1753395E1,1.8867626E1,6.0694206E1,1.1059191E1,1.7856806E1,1.0108205E0,5.864767E1,2.046537E0,1.00582695E1,1.0009217E0,1.6843887E1,1.0129194E0,5.692729E1,1.7203764E0,1.5801791E1,1.042095E0,5.363493E1,3.292364E0,5.263045E1,1.0044761E0,1.6688154E0,1.6235484E0],"tree_param":{"num_deleted":"0","num_feature":"15787","num_nodes":"23","size_leaf_vector":"0"}},{"base_weights":[-2.3664695E-1,-4.6395382E-1,8.7050664E-1,-7.2865033E-1,7.873959E-1,9.328594E-1,7.301594E-2,-8.076743E-1,7.127193E-1,8.508901E-1,7.450432E-2,-8.807093E-1,6.722997E-1,9.277189E-1,8.0487065E-2,-9.1910434E-1,1.2830521E-1,-9.6019E-1,7.211514E-2],"categories":[],"categories_nodes":[],"categories_segments":[],"categories_sizes":[],"default_left":[true,true,true,true,true,false,false,true,false,true,false,true,false,false,false,true,false,false,false],"id":11,"left_children":[1,3,5,7,9,-1,-1,11,-1,13,-1,15,-1,-1,-1,17,-1,-1,-1],"loss_changes":[1.865234E1,2.0716488E1,5.633526E-1,6.3521156E0,4.3896198E-1,0E0,0E0,5.8395405E0,0E0,5.2282476E-1,0E0,1.9270134E0,0E0,0E0,0E0,1.9062424E0,0E0,0E0,0E0],"parents":[2147483647,0,0,1,1,2,2,3,3,4,4,7,7,9,9,11,11,15,15],"right_children":[2,4,6,8,10,-1,-1,12,-1,14,-1,16,-1,-1,-1,18,-1,-1,-1],"split_conditions":[1.25E-1,5.5523984E-2,3.4680128E-1,9.587647E-2,1.6628124E-1,2.7985784E-1,2.1904783E-2,7.234418E-2,2.1381581E-1,2.958718E-1,2.2351298E-2,4.4626513E-1,2.0168991E-1,2.7831566E-1,2.4146121E-2,1.858401E-1,3.8491566E-2,-2.88057E-1,2.1634541E-2],"split_indices":[0,9718,11030,10347,9404,0,0,4356,0,14741,0,4215,0,0,0,11030,0,0,0],"split_type":[0,0,0,0,0,0,0,0,0,0,0,0,0,0,0,0,0,0,0],"sum_hessian":[7.151134E1,5.9812363E1,1.1698975E1,4.9714108E1,1.0098257E1,1.0693173E1,1.0058019E0,4.7546967E1,2.1671412E0,9.094659E0,1.0035983E0,4.5696796E1,1.8501693E0,8.084254E0,1.0104048E0,4.410752E1,1.5892739E0,4.2382107E1,1.7254157E0],"tree_param":{"num_deleted":"0","num_feature":"15787","num_nodes":"19","size_leaf_vector":"0"}},{"base_weights":[-2.094677E-1,-4.7377378E-1,6.5865326E-1,-7.1822786E-1,7.715722E-1,7.400378E-1,-1.3019295E-1,-7.847936E-1,5.950586E-1,8.658948E-1,6.735379E-2,8.1170505E-1,-5.1895604E-3,-8.436689E-1,6.038876E-1,8.7218016E-1,2.0787548E-1,-9.0492487E-1,5.4089093E-1,-9.590248E-1,1.0204345E-1],"categories":[],"categories_nodes":[],"categories_segments":[],"categories_sizes":[],"default_left":[true,true,true,true,true,true,false,true,false,false,false,true,false,true,false,false,false,true,false,false,false],"id":12,"left_children":[1,3,5,7,9,11,-1,13,-1,-1,-1,15,-1,17,-1,-1,-1,19,-1,-1,-1],"loss_changes":[1.346288E1,1.4107133E1,9.8201656E-1,3.7655354E0,4.589224E-1,6.8009233E-1,0E0,3.4808598E0,0E0,0E0,0E0,2.4050093E-1,0E0,3.4818363E0,0E0,0E0,0E0,1.9588699E0,0E0,0E0,0E0],"parents":[2147483647,0,0,1,1,2,2,3,3,4,4,5,5,7,7,11,11,13,13,17,17],"right_children":[2,4,6,8,10,12,-1,14,-1,-1,-1,16,-1,18,-1,-1,-1,20,-1,-1,-1],"split_conditions":[5.4173578E-2,1.25E-1,3.613826E-1,7.234418E-2,2.4045363E-1,1.9381648E-1,-3.9057888E-2,8.4310815E-2,1.785176E-1,2.5976846E-1,2.0206138E-2,2.5494343E-1,-1.5568682E-3,9.587647E-2,1.8116629E-1,2.6165405E-1,6.2362645E-2,4.4626513E-1,1.6226728E-1,-2.8770745E-1,3.0613037E-2],"split_indices":[9808,0,4474,4356,8519,9404,0,4380,0,0,0,3305,0,10347,0,0,0,4215,0,0,0],"split_type":[0,0,0,0,0,0,0,0,0,0,0,0,0,0,0,0,0,0,0,0,0],"sum_hessian":[5.6314655E1,4.3519165E1,1.279549E1,3.6732132E1,6.7870326E0,1.1654934E1,1.1405561E0,3.534314E1,1.3889949E0,5.7828918E0,1.0041404E0,1.0551053E1,1.1038811E0,3.428216E1,1.0609779E0,9.186579E0,1.3644744E0,3.316144E1,1.1207182E0,3.1515848E1,1.6455932E0],"tree_param":{"num_deleted":"0","num_feature":"15787","num_nodes":"21","size_leaf_vector":"0"}},{"base_weights":[-1.7865817E-1,-3.820811E-1,7.86103E-1,-6.3834614E-1,6.885326E-1,8.755946E-1,6.598459E-2,-7.2024214E-1,6.1627287E-1,8.512477E-1,2.1822701E-1,-7.986754E-1,5.8104753E-1,-2.2610252E-1,5.5814075E-1,-8.687891E-1,8.791058E-2,-9.245241E-1,7.044426E-2,-2.2376379E-2,1.5328601E-1],"categories":[],"categories_nodes":[],"categories_segments":[],"categories_sizes":[],"default_left":[true,true,true,true,true,false,false,true,false,false,true,true,false,false,false,true,true,false,false,false,false],"id":13,"left_children":[1,3,5,7,9,-1,-1,11,-1,-1,13,15,-1,-1,-1,17,19,-1,-1,-1,-1],"loss_changes":[9.378779E0,1.1105602E1,4.824195E-1,3.720171E0,4.2562842E-1,0E0,0E0,3.5662088E0,0E0,0E0,6.394658E-1,1.8844929E0,0E0,0E0,0E0,1.4810104E0,2.5347333E-2,0E0,0E0,0E0,0E0],"parents":[2147483647,0,0,1,1,2,2,3,3,4,4,7,7,10,10,11,11,15,15,16,16],"right_children":[2,4,6,8,10,-1,-1,12,-1,-1,14,16,-1,-1,-1,18,20,-1,-1,-1,-1],"split_conditions":[1.25E-1,5.5523984E-2,2.1304089E-1,9.587647E-2,2.3603515E-1,2.6267838E-1,1.9795379E-2,7.234418E-2,1.8488187E-1,2.5537434E-1,2.5E-1,1.4011374E-1,1.7431426E-1,-6.783076E-2,1.6744223E-1,1.858401E-1,2.0348322E-1,-2.7735725E-1,2.113328E-2,-6.712914E-3,4.5985803E-2],"split_indices":[0,9718,14727,10347,14741,0,0,4356,0,0,15771,433,0,0,0,11030,433,0,0,0,0],"split_type":[0,0,0,0,0,0,0,0,0,0,0,0,0,0,0,0,0,0,0,0,0],"sum_hessian":[4.5258423E1,3.787609E1,7.382329E0,3.0886719E1,6.989374E0,6.374273E0,1.0080563E0,2.939394E1,1.4927788E0,4.5910025E0,2.398372E0,2.8087265E1,1.3066751E0,1.1846461E0,1.2137257E0,2.6047436E1,2.0398293E0,2.4603123E1,1.4443122E0,1.0039359E0,1.0358934E0],"tree_param":{"num_deleted":"0","num_feature":"15787","num_nodes":"21","size_leaf_vector":"0"}},{"base_weights":[-1.4510334E-1,-3.892967E-1,5.476995E-1,-6.11721E-1,6.605778E-1,6.278894E-1,-9.084574E-2,-7.157166E-1,2.3721328E-1,7.822192E-1,6.13814E-2,7.152303E-1,4.081656E-2,-8.036158E-1,7.219972E-2,5.8628017E-1,-2.8518417E-1,7.661215E-1,1.8239431E-1,-8.367309E-1,-9.787016E-2,2.8457043E-1,-1.6831876E-1,8.2524157E-1,2.1254255E-1],"categories":[],"categories_nodes":[],"categories_segments":[],"categories_sizes":[],"default_left":[true,true,true,true,true,true,false,true,true,false,false,true,false,true,true,false,false,true,false,false,false,false,false,false,false],"id":14,"left_children":[1,3,5,7,9,11,-1,13,15,-1,-1,17,-1,19,21,-1,-1,23,-1,-1,-1,-1,-1,-1,-1],"loss_changes":[6.5657616E0,7.023876E0,5.7940006E-1,2.2808151E0,3.482473E-1,4.4200683E-1,0E0,1.5505772E0,7.800071E-1,0E0,0E0,7.55415E-2,0E0,3.7314892E-1,2.0524612E-1,0E0,0E0,5.1546097E-2,0E0,0E0,0E0,0E0,0E0,0E0,0E0],"parents":[2147483647,0,0,1,1,2,2,3,3,4,4,5,5,7,7,8,8,11,11,13,13,14,14,17,17],"right_children":[2,4,6,8,10,12,-1,14,16,-1,-1,18,-1,20,22,-1,-1,24,-1,-1,-1,-1,-1,-1,-1],"split_conditions":[5.4173578E-2,1.25E-1,3.9348066E-1,1.2559617E-1,1.8888856E-1,2.3870283E-1,-2.7253723E-2,1.04553E-1,2.0505647E-1,2.3466577E-1,1.8414421E-2,2.5091985E-1,1.2244969E-2,2.7644503E-1,1.842334E-1,1.7588405E-1,-8.5555255E-2,2.6452482E-1,5.4718297E-2,-2.5101927E-1,-2.936105E-2,8.537113E-2,-5.0495632E-2,2.4757248E-1,6.376277E-2],"split_indices":[9808,0,7529,433,4956,4215,0,8036,433,0,0,3305,0,4054,8036,0,0,8519,0,0,0,0,0,0,0],"split_type":[0,0,0,0,0,0,0,0,0,0,0,0,0,0,0,0,0,0,0,0,0,0,0,0,0],"sum_hessian":[3.6549496E1,2.7348137E1,9.20136E0,2.2911493E1,4.436643E0,8.189582E0,1.0117775E0,2.0550901E1,2.3605907E0,3.4340563E0,1.002587E0,6.938951E0,1.250631E0,1.8470432E1,2.08047E0,1.3417461E0,1.0188447E0,5.934342E0,1.0046088E0,1.7465324E1,1.0051086E0,1.0076185E0,1.0728514E0,4.9183435E0,1.0159985E0],"tree_param":{"num_deleted":"0","num_feature":"15787","num_nodes":"25","size_leaf_vector":"0"}},{"base_weights":[-1.10957496E-1,-2.9887488E-1,6.348782E-1,-5.095461E-1,6.4997977E-1,8.2955533E-1,1.2729895E-1,-6.0299397E-1,5.7682323E-1,7.738066E-1,5.9078895E-2,-7.0007145E-1,5.565847E-1,-7.8472245E-1,3.5343006E-1,-8.5765934E-1,1.3616683E-1],"categories":[],"categories_nodes":[],"categories_segments":[],"categories_sizes":[],"default_left":[true,true,true,true,true,false,false,true,false,false,false,true,false,true,false,false,false],"id":15,"left_children":[1,3,5,7,9,-1,-1,11,-1,-1,-1,13,-1,15,-1,-1,-1],"loss_changes":[4.7666445E0,5.681179E0,5.754304E-1,2.628107E0,3.4223437E-1,0E0,0E0,2.7729063E0,0E0,0E0,0E0,2.059064E0,0E0,1.379756E0,0E0,0E0,0E0],"parents":[2147483647,0,0,1,1,2,2,3,3,4,4,7,7,11,11,13,13],"right_children":[2,4,6,8,10,-1,-1,12,-1,-1,-1,14,-1,16,-1,-1,-1],"split_conditions":[5.4513384E-2,1.25E-1,1.5069067E-1,9.587647E-2,2.0700637E-1,2.488666E-1,3.8189687E-2,7.234418E-2,1.7304698E-1,2.3214199E-1,1.7723668E-2,4.4626513E-1,1.6697542E-1,3.75E-1,1.06029026E-1,-2.572978E-1,4.085005E-2],"split_indices":[9718,0,5358,10347,8519,0,0,4356,0,0,0,4215,0,15622,0,0,0],"split_type":[0,0,0,0,0,0,0,0,0,0,0,0,0,0,0,0,0],"sum_hessian":[3.1655838E1,2.5763786E1,5.8920517E0,2.14617E1,4.3020864E0,3.800189E0,2.0918627E0,2.0171522E1,1.290178E0,3.300839E0,1.0012473E0,1.8978918E1,1.1926048E0,1.78035E1,1.1754183E0,1.6560524E1,1.2429761E0],"tree_param":{"num_deleted":"0","num_feature":"15787","num_nodes":"17","size_leaf_vector":"0"}},{"base_weights":[-7.432447E-2,-2.8771353E-1,4.670422E-1,-4.7172368E-1,5.457207E-1,6.284494E-1,6.3116536E-2,-6.183164E-1,2.5551772E-1,6.840149E-1,5.7966635E-2,2.5013536E-1,7.460347E-1,-4.9155554E-1,5.767255E-1,-7.234961E-1,7.357554E-2,4.304913E-1,1.945356E-2,-7.9536355E-1,-2.1247712E-1,-8.3615816E-1,-2.1151602E-1],"categories":[],"categories_nodes":[],"categories_segments":[],"categories_sizes":[],"default_left":[true,true,true,true,true,true,true,true,true,false,false,false,false,false,false,true,false,false,false,true,false,false,false],"id":16,"left_children":[1,3,5,7,9,11,13,15,17,-1,-1,-1,-1,-1,-1,19,-1,-1,-1,21,-1,-1,-1],"loss_changes":[3.2923841E0,3.3594294E0,4.890821E-1,1.9815369E0,2.3837817E-1,6.619072E-2,1.2598301E0,1.110477E0,1.3937789E-1,0E0,0E0,0E0,0E0,0E0,0E0,2.9753733E-1,0E0,0E0,0E0,7.9714775E-2,0E0,0E0,0E0],"parents":[2147483647,0,0,1,1,2,2,3,3,4,4,5,5,6,6,7,7,8,8,15,15,19,19],"right_children":[2,4,6,8,10,12,14,16,18,-1,-1,-1,-1,-1,-1,20,-1,-1,-1,22,-1,-1,-1],"split_conditions":[5.4173578E-2,1.25E-1,2.3633869E-1,5.0380327E-2,1.9056275E-1,5.4513384E-2,2.5E-1,1.04553E-1,1.5886067E-1,2.0520449E-1,1.738999E-2,7.504061E-2,2.2381042E-1,-1.4746667E-1,1.7301765E-1,1.4738587E-1,2.2072664E-2,1.291474E-1,5.8360677E-3,2.53029E-1,-6.374314E-2,-2.5084746E-1,-6.345481E-2],"split_indices":[9808,0,14741,433,9840,9718,15771,8036,433,0,0,0,0,0,0,11855,0,0,0,12882,0,0,0],"split_type":[0,0,0,0,0,0,0,0,0,0,0,0,0,0,0,0,0,0,0,0,0,0,0],"sum_hessian":[2.6336933E1,1.9226871E1,7.1100626E0,1.6105099E1,3.121771E0,4.682928E0,2.4271345E0,1.352799E1,2.577109E0,2.1186798E0,1.0030915E0,1.8519163E0,2.8310115E0,1.1875633E0,1.2395712E0,1.1703218E1,1.8247715E0,1.007051E0,1.5700581E0,9.772439E0,1.9307797E0,8.730286E0,1.0421536E0],"tree_param":{"num_deleted":"0","num_feature":"15787","num_nodes":"23","size_leaf_vector":"0"}},{"base_weights":[-4.9266502E-2,-1.8116333E-1,7.228067E-1,-2.9645666E-1,6.652551E-1,-4.2812356E-1,4.535253E-1,-5.827465E-1,3.0440536E-1,5.9387416E-1,5.6060325E-2,-6.905792E-1,3.6737874E-1,6.4525086E-1,-2.3348539E-1,-7.796416E-1,1.7312601E-1],"categories":[],"categories_nodes":[],"categories_segments":[],"categories_sizes":[],"default_left":[true,true,false,true,false,true,true,true,true,false,false,true,false,false,false,false,false],"id":17,"left_children":[1,3,-1,5,-1,7,9,11,13,-1,-1,15,-1,-1,-1,-1,-1],"loss_changes":[2.623668E0,2.3154585E0,0E0,2.1489573E0,0E0,2.1429908E0,1.587112E-1,1.7569551E0,8.25615E-1,0E0,0E0,1.1753035E0,0E0,0E0,0E0,0E0,0E0],"parents":[2147483647,0,0,1,1,3,3,5,5,6,6,7,7,8,8,11,11],"right_children":[2,4,-1,6,-1,8,10,12,14,-1,-1,16,-1,-1,-1,-1,-1],"split_conditions":[8.8471614E-2,7.234418E-2,2.1684201E-1,1.25E-1,1.9957654E-1,5.5712342E-2,1.4241588E-1,4.4626513E-1,1.5024588E-1,1.7816225E-1,1.6818099E-2,1.6170695E-1,1.1021363E-1,1.9357526E-1,-7.004562E-2,-2.338925E-1,5.1937807E-2],"split_indices":[10341,4356,0,0,0,9718,4474,4215,5358,0,0,14352,0,0,0,0,0],"split_type":[0,0,0,0,0,0,0,0,0,0,0,0,0,0,0,0,0],"sum_hessian":[2.3478287E1,2.0706291E1,2.771996E0,1.8795807E1,1.9104848E0,1.6353874E1,2.4419322E0,1.3672369E1,2.6815042E0,1.439482E0,1.0024502E0,1.2524137E1,1.1482328E0,1.5192229E0,1.1622814E0,1.1441641E1,1.082496E0],"tree_param":{"num_deleted":"0","num_feature":"15787","num_nodes":"17","size_leaf_vector":"0"}},{"base_weights":[-1.4935053E-2,-1.3257131E-1,6.6953826E-1,-2.3669182E-1,6.180082E-1,-3.319405E-1,6.2784845E-1,-4.663445E-1,3.8950902E-1,-6.4952224E-1,3.0959967E-1,5.2408344E-1,5.4735262E-2,-8.116503E-1,2.7641872E-1,5.284577E-1,-1.04171626E-1],"categories":[],"categories_nodes":[],"categories_segments":[],"categories_sizes":[],"default_left":[true,true,false,true,false,true,false,true,true,true,true,false,false,false,false,false,false],"id":18,"left_children":[1,3,-1,5,-1,7,-1,9,11,13,15,-1,-1,-1,-1,-1,-1],"loss_changes":[1.7879342E0,1.6188406E0,0E0,1.6305498E0,0E0,1.753509E0,0E0,2.208035E0,1.1055189E-1,1.9876795E0,3.605806E-1,0E0,0E0,0E0,0E0,0E0,0E0],"parents":[2147483647,0,0,1,1,3,3,5,5,7,7,8,8,9,9,10,10],"right_children":[2,4,-1,6,-1,8,-1,10,12,14,16,-1,-1,-1,-1,-1,-1],"split_conditions":[8.8471614E-2,7.234418E-2,2.0086148E-1,6.8846375E-2,1.8540247E-1,1.25E-1,1.8835454E-1,2.8082755E-1,1.5240195E-1,1.3155615E-1,8.174626E-2,1.5722504E-1,1.6420579E-2,-2.4349509E-1,8.292562E-2,1.5853731E-1,-3.125149E-2],"split_indices":[10341,4356,0,4380,0,0,0,9808,7529,433,4474,0,0,0,0,0,0],"split_type":[0,0,0,0,0,0,0,0,0,0,0,0,0,0,0,0,0],"sum_hessian":[2.0102787E1,1.7842604E1,2.260183E0,1.6270247E1,1.5723567E0,1.5210513E1,1.0597329E0,1.3119912E1,2.0906014E0,1.0746018E1,2.373894E0,1.0878253E0,1.0027761E0,9.249845E0,1.4961739E0,1.3713604E0,1.0025336E0],"tree_param":{"num_deleted":"0","num_feature":"15787","num_nodes":"17","size_leaf_vector":"0"}},{"base_weights":[2.0336755E-2,-1.2633274E-1,4.7683343E-1,-4.4788322E-1,2.6196903E-1,7.0989907E-1,9.191689E-3,-5.48476E-1,1.10318504E-1,2.8305296E-2,5.5201054E-1,-6.4722365E-1,4.004639E-2,-2.1207283E-1,5.056764E-1,-3.9980987E-1,1.7360935E-1],"categories":[],"categories_nodes":[],"categories_segments":[],"categories_sizes":[],"default_left":[true,true,true,true,true,false,false,true,false,true,false,false,false,true,false,false,false],"id":19,"left_children":[1,3,5,7,9,-1,-1,11,-1,13,-1,-1,-1,15,-1,-1,-1],"loss_changes":[1.3049108E0,1.9727335E0,5.0899065E-1,5.376643E-1,4.83333E-1,0E0,0E0,4.5409226E-1,0E0,6.960741E-1,0E0,0E0,0E0,3.675417E-1,0E0,0E0,0E0],"parents":[2147483647,0,0,1,1,2,2,3,3,4,4,7,7,9,9,13,13],"right_children":[2,4,6,8,10,-1,-1,12,-1,14,-1,-1,-1,16,-1,-1,-1],"split_conditions":[5.4513384E-2,2.8279526E-2,2.3603515E-1,1.25E-1,2.095741E-1,2.1296974E-1,2.757507E-3,1.4702737E-1,3.3095554E-2,1.25E-1,1.6560316E-1,-1.941671E-1,1.2013918E-2,2.0930713E-1,1.5170293E-1,-1.1994296E-1,5.2082807E-2],"split_indices":[9718,5358,14741,0,4474,0,0,554,0,0,0,0,0,14741,0,0,0],"split_type":[0,0,0,0,0,0,0,0,0,0,0,0,0,0,0,0,0],"sum_hessian":[1.7589907E1,1.3860024E1,3.7298825E0,7.4977446E0,6.3622804E0,2.1435356E0,1.5863467E0,6.3676605E0,1.130084E0,4.1314692E0,2.2308109E0,5.3673363E0,1.0003245E0,3.1174428E0,1.0140264E0,2.072157E0,1.0452862E0],"tree_param":{"num_deleted":"0","num_feature":"15787","num_nodes":"17","size_leaf_vector":"0"}},{"base_weights":[3.256952E-2,-7.5443886E-2,6.006963E-1,-1.7461555E-1,5.6742066E-1,-2.6294214E-1,4.4313893E-1,-4.4693652E-1,1.8914191E-1,-5.88114E-1,2.1128297E-1,4.9808112E-1,-1.8588528E-1,-6.9346744E-1,5.463836E-2],"categories":[],"categories_nodes":[],"categories_segments":[],"categories_sizes":[],"default_left":[true,true,false,true,false,true,false,true,true,true,false,false,false,false,false],"id":20,"left_children":[1,3,-1,5,-1,7,-1,9,11,13,-1,-1,-1,-1,-1],"loss_changes":[1.0984225E0,1.0750346E0,0E0,8.8188654E-1,0E0,1.1575546E0,0E0,1.0038694E0,6.0632306E-1,5.8357E-1,0E0,0E0,0E0,0E0,0E0],"parents":[2147483647,0,0,1,1,3,3,5,5,7,7,8,8,9,9],"right_children":[2,4,-1,6,-1,8,-1,10,12,14,-1,-1,-1,-1,-1],"split_conditions":[7.710159E-2,7.234418E-2,1.802089E-1,4.4626513E-1,1.702262E-1,5.5712342E-2,1.3294168E-1,1.25E-1,1.2563507E-1,1.7622966E-1,6.338489E-2,1.4942434E-1,-5.5765588E-2,-2.0804024E-1,1.6391508E-2],"split_indices":[10980,4356,0,4215,0,9808,0,0,5358,8036,0,0,0,0,0],"split_type":[0,0,0,0,0,0,0,0,0,0,0,0,0,0,0],"sum_hessian":[1.6161222E1,1.4308136E1,1.8530854E0,1.3026915E1,1.2812214E0,1.1899834E1,1.127081E0,8.465737E0,3.434097E0,7.058343E0,1.4073937E0,1.7030455E0,1.7310516E0,5.9965477E0,1.0617957E0],"tree_param":{"num_deleted":"0","num_feature":"15787","num_nodes":"15","size_leaf_vector":"0"}},{"base_weights":[4.9561467E-2,1.3152815E-1,-5.744896E-1,-9.741715E-4,6.6239655E-1,-1.7610875E-1,5.163279E-1,-3.7757385E-1,4.13181E-1,6.388009E-1,1.06356904E-1,-5.226575E-1,2.2938208E-1,5.6975514E-1,5.255772E-2,-5.7782304E-1,-1.3500315E-1],"categories":[],"categories_nodes":[],"categories_segments":[],"categories_sizes":[],"default_left":[true,true,false,true,false,true,true,true,true,false,false,true,false,false,false,false,false],"id":21,"left_children":[1,3,-1,5,-1,7,9,11,13,-1,-1,15,-1,-1,-1,-1,-1],"loss_changes":[8.79568E-1,1.0351576E0,0E0,1.2476761E0,0E0,1.3769721E0,1.06975615E-1,8.407974E-1,1.4496297E-1,0E0,0E0,6.981218E-2,0E0,0E0,0E0,0E0,0E0],"parents":[2147483647,0,0,1,1,3,3,5,5,6,6,7,7,8,8,11,11],"right_children":[2,4,-1,6,-1,8,10,12,14,-1,-1,16,-1,-1,-1,-1,-1],"split_conditions":[2.0001909E-1,1.25E-1,-1.7234689E-1,5.5523984E-2,1.9871898E-1,1.7958048E-1,1.6376632E-1,1.34594E-1,2.1349546E-1,1.9164029E-1,3.1907074E-2,1.25E-1,6.881463E-2,1.7092654E-1,1.5767317E-2,-1.7334692E-1,-4.0500946E-2],"split_indices":[3705,0,0,9718,0,5358,5358,4956,5358,0,0,15612,0,0,0,0,0],"split_type":[0,0,0,0,0,0,0,0,0,0,0,0,0,0,0,0,0],"sum_hessian":[1.4718171E1,1.370704E1,1.0111313E0,1.1767972E1,1.9390671E0,9.284301E0,2.483672E0,7.1866255E0,2.0976748E0,1.4826039E0,1.0010679E0,5.9122734E0,1.2743523E0,1.0582777E0,1.0393971E0,4.746286E0,1.1659875E0],"tree_param":{"num_deleted":"0","num_feature":"15787","num_nodes":"17","size_leaf_vector":"0"}},{"base_weights":[5.791191E-2,-3.481196E-2,5.49431E-1,-1.483542E-1,4.566293E-1,-3.5014084E-1,2.4134143E-1,-4.8314813E-1,1.8555348E-1,4.4994694E-1,-9.845447E-2,-6.219008E-1,1.1075532E-1],"categories":[],"categories_nodes":[],"categories_segments":[],"categories_sizes":[],"default_left":[true,true,false,true,false,true,true,true,false,false,false,false,false],"id":22,"left_children":[1,3,-1,5,-1,7,9,11,-1,-1,-1,-1,-1],"loss_changes":[6.8682027E-1,8.0795264E-1,0E0,9.912233E-1,0E0,6.6001415E-1,3.6509675E-1,6.2019205E-1,0E0,0E0,0E0,0E0,0E0],"parents":[2147483647,0,0,1,1,3,3,5,5,6,6,7,7],"right_children":[2,4,-1,6,-1,8,10,12,-1,-1,-1,-1,-1],"split_conditions":[8.8471614E-2,1.2559617E-1,1.6482931E-1,5.5712342E-2,1.369888E-1,1.25E-1,2.3633869E-1,3E-1,5.5666044E-2,1.3498409E-1,-2.9536342E-2,-1.8657024E-1,3.3226598E-2],"split_indices":[10341,433,0,9808,0,0,14741,15547,0,0,0,0,0],"split_type":[0,0,0,0,0,0,0,0,0,0,0,0,0],"sum_hessian":[1.3650258E1,1.2265564E1,1.3846936E0,1.0530685E1,1.7348781E0,7.0049725E0,3.5257132E0,5.690236E0,1.3147364E0,1.9837146E0,1.5419987E0,4.5743885E0,1.1158476E0],"tree_param":{"num_deleted":"0","num_feature":"15787","num_nodes":"13","size_leaf_vector":"0"}},{"base_weights":[6.2049665E-2,1.5103838E-1,-3.9839768E-1,3.58924E-2,5.9709495E-1,-9.3841136E-2,4.4785085E-1,-3.0393457E-1,2.2232977E-1,-4.366538E-1,1.10736065E-1,4.693741E-1,-5.260648E-2],"categories":[],"categories_nodes":[],"categories_segments":[],"categories_sizes":[],"default_left":[true,true,false,true,false,true,false,true,true,false,false,false,false],"id":23,"left_children":[1,3,-1,5,-1,7,-1,9,11,-1,-1,-1,-1],"loss_changes":[6.2867147E-1,6.1300576E-1,0E0,6.236074E-1,0E0,6.722093E-1,0E0,3.725676E-1,3.1073576E-1,0E0,0E0,0E0,0E0],"parents":[2147483647,0,0,1,1,3,3,5,5,7,7,8,8],"right_children":[2,4,-1,6,-1,8,-1,10,12,-1,-1,-1,-1],"split_conditions":[3.0238128E-1,1.25E-1,-1.1951931E-1,9.1998436E-2,1.791285E-1,5.4173578E-2,1.3435526E-1,1.3382632E-1,1.2563507E-1,-1.3099614E-1,3.322082E-2,1.4081223E-1,-1.5781945E-2],"split_indices":[8519,0,0,433,0,9808,0,12947,5358,0,0,0,0],"split_type":[0,0,0,0,0,0,0,0,0,0,0,0,0],"sum_hessian":[1.2874399E1,1.1352352E1,1.5220466E0,9.881887E0,1.470465E0,8.102472E0,1.7794151E0,4.891083E0,3.2113895E0,3.665039E0,1.2260436E0,1.3189946E0,1.892395E0],"tree_param":{"num_deleted":"0","num_feature":"15787","num_nodes":"13","size_leaf_vector":"0"}},{"base_weights":[6.1276276E-2,-2.5753926E-2,5.359132E-1,-1.1909215E-1,5.086339E-1,-2.200933E-1,4.3682918E-1,-3.5649484E-1,2.1606058E-1,-4.5718852E-1,1.3341351E-1,-5.8294296E-1,9.770901E-2],"categories":[],"categories_nodes":[],"categories_segments":[],"categories_sizes":[],"default_left":[true,true,false,true,false,true,false,true,false,true,false,false,false],"id":24,"left_children":[1,3,-1,5,-1,7,-1,9,-1,11,-1,-1,-1],"loss_changes":[5.687042E-1,6.7438394E-1,0E0,7.298646E-1,0E0,6.8480515E-1,0E0,4.635185E-1,0E0,5.4503524E-1,0E0,0E0,0E0],"parents":[2147483647,0,0,1,1,3,3,5,5,7,7,9,9],"right_children":[2,4,-1,6,-1,8,-1,10,-1,12,-1,-1,-1],"split_conditions":[7.234418E-2,8.8471614E-2,1.6077398E-1,4.4626513E-1,1.5259019E-1,5.5712342E-2,1.3104875E-1,1.25E-1,6.481817E-2,1.34594E-1,4.0024053E-2,-1.7488289E-1,2.9312704E-2],"split_indices":[4356,10347,0,4215,0,9718,0,0,0,4956,0,0,0],"split_type":[0,0,0,0,0,0,0,0,0,0,0,0,0],"sum_hessian":[1.2433371E1,1.130602E1,1.1273506E0,1.0286486E1,1.019534E0,9.216164E0,1.0703224E0,7.1596985E0,2.0564647E0,5.994419E0,1.1652796E0,4.845711E0,1.1487079E0],"tree_param":{"num_deleted":"0","num_feature":"15787","num_nodes":"13","size_leaf_vector":"0"}},{"base_weights":[7.572974E-2,1.597758E-1,-4.326067E-1,2.3578076E-1,-3.0775663E-1,7.892156E-2,6.624965E-1,-1.7752452E-1,3.82796E-1,-3.1617063E-1,9.857234E-2,6.8065725E-2,6.530694E-1,3.070742E-1,-1.9032575E-1],"categories":[],"categories_nodes":[],"categories_segments":[],"categories_sizes":[],"default_left":[true,true,false,true,false,true,false,true,true,false,false,true,false,false,false],"id":25,"left_children":[1,3,-1,5,-1,7,-1,9,11,-1,-1,13,-1,-1,-1],"loss_changes":[6.038496E-1,4.801662E-1,0E0,6.460254E-1,0E0,7.5089496E-1,0E0,2.3925337E-1,3.2368618E-1,0E0,0E0,2.5086978E-1,0E0,0E0,0E0],"parents":[2147483647,0,0,1,1,3,3,5,5,7,7,8,8,11,11],"right_children":[2,4,-1,6,-1,8,-1,10,12,-1,-1,14,-1,-1,-1],"split_conditions":[1.9442575E-1,3.8265496E-1,-1.2978202E-1,5.4513384E-2,-9.232699E-2,1.06915444E-1,1.9874896E-1,5.8495052E-2,1.8061873E-1,-9.4851196E-2,2.9571705E-2,1.6111282E-1,1.9592083E-1,9.212226E-2,-5.709773E-2],"split_indices":[3705,7529,0,9718,0,5358,0,554,4215,0,0,5358,0,0,0],"split_type":[0,0,0,0,0,0,0,0,0,0,0,0,0,0,0],"sum_hessian":[1.1516001E1,1.0470538E1,1.0454626E0,9.432778E0,1.0377595E0,7.763788E0,1.66899E0,4.435973E0,3.3278153E0,2.8564305E0,1.5795424E0,2.115814E0,1.2120011E0,1.0012579E0,1.1145562E0],"tree_param":{"num_deleted":"0","num_feature":"15787","num_nodes":"15","size_leaf_vector":"0"}},{"base_weights":[6.783943E-2,-2.6459232E-2,4.6506497E-1,1.55489E-1,-2.6278466E-1,9.821379E-3,4.5720887E-1,-5.342539E-1,1.8812987E-1,-2.4683048E-1,4.0093064E-1],"categories":[],"categories_nodes":[],"categories_segments":[],"categories_sizes":[],"default_left":[true,true,false,true,true,true,false,false,false,false,false],"id":26,"left_children":[1,3,-1,5,7,9,-1,-1,-1,-1,-1],"loss_changes":[4.6800667E-1,5.0429887E-1,0E0,2.9076207E-1,7.199136E-1,6.563117E-1,0E0,0E0,0E0,0E0,0E0],"parents":[2147483647,0,0,1,1,3,3,4,4,5,5],"right_children":[2,4,-1,6,8,10,-1,-1,-1,-1,-1],"split_conditions":[1.2019266E-1,1.4759704E-1,1.395195E-1,1.7410818E-1,2.5E-1,1.1923791E-1,1.3716267E-1,-1.6027617E-1,5.6438964E-2,-7.4049145E-2,1.202792E-1],"split_indices":[10783,14741,0,9808,15771,4474,0,0,0,0,0],"split_type":[0,0,0,0,0,0,0,0,0,0,0],"sum_hessian":[1.1165716E1,9.777899E0,1.3878173E0,5.7177935E0,4.060105E0,4.552459E0,1.1653347E0,2.4189649E0,1.6411401E0,2.9714465E0,1.5810122E0],"tree_param":{"num_deleted":"0","num_feature":"15787","num_nodes":"11","size_leaf_vector":"0"}},{"base_weights":[6.66603E-2,1.4654055E-1,-3.1843996E-1,4.800718E-2,5.2374315E-1,-7.8829035E-2,4.139443E-1,-2.2960885E-1,2.1116212E-1,-3.8757414E-1,1.7623097E-1,2.8673506E-1,2.5820011E-2],"categories":[],"categories_nodes":[],"categories_segments":[],"categories_sizes":[],"default_left":[true,true,false,true,false,true,false,true,true,false,false,false,false],"id":27,"left_children":[1,3,-1,5,-1,7,-1,9,11,-1,-1,-1,-1],"loss_changes":[4.1481632E-1,3.6870295E-1,0E0,4.7369504E-1,0E0,3.937746E-1,0E0,4.320919E-1,3.7730888E-2,0E0,0E0,0E0,0E0],"parents":[2147483647,0,0,1,1,3,3,5,5,7,7,8,8],"right_children":[2,4,-1,6,-1,8,-1,10,12,-1,-1,-1,-1],"split_conditions":[3.0238128E-1,1.25E-1,-9.553199E-2,1.3155615E-1,1.5712295E-1,1.875E-1,1.241833E-1,2.8105664E-1,1.04491785E-1,-1.1627225E-1,5.2869294E-2,8.602052E-2,7.7460036E-3],"split_indices":[8519,0,0,433,0,15563,0,9808,14741,0,0,0,0],"split_type":[0,0,0,0,0,0,0,0,0,0,0,0,0],"sum_hessian":[1.0967788E1,9.596655E0,1.3711327E0,8.5028105E0,1.0938442E0,6.8968873E0,1.6059234E0,4.6745787E0,2.2223084E0,3.397266E0,1.277313E0,1.190021E0,1.0322872E0],"tree_param":{"num_deleted":"0","num_feature":"15787","num_nodes":"13","size_leaf_vector":"0"}},{"base_weights":[6.621809E-2,1.3688657E-1,-3.356913E-1,4.578449E-2,5.0488096E-1,-4.5560706E-2,4.14332E-1,-1.4876792E-1,2.1054836E-1,-2.6218992E-1,2.4934368E-1,-4.1211414E-1,2.1257989E-1],"categories":[],"categories_nodes":[],"categories_segments":[],"categories_sizes":[],"default_left":[true,true,false,true,false,true,false,true,false,true,false,false,false],"id":28,"left_children":[1,3,-1,5,-1,7,-1,9,-1,11,-1,-1,-1],"loss_changes":[3.780222E-1,3.3404875E-1,0E0,3.4338465E-1,0E0,2.5931847E-1,0E0,3.694489E-1,0E0,4.9534875E-1,0E0,0E0,0E0],"parents":[2147483647,0,0,1,1,3,3,5,5,7,7,9,9],"right_children":[2,4,-1,6,-1,8,-1,10,-1,12,-1,-1,-1],"split_conditions":[2.1349072E-1,1.25E-1,-1.007074E-1,2.0340717E-1,1.514643E-1,5.5523984E-2,1.2429961E-1,1.9217238E-1,6.316451E-2,1.3176191E-1,7.480311E-2,-1.2363425E-1,6.377397E-2],"split_indices":[1874,0,0,10783,0,9718,0,433,0,4956,0,0,0],"split_type":[0,0,0,0,0,0,0,0,0,0,0,0,0],"sum_hessian":[1.0691669E1,9.653658E0,1.0380111E0,8.6392975E0,1.0143607E0,7.6256447E0,1.0136528E0,5.734051E0,1.8915937E0,4.728358E0,1.0056933E0,3.693868E0,1.0344899E0],"tree_param":{"num_deleted":"0","num_feature":"15787","num_nodes":"13","size_leaf_vector":"0"}},{"base_weights":[7.015367E-2,1.4459886E-1,-3.4793347E-1,2.1372561E-1,-2.4656463E-1,7.7426754E-2,5.987512E-1,-6.0853012E-2,3.7344074E-1,7.5258955E-2,-3.2860422E-1,-6.408155E-2,2.7710137E-1],"categories":[],"categories_nodes":[],"categories_segments":[],"categories_sizes":[],"default_left":[true,true,false,true,false,true,false,true,false,true,false,false,false],"id":29,"left_children":[1,3,-1,5,-1,7,-1,9,-1,11,-1,-1,-1],"loss_changes":[4.021061E-1,3.3123043E-1,0E0,4.4114125E-1,0E0,3.5056847E-1,0E0,2.5502178E-1,0E0,1.5846576E-1,0E0,0E0,0E0],"parents":[2147483647,0,0,1,1,3,3,5,5,7,7,9,9],"right_children":[2,4,-1,6,-1,8,-1,10,-1,12,-1,-1,-1],"split_conditions":[8.2327485E-2,3.7013543E-1,-1.0438005E-1,5.4513384E-2,-7.3969394E-2,1.796301E-1,1.7962536E-1,1.8734473E-1,1.1203223E-1,6.986615E-2,-9.858127E-2,-1.9224465E-2,8.313041E-2],"split_indices":[3705,7529,0,9718,0,5358,0,4215,0,554,0,0,0],"split_type":[0,0,0,0,0,0,0,0,0,0,0,0,0],"sum_hessian":[1.0302815E1,9.3008375E0,1.0019783E0,8.289521E0,1.0113161E0,7.0093203E0,1.2802007E0,5.3190217E0,1.6902988E0,4.003006E0,1.3160156E0,2.7719362E0,1.2310699E0],"tree_param":{"num_deleted":"0","num_feature":"15787","num_nodes":"13","size_leaf_vector":"0"}},{"base_weights":[5.8032077E-2,1.5070441E-1,-1.9195831E-1,2.2821367E-1,-2.1060239E-1,-4.524353E-1,1.809453E-1,-8.987882E-3,3.6758378E-1,-9.202747E-2,1.0821066E-1,4.3214038E-1,9.266835E-2],"categories":[],"categories_nodes":[],"categories_segments":[],"categories_sizes":[],"default_left":[true,true,true,true,false,false,false,true,true,false,false,false,false],"id":30,"left_children":[1,3,5,7,-1,-1,-1,9,11,-1,-1,-1,-1],"loss_changes":[2.8684068E-1,2.9119933E-1,4.1703224E-1,2.5549066E-1,0E0,0E0,0E0,4.6934903E-2,4.5657456E-2,0E0,0E0,0E0,0E0],"parents":[2147483647,0,0,1,1,2,2,3,3,7,7,8,8],"right_children":[2,4,6,8,-1,-1,-1,10,12,-1,-1,-1,-1],"split_conditions":[9.091474E-2,3.3830744E-1,1.4860699E-1,5.9357587E-2,-6.318072E-2,-1.357306E-1,5.4283593E-2,1.0102102E-1,2.0218642E-1,-2.7608242E-2,3.24632E-2,1.2964211E-1,2.7800506E-2],"split_indices":[554,3074,554,5358,0,0,0,14741,5358,0,0,0,0],"split_type":[0,0,0,0,0,0,0,0,0,0,0,0,0],"sum_hessian":[1.0132627E1,7.68203E0,2.4505968E0,6.6284328E0,1.0535971E0,1.317225E0,1.1333718E0,2.7994344E0,3.8289986E0,1.764203E0,1.0352315E0,2.6377015E0,1.191297E0],"tree_param":{"num_deleted":"0","num_feature":"15787","num_nodes":"13","size_leaf_vector":"0"}},{"base_weights":[4.2908654E-2,1.0296326E-1,-2.795928E-1,1.6195613E-1,-2.1084075E-1,2.3527974E-1,-1.657077E-1,1.03340216E-1,5.499387E-1,-2.1325964E-2,3.1940204E-1,-1.6152073E-1,2.4566932E-1],"categories":[],"categories_nodes":[],"categories_segments":[],"categories_sizes":[],"default_left":[true,true,false,true,false,true,false,true,false,true,false,false,false],"id":31,"left_children":[1,3,-1,5,-1,7,-1,9,-1,11,-1,-1,-1],"loss_changes":[2.4257936E-1,2.199457E-1,0E0,2.5555098E-1,0E0,2.661171E-1,0E0,1.8760726E-1,0E0,2.3408805E-1,0E0,0E0,0E0],"parents":[2147483647,0,0,1,1,3,3,5,5,7,7,9,9],"right_children":[2,4,-1,6,-1,8,-1,10,-1,12,-1,-1,-1],"split_conditions":[2.1349072E-1,2.5877237E-1,-8.387785E-2,3.0474913E-1,-6.3252226E-2,5.4513384E-2,-4.9712315E-2,1.3872555E-1,1.649816E-1,1.34594E-1,9.582061E-2,-4.845622E-2,7.37008E-2],"split_indices":[1874,12947,0,14741,0,9718,0,433,0,4956,0,0,0],"split_type":[0,0,0,0,0,0,0,0,0,0,0,0,0],"sum_hessian":[1.0038564E1,9.036556E0,1.0020069E0,8.013897E0,1.02266E0,6.7788863E0,1.2350105E0,5.712147E0,1.0667386E0,4.193705E0,1.5184422E0,3.0088508E0,1.1848546E0],"tree_param":{"num_deleted":"0","num_feature":"15787","num_nodes":"13","size_leaf_vector":"0"}},{"base_weights":[3.929134E-2,9.9929586E-2,-2.3412672E-1,1.6832484E-1,-1.6724962E-1,2.0373976E-2,3.949017E-1,-8.124133E-2,2.3472273E-1,1.0220183E-1,-3.8577902E-1],"categories":[],"categories_nodes":[],"categories_segments":[],"categories_sizes":[],"default_left":[true,true,false,true,false,true,false,true,false,false,false],"id":32,"left_children":[1,3,-1,5,-1,7,-1,9,-1,-1,-1],"loss_changes":[2.0432627E-1,2.0417958E-1,0E0,2.6575938E-1,0E0,1.496619E-1,0E0,3.08158E-1,0E0,0E0,0E0],"parents":[2147483647,0,0,1,1,3,3,5,5,7,7],"right_children":[2,4,-1,6,-1,8,-1,10,-1,-1,-1],"split_conditions":[3.0238128E-1,3.0565485E-1,-7.023802E-2,1.0745655E-1,-5.017489E-2,2.3856193E-1,1.1847051E-1,1.8564467E-1,7.041682E-2,3.066055E-2,-1.1573371E-1],"split_indices":[8519,7529,0,4474,0,14741,0,4215,0,0,0],"split_type":[0,0,0,0,0,0,0,0,0,0,0],"sum_hessian":[9.912821E0,8.632774E0,1.2800463E0,7.167864E0,1.4649103E0,4.995686E0,2.1721778E0,3.8103273E0,1.1853588E0,2.792577E0,1.0177501E0],"tree_param":{"num_deleted":"0","num_feature":"15787","num_nodes":"11","size_leaf_vector":"0"}},{"base_weights":[2.6159162E-2,-3.3503186E-2,2.7553692E-1,-1.18135415E-1,2.2478646E-1,5.8184437E-2,-3.191205E-1,-3.8325664E-2,1.9005279E-1,-4.30405E-1,-3.093954E-2,-1.0688284E-1,7.518305E-2],"categories":[],"categories_nodes":[],"categories_segments":[],"categories_sizes":[],"default_left":[true,true,false,true,false,true,true,true,false,false,false,false,false],"id":33,"left_children":[1,3,-1,5,-1,7,9,11,-1,-1,-1,-1,-1],"loss_changes":[1.7039058E-1,2.3711073E-1,0E0,2.988965E-1,0E0,7.167539E-2,1.101816E-1,3.7246056E-2,0E0,0E0,0E0,0E0,0E0],"parents":[2147483647,0,0,1,1,3,3,5,5,6,6,7,7],"right_children":[2,4,-1,6,-1,8,10,12,-1,-1,-1,-1,-1],"split_conditions":[1.2019266E-1,1.25E-1,8.266108E-2,1.3427919E-1,6.743594E-2,1.22004166E-1,2.1033359E-1,5.7014942E-2,5.701584E-2,-1.291215E-1,-9.2818625E-3,-3.2064855E-2,2.2554915E-2],"split_indices":[10783,15612,0,14741,0,5358,3074,554,0,0,0,0,0],"split_type":[0,0,0,0,0,0,0,0,0,0,0,0,0],"sum_hessian":[9.83171E0,8.632162E0,1.1995474E0,6.910473E0,1.7216892E0,4.059588E0,2.850885E0,2.753648E0,1.30594E0,1.7006395E0,1.1502454E0,1.7531506E0,1.0004975E0],"tree_param":{"num_deleted":"0","num_feature":"15787","num_nodes":"13","size_leaf_vector":"0"}},{"base_weights":[2.3689564E-2,7.367268E-2,-2.3151197E-1,1.22395955E-1,-1.6638887E-1,3.2606985E-2,3.6554414E-1,-6.564735E-2,1.815E-1,-1.6415197E-1,1.7257753E-1,5.034108E-2,2.2746173E-1,-2.5858843E-1,6.8647176E-2],"categories":[],"categories_nodes":[],"categories_segments":[],"categories_sizes":[],"default_left":[true,true,false,true,false,true,false,true,true,true,false,false,false,false,false],"id":34,"left_children":[1,3,-1,5,-1,7,-1,9,11,13,-1,-1,-1,-1,-1],"loss_changes":[1.5404953E-1,1.3428268E-1,0E0,1.7741518E-1,0E0,1.2063249E-1,0E0,1.5062162E-1,7.960536E-3,1.1007455E-1,0E0,0E0,0E0,0E0,0E0],"parents":[2147483647,0,0,1,1,3,3,5,5,7,7,8,8,9,9],"right_children":[2,4,-1,6,-1,8,-1,10,12,14,-1,-1,-1,-1,-1],"split_conditions":[2.1137357E-1,3.2216626E-1,-6.945359E-2,5.4513384E-2,-4.9916662E-2,1.12449795E-1,1.0966325E-1,1.9454226E-1,2.3308268E-1,6.89109E-2,5.177326E-2,1.5102325E-2,6.823852E-2,-7.757653E-2,2.0594154E-2],"split_indices":[1874,14741,0,9718,0,14741,0,433,14741,554,0,0,0,0,0],"split_type":[0,0,0,0,0,0,0,0,0,0,0,0,0,0,0],"sum_hessian":[9.739724E0,8.739369E0,1.0003549E0,7.672329E0,1.0670406E0,6.431448E0,1.240881E0,4.211428E0,2.2200196E0,3.1994226E0,1.0120058E0,1.1197945E0,1.1002251E0,2.197296E0,1.0021266E0],"tree_param":{"num_deleted":"0","num_feature":"15787","num_nodes":"15","size_leaf_vector":"0"}},{"base_weights":[2.3401884E-2,-3.3223424E-2,2.5543672E-1,-8.880359E-2,2.0874234E-1,2.0325167E-2,-3.6993352E-1,-9.018341E-2,3.1235394E-1,2.6069745E-2,-3.2099262E-1,-8.6516894E-2,1.735487E-1],"categories":[],"categories_nodes":[],"categories_segments":[],"categories_sizes":[],"default_left":[true,true,false,true,false,true,false,true,false,true,false,false,false],"id":35,"left_children":[1,3,-1,5,-1,7,-1,9,-1,11,-1,-1,-1],"loss_changes":[1.479913E-1,1.4521754E-1,0E0,2.6404965E-1,0E0,2.5314796E-1,0E0,1.648945E-1,0E0,9.4787575E-2,0E0,0E0,0E0],"parents":[2147483647,0,0,1,1,3,3,5,5,7,7,9,9],"right_children":[2,4,-1,6,-1,8,-1,10,-1,12,-1,-1,-1],"split_conditions":[1.25E-1,4.4626513E-1,7.663102E-2,1.9358894E-1,6.26227E-2,2.8082755E-1,-1.10980056E-1,9.013537E-2,9.370618E-2,1.0745655E-1,-9.629779E-2,-2.595507E-2,5.2064613E-2],"split_indices":[0,4215,0,5358,0,9808,0,554,0,4474,0,0,0],"split_type":[0,0,0,0,0,0,0,0,0,0,0,0,0],"sum_hessian":[9.617578E0,8.419675E0,1.1979032E0,7.3616705E0,1.0580038E0,5.9714E0,1.3902707E0,4.833504E0,1.1378957E0,3.804379E0,1.0291253E0,2.3918116E0,1.4125674E0],"tree_param":{"num_deleted":"0","num_feature":"15787","num_nodes":"13","size_leaf_vector":"0"}},{"base_weights":[2.1401094E-2,8.877729E-2,-1.5018234E-1,-5.2883428E-2,2.5647077E-1,-3.2647684E-1,1.07630394E-1,-1.5449488E-1,1.7554165E-1,8.656268E-3,4.7675264E-1,-7.473402E-2,-2.0157653E-1],"categories":[],"categories_nodes":[],"categories_segments":[],"categories_sizes":[],"default_left":[true,true,true,true,true,false,false,true,false,false,false,false,false],"id":36,"left_children":[1,3,5,7,9,-1,-1,11,-1,-1,-1,-1,-1],"loss_changes":[1.3424818E-1,2.0690182E-1,1.8606162E-1,1.4876308E-1,2.0865244E-1,0E0,0E0,5.54204E-4,0E0,0E0,0E0,0E0,0E0],"parents":[2147483647,0,0,1,1,2,2,3,3,4,4,7,7],"right_children":[2,4,6,8,10,-1,-1,12,-1,-1,-1,-1,-1],"split_conditions":[9.091474E-2,9.711744E-2,1.4860699E-1,1.875E-1,1.9278368E-1,-9.794306E-2,3.228912E-2,1.926525E-1,5.26625E-2,2.5968805E-3,1.430258E-1,-2.2420205E-2,-6.047296E-2],"split_indices":[554,4215,554,15563,5358,0,0,3074,0,0,0,0,0],"split_type":[0,0,0,0,0,0,0,0,0,0,0,0,0],"sum_hessian":[9.45923E0,7.138668E0,2.3205628E0,4.2408285E0,2.8978395E0,1.2199901E0,1.1005727E0,3.1591706E0,1.0816578E0,1.8527802E0,1.0450593E0,2.1329963E0,1.0261744E0],"tree_param":{"num_deleted":"0","num_feature":"15787","num_nodes":"13","size_leaf_vector":"0"}},{"base_weights":[1.98152E-2,-3.999069E-2,2.1384436E-1,3.836794E-2,-2.8331387E-1,-4.2745426E-2,2.7608433E-1,-1.3370936E-1,2.0242509E-1,-2.5868037E-1,1.1473E-1],"categories":[],"categories_nodes":[],"categories_segments":[],"categories_sizes":[],"default_left":[true,true,false,true,false,true,false,true,false,false,false],"id":37,"left_children":[1,3,-1,5,-1,7,-1,9,-1,-1,-1],"loss_changes":[1.2950034E-1,1.7883898E-1,0E0,1.5727279E-1,0E0,1.7182589E-1,0E0,1.9536832E-1,0E0,0E0,0E0],"parents":[2147483647,0,0,1,1,3,3,5,5,7,7],"right_children":[2,4,-1,6,-1,8,-1,10,-1,-1,-1],"split_conditions":[5.4513384E-2,2.4810806E-1,6.415331E-2,2.9880935E-1,-8.499417E-2,1.34594E-1,8.28253E-2,1.8255663E-1,6.072753E-2,-7.7604115E-2,3.4419E-2],"split_indices":[9718,8519,0,4474,0,4956,0,14741,0,0,0],"split_type":[0,0,0,0,0,0,0,0,0,0,0],"sum_hessian":[9.422928E0,7.8096437E0,1.6132843E0,6.5444255E0,1.2652184E0,5.490981E0,1.0534445E0,4.3366218E0,1.1543596E0,2.8578382E0,1.4787834E0],"tree_param":{"num_deleted":"0","num_feature":"15787","num_nodes":"11","size_leaf_vector":"0"}},{"base_weights":[2.1609094E-2,-3.4897782E-2,2.5156367E-1,-9.551123E-2,1.631399E-1,-1.8947648E-1,1.3217519E-1,-4.671404E-2,-3.9999548E-1,-1.6196026E-1,1.5729722E-1,-2.0213684E-1,-3.242545E-2],"categories":[],"categories_nodes":[],"categories_segments":[],"categories_sizes":[],"default_left":[true,true,false,true,false,true,false,true,false,true,false,false,false],"id":38,"left_children":[1,3,-1,5,-1,7,-1,9,-1,11,-1,-1,-1],"loss_changes":[1.4207147E-1,1.2496814E-1,0E0,1.8781254E-1,0E0,1.5551825E-1,0E0,1.3330518E-1,0E0,1.1261806E-2,0E0,0E0,0E0],"parents":[2147483647,0,0,1,1,3,3,5,5,7,7,9,9],"right_children":[2,4,-1,6,-1,8,-1,10,-1,12,-1,-1,-1],"split_conditions":[1.25E-1,5.5523984E-2,7.546911E-2,1.7958048E-1,4.894197E-2,1.8731101E-1,3.965256E-2,7.989795E-2,-1.1999865E-1,1.6382301E-1,4.718917E-2,-6.0641054E-2,-9.7276345E-3],"split_indices":[0,9718,0,5358,0,4215,0,554,0,3074,0,0,0],"split_type":[0,0,0,0,0,0,0,0,0,0,0,0,0],"sum_hessian":[9.257988E0,8.112692E0,1.1452961E0,6.607917E0,1.504775E0,4.7963157E0,1.8116014E0,3.5862303E0,1.2100853E0,2.4233804E0,1.1628498E0,1.421885E0,1.0014954E0],"tree_param":{"num_deleted":"0","num_feature":"15787","num_nodes":"13","size_leaf_vector":"0"}},{"base_weights":[1.7117092E-2,8.025753E-2,-1.917536E-1,1.4345807E-1,-1.772749E-1,2.1937975E-1,-1.2211451E-1,5.9294846E-2,2.9785717E-1],"categories":[],"categories_nodes":[],"categories_segments":[],"categories_sizes":[],"default_left":[true,true,false,true,false,true,false,false,false],"id":39,"left_children":[1,3,-1,5,-1,7,-1,-1,-1],"loss_changes":[1.4785744E-1,1.6244148E-1,0E0,1.7421526E-1,0E0,5.8267355E-2,0E0,0E0,0E0],"parents":[2147483647,0,0,1,1,3,3,5,5],"right_children":[2,4,-1,6,-1,8,-1,-1,-1],"split_conditions":[2.4011326E-1,3.0474913E-1,-5.752608E-2,9.162225E-2,-5.318247E-2,5.833419E-2,-3.6634356E-2,1.7788455E-2,8.935715E-2],"split_indices":[4956,14741,0,554,0,5358,0,0,0],"split_type":[0,0,0,0,0,0,0,0,0],"sum_hessian":[9.044427E0,7.417817E0,1.6266096E0,6.3118014E0,1.1060156E0,5.043816E0,1.2679856E0,2.2367232E0,2.807093E0],"tree_param":{"num_deleted":"0","num_feature":"15787","num_nodes":"9","size_leaf_vector":"0"}},{"base_weights":[8.066828E-3,7.030696E-2,-1.9555975E-1,-2.8370976E-2,3.1094247E-1,9.1760285E-2,-3.038688E-1,1.9802073E-1,-9.1567755E-2],"categories":[],"categories_nodes":[],"categories_segments":[],"categories_sizes":[],"default_left":[true,true,false,true,false,true,false,false,false],"id":40,"left_children":[1,3,-1,5,-1,7,-1,-1,-1],"loss_changes":[1.4041837E-1,2.080553E-1,0E0,2.551434E-1,0E0,1.2624398E-1,0E0,0E0,0E0],"parents":[2147483647,0,0,1,1,3,3,5,5],"right_children":[2,4,-1,6,-1,8,-1,-1,-1],"split_conditions":[2.0223781E-1,2.621739E-1,-5.8667928E-2,1.8753979E-1,9.3282744E-2,1.350838E-1,-9.116064E-2,5.940622E-2,-2.7470328E-2],"split_indices":[5358,14741,0,4215,0,7529,0,0,0],"split_type":[0,0,0,0,0,0,0,0,0],"sum_hessian":[8.994612E0,7.390401E0,1.6042104E0,5.8667216E0,1.5236794E0,4.5497327E0,1.316989E0,2.8295355E0,1.7201972E0],"tree_param":{"num_deleted":"0","num_feature":"15787","num_nodes":"9","size_leaf_vector":"0"}},{"base_weights":[3.0899644E-3,-4.9193624E-2,2.2507206E-1,-1.0772615E-1,1.504205E-1,-2.0057526E-1,1.0024589E-1,-2.7603653E-1,6.273925E-2,-3.8145465E-1,-4.63E-2],"categories":[],"categories_nodes":[],"categories_segments":[],"categories_sizes":[],"default_left":[true,true,false,true,false,true,false,true,false,false,false],"id":41,"left_children":[1,3,-1,5,-1,7,-1,9,-1,-1,-1],"loss_changes":[1.261104E-1,1.1952581E-1,0E0,1.6340005E-1,0E0,1.2587835E-1,0E0,8.966771E-2,0E0,0E0,0E0],"parents":[2147483647,0,0,1,1,3,3,5,5,7,7],"right_children":[2,4,-1,6,-1,8,-1,10,-1,-1,-1],"split_conditions":[1.25E-1,5.5523984E-2,6.752162E-2,5.0380327E-2,4.512615E-2,7.589434E-2,3.007377E-2,1.3197902E-1,1.8821776E-2,-1.14436395E-1,-1.3890001E-2],"split_indices":[0,9718,0,433,0,9808,0,7529,0,0,0],"split_type":[0,0,0,0,0,0,0,0,0,0,0],"sum_hessian":[8.91195E0,7.8430586E0,1.0688915E0,6.4206653E0,1.4223933E0,4.4635015E0,1.9571638E0,3.4317174E0,1.031784E0,1.8996387E0,1.5320786E0],"tree_param":{"num_deleted":"0","num_feature":"15787","num_nodes":"11","size_leaf_vector":"0"}},{"base_weights":[5.1094233E-3,6.875225E-2,-1.6968498E-1,-1.8468695E-2,3.1851184E-1,-9.132609E-2,1.2646322E-1,-1.7495807E-1,8.39354E-2,-2.93438E-1,2.6917145E-2],"categories":[],"categories_nodes":[],"categories_segments":[],"categories_sizes":[],"default_left":[true,true,false,true,false,true,false,true,false,false,false],"id":42,"left_children":[1,3,-1,5,-1,7,-1,9,-1,-1,-1],"loss_changes":[1.19862236E-1,1.7670655E-1,0E0,8.2900725E-2,0E0,8.910622E-2,0E0,9.7863995E-2,0E0,0E0,0E0],"parents":[2147483647,0,0,1,1,3,3,5,5,7,7],"right_children":[2,4,-1,6,-1,8,-1,10,-1,-1,-1],"split_conditions":[2.9378933E-1,5.4513384E-2,-5.0905496E-2,7.227728E-2,9.5553555E-2,4.6559352E-2,3.7938967E-2,1.2778693E-1,2.5180621E-2,-8.8031396E-2,8.075144E-3],"split_indices":[4474,9718,0,554,0,433,0,7529,0,0,0],"split_type":[0,0,0,0,0,0,0,0,0,0,0],"sum_hessian":[8.725999E0,6.8416243E0,1.8843749E0,5.757164E0,1.0844605E0,4.0773473E0,1.6798167E0,2.761388E0,1.315959E0,1.4543017E0,1.3070863E0],"tree_param":{"num_deleted":"0","num_feature":"15787","num_nodes":"11","size_leaf_vector":"0"}},{"base_weights":[6.55714E-3,6.0200915E-2,-1.6805547E-1,1.2304091E-1,-1.8719469E-1,1.887446E-1,-1.1273396E-1,7.408012E-2,2.9060453E-1,5.614978E-3,1.4310277E-1],"categories":[],"categories_nodes":[],"categories_segments":[],"categories_sizes":[],"default_left":[true,true,false,true,false,true,false,true,false,false,false],"id":43,"left_children":[1,3,-1,5,-1,7,-1,9,-1,-1,-1],"loss_changes":[1.0014911E-1,1.4878835E-1,0E0,1.3055333E-1,0E0,4.727249E-2,0E0,1.8634267E-2,0E0,0E0,0E0],"parents":[2147483647,0,0,1,1,3,3,5,5,7,7],"right_children":[2,4,-1,6,-1,8,-1,10,-1,-1,-1],"split_conditions":[2.4011326E-1,3.051728E-1,-5.0416645E-2,9.162225E-2,-5.615841E-2,1.1923791E-1,-3.382019E-2,2.0804417E-1,8.718136E-2,1.6844934E-3,4.293083E-2],"split_indices":[4956,9808,0,554,0,4474,0,14741,0,0,0],"split_type":[0,0,0,0,0,0,0,0,0,0,0],"sum_hessian":[8.611741E0,7.0890903E0,1.52265E0,6.053994E0,1.0350962E0,4.8905964E0,1.1633979E0,3.1132555E0,1.777341E0,2.1058073E0,1.0074482E0],"tree_param":{"num_deleted":"0","num_feature":"15787","num_nodes":"11","size_leaf_vector":"0"}},{"base_weights":[3.7887027E-3,-4.541289E-2,2.1033245E-1,1.3020383E-2,-2.1088082E-1,-8.120746E-2,2.9320356E-1,8.423421E-2,-3.833726E-1,-8.088193E-2,2.1858674E-1],"categories":[],"categories_nodes":[],"categories_segments":[],"categories_sizes":[],"default_left":[true,true,false,true,false,true,false,true,false,false,false],"id":44,"left_children":[1,3,-1,5,-1,7,-1,9,-1,-1,-1],"loss_changes":[1.0676286E-1,8.539462E-2,0E0,2.1545519E-1,0E0,3.4299657E-1,0E0,1.2496284E-1,0E0,0E0,0E0],"parents":[2147483647,0,0,1,1,3,3,5,5,7,7],"right_children":[2,4,-1,6,-1,8,-1,10,-1,-1,-1],"split_conditions":[1.25E-1,3.0565485E-1,6.309974E-2,2.8082755E-1,-6.326425E-2,6.526536E-2,8.796107E-2,1.11460455E-1,-1.1501179E-1,-2.426458E-2,6.5576024E-2],"split_indices":[0,7529,0,9808,0,554,0,5358,0,0,0],"split_type":[0,0,0,0,0,0,0,0,0,0,0],"sum_hessian":[8.565869E0,7.5479674E0,1.0179014E0,6.258984E0,1.2889833E0,5.215225E0,1.043759E0,3.836108E0,1.3791173E0,1.899569E0,1.9365389E0],"tree_param":{"num_deleted":"0","num_feature":"15787","num_nodes":"11","size_leaf_vector":"0"}},{"base_weights":[3.8900094E-3,6.1236E-2,-1.6810259E-1,-1.8188935E-2,2.4899009E-1,7.633736E-2,-2.4128811E-1,1.8020232E-1,-9.796245E-2],"categories":[],"categories_nodes":[],"categories_segments":[],"categories_sizes":[],"default_left":[true,true,false,true,false,true,false,false,false],"id":45,"left_children":[1,3,-1,5,-1,7,-1,-1,-1],"loss_changes":[1.0314153E-1,1.2073724E-1,0E0,1.5355822E-1,0E0,1.1289086E-1,0E0,0E0,0E0],"parents":[2147483647,0,0,1,1,3,3,5,5],"right_children":[2,4,-1,6,-1,8,-1,-1,-1],"split_conditions":[1.9443801E-1,2.621739E-1,-5.043078E-2,1.8753979E-1,7.469703E-2,1.350838E-1,-7.2386436E-2,5.4060698E-2,-2.9388735E-2],"split_indices":[5358,14741,0,4215,0,7529,0,0,0],"split_type":[0,0,0,0,0,0,0,0,0],"sum_hessian":[8.413646E0,6.7927575E0,1.6208885E0,5.408108E0,1.384649E0,4.2606983E0,1.1474099E0,2.6485612E0,1.6121372E0],"tree_param":{"num_deleted":"0","num_feature":"15787","num_nodes":"9","size_leaf_vector":"0"}},{"base_weights":[1.5708702E-4,5.6968566E-2,-1.5188384E-1,1.2548238E-1,-1.8476114E-1,1.7555933E-1,-7.245115E-2,5.548886E-2,3.2185355E-1,-9.841204E-2,1.7357616E-1],"categories":[],"categories_nodes":[],"categories_segments":[],"categories_sizes":[],"default_left":[true,true,false,true,false,true,false,true,false,false,false],"id":46,"left_children":[1,3,-1,5,-1,7,-1,9,-1,-1,-1],"loss_changes":[8.953317E-2,1.4812408E-1,0E0,7.6883286E-2,0E0,7.8021914E-2,0E0,9.352517E-2,0E0,0E0,0E0],"parents":[2147483647,0,0,1,1,3,3,5,5,7,7],"right_children":[2,4,-1,6,-1,8,-1,10,-1,-1,-1],"split_conditions":[2.9378933E-1,1.4142373E-1,-4.5565154E-2,2.2252227E-1,-5.5428345E-2,5.4173578E-2,-2.1735346E-2,1.0044651E-1,9.655607E-2,-2.9523613E-2,5.207285E-2],"split_indices":[4474,433,0,12947,0,9808,0,14741,0,0,0],"split_type":[0,0,0,0,0,0,0,0,0,0,0],"sum_hessian":[8.363703E0,6.5438437E0,1.8198593E0,5.473406E0,1.0704379E0,4.45846E0,1.0149461E0,3.2062433E0,1.2522166E0,1.4643719E0,1.7418712E0],"tree_param":{"num_deleted":"0","num_feature":"15787","num_nodes":"11","size_leaf_vector":"0"}},{"base_weights":[-2.0730468E-4,8.682598E-2,-1.08396724E-1,1.0576292E-2,2.1059176E-1,-2.3053187E-1,1.006343E-1,-5.142755E-2,1.1587585E-1,-2.809574E-1,-6.065986E-2],"categories":[],"categories_nodes":[],"categories_segments":[],"categories_sizes":[],"default_left":[true,true,true,true,false,true,false,false,false,false,false],"id":47,"left_children":[1,3,5,7,-1,9,-1,-1,-1,-1,-1],"loss_changes":[9.6736275E-2,5.1514637E-2,1.4010757E-1,3.5840247E-2,0E0,1.03189945E-2,0E0,0E0,0E0,0E0,0E0],"parents":[2147483647,0,0,1,1,2,2,3,3,5,5],"right_children":[2,4,6,8,-1,10,-1,-1,-1,-1,-1],"split_conditions":[1.4759704E-1,2.6148006E-1,2.5E-1,7.118914E-2,6.317753E-2,1.5109733E-1,3.019029E-2,-1.5428266E-2,3.4762755E-2,-8.4287226E-2,-1.819796E-2],"split_indices":[14741,4474,15771,554,0,5358,0,0,0,0,0],"split_type":[0,0,0,0,0,0,0,0,0,0,0],"sum_hessian":[8.273988E0,4.694748E0,3.57924E0,3.5766795E0,1.1180685E0,2.1942801E0,1.3849599E0,2.5731382E0,1.0035414E0,1.1877637E0,1.0065165E0],"tree_param":{"num_deleted":"0","num_feature":"15787","num_nodes":"11","size_leaf_vector":"0"}},{"base_weights":[9.034476E-4,4.8311308E-2,-1.7865841E-1,1.0914201E-1,-1.7006516E-1,2.850957E-2,2.424824E-1,1.2640281E-1,-1.8248856E-1,2.0172605E-2,2.2505677E-1],"categories":[],"categories_nodes":[],"categories_segments":[],"categories_sizes":[],"default_left":[true,true,false,true,false,true,false,true,false,false,false],"id":48,"left_children":[1,3,-1,5,-1,7,-1,9,-1,-1,-1],"loss_changes":[8.736341E-2,1.262169E-1,0E0,6.7784615E-2,0E0,1.3590173E-1,0E0,4.0757753E-2,0E0,0E0,0E0],"parents":[2147483647,0,0,1,1,3,3,5,5,7,7],"right_children":[2,4,-1,6,-1,8,-1,10,-1,-1,-1],"split_conditions":[3.0474913E-1,2.5424448E-1,-5.3597525E-2,1.7958048E-1,-5.1019553E-2,1.7982572E-1,7.274472E-2,7.648227E-2,-5.4746572E-2,6.051782E-3,6.7517035E-2],"split_indices":[14741,8519,0,5358,0,4215,0,554,0,0,0],"split_type":[0,0,0,0,0,0,0,0,0,0,0],"sum_hessian":[8.248851E0,7.1041617E0,1.1446894E0,5.9476132E0,1.1565486E0,4.462749E0,1.4848644E0,3.322291E0,1.1404579E0,2.179689E0,1.1426021E0],"tree_param":{"num_deleted":"0","num_feature":"15787","num_nodes":"11","size_leaf_vector":"0"}},{"base_weights":[-8.111072E-4,-7.534886E-2,1.08961865E-1,5.678745E-2,-3.4687334E-1,-4.8539642E-2,3.0106103E-1,-2.3433182E-2,1.7699334E-1,-7.413415E-2,-2.4033335E-4,2.3746155E-2,-7.892017E-2],"categories":[],"categories_nodes":[],"categories_segments":[],"categories_sizes":[],"default_left":[true,true,true,true,false,true,false,true,false,false,false,false,false],"id":49,"left_children":[1,3,5,7,-1,9,-1,11,-1,-1,-1,-1,-1],"loss_changes":[8.364405E-2,2.3791084E-1,1.3978806E-1,5.1884487E-2,0E0,3.8570068E-3,0E0,1.1958248E-2,0E0,0E0,0E0,0E0,0E0],"parents":[2147483647,0,0,1,1,2,2,3,3,5,5,7,7],"right_children":[2,4,6,8,-1,10,-1,12,-1,-1,-1,-1,-1],"split_conditions":[9.711744E-2,2.9228026E-1,2.1440375E-1,7.9107985E-2,-1.04062006E-1,2.0804417E-1,9.0318315E-2,1.13221616E-1,5.3098004E-2,-2.2240246E-2,-7.210001E-5,7.123847E-3,-2.3676053E-2],"split_indices":[4215,4474,4474,554,0,14741,0,5358,0,0,0,0,0],"split_type":[0,0,0,0,0,0,0,0,0,0,0,0,0],"sum_hessian":[8.2192335E0,5.0820365E0,3.137197E0,3.9504316E0,1.1316048E0,2.134471E0,1.0027261E0,2.852107E0,1.0983247E0,1.0455358E0,1.0889351E0,1.8506134E0,1.0014937E0],"tree_param":{"num_deleted":"0","num_feature":"15787","num_nodes":"13","size_leaf_vector":"0"}},{"base_weights":[-5.366094E-4,-4.9207725E-2,1.6964592E-1,-9.874163E-2,1.4638832E-1,-1.5099625E-1,8.0331415E-2,-5.06581E-2,-2.897812E-1,-9.854766E-2,3.6370676E-2],"categories":[],"categories_nodes":[],"categories_segments":[],"categories_sizes":[],"default_left":[true,true,false,true,false,true,false,true,false,false,false],"id":50,"left_children":[1,3,-1,5,-1,7,-1,9,-1,-1,-1],"loss_changes":[8.429518E-2,9.104443E-2,0E0,7.6741636E-2,0E0,6.4589545E-2,0E0,2.2404546E-2,0E0,0E0,0E0],"parents":[2147483647,0,0,1,1,3,3,5,5,7,7],"right_children":[2,4,-1,6,-1,8,-1,10,-1,-1,-1],"split_conditions":[5.4513384E-2,3.2047132E-1,5.089378E-2,1.3847472E-1,4.3916497E-2,1.4367083E-1,2.4099426E-2,2.3962412E-2,-8.6934365E-2,-2.9564299E-2,1.0911203E-2],"split_indices":[9718,4474,0,11855,0,1874,0,433,0,0,0],"split_type":[0,0,0,0,0,0,0,0,0,0,0],"sum_hessian":[8.169085E0,6.9051185E0,1.2639666E0,5.904902E0,1.0002165E0,4.692415E0,1.2124864E0,3.5156775E0,1.1767379E0,2.1824033E0,1.3332742E0],"tree_param":{"num_deleted":"0","num_feature":"15787","num_nodes":"11","size_leaf_vector":"0"}},{"base_weights":[9.979688E-4,5.578178E-2,-1.6166903E-1,-9.25529E-3,2.0771705E-1,5.9918504E-2,-1.7521895E-1,1.2845972E-1,-6.1169297E-2],"categories":[],"categories_nodes":[],"categories_segments":[],"categories_sizes":[],"default_left":[true,true,false,true,false,true,false,false,false],"id":51,"left_children":[1,3,-1,5,-1,7,-1,-1,-1],"loss_changes":[9.002528E-2,7.646289E-2,0E0,8.2132526E-2,0E0,5.0593957E-2,0E0,0E0,0E0],"parents":[2147483647,0,0,1,1,3,3,5,5],"right_children":[2,4,-1,6,-1,8,-1,-1,-1],"split_conditions":[1.9443801E-1,2.621739E-1,-4.8500713E-2,1.8753979E-1,6.2315118E-2,1.350838E-1,-5.256569E-2,3.853792E-2,-1.835079E-2],"split_indices":[5358,14741,0,4215,0,7529,0,0,0],"split_type":[0,0,0,0,0,0,0,0,0],"sum_hessian":[8.090156E0,6.5434875E0,1.5466686E0,5.239684E0,1.3038034E0,4.1492424E0,1.0904416E0,2.6106274E0,1.538615E0],"tree_param":{"num_deleted":"0","num_feature":"15787","num_nodes":"9","size_leaf_vector":"0"}},{"base_weights":[-1.3962898E-3,-5.240855E-2,1.4837116E-1,1.8229846E-2,-2.22499E-1,-5.7440437E-2,1.5879188E-1,4.3872178E-2,-2.1841365E-1],"categories":[],"categories_nodes":[],"categories_segments":[],"categories_sizes":[],"default_left":[true,true,false,true,false,true,false,false,false],"id":52,"left_children":[1,3,-1,5,-1,7,-1,-1,-1],"loss_changes":[7.697486E-2,9.4110504E-2,0E0,7.5280614E-2,0E0,8.750088E-2,0E0,0E0,0E0],"parents":[2147483647,0,0,1,1,3,3,5,5],"right_children":[2,4,-1,6,-1,8,-1,-1,-1],"split_conditions":[1.25E-1,1.6560754E-1,4.4511348E-2,1.7958048E-1,-6.67497E-2,1.850389E-1,4.7637567E-2,1.3161654E-2,-6.55241E-2],"split_indices":[15612,7529,0,5358,0,4215,0,0,0],"split_type":[0,0,0,0,0,0,0,0,0],"sum_hessian":[8.057481E0,6.495215E0,1.5622665E0,5.2201247E0,1.2750901E0,3.7777562E0,1.4423685E0,2.7649934E0,1.0127627E0],"tree_param":{"num_deleted":"0","num_feature":"15787","num_nodes":"9","size_leaf_vector":"0"}},{"base_weights":[-4.0334924E-3,-7.893658E-2,1.07831515E-1,2.9968102E-2,-2.9782006E-1,1.8714185E-1,-6.675092E-2,-4.0843353E-2,1.4518033E-1,2.5524149E-2,2.5825316E-1,-7.6134734E-2,2.7074607E-2],"categories":[],"categories_nodes":[],"categories_segments":[],"categories_sizes":[],"default_left":[true,true,true,true,false,true,false,true,false,false,false,false,false],"id":53,"left_children":[1,3,5,7,-1,9,-1,11,-1,-1,-1,-1,-1],"loss_changes":[8.4173225E-2,1.5161106E-1,6.84866E-2,4.5951575E-2,0E0,2.8388985E-2,0E0,1.1214452E-2,0E0,0E0,0E0,0E0,0E0],"parents":[2147483647,0,0,1,1,2,2,3,3,5,5,7,7],"right_children":[2,4,6,8,-1,10,-1,12,-1,-1,-1,-1,-1],"split_conditions":[9.711744E-2,2.9228026E-1,6.136293E-2,7.9107985E-2,-8.934602E-2,1.646989E-1,-2.0025278E-2,1.038586E-1,4.35541E-2,7.657245E-3,7.747595E-2,-2.2840422E-2,8.122383E-3],"split_indices":[4215,4474,554,554,0,5358,0,3074,0,0,0,0,0],"split_type":[0,0,0,0,0,0,0,0,0,0,0,0,0],"sum_hessian":[8.029845E0,4.985793E0,3.0440516E0,3.9056418E0,1.0801513E0,2.0436916E0,1.00036E0,2.8187087E0,1.0869331E0,1.0396857E0,1.0040059E0,1.7752674E0,1.0434413E0],"tree_param":{"num_deleted":"0","num_feature":"15787","num_nodes":"13","size_leaf_vector":"0"}},{"base_weights":[-2.4075161E-3,-5.110994E-2,1.7188086E-1,-1.2893727E-1,7.601879E-2,-2.0604426E-1,8.746654E-2,-3.8020503E-2,1.7588215E-1],"categories":[],"categories_nodes":[],"categories_segments":[],"categories_sizes":[],"default_left":[true,true,false,true,true,false,false,false,false],"id":54,"left_children":[1,3,-1,5,7,-1,-1,-1,-1],"loss_changes":[8.5107304E-2,8.6960986E-2,0E0,1.04925916E-1,4.7575936E-2,0E0,0E0,0E0,0E0],"parents":[2147483647,0,0,1,1,3,3,4,4],"right_children":[2,4,-1,6,8,-1,-1,-1,-1],"split_conditions":[5.4513384E-2,9.795156E-2,5.1564258E-2,2.4796489E-1,5.9716605E-2,-6.181328E-2,2.6239963E-2,-1.1406152E-2,5.2764647E-2],"split_indices":[9718,4215,0,3074,4474,0,0,0,0],"split_type":[0,0,0,0,0,0,0,0,0],"sum_hessian":[7.9915285E0,6.798527E0,1.1930016E0,4.208119E0,2.5904078E0,3.1379173E0,1.0702019E0,1.498484E0,1.0919238E0],"tree_param":{"num_deleted":"0","num_feature":"15787","num_nodes":"9","size_leaf_vector":"0"}},{"base_weights":[4.6128607E-3,5.9575513E-2,-1.5910885E-1,1.0422544E-1,-9.078704E-2,1.5286787E-1,-6.931834E-2,5.0327905E-2,2.227844E-1],"categories":[],"categories_nodes":[],"categories_segments":[],"categories_sizes":[],"default_left":[true,true,false,true,false,true,false,false,false],"id":55,"left_children":[1,3,-1,5,-1,7,-1,-1,-1],"loss_changes":[8.9390144E-2,5.8982722E-2,0E0,6.253578E-2,0E0,2.5478125E-2,0E0,0E0,0E0],"parents":[2147483647,0,0,1,1,3,3,5,5],"right_children":[2,4,-1,6,-1,8,-1,-1,-1],"split_conditions":[1.9443801E-1,2.3331705E-1,-4.7732655E-2,9.091474E-2,-2.7236113E-2,5.833419E-2,-2.0795502E-2,1.5098372E-2,6.683532E-2],"split_indices":[5358,4956,0,554,0,5358,0,0,0],"split_type":[0,0,0,0,0,0,0,0,0],"sum_hessian":[7.8804193E0,6.3760476E0,1.5043716E0,5.152777E0,1.2232702E0,4.117755E0,1.0350223E0,2.3666468E0,1.7511084E0],"tree_param":{"num_deleted":"0","num_feature":"15787","num_nodes":"9","size_leaf_vector":"0"}},{"base_weights":[1.7123254E-3,-4.1511044E-2,1.5453376E-1,8.010817E-3,-1.83802E-1,-5.094413E-2,1.6870534E-1,-1.4356594E-1,1.4046155E-1,-1.8597074E-1,-7.2573014E-3],"categories":[],"categories_nodes":[],"categories_segments":[],"categories_sizes":[],"default_left":[true,true,false,true,false,true,false,true,false,false,false],"id":56,"left_children":[1,3,-1,5,-1,7,-1,9,-1,-1,-1],"loss_changes":[6.477413E-2,5.555686E-2,0E0,7.1613654E-2,0E0,1.20058015E-1,0E0,2.3456983E-2,0E0,0E0,0E0],"parents":[2147483647,0,0,1,1,3,3,5,5,7,7],"right_children":[2,4,-1,6,-1,8,-1,10,-1,-1,-1],"split_conditions":[5.4513384E-2,2.4810806E-1,4.6360128E-2,1.34594E-1,-5.51406E-2,1.7956421E-1,5.0611604E-2,2.0761962E-1,4.2138465E-2,-5.5791225E-2,-2.1771905E-3],"split_indices":[9718,8519,0,4956,0,5358,0,7529,0,0,0],"split_type":[0,0,0,0,0,0,0,0,0,0,0],"sum_hessian":[7.83501E0,6.675351E0,1.159659E0,5.65198E0,1.023371E0,4.6346235E0,1.0173564E0,3.2916992E0,1.3429245E0,2.2327638E0,1.0589355E0],"tree_param":{"num_deleted":"0","num_feature":"15787","num_nodes":"11","size_leaf_vector":"0"}},{"base_weights":[4.0605413E-3,5.757556E-2,-1.5334396E-1,1.0129836E-1,-8.826123E-2,1.4190558E-2,1.8896282E-1,-5.67993E-2,1.1643883E-1],"categories":[],"categories_nodes":[],"categories_segments":[],"categories_sizes":[],"default_left":[true,true,false,true,false,true,false,false,false],"id":57,"left_children":[1,3,-1,5,-1,7,-1,-1,-1],"loss_changes":[8.257996E-2,5.523958E-2,0E0,4.3531723E-2,0E0,3.649536E-2,0E0,0E0,0E0],"parents":[2147483647,0,0,1,1,3,3,5,5],"right_children":[2,4,-1,6,-1,8,-1,-1,-1],"split_conditions":[1.9443801E-1,2.3331705E-1,-4.600319E-2,1.399065E-1,-2.647837E-2,1.2808304E-1,5.668885E-2,-1.703979E-2,3.493165E-2],"split_indices":[5358,4956,0,14741,0,1874,0,0,0],"split_type":[0,0,0,0,0,0,0,0,0],"sum_hessian":[7.7553945E0,6.26098E0,1.4944143E0,5.051813E0,1.2091668E0,3.1167388E0,1.9350744E0,2.101905E0,1.0148336E0],"tree_param":{"num_deleted":"0","num_feature":"15787","num_nodes":"9","size_leaf_vector":"0"}},{"base_weights":[3.1194985E-3,8.202474E-2,-9.778768E-2,1.1752829E-1,-1.7676646E-2,-1.7485115E-1,4.4714585E-2,4.7104474E-2,1.6880374E-1],"categories":[],"categories_nodes":[],"categories_segments":[],"categories_sizes":[],"default_left":[true,true,true,true,false,false,false,false,false],"id":58,"left_children":[1,3,5,7,-1,-1,-1,-1,-1],"loss_changes":[7.729879E-2,2.1286428E-2,5.4757696E-2,6.970685E-3,0E0,0E0,0E0,0E0,0E0],"parents":[2147483647,0,0,1,1,2,2,3,3],"right_children":[2,4,6,8,-1,-1,-1,-1,-1],"split_conditions":[1.4414334E-1,1.2714648E-1,2.5E-1,4.5126352E-2,-5.302994E-3,-5.2455347E-2,1.3414376E-2,1.4131343E-2,5.0641123E-2],"split_indices":[14741,3074,15771,4215,0,0,0,0,0],"split_type":[0,0,0,0,0,0,0,0,0],"sum_hessian":[7.7009387E0,4.4266267E0,3.274312E0,3.1323848E0,1.2942418E0,1.9777584E0,1.2965536E0,2.1281507E0,1.0042341E0],"tree_param":{"num_deleted":"0","num_feature":"15787","num_nodes":"9","size_leaf_vector":"0"}},{"base_weights":[4.5133145E-3,4.699264E-2,-1.5557118E-1,8.562899E-2,-8.6247504E-2,1.3121258E-1,-3.6648735E-2,1.9233836E-2,1.8998034E-1,5.9180494E-2,2.3038977E-1],"categories":[],"categories_nodes":[],"categories_segments":[],"categories_sizes":[],"default_left":[true,true,false,true,false,true,false,false,true,false,false],"id":59,"left_children":[1,3,-1,5,-1,7,-1,-1,9,-1,-1],"loss_changes":[6.642524E-2,4.6704937E-2,0E0,4.060871E-2,0E0,2.8571859E-2,0E0,0E0,2.7448013E-3,0E0,0E0],"parents":[2147483647,0,0,1,1,3,3,5,5,8,8],"right_children":[2,4,-1,6,-1,8,-1,-1,10,-1,-1],"split_conditions":[3.0474913E-1,2.3330465E-1,-4.6671353E-2,6.614897E-2,-2.5874251E-2,5.833419E-2,-1.0994621E-2,5.770151E-3,9.711744E-2,1.7754149E-2,6.9116935E-2],"split_indices":[14741,4956,0,554,0,5358,0,0,4215,0,0],"split_type":[0,0,0,0,0,0,0,0,0,0,0],"sum_hessian":[7.692955E0,6.6379805E0,1.0549746E0,5.422828E0,1.2151525E0,3.8970037E0,1.5258242E0,1.7981029E0,2.0989008E0,1.0770755E0,1.0218253E0],"tree_param":{"num_deleted":"0","num_feature":"15787","num_nodes":"11","size_leaf_vector":"0"}},{"base_weights":[4.227042E-3,-4.0344436E-2,1.6049223E-1,-8.028636E-2,1.0776511E-1,-1.5450157E-1,8.952615E-2,-2.3791617E-1,8.025894E-2,-3.4279066E-1,3.1073797E-2],"categories":[],"categories_nodes":[],"categories_segments":[],"categories_sizes":[],"default_left":[true,true,false,true,false,true,false,true,false,false,false],"id":60,"left_children":[1,3,-1,5,-1,7,-1,9,-1,-1,-1],"loss_changes":[6.686963E-2,5.329212E-2,0E0,9.5954016E-2,0E0,1.150754E-1,0E0,1.19786665E-1,0E0,0E0,0E0],"parents":[2147483647,0,0,1,1,3,3,5,5,7,7],"right_children":[2,4,-1,6,-1,8,-1,10,-1,-1,-1],"split_conditions":[5.4513384E-2,1.2825614E-1,4.814767E-2,4.6559352E-2,3.2329533E-2,1.4543077E-1,2.6857845E-2,2.2607657E-1,2.4077684E-2,-1.02837205E-1,9.322139E-3],"split_indices":[9718,554,0,433,0,11855,0,3074,0,0,0],"split_type":[0,0,0,0,0,0,0,0,0,0,0],"sum_hessian":[7.671201E0,6.5459285E0,1.1252728E0,5.5162435E0,1.029685E0,3.901352E0,1.6148914E0,2.8686335E0,1.0327185E0,1.8665398E0,1.0020936E0],"tree_param":{"num_deleted":"0","num_feature":"15787","num_nodes":"11","size_leaf_vector":"0"}},{"base_weights":[6.978609E-3,5.3807814E-2,-1.3340203E-1,1.004903E-1,-9.2085496E-2,1.2420949E-2,2.4900879E-1,-6.296673E-2,1.337421E-1,2.2704916E-2,-1.3375507E-1],"categories":[],"categories_nodes":[],"categories_segments":[],"categories_sizes":[],"default_left":[true,true,false,true,false,true,false,true,false,false,false],"id":61,"left_children":[1,3,-1,5,-1,7,-1,9,-1,-1,-1],"loss_changes":[6.355773E-2,5.790606E-2,0E0,7.394861E-2,0E0,5.1865336E-2,0E0,2.49268E-2,0E0,0E0,0E0],"parents":[2147483647,0,0,1,1,3,3,5,5,7,7],"right_children":[2,4,-1,6,-1,8,-1,10,-1,-1,-1],"split_conditions":[1.9563794E-1,2.3643595E-1,-4.002061E-2,5.4173578E-2,-2.762565E-2,2.4695748E-1,7.470264E-2,1.204979E-1,4.012263E-2,6.811475E-3,-4.0126525E-2],"split_indices":[5358,4215,0,9808,0,3074,0,1874,0,0,0],"split_type":[0,0,0,0,0,0,0,0,0,0,0],"sum_hessian":[7.576269E0,6.143557E0,1.4327121E0,4.8900585E0,1.2534988E0,3.7499964E0,1.1400621E0,2.6094828E0,1.1405137E0,1.4879484E0,1.1215343E0],"tree_param":{"num_deleted":"0","num_feature":"15787","num_nodes":"11","size_leaf_vector":"0"}},{"base_weights":[6.586728E-3,4.3652542E-2,-1.3417746E-1,7.743675E-2,-7.501462E-2,5.588594E-3,1.7436294E-1,-5.4725368E-2,7.6673195E-2],"categories":[],"categories_nodes":[],"categories_segments":[],"categories_sizes":[],"default_left":[true,true,false,true,false,true,false,false,false],"id":62,"left_children":[1,3,-1,5,-1,7,-1,-1,-1],"loss_changes":[5.035013E-2,3.5895657E-2,0E0,4.3132804E-2,0E0,2.422018E-2,0E0,0E0,0E0],"parents":[2147483647,0,0,1,1,3,3,5,5],"right_children":[2,4,-1,6,-1,8,-1,-1,-1],"split_conditions":[3.0474913E-1,2.3330465E-1,-4.025324E-2,1.08417034E-1,-2.2504387E-2,1.0706204E-1,5.2308884E-2,-1.6417611E-2,2.300196E-2],"split_indices":[14741,4956,0,14741,0,5358,0,0,0],"split_type":[0,0,0,0,0,0,0,0,0],"sum_hessian":[7.527572E0,6.504663E0,1.0229092E0,5.333637E0,1.1710259E0,3.6704862E0,1.6631509E0,2.1101775E0,1.5603088E0],"tree_param":{"num_deleted":"0","num_feature":"15787","num_nodes":"9","size_leaf_vector":"0"}},{"base_weights":[4.195632E-3,-3.5049852E-2,1.4280428E-1,-6.738241E-2,8.459986E-2,-1.5232453E-1,6.555988E-2,-2.0459022E-1,4.1532484E-3,9.340592E-2,5.394778E-3],"categories":[],"categories_nodes":[],"categories_segments":[],"categories_sizes":[],"default_left":[true,true,false,true,false,true,true,false,false,false,false],"id":63,"left_children":[1,3,-1,5,-1,7,9,-1,-1,-1,-1],"loss_changes":[5.1225908E-2,3.4424074E-2,0E0,8.227939E-2,0E0,3.5256535E-2,4.848687E-3,0E0,0E0,0E0,0E0],"parents":[2147483647,0,0,1,1,3,3,5,5,6,6],"right_children":[2,4,-1,6,-1,8,10,-1,-1,-1,-1],"split_conditions":[5.4513384E-2,1.2825614E-1,4.2841285E-2,9.6287385E-2,2.537996E-2,2.0992717E-1,1.7046565E-1,-6.1377067E-2,1.2459746E-3,2.8021777E-2,1.6184335E-3],"split_indices":[9718,554,0,4215,0,3074,14741,0,0,0,0],"split_type":[0,0,0,0,0,0,0,0,0,0,0],"sum_hessian":[7.49681E0,6.424824E0,1.071986E0,5.4019175E0,1.0229067E0,3.207026E0,2.1948912E0,2.1735575E0,1.0334687E0,1.1227561E0,1.0721352E0],"tree_param":{"num_deleted":"0","num_feature":"15787","num_nodes":"11","size_leaf_vector":"0"}},{"base_weights":[7.3055504E-3,4.937385E-2,-1.2469078E-1,9.4828784E-2,-9.086367E-2,1.6706012E-2,2.23637E-1,8.649226E-2,-9.815096E-2],"categories":[],"categories_nodes":[],"categories_segments":[],"categories_sizes":[],"default_left":[true,true,false,true,false,true,false,false,false],"id":64,"left_children":[1,3,-1,5,-1,7,-1,-1,-1],"loss_changes":[5.297424E-2,5.3938735E-2,0E0,5.5220697E-2,0E0,4.6383798E-2,0E0,0E0,0E0],"parents":[2147483647,0,0,1,1,3,3,5,5],"right_children":[2,4,-1,6,-1,8,-1,-1,-1],"split_conditions":[2.0223781E-1,2.3643595E-1,-3.7407234E-2,5.4173578E-2,-2.7259102E-2,6.5519184E-2,6.70911E-2,2.594768E-2,-2.9445289E-2],"split_indices":[5358,4215,0,9808,0,554,0,0,0],"split_type":[0,0,0,0,0,0,0,0,0],"sum_hessian":[7.4312882E0,6.109945E0,1.3213435E0,4.8588524E0,1.2510923E0,3.7276888E0,1.1311636E0,2.472421E0,1.255268E0],"tree_param":{"num_deleted":"0","num_feature":"15787","num_nodes":"9","size_leaf_vector":"0"}},{"base_weights":[5.0214124E-3,3.996531E-2,-1.1203197E-1,-1.4368436E-2,1.416134E-1,6.310189E-2,-1.8333115E-1,-2.5227236E-2,1.8636966E-1],"categories":[],"categories_nodes":[],"categories_segments":[],"categories_sizes":[],"default_left":[true,true,false,true,false,true,false,false,false],"id":65,"left_children":[1,3,-1,5,-1,7,-1,-1,-1],"loss_changes":[3.883994E-2,4.183667E-2,0E0,8.492567E-2,0E0,5.4638788E-2,0E0,0E0,0E0],"parents":[2147483647,0,0,1,1,3,3,5,5],"right_children":[2,4,-1,6,-1,8,-1,-1,-1],"split_conditions":[3.1205988E-1,1.7958048E-1,-3.360959E-2,1.252504E-1,4.248402E-2,1.924046E-1,-5.4999348E-2,-7.568171E-3,5.59109E-2],"split_indices":[3074,5358,0,5358,0,7529,0,0,0],"split_type":[0,0,0,0,0,0,0,0,0],"sum_hessian":[7.4009824E0,6.2066774E0,1.194305E0,4.604232E0,1.6024455E0,3.5863874E0,1.0178444E0,2.5526202E0,1.0337671E0],"tree_param":{"num_deleted":"0","num_feature":"15787","num_nodes":"9","size_leaf_vector":"0"}},{"base_weights":[3.8057845E-3,4.4833492E-2,-1.1718466E-1,8.2388915E-2,-7.233431E-2,1.9970328E-2,1.8251017E-1,7.524234E-2,-7.470098E-2],"categories":[],"categories_nodes":[],"categories_segments":[],"categories_sizes":[],"default_left":[true,true,false,true,false,true,false,false,false],"id":66,"left_children":[1,3,-1,5,-1,7,-1,-1,-1],"loss_changes":[4.6767306E-2,3.6622986E-2,0E0,3.2255527E-2,0E0,3.00123E-2,0E0,0E0,0E0],"parents":[2147483647,0,0,1,1,3,3,5,5],"right_children":[2,4,-1,6,-1,8,-1,-1,-1],"split_conditions":[1.9563794E-1,2.3643595E-1,-3.51554E-2,5.4173578E-2,-2.1700295E-2,6.5519184E-2,5.4753054E-2,2.2572704E-2,-2.2410296E-2],"split_indices":[5358,4215,0,9808,0,554,0,0,0],"split_type":[0,0,0,0,0,0,0,0,0],"sum_hessian":[7.36298E0,5.968511E0,1.3944685E0,4.744577E0,1.2239343E0,3.6614075E0,1.0831695E0,2.441317E0,1.2200903E0],"tree_param":{"num_deleted":"0","num_feature":"15787","num_nodes":"9","size_leaf_vector":"0"}},{"base_weights":[2.4345403E-3,-3.3422496E-2,1.3195093E-1,-8.239297E-2,4.5944534E-2,-1.227493E-1,3.6603767E-2,-3.0141078E-2,1.13304675E-1,-1.4396165E-1,-3.361437E-2],"categories":[],"categories_nodes":[],"categories_segments":[],"categories_sizes":[],"default_left":[true,true,false,true,true,true,false,false,false,false,false],"id":67,"left_children":[1,3,-1,5,7,9,-1,-1,-1,-1,-1],"loss_changes":[4.3157168E-2,3.2283083E-2,0E0,2.7987722E-2,2.1044502E-2,2.5028288E-3,0E0,0E0,0E0,0E0,0E0],"parents":[2147483647,0,0,1,1,3,3,4,4,5,5],"right_children":[2,4,-1,6,8,10,-1,-1,-1,-1,-1],"split_conditions":[5.4513384E-2,9.6287385E-2,3.958528E-2,2.4945104E-1,5.9716605E-2,6.986615E-2,1.098113E-2,-9.042324E-3,3.3991404E-2,-4.3188497E-2,-1.00843115E-2],"split_indices":[9718,4215,0,3074,4474,554,0,0,0,0,0],"split_type":[0,0,0,0,0,0,0,0,0,0,0],"sum_hessian":[7.343329E0,6.332186E0,1.0111426E0,3.8923998E0,2.4397864E0,2.8830967E0,1.0093031E0,1.4051543E0,1.0346322E0,1.8320152E0,1.0510817E0],"tree_param":{"num_deleted":"0","num_feature":"15787","num_nodes":"11","size_leaf_vector":"0"}},{"base_weights":[4.3640435E-3,4.36232E-2,-1.026182E-1,1.0937386E-1,-8.570669E-2,1.4855818E-1,-2.081394E-2,4.110294E-3,2.5114745E-1],"categories":[],"categories_nodes":[],"categories_segments":[],"categories_sizes":[],"default_left":[true,true,false,true,false,true,false,false,false],"id":68,"left_children":[1,3,-1,5,-1,7,-1,-1,-1],"loss_changes":[3.9303984E-2,6.692435E-2,0E0,2.8221726E-2,0E0,5.6899406E-2,0E0,0E0,0E0],"parents":[2147483647,0,0,1,1,3,3,5,5],"right_children":[2,4,-1,6,-1,8,-1,-1,-1],"split_conditions":[2.9432768E-1,1.4982295E-1,-3.0785462E-2,2.0386707E-2,-2.5712008E-2,6.0652524E-2,-6.244182E-3,1.2330882E-3,7.5344235E-2],"split_indices":[4474,5358,0,433,0,554,0,0,0],"split_type":[0,0,0,0,0,0,0,0,0],"sum_hessian":[7.2921844E0,5.7678146E0,1.5243698E0,3.9261057E0,1.841709E0,2.9093378E0,1.016768E0,1.6401031E0,1.2692347E0],"tree_param":{"num_deleted":"0","num_feature":"15787","num_nodes":"9","size_leaf_vector":"0"}},{"base_weights":[4.8162644E-3,3.7775487E-2,-1.04236156E-1,9.495879E-2,-7.223305E-2,1.7647328E-2,1.7541474E-1],"categories":[],"categories_nodes":[],"categories_segments":[],"categories_sizes":[],"default_left":[true,true,false,true,false,false,false],"id":69,"left_children":[1,3,-1,5,-1,-1,-1],"loss_changes":[3.3618823E-2,5.136767E-2,0E0,2.854922E-2,0E0,0E0,0E0],"parents":[2147483647,0,0,1,1,3,3],"right_children":[2,4,-1,6,-1,-1,-1],"split_conditions":[3.1205988E-1,6.614897E-2,-3.1270847E-2,1.7897151E-1,-2.1669917E-2,5.2941986E-3,5.2624423E-2],"split_indices":[3074,554,0,5358,0,0,0],"split_type":[0,0,0,0,0,0,0],"sum_hessian":[7.257906E0,6.0753407E0,1.182565E0,4.087455E0,1.987886E0,2.7062833E0,1.3811713E0],"tree_param":{"num_deleted":"0","num_feature":"15787","num_nodes":"7","size_leaf_vector":"0"}},{"base_weights":[3.982061E-3,3.9821297E-2,-1.0174943E-1,-5.587261E-3,1.4209287E-1,5.5587888E-2,-1.3104562E-1,9.699292E-2,-4.2272743E-2],"categories":[],"categories_nodes":[],"categories_segments":[],"categories_sizes":[],"default_left":[true,true,false,true,false,true,false,false,false],"id":70,"left_children":[1,3,-1,5,-1,7,-1,-1,-1],"loss_changes":[3.5305183E-2,3.2737665E-2,0E0,5.1228672E-2,0E0,2.2540655E-2,0E0,0E0,0E0],"parents":[2147483647,0,0,1,1,3,3,5,5],"right_children":[2,4,-1,6,-1,8,-1,-1,-1],"split_conditions":[1.9563794E-1,2.621739E-1,-3.052483E-2,1.7304838E-1,4.2627864E-2,1.5063968E-1,-3.931369E-2,2.9097876E-2,-1.2681823E-2],"split_indices":[5358,14741,0,4215,0,1874,0,0,0],"split_type":[0,0,0,0,0,0,0,0,0],"sum_hessian":[7.247722E0,5.878494E0,1.3692282E0,4.725667E0,1.1528268E0,3.55105E0,1.1746172E0,2.5015192E0,1.0495309E0],"tree_param":{"num_deleted":"0","num_feature":"15787","num_nodes":"9","size_leaf_vector":"0"}},{"base_weights":[1.4552197E-3,5.1871035E-2,-6.439444E-2,9.5539466E-2,-4.912147E-2,-1.2268516E-1,3.89657E-2,1.1418175E-1,2.3490196E-2],"categories":[],"categories_nodes":[],"categories_segments":[],"categories_sizes":[],"default_left":[true,true,true,true,false,false,false,false,false],"id":71,"left_children":[1,3,5,7,-1,-1,-1,-1,-1],"loss_changes":[3.0671181E-2,2.769902E-2,2.8976666E-2,2.6655346E-3,0E0,0E0,0E0,0E0,0E0],"parents":[2147483647,0,0,1,1,2,2,3,3],"right_children":[2,4,6,8,-1,-1,-1,-1,-1],"split_conditions":[1.4414334E-1,1.2714648E-1,2.5E-1,1.4980996E-1,-1.4736441E-2,-3.6805548E-2,1.16897095E-2,3.4254525E-2,7.047059E-3],"split_indices":[14741,3074,15771,433,0,0,0,0,0],"split_type":[0,0,0,0,0,0,0,0,0],"sum_hessian":[7.2325587E0,4.216558E0,3.0160007E0,2.9814117E0,1.2351463E0,1.8088936E0,1.2071071E0,1.9039925E0,1.0774192E0],"tree_param":{"num_deleted":"0","num_feature":"15787","num_nodes":"9","size_leaf_vector":"0"}},{"base_weights":[1.1851966E-3,-2.881271E-2,9.191365E-2,-8.324547E-2,9.54838E-2,-1.3859637E-1,6.6771396E-2,-1.9744447E-1,2.302037E-2],"categories":[],"categories_nodes":[],"categories_segments":[],"categories_sizes":[],"default_left":[true,true,false,true,false,true,false,false,false],"id":72,"left_children":[1,3,-1,5,-1,7,-1,-1,-1],"loss_changes":[2.503815E-2,5.4928694E-2,0E0,5.3788345E-2,0E0,4.4898488E-2,0E0,0E0,0E0],"parents":[2147483647,0,0,1,1,3,3,5,5],"right_children":[2,4,-1,6,-1,8,-1,-1,-1],"split_conditions":[1.0238397E-1,4.6559352E-2,2.7574096E-2,1.25E-1,2.8645141E-2,2.6057506E-1,2.0031419E-2,-5.923334E-2,6.9061113E-3],"split_indices":[13173,433,0,15612,0,9808,0,0,0],"split_type":[0,0,0,0,0,0,0,0,0],"sum_hessian":[7.2265377E0,5.9437585E0,1.2827792E0,4.3632445E0,1.5805142E0,3.242869E0,1.1203755E0,2.2147486E0,1.0281204E0],"tree_param":{"num_deleted":"0","num_feature":"15787","num_nodes":"9","size_leaf_vector":"0"}},{"base_weights":[3.6249508E-3,3.3455797E-2,-7.8278705E-2,8.339354E-2,-6.563854E-2,1.2687135E-1,-4.070557E-2,9.0543204E-4,2.1899463E-1],"categories":[],"categories_nodes":[],"categories_segments":[],"categories_sizes":[],"default_left":[true,true,false,true,false,true,false,false,false],"id":73,"left_children":[1,3,-1,5,-1,7,-1,-1,-1],"loss_changes":[2.2646055E-2,3.867408E-2,0E0,3.161036E-2,0E0,4.474166E-2,0E0,0E0,0E0],"parents":[2147483647,0,0,1,1,3,3,5,5],"right_children":[2,4,-1,6,-1,8,-1,-1,-1],"split_conditions":[2.9432768E-1,1.4982295E-1,-2.3483614E-2,2.0386707E-2,-1.9691564E-2,6.0652524E-2,-1.2211671E-2,2.7162963E-4,6.569839E-2],"split_indices":[4474,5358,0,433,0,554,0,0,0],"split_type":[0,0,0,0,0,0,0,0,0],"sum_hessian":[7.196924E0,5.7090893E0,1.4878346E0,3.9014368E0,1.8076527E0,2.8726664E0,1.0287706E0,1.6400086E0,1.2326577E0],"tree_param":{"num_deleted":"0","num_feature":"15787","num_nodes":"9","size_leaf_vector":"0"}},{"base_weights":[3.8902774E-3,-3.7999775E-2,6.336875E-2,3.259713E-2,-1.5721722E-1,-1.8842153E-2,1.4257383E-1,6.0226474E-2,-2.76502E-2],"categories":[],"categories_nodes":[],"categories_segments":[],"categories_sizes":[],"default_left":[true,true,true,true,false,false,false,false,false],"id":74,"left_children":[1,3,5,7,-1,-1,-1,-1,-1],"loss_changes":[2.2763321E-2,5.0731152E-2,2.7110893E-2,8.709251E-3,0E0,0E0,0E0,0E0,0E0],"parents":[2147483647,0,0,1,1,2,2,3,3],"right_children":[2,4,6,8,-1,-1,-1,-1,-1],"split_conditions":[9.711744E-2,2.1010417E-1,1.4513502E-1,1.6364431E-1,-4.7165167E-2,-5.652646E-3,4.277215E-2,1.8067943E-2,-8.29506E-3],"split_indices":[4215,4474,4474,3074,0,0,0,0,0],"split_type":[0,0,0,0,0,0,0,0,0],"sum_hessian":[7.1697216E0,4.4187565E0,2.7509656E0,3.231648E0,1.1871083E0,1.7238278E0,1.0271376E0,2.2158213E0,1.0158267E0],"tree_param":{"num_deleted":"0","num_feature":"15787","num_nodes":"9","size_leaf_vector":"0"}},{"base_weights":[2.6722974E-3,-2.4674749E-2,7.479599E-2,4.3927755E-2,-1.3436958E-1,-3.8050616E-3,1.1377746E-1,-3.792125E-2,4.670782E-2],"categories":[],"categories_nodes":[],"categories_segments":[],"categories_sizes":[],"default_left":[true,true,false,true,false,true,false,false,false],"id":75,"left_children":[1,3,-1,5,-1,7,-1,-1,-1],"loss_changes":[1.7947227E-2,5.6105327E-2,0E0,1.6629975E-2,0E0,8.41199E-3,0E0,0E0,0E0],"parents":[2147483647,0,0,1,1,3,3,5,5],"right_children":[2,4,-1,6,-1,8,-1,-1,-1],"split_conditions":[2.3894385E-1,1.4982295E-1,2.2438798E-2,2.4683417E-1,-4.0310875E-2,8.4764734E-2,3.413324E-2,-1.1376375E-2,1.4012347E-2],"split_indices":[4215,5358,0,3074,0,554,0,0,0],"split_type":[0,0,0,0,0,0,0,0,0],"sum_hessian":[7.1636076E0,5.671163E0,1.4924444E0,3.8579621E0,1.8132011E0,2.8535037E0,1.0044584E0,1.8519679E0,1.0015357E0],"tree_param":{"num_deleted":"0","num_feature":"15787","num_nodes":"9","size_leaf_vector":"0"}},{"base_weights":[4.184326E-3,2.7713157E-2,-7.378985E-2,-3.4722235E-2,1.4904296E-1,3.3052746E-2,-1.2435847E-1,4.5002326E-2,5.099896E-4],"categories":[],"categories_nodes":[],"categories_segments":[],"categories_sizes":[],"default_left":[true,true,false,true,false,true,false,false,false],"id":76,"left_children":[1,3,-1,5,-1,7,-1,-1,-1],"loss_changes":[1.699262E-2,5.8094587E-2,0E0,3.705801E-2,0E0,1.4852202E-3,0E0,0E0,0E0],"parents":[2147483647,0,0,1,1,3,3,5,5],"right_children":[2,4,-1,6,-1,8,-1,-1,-1],"split_conditions":[3.1205988E-1,1.7897151E-1,-2.2136956E-2,1.4775601E-1,4.471289E-2,6.553379E-2,-3.730754E-2,1.3500699E-2,1.5299689E-4],"split_indices":[3074,5358,0,14741,0,554,0,0,0],"split_type":[0,0,0,0,0,0,0,0,0],"sum_hessian":[7.147462E0,5.9858174E0,1.1616446E0,4.423393E0,1.5624248E0,2.8783193E0,1.5450734E0,1.8252329E0,1.0530865E0],"tree_param":{"num_deleted":"0","num_feature":"15787","num_nodes":"9","size_leaf_vector":"0"}},{"base_weights":[2.7903328E-3,2.931807E-2,-7.873184E-2,-2.2365598E-2,1.3416688E-1,-6.227115E-2,6.055099E-2,2.5499593E-3,-1.2529504E-1],"categories":[],"categories_nodes":[],"categories_segments":[],"categories_sizes":[],"default_left":[true,true,false,true,false,true,false,false,false],"id":77,"left_children":[1,3,-1,5,-1,7,-1,-1,-1],"loss_changes":[1.9911166E-2,4.022879E-2,0E0,2.1832699E-2,0E0,1.7388517E-2,0E0,0E0,0E0],"parents":[2147483647,0,0,1,1,3,3,5,5],"right_children":[2,4,-1,6,-1,8,-1,-1,-1],"split_conditions":[2.0223781E-1,2.3693264E-1,-2.3619553E-2,2.1399206E-1,4.0250067E-2,6.557995E-2,1.8165298E-2,7.6498784E-4,-3.7588514E-2],"split_indices":[5358,14741,0,7529,0,554,0,0,0],"split_type":[0,0,0,0,0,0,0,0,0],"sum_hessian":[7.139697E0,5.8699517E0,1.2697456E0,4.4587593E0,1.4111922E0,3.1781774E0,1.280582E0,2.0397751E0,1.1384023E0],"tree_param":{"num_deleted":"0","num_feature":"15787","num_nodes":"9","size_leaf_vector":"0"}},{"base_weights":[1.6960398E-3,-2.2705618E-2,7.5226665E-2,-6.420112E-2,8.761069E-2,1.9443417E-2,-1.7083934E-1,-2.3833578E-2,7.487541E-2],"categories":[],"categories_nodes":[],"categories_segments":[],"categories_sizes":[],"default_left":[true,true,false,true,false,true,false,false,false],"id":78,"left_children":[1,3,-1,5,-1,7,-1,-1,-1],"loss_changes":[1.6267454E-2,3.7030365E-2,0E0,5.2937713E-2,0E0,1.1416644E-2,0E0,0E0,0E0],"parents":[2147483647,0,0,1,1,3,3,5,5],"right_children":[2,4,-1,6,-1,8,-1,-1,-1],"split_conditions":[1.4543077E-1,2.3894385E-1,2.2568E-2,1.2581335E-1,2.6283208E-2,9.9167086E-2,-5.1251803E-2,-7.150074E-3,2.2462623E-2],"split_indices":[11855,4215,0,5358,0,3074,0,0,0],"split_type":[0,0,0,0,0,0,0,0,0],"sum_hessian":[7.1143813E0,5.860681E0,1.2536999E0,4.5625167E0,1.2981644E0,3.015163E0,1.547354E0,2.0133414E0,1.0018215E0],"tree_param":{"num_deleted":"0","num_feature":"15787","num_nodes":"9","size_leaf_vector":"0"}},{"base_weights":[2.7487937E-3,-2.1333724E-2,7.43693E-2,-5.999753E-2,6.6169284E-2,-1.2943906E-1,7.0405155E-2,-1.753543E-1,-1.4557431E-3],"categories":[],"categories_nodes":[],"categories_segments":[],"categories_sizes":[],"default_left":[true,true,false,true,false,true,false,false,false],"id":79,"left_children":[1,3,-1,5,-1,7,-1,-1,-1],"loss_changes":[1.5544736E-2,2.7088378E-2,0E0,5.6777775E-2,0E0,2.1998428E-2,0E0,0E0,0E0],"parents":[2147483647,0,0,1,1,3,3,5,5],"right_children":[2,4,-1,6,-1,8,-1,-1,-1],"split_conditions":[1.0238397E-1,4.6559352E-2,2.231079E-2,5.4173578E-2,1.9850787E-2,2.1590514E-1,2.1121547E-2,-5.2606292E-2,-4.3672294E-4],"split_indices":[13173,433,0,9808,0,7529,0,0,0],"split_type":[0,0,0,0,0,0,0,0,0],"sum_hessian":[7.092617E0,5.833291E0,1.2593257E0,4.2636886E0,1.5696026E0,2.786971E0,1.4767174E0,1.7787085E0,1.0082628E0],"tree_param":{"num_deleted":"0","num_feature":"15787","num_nodes":"9","size_leaf_vector":"0"}},{"base_weights":[3.1201555E-3,3.0427787E-2,-7.705436E-2,7.381193E-2,-1.0168113E-1,1.04764305E-1,-3.386491E-2,1.454541E-1,-1.0292495E-2,5.3658195E-2,1.8592641E-1],"categories":[],"categories_nodes":[],"categories_segments":[],"categories_sizes":[],"default_left":[true,true,false,true,false,true,false,true,false,false,false],"id":80,"left_children":[1,3,-1,5,-1,7,-1,9,-1,-1,-1],"loss_changes":[2.0012671E-2,4.6115197E-2,0E0,2.2380354E-2,0E0,2.3188166E-2,0E0,2.9852763E-3,0E0,0E0,0E0],"parents":[2147483647,0,0,1,1,3,3,5,5,7,7],"right_children":[2,4,-1,6,-1,8,-1,10,-1,-1,-1],"split_conditions":[1.4142373E-1,2.9432768E-1,-2.311631E-2,1.118062E-1,-3.050434E-2,5.8959164E-2,-1.0159474E-2,1.9680917E-1,-3.0877485E-3,1.609746E-2,5.5777926E-2],"split_indices":[433,4474,0,12947,0,1874,0,14741,0,0,0],"split_type":[0,0,0,0,0,0,0,0,0,0,0],"sum_hessian":[7.069914E0,5.7365217E0,1.3333924E0,