{"learner":{"attributes":{"best_iteration":"299","best_ntree_limit":"300","scikit_learn":"{\"use_label_encoder\": true, \"n_estimators\": 300, \"objective\": \"binary:logistic\", \"max_depth\": null, \"learning_rate\": null, \"verbosity\": null, \"booster\": null, \"tree_method\": null, \"gamma\": null, \"min_child_weight\": null, \"max_delta_step\": null, \"subsample\": null, \"colsample_bytree\": null, \"colsample_bylevel\": null, \"colsample_bynode\": null, \"reg_alpha\": null, \"reg_lambda\": null, \"scale_pos_weight\": null, \"base_score\": null, \"missing\": NaN, \"num_parallel_tree\": null, \"random_state\": null, \"n_jobs\": null, \"monotone_constraints\": null, \"interaction_constraints\": null, \"importance_type\": null, \"gpu_id\": null, \"validate_parameters\": null, \"predictor\": null, \"enable_categorical\": false, \"classes_\": [0, 1], \"n_classes_\": 2, \"_le\": {\"classes_\": [0, 1]}, \"_estimator_type\": \"classifier\"}"},"feature_names":[],"feature_types":[],"gradient_booster":{"model":{"gbtree_model_param":{"num_trees":"300","size_leaf_vector":"0"},"tree_info":[0,0,0,0,0,0,0,0,0,0,0,0,0,0,0,0,0,0,0,0,0,0,0,0,0,0,0,0,0,0,0,0,0,0,0,0,0,0,0,0,0,0,0,0,0,0,0,0,0,0,0,0,0,0,0,0,0,0,0,0,0,0,0,0,0,0,0,0,0,0,0,0,0,0,0,0,0,0,0,0,0,0,0,0,0,0,0,0,0,0,0,0,0,0,0,0,0,0,0,0,0,0,0,0,0,0,0,0,0,0,0,0,0,0,0,0,0,0,0,0,0,0,0,0,0,0,0,0,0,0,0,0,0,0,0,0,0,0,0,0,0,0,0,0,0,0,0,0,0,0,0,0,0,0,0,0,0,0,0,0,0,0,0,0,0,0,0,0,0,0,0,0,0,0,0,0,0,0,0,0,0,0,0,0,0,0,0,0,0,0,0,0,0,0,0,0,0,0,0,0,0,0,0,0,0,0,0,0,0,0,0,0,0,0,0,0,0,0,0,0,0,0,0,0,0,0,0,0,0,0,0,0,0,0,0,0,0,0,0,0,0,0,0,0,0,0,0,0,0,0,0,0,0,0,0,0,0,0,0,0,0,0,0,0,0,0,0,0,0,0,0,0,0,0,0,0,0,0,0,0,0,0,0,0,0,0,0,0,0,0,0,0,0,0,0,0,0,0,0,0],"trees":[{"base_weights":[-1.1598225E0,-1.7349951E0,1.9856887E0,-1.9748691E0,1.9574468E0,-1.9901892E0,1.4666667E0,-1.9915789E0,-5E-1,-1.9929726E0,-5E-1,-1.9943701E0,-5E-1],"categories":[],"categories_nodes":[],"categories_segments":[],"categories_sizes":[],"default_left":[true,true,false,true,false,true,false,true,false,true,false,false,false],"id":0,"left_children":[1,3,-1,5,-1,7,-1,9,-1,11,-1,-1,-1],"loss_changes":[1.6335452E3,6.790066E2,0E0,4.068286E1,0E0,4.819336E-1,0E0,4.8461914E-1,0E0,4.873047E-1,0E0,0E0,0E0],"parents":[2147483647,0,0,1,1,3,3,5,5,7,7,9,9],"right_children":[2,4,-1,6,-1,8,-1,10,-1,12,-1,-1,-1],"split_conditions":[8.3262786E-2,3.5829492E-2,5.9570664E-1,9.35826E-2,5.872341E-1,3.321232E-1,4.4000003E-1,5.4910254E-1,-1.5E-1,7.266292E-1,-1.5E-1,-5.9831107E-1,-1.5E-1],"split_indices":[12153,12181,0,13725,0,979,0,2724,0,3273,0,0,0],"split_type":[0,0,0,0,0,0,0,0,0,0,0,0,0],"sum_hessian":[9E2,7.6125E2,1.3875E2,7.1525E2,4.6E1,7.125E2,2.75E0,7.115E2,1E0,7.105E2,1E0,7.095E2,1E0],"tree_param":{"num_deleted":"0","num_feature":"16336","num_nodes":"13","size_leaf_vector":"0"}},{"base_weights":[-8.963464E-1,-1.3418407E0,1.5390671E0,-1.5284151E0,1.5198903E0,-1.5411375E0,1.1900182E0,-1.542655E0,-3.6076322E-1,-1.544178E0,-3.6076322E-1,-1.5455872E0,-4.073083E-1],"categories":[],"categories_nodes":[],"categories_segments":[],"categories_sizes":[],"default_left":[true,true,false,true,false,true,false,true,false,true,false,false,false],"id":1,"left_children":[1,3,-1,5,-1,7,-1,9,-1,11,-1,-1,-1],"loss_changes":[8.978086E2,3.752511E2,0E0,2.4529053E1,0E0,6.142578E-1,0E0,6.171875E-1,0E0,4.1394043E-1,0E0,0E0,0E0],"parents":[2147483647,0,0,1,1,3,3,5,5,7,7,9,9],"right_children":[2,4,-1,6,-1,8,-1,10,-1,12,-1,-1,-1],"split_conditions":[8.3262786E-2,3.5829492E-2,4.6172017E-1,9.35826E-2,4.559671E-1,4.615437E-1,3.5700548E-1,2.8319323E-1,-1.08228974E-1,5.9557855E-1,-1.08228974E-1,-4.6367618E-1,-1.22192495E-1],"split_indices":[12153,12181,0,13725,0,4821,0,9994,0,2669,0,0,0],"split_type":[0,0,0,0,0,0,0,0,0,0,0,0,0],"sum_hessian":[8.2459827E2,6.974646E2,1.2713363E2,6.55213E2,4.2251568E1,6.52592E2,2.62108E0,6.5144745E2,1.1444833E0,6.50303E2,1.1444833E0,6.491388E2,1.1641858E0],"tree_param":{"num_deleted":"0","num_feature":"16336","num_nodes":"13","size_leaf_vector":"0"}},{"base_weights":[-7.75434E-1,-1.1615707E0,1.334779E0,-1.3240838E0,1.3152226E0,-1.3360554E0,1.0183717E0,-1.3395414E0,-5.528007E-1,-1.341187E0,-2.2900295E-1,-9.116613E-1,2.7085513E-1,-1.3429661E0,-2.8265965E-1],"categories":[],"categories_nodes":[],"categories_segments":[],"categories_sizes":[],"default_left":[true,true,false,true,false,true,false,true,true,true,false,false,false,false,false],"id":2,"left_children":[1,3,-1,5,-1,7,-1,9,11,13,-1,-1,-1,-1,-1],"loss_changes":[5.637771E2,2.3672705E2,0E0,1.6737976E1,0E0,7.503052E-1,0E0,6.849365E-1,1.4652771E0,6.408081E-1,0E0,0E0,0E0,0E0,0E0],"parents":[2147483647,0,0,1,1,3,3,5,5,7,7,8,8,9,9],"right_children":[2,4,-1,6,-1,8,-1,10,12,14,-1,-1,-1,-1,-1],"split_conditions":[8.3262786E-2,3.5829492E-2,4.0043372E-1,9.35826E-2,3.945668E-1,4.7247905E-1,3.0551153E-1,4.6416345E-1,2.0724255E-1,6.590414E-1,-6.870089E-2,-2.7349842E-1,8.125654E-2,-4.0288985E-1,-8.47979E-2],"split_indices":[12153,12181,0,13725,0,8046,0,8356,6255,5396,0,0,0,0,0],"split_type":[0,0,0,0,0,0,0,0,0,0,0,0,0,0,0],"sum_hessian":[6.889921E2,5.8279846E2,1.06193634E2,5.473499E2,3.54486E1,5.449942E2,2.3556807E0,5.4187225E2,3.121925E0,5.4086316E2,1.0090936E0,2.100086E0,1.0218391E0,5.396874E2,1.1758081E0],"tree_param":{"num_deleted":"0","num_feature":"16336","num_nodes":"15","size_leaf_vector":"0"}},{"base_weights":[-7.0603883E-1,-1.0582689E0,1.2183994E0,-1.2073684E0,1.1955558E0,-1.2181187E0,1.2533687E0,-1.2257696E0,7.553801E-1,-1.2279427E0,-2.05783E-1,-1.2299687E0,-1.7663541E-1],"categories":[],"categories_nodes":[],"categories_segments":[],"categories_sizes":[],"default_left":[true,true,false,true,false,true,false,true,false,true,false,false,false],"id":3,"left_children":[1,3,-1,5,-1,7,-1,9,-1,11,-1,-1,-1],"loss_changes":[3.760408E2,1.5866449E2,0E0,1.3148376E1,0E0,7.538269E0,0E0,7.1502686E-1,0E0,7.102661E-1,0E0,0E0,0E0],"parents":[2147483647,0,0,1,1,3,3,5,5,7,7,9,9],"right_children":[2,4,-1,6,-1,8,-1,10,-1,12,-1,-1,-1],"split_conditions":[8.3262786E-2,3.5829492E-2,3.6551982E-1,1.429668E-1,3.5866675E-1,9.35826E-2,3.7601063E-1,5.90716E-1,2.2661404E-1,6.709493E-1,-6.17349E-2,-3.689906E-1,-5.2990627E-2],"split_indices":[12153,12181,0,5908,0,13725,0,9148,0,2637,0,0,0],"split_type":[0,0,0,0,0,0,0,0,0,0,0,0,0],"sum_hessian":[5.518571E2,4.6685815E2,8.4998985E1,4.3832547E2,2.853269E1,4.3692166E2,1.4037969E0,4.3561172E2,1.309936E0,4.3448224E2,1.1295081E0,4.3347693E2,1.0052893E0],"tree_param":{"num_deleted":"0","num_feature":"16336","num_nodes":"13","size_leaf_vector":"0"}},{"base_weights":[-6.608183E-1,-9.916297E-1,1.1442549E0,-1.1326731E0,1.1161827E0,-1.1443623E0,1.0744466E0,-1.1525463E0,6.787787E-1,-1.1553013E0,-1.2896875E-1,-1.1578171E0,-1.5830629E-1],"categories":[],"categories_nodes":[],"categories_segments":[],"categories_sizes":[],"default_left":[true,true,false,true,false,true,false,true,false,true,false,false,false],"id":4,"left_children":[1,3,-1,5,-1,7,-1,9,-1,11,-1,-1,-1],"loss_changes":[2.5932922E2,1.1005945E2,0E0,1.0091614E1,0E0,5.8876953E0,0E0,8.126831E-1,0E0,6.694031E-1,0E0,0E0,0E0],"parents":[2147483647,0,0,1,1,3,3,5,5,7,7,9,9],"right_children":[2,4,-1,6,-1,8,-1,10,-1,12,-1,-1,-1],"split_conditions":[8.3262786E-2,3.5829492E-2,3.432765E-1,1.429668E-1,3.348548E-1,9.35826E-2,3.22334E-1,1.3316807E-1,2.0363362E-1,4.5258927E-1,-3.8690627E-2,-3.4734514E-1,-4.749189E-2],"split_indices":[12153,12181,0,5908,0,13725,0,14790,0,8716,0,0,0],"split_type":[0,0,0,0,0,0,0,0,0,0,0,0,0],"sum_hessian":[4.3138617E2,3.649528E2,6.643338E1,3.4249734E2,2.2455433E1,3.4117197E2,1.3253822E0,3.4001352E2,1.1584672E0,3.389724E2,1.0410813E0,3.3795834E2,1.0140839E0],"tree_param":{"num_deleted":"0","num_feature":"16336","num_nodes":"13","size_leaf_vector":"0"}},{"base_weights":[-6.289155E-1,-9.4512665E-1,1.093201E0,-1.0811547E0,1.0580509E0,-1.094111E0,9.3622404E-1,-1.1031079E0,6.1469096E-1,-1.1066598E0,-1.0056014E-1,-1.10986E0,-1.6006862E-1],"categories":[],"categories_nodes":[],"categories_segments":[],"categories_sizes":[],"default_left":[true,true,false,true,false,true,false,true,false,true,false,false,false],"id":5,"left_children":[1,3,-1,5,-1,7,-1,9,-1,11,-1,-1,-1],"loss_changes":[1.8257765E2,7.804031E1,0E0,7.9443054E0,0E0,4.7294617E0,0E0,8.234253E-1,0E0,6.144409E-1,0E0,0E0,0E0],"parents":[2147483647,0,0,1,1,3,3,5,5,7,7,9,9],"right_children":[2,4,-1,6,-1,8,-1,10,-1,12,-1,-1,-1],"split_conditions":[8.3262786E-2,3.5829492E-2,3.279603E-1,1.429668E-1,3.1741527E-1,9.35826E-2,2.8086722E-1,2.567972E-1,1.844073E-1,6.709493E-1,-3.0168043E-2,-3.3295798E-1,-4.8020586E-2],"split_indices":[12153,12181,0,5908,0,13725,0,5228,0,2637,0,0,0],"split_type":[0,0,0,0,0,0,0,0,0,0,0,0,0],"sum_hessian":[3.323828E2,2.8120056E2,5.118223E1,2.6375055E2,1.7450006E1,2.6252222E2,1.2283468E0,2.6149985E2,1.0223604E0,2.604732E2,1.0266361E0,2.5942368E2,1.0495284E0],"tree_param":{"num_deleted":"0","num_feature":"16336","num_nodes":"13","size_leaf_vector":"0"}},{"base_weights":[-6.045264E-1,-9.1015357E-1,1.0555228E0,-1.0431075E0,1.0113267E0,-1.0576655E0,8.262685E-1,-1.0632426E0,1.9166822E-2,-1.0678134E0,-8.0609664E-2,-1.0735769E0,-3.334929E-1],"categories":[],"categories_nodes":[],"categories_segments":[],"categories_sizes":[],"default_left":[true,true,false,true,false,true,false,true,false,true,false,false,false],"id":6,"left_children":[1,3,-1,5,-1,7,-1,9,-1,11,-1,-1,-1],"loss_changes":[1.3025385E2,5.6172607E1,0E0,6.3788757E0,0E0,1.2284393E0,0E0,8.128357E-1,0E0,4.8472595E-1,0E0,0E0,0E0],"parents":[2147483647,0,0,1,1,3,3,5,5,7,7,9,9],"right_children":[2,4,-1,6,-1,8,-1,10,-1,12,-1,-1,-1],"split_conditions":[8.3262786E-2,3.5829492E-2,3.1665686E-1,1.429668E-1,3.03398E-1,3.2825145E-1,2.4788056E-1,5.709455E-1,5.7500466E-3,7.5445026E-2,-2.41829E-2,-3.220731E-1,-1.0004788E-1],"split_indices":[12153,12181,0,5908,0,8716,0,11282,0,1170,0,0,0],"split_type":[0,0,0,0,0,0,0,0,0,0,0,0,0],"sum_hessian":[2.538371E2,2.1475151E2,3.9085587E1,2.0128128E2,1.3470223E1,2.0015675E2,1.1245308E0,1.9913802E2,1.0187374E0,1.981297E2,1.0083137E0,1.9612836E2,2.0013542E0],"tree_param":{"num_deleted":"0","num_feature":"16336","num_nodes":"13","size_leaf_vector":"0"}},{"base_weights":[-5.831976E-1,-8.794818E-1,1.0255888E0,-1.0100975E0,9.7025204E-1,-1.0290662E0,6.7411256E-1,-1.038361E0,-1.8195434E-1,-1.0443465E0,-8.003346E-2,-1.0490056E0,-1.8866009E-1],"categories":[],"categories_nodes":[],"categories_segments":[],"categories_sizes":[],"default_left":[true,true,false,true,false,true,false,true,false,true,false,false,false],"id":7,"left_children":[1,3,-1,5,-1,7,-1,9,-1,11,-1,-1,-1],"loss_changes":[9.355685E1,4.0770157E1,0E0,5.6237946E0,0E0,1.0157166E0,0E0,7.832489E-1,0E0,4.0052795E-1,0E0,0E0,0E0],"parents":[2147483647,0,0,1,1,3,3,5,5,7,7,9,9],"right_children":[2,4,-1,6,-1,8,-1,10,-1,12,-1,-1,-1],"split_conditions":[8.3262786E-2,3.5829492E-2,3.0767664E-1,9.35826E-2,2.9107562E-1,4.2124575E-1,2.0223378E-1,3.453681E-1,-5.4586302E-2,3.5399666E-1,-2.4010038E-2,-3.147017E-1,-5.6598026E-2],"split_indices":[12153,12181,0,13725,0,8676,0,9148,0,7323,0,0,0],"split_type":[0,0,0,0,0,0,0,0,0,0,0,0,0],"sum_hessian":[1.9338437E2,1.6369127E2,2.9693089E1,1.5331886E2,1.0372417E1,1.5199596E2,1.3228958E0,1.5012302E2,1.8729469E0,1.49102E2,1.0210116E0,1.4806984E2,1.0321695E0],"tree_param":{"num_deleted":"0","num_feature":"16336","num_nodes":"13","size_leaf_vector":"0"}},{"base_weights":[-5.640251E-1,-8.523905E-1,9.9976903E-1,-9.8165935E-1,9.311863E-1,-1.0026305E0,6.1405224E-1,-1.0176294E0,-1.5797193E-1,-1.0285026E0,2.410294E-2,-5.243772E-1,2.4591652E-1,-1.0348066E0,-1.6362467E-1],"categories":[],"categories_nodes":[],"categories_segments":[],"categories_sizes":[],"default_left":[true,true,false,true,false,true,false,true,true,true,false,false,false,false,false],"id":8,"left_children":[1,3,-1,5,-1,7,-1,9,11,13,-1,-1,-1,-1,-1],"loss_changes":[6.758411E1,2.984552E1,0E0,4.5473404E0,0E0,1.3132172E0,0E0,1.3175507E0,6.045385E-1,4.4664E-1,0E0,0E0,0E0,0E0,0E0],"parents":[2147483647,0,0,1,1,3,3,5,5,7,7,8,8,9,9],"right_children":[2,4,-1,6,-1,8,-1,10,12,14,-1,-1,-1,-1,-1],"split_conditions":[8.3262786E-2,3.5829492E-2,2.9993072E-1,9.35826E-2,2.793559E-1,1.5331411E-1,1.8421568E-1,4.7247905E-1,3E-1,2.732286E-1,7.230882E-3,-1.5731317E-1,7.3774956E-2,-3.10442E-1,-4.9087405E-2],"split_indices":[12153,12181,0,13725,0,9698,0,8046,16131,14967,0,0,0,0,0],"split_type":[0,0,0,0,0,0,0,0,0,0,0,0,0,0,0],"sum_hessian":[1.4698264E2,1.2448279E2,2.249985E1,1.16489555E2,7.993234E0,1.1534533E2,1.1442212E0,1.1313163E2,2.2137003E0,1.1197558E2,1.1560557E0,1.0042912E0,1.2094092E0,1.10970245E2,1.0053271E0],"tree_param":{"num_deleted":"0","num_feature":"16336","num_nodes":"15","size_leaf_vector":"0"}},{"base_weights":[-5.454421E-1,-8.265501E-1,9.755054E-1,-9.552058E-1,8.917916E-1,-9.7640926E-1,6.575208E-2,-9.887456E-1,2.4632778E-2,-9.9867034E-1,-1.468094E-1,-1.0069046E0,-1.5488406E-1],"categories":[],"categories_nodes":[],"categories_segments":[],"categories_sizes":[],"default_left":[true,true,false,true,false,true,false,true,false,true,false,false,false],"id":9,"left_children":[1,3,-1,5,-1,7,-1,9,-1,11,-1,-1,-1],"loss_changes":[4.899727E1,2.200267E1,0E0,2.0014954E0,0E0,1.1078033E0,0E0,5.777588E-1,0E0,4.3815613E-1,0E0,0E0,0E0],"parents":[2147483647,0,0,1,1,3,3,5,5,7,7,9,9],"right_children":[2,4,-1,6,-1,8,-1,10,-1,12,-1,-1,-1],"split_conditions":[8.3262786E-2,3.5829492E-2,2.9265162E-1,2.3861435E-1,2.6753747E-1,3.6154056E-1,1.9725624E-2,7.5445026E-2,7.3898337E-3,4.2939034E-1,-4.4042822E-2,-3.020714E-1,-4.6465218E-2],"split_indices":[12153,12181,0,8137,0,9274,0,1170,0,13679,0,0,0],"split_type":[0,0,0,0,0,0,0,0,0,0,0,0,0],"sum_hessian":[1.11714096E2,9.467281E1,1.7041277E1,8.8491394E1,6.1814184E0,8.673373E1,1.7576684E0,8.569001E1,1.0437205E0,8.450768E1,1.1823273E0,8.349951E1,1.0081699E0],"tree_param":{"num_deleted":"0","num_feature":"16336","num_nodes":"13","size_leaf_vector":"0"}},{"base_weights":[-5.223662E-1,-7.9352254E-1,9.5087034E-1,-9.205843E-1,8.506887E-1,-9.589153E-1,8.1370074E-1,-9.841835E-1,1.04596764E-1,-1.0018134E0,-9.987092E-2],"categories":[],"categories_nodes":[],"categories_segments":[],"categories_sizes":[],"default_left":[true,true,false,true,false,true,false,true,false,false,false],"id":10,"left_children":[1,3,-1,5,-1,7,-1,9,-1,-1,-1],"loss_changes":[3.5370758E1,1.6186329E1,0E0,5.3618774E0,0E0,1.92733E0,0E0,9.352951E-1,0E0,0E0,0E0],"parents":[2147483647,0,0,1,1,3,3,5,5,7,7],"right_children":[2,4,-1,6,-1,8,-1,10,-1,-1,-1],"split_conditions":[8.3262786E-2,3.5829492E-2,2.8526112E-1,1.429668E-1,2.552066E-1,3.2680988E-1,2.4411023E-1,4.2342427E-1,3.137903E-2,-3.0054402E-1,-2.9961277E-2],"split_indices":[12153,12181,0,5908,0,8643,0,5108,0,0,0],"split_type":[0,0,0,0,0,0,0,0,0,0,0],"sum_hessian":[8.565376E1,7.2729004E1,1.2924752E1,6.792035E1,4.808661E0,6.688905E1,1.0312904E0,6.540957E1,1.4794866E0,6.4000755E1,1.408811E0],"tree_param":{"num_deleted":"0","num_feature":"16336","num_nodes":"11","size_leaf_vector":"0"}},{"base_weights":[-4.9721304E-1,-7.599427E-1,9.2436904E-1,-8.867996E-1,8.0730027E-1,-9.2913765E-1,5.943551E-1,-9.613852E-1,1.15535125E-1,-9.8415536E-1,7.329085E-2,-9.973606E-1,-1.744598E-1],"categories":[],"categories_nodes":[],"categories_segments":[],"categories_sizes":[],"default_left":[true,true,false,true,false,true,false,true,false,true,false,false,false],"id":11,"left_children":[1,3,-1,5,-1,7,-1,9,-1,11,-1,-1,-1],"loss_changes":[2.5560888E1,1.199345E1,0E0,3.87286E0,0E0,1.8585167E0,0E0,1.2601357E0,0E0,3.542862E-1,0E0,0E0,0E0],"parents":[2147483647,0,0,1,1,3,3,5,5,7,7,9,9],"right_children":[2,4,-1,6,-1,8,-1,10,-1,12,-1,-1,-1],"split_conditions":[8.3262786E-2,3.5829492E-2,2.7731073E-1,9.35826E-2,2.421901E-1,1.5331411E-1,1.7830653E-1,3.5227948E-1,3.466054E-2,5.1793826E-1,2.1987256E-2,-2.992082E-1,-5.233794E-2],"split_indices":[12153,12181,0,13725,0,9698,0,8042,0,9235,0,0,0],"split_type":[0,0,0,0,0,0,0,0,0,0,0,0,0],"sum_hessian":[6.55568E1,5.572366E1,9.833143E0,5.195264E1,3.7710192E0,5.0871204E1,1.0814356E0,4.9425243E1,1.4459594E0,4.8408737E1,1.0165074E0,4.7403862E1,1.0048761E0],"tree_param":{"num_deleted":"0","num_feature":"16336","num_nodes":"13","size_leaf_vector":"0"}},{"base_weights":[-4.7052103E-1,-7.248039E-1,8.948814E-1,-8.5199195E-1,7.61741E-1,-9.3509763E-1,-1.4508794E-1,-9.651132E-1,-1.4915642E-1,-4.7870576E-1,6.344749E-1,-9.8387223E-1,-1.663611E-1,-6.1649803E-2,-6.690705E-1],"categories":[],"categories_nodes":[],"categories_segments":[],"categories_sizes":[],"default_left":[true,true,false,true,false,true,true,true,false,true,false,false,false,false,false],"id":12,"left_children":[1,3,-1,5,-1,7,9,11,-1,13,-1,-1,-1,-1,-1],"loss_changes":[1.849514E1,8.946217E0,0E0,2.266962E0,0E0,7.150154E-1,1.7304766E0,3.5909653E-1,0E0,3.090129E-1,0E0,0E0,0E0,0E0,0E0],"parents":[2147483647,0,0,1,1,3,3,5,5,6,6,7,7,9,9],"right_children":[2,4,-1,6,-1,8,10,12,-1,14,-1,-1,-1,-1,-1],"split_conditions":[8.3262786E-2,3.5829492E-2,2.6846445E-1,1.7437816E-1,2.285223E-1,1.9934663E-1,1.7638996E-1,5.068666E-1,-4.4746928E-2,7.774793E-2,1.9034247E-1,-2.951617E-1,-4.990833E-2,-1.8494941E-2,-2.0072116E-1],"split_indices":[12153,12181,0,5108,0,9992,5444,9235,0,8284,0,0,0,0,0],"split_type":[0,0,0,0,0,0,0,0,0,0,0,0,0,0,0],"sum_hessian":[5.040151E1,4.288422E1,7.5172887E0,3.9897476E1,2.9867432E0,3.5411583E1,4.485895E0,3.3889355E1,1.5222269E0,3.4117498E0,1.0741451E0,3.288527E1,1.0040858E0,1.4841301E0,1.9276197E0],"tree_param":{"num_deleted":"0","num_feature":"16336","num_nodes":"15","size_leaf_vector":"0"}},{"base_weights":[-4.4126698E-1,-6.835223E-1,8.616867E-1,-8.093117E-1,7.146661E-1,-8.6060697E-1,2.9625887E-1,-9.034027E-1,-3.7752464E-2,-9.2880136E-1,-9.151202E-2,-9.5014644E-1,-1.7139602E-1],"categories":[],"categories_nodes":[],"categories_segments":[],"categories_sizes":[],"default_left":[true,true,false,true,false,true,false,true,false,true,false,false,false],"id":13,"left_children":[1,3,-1,5,-1,7,-1,9,-1,11,-1,-1,-1],"loss_changes":[1.335829E1,6.675989E0,0E0,2.0854053E0,0E0,1.0611362E0,0E0,5.237484E-1,0E0,2.9816246E-1,0E0,0E0,0E0],"parents":[2147483647,0,0,1,1,3,3,5,5,7,7,9,9],"right_children":[2,4,-1,6,-1,8,-1,10,-1,12,-1,-1,-1],"split_conditions":[8.3262786E-2,3.5829492E-2,2.5850603E-1,2.3861435E-1,2.1439984E-1,1.6271324E-1,8.887766E-2,4.2039156E-1,-1.1325739E-2,3.9593366E-1,-2.7453607E-2,-2.8504395E-1,-5.1418807E-2],"split_indices":[12153,12181,0,8137,0,6555,0,5108,0,6255,0,0,0],"split_type":[0,0,0,0,0,0,0,0,0,0,0,0,0],"sum_hessian":[3.9454346E1,3.3669632E1,5.7847133E0,3.1276941E1,2.3926902E0,3.0101873E1,1.1750679E0,2.8520658E1,1.5812154E0,2.7515871E1,1.0047868E0,2.6514175E1,1.0016947E0],"tree_param":{"num_deleted":"0","num_feature":"16336","num_nodes":"13","size_leaf_vector":"0"}},{"base_weights":[-4.025171E-1,-6.29632E-1,8.2452357E-1,-7.510336E-1,8.12335E-1,-8.37221E-1,5.5620074E-1,-9.5440143E-1,-7.250293E-3,-3.2641402E-1,4.3446904E-1],"categories":[],"categories_nodes":[],"categories_segments":[],"categories_sizes":[],"default_left":[true,true,false,true,false,true,false,false,true,false,false],"id":14,"left_children":[1,3,-1,5,-1,7,-1,-1,9,-1,-1],"loss_changes":[9.539721E0,5.490776E0,0E0,3.4214983E0,0E0,2.4256115E0,0E0,0E0,7.2012764E-1,0E0,0E0],"parents":[2147483647,0,0,1,1,3,3,5,5,8,8],"right_children":[2,4,-1,6,-1,8,-1,-1,10,-1,-1],"split_conditions":[8.3262786E-2,1.3026497E-1,2.4735709E-1,3.5829492E-2,2.4370052E-1,2.4047408E-1,1.6686022E-1,-2.8632045E-1,1.15088664E-1,-9.792421E-2,1.3034073E-1],"split_indices":[12153,5908,0,12181,0,5108,0,0,5172,0,0],"split_type":[0,0,0,0,0,0,0,0,0,0,0],"sum_hessian":[3.1369024E1,2.6880535E1,4.4884906E0,2.523511E1,1.6454254E0,2.4011549E1,1.2235601E0,2.0909494E1,3.1020544E0,1.9523929E0,1.1496613E0],"tree_param":{"num_deleted":"0","num_feature":"16336","num_nodes":"11","size_leaf_vector":"0"}},{"base_weights":[-3.6078203E-1,-5.763357E-1,7.836356E-1,-7.001487E-1,7.3877114E-1,-7.895411E-1,5.1419204E-1,-9.4498485E-1,-4.1593086E-2,-2.87979E-1,3.985706E-1,9.11681E-2,-4.905134E-1],"categories":[],"categories_nodes":[],"categories_segments":[],"categories_sizes":[],"default_left":[true,true,false,true,false,true,false,false,true,true,false,false,false],"id":15,"left_children":[1,3,-1,5,-1,7,-1,-1,9,11,-1,-1,-1],"loss_changes":[6.8229504E0,4.1499944E0,0E0,2.6751776E0,0E0,2.270298E0,0E0,0E0,5.9892106E-1,3.0908042E-1,0E0,0E0,0E0],"parents":[2147483647,0,0,1,1,3,3,5,5,8,8,9,9],"right_children":[2,4,-1,6,-1,8,-1,-1,10,12,-1,-1,-1],"split_conditions":[8.3262786E-2,1.3026497E-1,2.3509069E-1,3.5829492E-2,2.2163135E-1,1.7437816E-1,1.5425763E-1,-2.8349546E-1,1.5839842E-1,6.159901E-2,1.1957119E-1,2.7350431E-2,-1.4715403E-1],"split_indices":[12153,5908,0,12181,0,5108,0,0,5444,2900,0,0,0],"split_type":[0,0,0,0,0,0,0,0,0,0,0,0,0],"sum_hessian":[2.4827885E1,2.1310413E1,3.5174718E0,1.9904118E1,1.4062961E0,1.8865194E1,1.0389225E0,1.5401013E1,3.4641812E0,2.4426367E0,1.0215442E0,1.041952E0,1.4006848E0],"tree_param":{"num_deleted":"0","num_feature":"16336","num_nodes":"13","size_leaf_vector":"0"}},{"base_weights":[-3.1827775E-1,-5.193391E-1,7.859925E-1,-6.6962445E-1,6.251698E-1,-7.545779E-1,3.2473063E-1,-8.4867996E-1,-2.2135106E-1,4.3324712E-1,-6.287353E-1],"categories":[],"categories_nodes":[],"categories_segments":[],"categories_sizes":[],"default_left":[true,true,false,true,false,true,false,false,true,false,false],"id":16,"left_children":[1,3,-1,5,-1,7,-1,-1,9,-1,-1],"loss_changes":[5.044674E0,3.5608053E0,0E0,1.6498871E0,0E0,5.960455E-1,0E0,0E0,1.2580978E0,0E0,0E0],"parents":[2147483647,0,0,1,1,3,3,5,5,8,8],"right_children":[2,4,-1,6,-1,8,-1,-1,10,-1,-1],"split_conditions":[1.1243163E-1,3.5829492E-2,2.3579776E-1,2.3861435E-1,1.8755095E-1,1.6969772E-1,9.7419195E-2,-2.54604E-1,1.9683427E-1,1.2997414E-1,-1.886206E-1],"split_indices":[14474,12181,0,8137,0,15408,0,0,15408,0,0],"split_type":[0,0,0,0,0,0,0,0,0,0,0],"sum_hessian":[1.9882578E1,1.7268156E1,2.6144216E0,1.5630625E1,1.6375315E0,1.4622481E1,1.0081431E0,1.1926194E1,2.6962876E0,1.0099623E0,1.6863253E0],"tree_param":{"num_deleted":"0","num_feature":"16336","num_nodes":"11","size_leaf_vector":"0"}},{"base_weights":[-2.7068326E-1,-4.604663E-1,7.257122E-1,-6.0751015E-1,6.5994847E-1,-7.417981E-1,5.643276E-1,-8.201444E-1,-3.6399543E-2],"categories":[],"categories_nodes":[],"categories_segments":[],"categories_sizes":[],"default_left":[true,true,false,true,false,true,false,false,false],"id":17,"left_children":[1,3,-1,5,-1,7,-1,-1,-1],"loss_changes":[3.6233683E0,2.9089022E0,0E0,2.6181712E0,0E0,6.8707705E-1,0E0,0E0,0E0],"parents":[2147483647,0,0,1,1,3,3,5,5],"right_children":[2,4,-1,6,-1,8,-1,-1,-1],"split_conditions":[5.360069E-2,1.3170347E-1,2.1771367E-1,8.188319E-2,1.9798455E-1,2.6795346E-1,1.6929829E-1,-2.4604334E-1,-1.0919863E-2],"split_indices":[14474,5908,0,13725,0,5444,0,0,0],"split_type":[0,0,0,0,0,0,0,0,0],"sum_hessian":[1.639408E1,1.4222915E1,2.171165E0,1.2977519E1,1.2453959E0,1.1972497E1,1.0050218E0,1.0629271E1,1.3432263E0],"tree_param":{"num_deleted":"0","num_feature":"16336","num_nodes":"9","size_leaf_vector":"0"}},{"base_weights":[-2.1486554E-1,-3.9918536E-1,6.6130733E-1,-5.3755426E-1,5.3716946E-1,-7.541956E-1,1.3292418E-1,-8.16764E-1,-1.3622308E-1,3.7197778E-1,-2.2908132E-1],"categories":[],"categories_nodes":[],"categories_segments":[],"categories_sizes":[],"default_left":[true,true,false,true,false,true,true,false,false,false,false],"id":18,"left_children":[1,3,-1,5,-1,7,9,-1,-1,-1,-1],"loss_changes":[2.6378102E0,1.9429834E0,0E0,1.7886438E0,0E0,2.3421478E-1,4.0443516E-1,0E0,0E0,0E0,0E0],"parents":[2147483647,0,0,1,1,3,3,5,5,6,6],"right_children":[2,4,-1,6,-1,8,10,-1,-1,-1,-1],"split_conditions":[8.3262786E-2,3.5829492E-2,1.9839221E-1,1.7437816E-1,1.6115084E-1,3.15868E-1,1.3631827E-1,-2.4502921E-1,-4.0866926E-2,1.11593336E-1,-6.87244E-2],"split_indices":[12153,12181,0,5108,0,6255,8284,0,0,0,0],"split_type":[0,0,0,0,0,0,0,0,0,0,0],"sum_hessian":[1.3698974E1,1.1767792E1,1.9311825E0,1.062378E1,1.1440111E0,7.9350038E0,2.6887767E0,6.9133577E0,1.0216459E0,1.6028036E0,1.0859731E0],"tree_param":{"num_deleted":"0","num_feature":"16336","num_nodes":"11","size_leaf_vector":"0"}},{"base_weights":[-1.7592089E-1,-3.453658E-1,6.411568E-1,-5.0285643E-1,6.108231E-1,-6.292827E-1,1.4010297E-1,-6.651547E-1,-1.7870638E-1,-7.0531887E-1,-2.0143542E-1],"categories":[],"categories_nodes":[],"categories_segments":[],"categories_sizes":[],"default_left":[true,true,false,true,false,true,false,true,false,false,false],"id":19,"left_children":[1,3,-1,5,-1,7,-1,9,-1,-1,-1],"loss_changes":[1.9757181E0,1.9854131E0,0E0,9.1054153E-1,0E0,2.0727158E-2,0E0,7.605553E-5,0E0,0E0,0E0],"parents":[2147483647,0,0,1,1,3,3,5,5,7,7],"right_children":[2,4,-1,6,-1,8,-1,10,-1,-1,-1],"split_conditions":[5.360069E-2,1.3170347E-1,1.9234705E-1,3E-1,1.8324694E-1,1.7170537E-1,4.2030893E-2,2.078028E-1,-5.3611916E-2,-2.1159567E-1,-6.0430627E-2],"split_indices":[14474,5908,0,16198,0,1518,0,13592,0,0,0],"split_type":[0,0,0,0,0,0,0,0,0,0,0],"sum_hessian":[1.1670922E1,1.0144484E1,1.5264387E0,9.116963E0,1.0275205E0,7.63663E0,1.4803332E0,6.632372E0,1.0042579E0,5.6242356E0,1.0081365E0],"tree_param":{"num_deleted":"0","num_feature":"16336","num_nodes":"11","size_leaf_vector":"0"}},{"base_weights":[-1.3402726E-1,-2.9173788E-1,5.836289E-1,-4.3859062E-1,5.081355E-1,-6.714423E-1,1.3056439E-1,-7.6597625E-1,-1.3235582E-1,-1.4034818E-1,3.4456283E-1],"categories":[],"categories_nodes":[],"categories_segments":[],"categories_sizes":[],"default_left":[true,true,false,true,false,true,true,false,false,false,false],"id":20,"left_children":[1,3,-1,5,-1,7,9,-1,-1,-1,-1],"loss_changes":[1.4634804E0,1.4015087E0,0E0,1.2823331E0,0E0,2.3292851E-1,2.4862778E-1,0E0,0E0,0E0,0E0],"parents":[2147483647,0,0,1,1,3,3,5,5,6,6],"right_children":[2,4,-1,6,-1,8,10,-1,-1,-1,-1],"split_conditions":[8.3262786E-2,3.5829492E-2,1.7508867E-1,1.7437816E-1,1.5244065E-1,1.6969772E-1,9.863256E-2,-2.2979288E-1,-3.9706748E-2,-4.2104457E-2,1.03368856E-1],"split_indices":[12153,12181,0,5108,0,15408,5172,0,0,0,0],"split_type":[0,0,0,0,0,0,0,0,0,0,0],"sum_hessian":[1.0425967E1,9.03413E0,1.3918364E0,8.014401E0,1.0197291E0,5.5599904E0,2.454411E0,4.3723745E0,1.1876159E0,1.2350521E0,1.2193589E0],"tree_param":{"num_deleted":"0","num_feature":"16336","num_nodes":"11","size_leaf_vector":"0"}},{"base_weights":[-1.0060677E-1,-2.4372508E-1,5.9470826E-1,-4.307646E-1,2.5760576E-1,-5.1077294E-1,-6.757338E-2,-1.09087214E-1,5.100973E-1,-5.7934046E-1,-1.8838336E-1],"categories":[],"categories_nodes":[],"categories_segments":[],"categories_sizes":[],"default_left":[true,true,false,true,true,true,false,false,false,false,false],"id":21,"left_children":[1,3,-1,5,7,9,-1,-1,-1,-1,-1],"loss_changes":[1.1579946E0,9.6911275E-1,0E0,1.7003584E-1,3.4381455E-1,1.5007734E-2,0E0,0E0,0E0,0E0,0E0],"parents":[2147483647,0,0,1,1,3,3,4,4,5,5],"right_children":[2,4,-1,6,8,10,-1,-1,-1,-1,-1],"split_conditions":[1.2554093E-1,9.666255E-2,1.7841248E-1,1.4881049E-1,1.7499304E-1,1.2209445E-1,-2.0272017E-2,-3.2726165E-2,1.530292E-1,-1.7380214E-1,-5.651501E-2],"split_indices":[5908,5310,0,15408,5108,2900,0,0,0,0,0],"split_type":[0,0,0,0,0,0,0,0,0,0,0],"sum_hessian":[9.180141E0,8.151728E0,1.0284138E0,6.0393057E0,2.1124222E0,4.6160717E0,1.423234E0,1.0930071E0,1.019415E0,3.149252E0,1.4668195E0],"tree_param":{"num_deleted":"0","num_feature":"16336","num_nodes":"11","size_leaf_vector":"0"}},{"base_weights":[-7.168277E-2,-2.2267519E-1,5.4357505E-1,-3.7352395E-1,3.0344665E-1,-4.9438778E-1,7.470674E-2,-5.559627E-1,-1.5830687E-1],"categories":[],"categories_nodes":[],"categories_segments":[],"categories_sizes":[],"default_left":[true,true,false,true,false,true,false,false,false],"id":22,"left_children":[1,3,-1,5,-1,7,-1,-1,-1],"loss_changes":[1.0138298E0,7.820684E-1,0E0,4.159764E-1,0E0,2.8743029E-2,0E0,0E0,0E0],"parents":[2147483647,0,0,1,1,3,3,5,5],"right_children":[2,4,-1,6,-1,8,-1,-1,-1],"split_conditions":[8.3262786E-2,3E-1,1.6307253E-1,1.6160534E-1,9.1033995E-2,1.7837866E-1,2.2412023E-2,-1.6678882E-1,-4.749206E-2],"split_indices":[12153,16131,0,1518,0,15408,0,0,0],"split_type":[0,0,0,0,0,0,0,0,0],"sum_hessian":[8.610293E0,7.425946E0,1.1843473E0,5.996642E0,1.429304E0,4.6419735E0,1.3546684E0,3.370244E0,1.2717296E0],"tree_param":{"num_deleted":"0","num_feature":"16336","num_nodes":"9","size_leaf_vector":"0"}},{"base_weights":[-4.8226092E-2,-2.0226462E-1,5.3906083E-1,-3.529605E-1,2.6743016E-1,-4.675141E-1,4.9029596E-2,-5.380871E-1,-9.176717E-2],"categories":[],"categories_nodes":[],"categories_segments":[],"categories_sizes":[],"default_left":[true,true,false,true,false,true,false,false,false],"id":23,"left_children":[1,3,-1,5,-1,7,-1,-1,-1],"loss_changes":[9.283474E-1,6.537043E-1,0E0,3.1826615E-1,0E0,8.5495114E-2,0E0,0E0,0E0],"parents":[2147483647,0,0,1,1,3,3,5,5],"right_children":[2,4,-1,6,-1,8,-1,-1,-1],"split_conditions":[3.5829492E-2,3E-1,1.6171825E-1,1.6160534E-1,8.022905E-2,2.629963E-1,1.4708879E-2,-1.6142614E-1,-2.7530152E-2],"split_indices":[12181,16131,0,1518,0,6255,0,0,0],"split_type":[0,0,0,0,0,0,0,0,0],"sum_hessian":[8.056721E0,6.9020004E0,1.1547196E0,5.413634E0,1.4883666E0,4.0862045E0,1.3274293E0,3.0763552E0,1.0098495E0],"tree_param":{"num_deleted":"0","num_feature":"16336","num_nodes":"9","size_leaf_vector":"0"}},{"base_weights":[-2.9253226E-2,-1.7825823E-1,5.4255766E-1,-3.3500272E-1,1.6913581E-1,-4.4058022E-1,-3.838025E-2,2.1594122E-1,3.8073108E-2],"categories":[],"categories_nodes":[],"categories_segments":[],"categories_sizes":[],"default_left":[true,true,false,true,true,false,false,false,false],"id":24,"left_children":[1,3,-1,5,7,-1,-1,-1,-1],"loss_changes":[8.264755E-1,4.6761966E-1,0E0,1.5646333E-1,1.0249466E-2,0E0,0E0,0E0,0E0],"parents":[2147483647,0,0,1,1,3,3,4,4],"right_children":[2,4,-1,6,8,-1,-1,-1,-1],"split_conditions":[8.188319E-2,1.8943465E-1,1.627673E-1,1.9535607E-1,3.285991E-2,-1.3217407E-1,-1.1514075E-2,6.4782366E-2,1.1421933E-2],"split_indices":[13725,5172,0,8284,461,0,0,0,0],"split_type":[0,0,0,0,0,0,0,0,0],"sum_hessian":[7.5649905E0,6.5471597E0,1.0178311E0,4.536125E0,2.0110343E0,2.9874666E0,1.5486587E0,1.0046381E0,1.0063962E0],"tree_param":{"num_deleted":"0","num_feature":"16336","num_nodes":"9","size_leaf_vector":"0"}},{"base_weights":[-1.0290334E-2,-1.5195009E-1,5.036036E-1,-2.7131438E-1,2.8100133E-1,-3.4705344E-1,4.014966E-2,-4.16639E-1,-3.3207763E-2],"categories":[],"categories_nodes":[],"categories_segments":[],"categories_sizes":[],"default_left":[true,true,false,true,false,true,false,false,false],"id":25,"left_children":[1,3,-1,5,-1,7,-1,-1,-1],"loss_changes":[6.7321837E-1,4.479964E-1,0E0,1.589584E-1,0E0,9.642726E-2,0E0,0E0,0E0],"parents":[2147483647,0,0,1,1,3,3,5,5],"right_children":[2,4,-1,6,-1,8,-1,-1,-1],"split_conditions":[5.360069E-2,2.8265786E-1,1.5108109E-1,3.125E-1,8.43004E-2,1.3200012E-1,1.2044898E-2,-1.2499171E-1,-9.96233E-3],"split_indices":[14474,2900,0,16139,0,8988,0,0,0],"split_type":[0,0,0,0,0,0,0,0,0],"sum_hessian":[7.1965866E0,6.1935825E0,1.003004E0,5.1477036E0,1.0458791E0,4.04887E0,1.0988333E0,3.0459883E0,1.0028818E0],"tree_param":{"num_deleted":"0","num_feature":"16336","num_nodes":"9","size_leaf_vector":"0"}},{"base_weights":[6.3418834E-3,-1.4221479E-1,5.078787E-1,-3.1329912E-1,1.7078476E-1,-4.2641455E-1,1.4020548E-2,-2.872235E-2,2.8155106E-1],"categories":[],"categories_nodes":[],"categories_segments":[],"categories_sizes":[],"default_left":[true,true,false,true,true,false,false,false,false],"id":26,"left_children":[1,3,-1,5,7,-1,-1,-1,-1],"loss_changes":[6.5956336E-1,4.2100742E-1,0E0,1.8333477E-1,7.5988464E-2,0E0,0E0,0E0,0E0],"parents":[2147483647,0,0,1,1,3,3,4,4],"right_children":[2,4,-1,6,8,-1,-1,-1,-1],"split_conditions":[3.5829492E-2,1.6532668E-1,1.5236363E-1,1.691832E-1,1.9226226E-1,-1.2792437E-1,4.2061647E-3,-8.616705E-3,8.4465325E-2],"split_indices":[12181,5108,0,15408,5172,0,0,0,0],"split_type":[0,0,0,0,0,0,0,0,0],"sum_hessian":[6.882996E0,5.862846E0,1.0201501E0,3.7901871E0,2.0726588E0,2.5917733E0,1.1984138E0,1.0043552E0,1.0683036E0],"tree_param":{"num_deleted":"0","num_feature":"16336","num_nodes":"9","size_leaf_vector":"0"}},{"base_weights":[1.8402884E-2,1.1448592E-1,-2.838418E-1,-4.056295E-2,3.616968E-1,-1.8257654E-1,1.688917E-1,-3.4270117E-1,8.390726E-2],"categories":[],"categories_nodes":[],"categories_segments":[],"categories_sizes":[],"default_left":[true,true,false,true,false,true,false,false,false],"id":27,"left_children":[1,3,-1,5,-1,7,-1,-1,-1],"loss_changes":[2.5177947E-1,2.6159617E-1,0E0,1.753447E-1,0E0,1.727998E-1,0E0,0E0,0E0],"parents":[2147483647,0,0,1,1,3,3,5,5],"right_children":[2,4,-1,6,-1,8,-1,-1,-1],"split_conditions":[1.231237E-1,1.8117088E-1,-8.515254E-2,5.2904785E-2,1.0850905E-1,5.0549906E-2,5.0667513E-2,-1.0281035E-1,2.517218E-2],"split_indices":[2628,5172,0,461,0,8284,0,0,0],"split_type":[0,0,0,0,0,0,0,0,0],"sum_hessian":[6.550935E0,5.4421115E0,1.1088231E0,3.8581965E0,1.5839151E0,2.3757348E0,1.4824618E0,1.3053598E0,1.070375E0],"tree_param":{"num_deleted":"0","num_feature":"16336","num_nodes":"9","size_leaf_vector":"0"}},{"base_weights":[1.2334288E-2,-9.940205E-2,2.7247837E-1,-1.7759424E-1,1.129917E-1,-3.2041762E-2,-2.7711645E-1,-1.3205399E-1,8.296018E-2],"categories":[],"categories_nodes":[],"categories_segments":[],"categories_sizes":[],"default_left":[true,true,false,true,false,true,false,false,false],"id":28,"left_children":[1,3,-1,5,-1,7,-1,-1,-1],"loss_changes":[2.4088715E-1,1.1768657E-1,0E0,5.8989108E-2,0E0,4.584362E-2,0E0,0E0,0E0],"parents":[2147483647,0,0,1,1,3,3,5,5],"right_children":[2,4,-1,6,-1,8,-1,-1,-1],"split_conditions":[3E-1,1.6160534E-1,8.1743516E-2,3.4442175E-2,3.389751E-2,1.3217148E-1,-8.3134934E-2,-3.9616197E-2,2.4888055E-2],"split_indices":[16131,1518,0,947,0,6255,0,0,0],"split_type":[0,0,0,0,0,0,0,0,0],"sum_hessian":[6.3553586E0,4.8780494E0,1.4773093E0,3.6851978E0,1.1928515E0,2.0333517E0,1.6518462E0,1.0082467E0,1.0251049E0],"tree_param":{"num_deleted":"0","num_feature":"16336","num_nodes":"9","size_leaf_vector":"0"}},{"base_weights":[1.0913431E-2,9.7509146E-2,-2.4638899E-1,-2.8794955E-2,3.0166322E-1,-1.4746967E-1,1.9526201E-1,-2.0625529E-1,-2.144029E-2],"categories":[],"categories_nodes":[],"categories_segments":[],"categories_sizes":[],"default_left":[true,true,false,true,false,true,false,false,false],"id":29,"left_children":[1,3,-1,5,-1,7,-1,-1,-1],"loss_changes":[1.8612784E-1,1.6751938E-1,0E0,1.5425487E-1,0E0,2.2651277E-2,0E0,0E0,0E0],"parents":[2147483647,0,0,1,1,3,3,5,5],"right_children":[2,4,-1,6,-1,8,-1,-1,-1],"split_conditions":[4.897096E-2,1.80424E-1,-7.3916696E-2,1.6886634E-1,9.049897E-2,1.3755755E-1,5.8578607E-2,-6.1876588E-2,-6.432087E-3],"split_indices":[2628,5172,0,15408,0,1518,0,0,0],"split_type":[0,0,0,0,0,0,0,0,0],"sum_hessian":[6.275283E0,5.15978E0,1.1155027E0,3.7183201E0,1.44146E0,2.6542714E0,1.0640489E0,1.3759178E0,1.2783535E0],"tree_param":{"num_deleted":"0","num_feature":"16336","num_nodes":"9","size_leaf_vector":"0"}},{"base_weights":[8.643128E-3,-8.904993E-2,2.2718795E-1,-1.834733E-1,1.09315686E-1,-2.498321E-1,-2.5869833E-2],"categories":[],"categories_nodes":[],"categories_segments":[],"categories_sizes":[],"default_left":[true,true,false,true,false,false,false],"id":30,"left_children":[1,3,-1,5,-1,-1,-1],"loss_changes":[1.7304514E-1,1.2615962E-1,0E0,3.7579834E-2,0E0,0E0,0E0],"parents":[2147483647,0,0,1,1,3,3],"right_children":[2,4,-1,6,-1,-1,-1],"split_conditions":[2.5245315E-1,5.2907012E-2,6.8156384E-2,8.626391E-2,3.2794707E-2,-7.494963E-2,-7.7609504E-3],"split_indices":[5444,947,0,15408,0,0,0],"split_type":[0,0,0,0,0,0,0],"sum_hessian":[6.1574636E0,4.6647687E0,1.4926945E0,3.2112615E0,1.4535073E0,1.8479781E0,1.3632835E0],"tree_param":{"num_deleted":"0","num_feature":"16336","num_nodes":"7","size_leaf_vector":"0"}},{"base_weights":[8.458178E-3,8.405964E-2,-2.1925072E-1,-1.8955346E-2,2.4953148E-1,-1.1350248E-1,1.5495335E-1,-1.6202669E-1,-1.3601396E-2],"categories":[],"categories_nodes":[],"categories_segments":[],"categories_sizes":[],"default_left":[true,true,false,true,false,true,false,false,false],"id":31,"left_children":[1,3,-1,5,-1,7,-1,-1,-1],"loss_changes":[1.4061442E-1,1.0788041E-1,0E0,9.419147E-2,0E0,1.5224736E-2,0E0,0E0,0E0],"parents":[2147483647,0,0,1,1,3,3,5,5],"right_children":[2,4,-1,6,-1,8,-1,-1,-1],"split_conditions":[4.897096E-2,1.80424E-1,-6.577522E-2,1.6886634E-1,7.485945E-2,1.3755755E-1,4.6486005E-2,-4.860801E-2,-4.080419E-3],"split_indices":[2628,5172,0,15408,0,1518,0,0,0],"split_type":[0,0,0,0,0,0,0,0,0],"sum_hessian":[6.0974956E0,5.0512724E0,1.0462232E0,3.6588755E0,1.392397E0,2.595274E0,1.0636013E0,1.3282446E0,1.2670295E0],"tree_param":{"num_deleted":"0","num_feature":"16336","num_nodes":"9","size_leaf_vector":"0"}},{"base_weights":[6.322318E-3,-7.934536E-2,2.0165461E-1,-1.5387273E-1,7.10086E-2,-2.1530886E-1,-9.830729E-3],"categories":[],"categories_nodes":[],"categories_segments":[],"categories_sizes":[],"default_left":[true,true,false,true,false,false,false],"id":32,"left_children":[1,3,-1,5,-1,-1,-1],"loss_changes":[1.3341163E-1,7.362111E-2,0E0,3.378126E-2,0E0,0E0,0E0],"parents":[2147483647,0,0,1,1,3,3],"right_children":[2,4,-1,6,-1,-1,-1],"split_conditions":[3E-1,5.2907012E-2,6.0496386E-2,1.875E-1,2.130258E-2,-6.459266E-2,-2.949219E-3],"split_indices":[16131,947,0,16139,0,0,0],"split_type":[0,0,0,0,0,0,0],"sum_hessian":[6.016471E0,4.595011E0,1.4214598E0,3.0565426E0,1.5384686E0,1.7958293E0,1.2607132E0],"tree_param":{"num_deleted":"0","num_feature":"16336","num_nodes":"7","size_leaf_vector":"0"}},{"base_weights":[6.3563874E-3,-7.885646E-2,1.7714044E-1,-1.5737237E-1,8.2927786E-2,-2.0964576E-1,-7.550837E-3],"categories":[],"categories_nodes":[],"categories_segments":[],"categories_sizes":[],"default_left":[true,true,false,true,false,false,false],"id":33,"left_children":[1,3,-1,5,-1,-1,-1],"loss_changes":[1.154773E-1,8.094977E-2,0E0,2.9304072E-2,0E0,0E0,0E0],"parents":[2147483647,0,0,1,1,3,3],"right_children":[2,4,-1,6,-1,-1,-1],"split_conditions":[9.666255E-2,1.5739477E-1,5.3142134E-2,1.949357E-1,2.4878336E-2,-6.289373E-2,-2.2652512E-3],"split_indices":[5310,15408,0,8284,0,0,0],"split_type":[0,0,0,0,0,0,0],"sum_hessian":[5.9751024E0,4.345286E0,1.6298162E0,2.943863E0,1.4014233E0,1.8863897E0,1.0574731E0],"tree_param":{"num_deleted":"0","num_feature":"16336","num_nodes":"7","size_leaf_vector":"0"}},{"base_weights":[6.18599E-3,8.0638155E-2,-1.9373834E-1,-2.88734E-2,2.9564667E-1,-1.2098658E-1,1.397325E-1,-1.7732777E-1,1.2490295E-2],"categories":[],"categories_nodes":[],"categories_segments":[],"categories_sizes":[],"default_left":[true,true,false,true,false,true,false,false,false],"id":34,"left_children":[1,3,-1,5,-1,7,-1,-1,-1],"loss_changes":[1.1883831E-1,1.4413199E-1,0E0,9.0311654E-2,0E0,2.9231612E-2,0E0,0E0,0E0],"parents":[2147483647,0,0,1,1,3,3,5,5],"right_children":[2,4,-1,6,-1,8,-1,-1,-1],"split_conditions":[2.0425165E-1,1.4977565E-1,-5.8121506E-2,7.8755125E-2,8.8694006E-2,5.1790304E-2,4.191975E-2,-5.3198334E-2,3.7470886E-3],"split_indices":[15408,15408,0,5172,0,947,0,0,0],"split_type":[0,0,0,0,0,0,0,0,0],"sum_hessian":[5.934296E0,4.758776E0,1.17552E0,3.7264645E0,1.0323118E0,2.5925345E0,1.13393E0,1.5920116E0,1.000523E0],"tree_param":{"num_deleted":"0","num_feature":"16336","num_nodes":"9","size_leaf_vector":"0"}},{"base_weights":[7.7288845E-3,7.907129E-2,-2.041536E-1,1.3611765E-1,-9.366295E-2,-3.8868971E-3,2.542566E-1,-5.6456488E-2,4.9335096E-2],"categories":[],"categories_nodes":[],"categories_segments":[],"categories_sizes":[],"default_left":[true,true,false,true,false,true,false,false,false],"id":35,"left_children":[1,3,-1,5,-1,7,-1,-1,-1],"loss_changes":[1.19700216E-1,7.0354044E-2,0E0,8.04167E-2,0E0,1.168993E-2,0E0,0E0,0E0],"parents":[2147483647,0,0,1,1,3,3,5,5],"right_children":[2,4,-1,6,-1,8,-1,-1,-1],"split_conditions":[4.897096E-2,1.921296E-1,-6.1246082E-2,9.794064E-2,-2.8098885E-2,1.3770686E-1,7.627699E-2,-1.6936947E-2,1.4800529E-2],"split_indices":[2628,15408,0,2900,0,1518,0,0,0],"split_type":[0,0,0,0,0,0,0,0,0],"sum_hessian":[5.850762E0,4.84592E0,1.0048418E0,3.8022048E0,1.0437154E0,2.1826642E0,1.6195407E0,1.067488E0,1.1151761E0],"tree_param":{"num_deleted":"0","num_feature":"16336","num_nodes":"9","size_leaf_vector":"0"}},{"base_weights":[3.2210636E-3,-8.250411E-2,1.4202684E-1,-1.7788197E-1,7.354801E-2,-2.1646434E-1,-4.8911177E-2],"categories":[],"categories_nodes":[],"categories_segments":[],"categories_sizes":[],"default_left":[true,true,false,true,false,false,false],"id":36,"left_children":[1,3,-1,5,-1,-1,-1],"loss_changes":[9.243447E-2,8.4913686E-2,0E0,5.7728514E-3,0E0,0E0,0E0],"parents":[2147483647,0,0,1,1,3,3],"right_children":[2,4,-1,6,-1,-1,-1],"split_conditions":[7.6442815E-2,1.983302E-1,4.2608052E-2,1.379104E-1,2.2064405E-2,-6.4939305E-2,-1.4673353E-2],"split_indices":[5108,8284,0,1518,0,0,0],"split_type":[0,0,0,0,0,0,0],"sum_hessian":[5.783399E0,3.8260689E0,1.9573301E0,2.2878587E0,1.5382102E0,1.238851E0,1.0490078E0],"tree_param":{"num_deleted":"0","num_feature":"16336","num_nodes":"7","size_leaf_vector":"0"}},{"base_weights":[-8.429173E-5,-7.089181E-2,1.6109553E-1,2.4641482E-2,-2.0126362E-1,-8.296915E-2,1.7324865E-1],"categories":[],"categories_nodes":[],"categories_segments":[],"categories_sizes":[],"default_left":[true,true,false,true,false,false,false],"id":37,"left_children":[1,3,-1,5,-1,-1,-1],"loss_changes":[8.8442594E-2,7.2008E-2,0E0,7.830417E-2,0E0,0E0,0E0],"parents":[2147483647,0,0,1,1,3,3],"right_children":[2,4,-1,6,-1,-1,-1],"split_conditions":[3E-1,2.2300622E-1,4.832866E-2,1.6950427E-1,-6.0379088E-2,-2.4890747E-2,5.19746E-2],"split_indices":[16131,8284,0,15408,0,0,0],"split_type":[0,0,0,0,0,0,0],"sum_hessian":[5.7487917E0,4.383331E0,1.365461E0,2.9976883E0,1.3856424E0,1.9948497E0,1.0028387E0],"tree_param":{"num_deleted":"0","num_feature":"16336","num_nodes":"7","size_leaf_vector":"0"}},{"base_weights":[2.0868913E-3,-6.916657E-2,1.4333512E-1,-1.2004038E-1,4.503857E-2,-1.387184E-3,-1.8226533E-1],"categories":[],"categories_nodes":[],"categories_segments":[],"categories_sizes":[],"default_left":[true,true,false,true,false,false,false],"id":38,"left_children":[1,3,-1,5,-1,-1,-1],"loss_changes":[7.7405825E-2,3.5223193E-2,0E0,2.7974613E-2,0E0,0E0,0E0],"parents":[2147483647,0,0,1,1,3,3],"right_children":[2,4,-1,6,-1,-1,-1],"split_conditions":[9.666255E-2,1.5739477E-1,4.3000538E-2,3.425894E-2,1.3511571E-2,-4.1615524E-4,-5.46796E-2],"split_indices":[5310,15408,0,947,0,0,0],"split_type":[0,0,0,0,0,0,0],"sum_hessian":[5.7059793E0,4.131925E0,1.5740541E0,2.8232062E0,1.3087193E0,1.3229126E0,1.5002935E0],"tree_param":{"num_deleted":"0","num_feature":"16336","num_nodes":"7","size_leaf_vector":"0"}},{"base_weights":[1.5845862E-3,6.776615E-2,-1.7060977E-1,-2.0036481E-2,2.1678439E-1,-9.093402E-2,1.1052563E-1,-5.113178E-4,-1.2881774E-1],"categories":[],"categories_nodes":[],"categories_segments":[],"categories_sizes":[],"default_left":[true,true,false,true,false,true,false,false,false],"id":39,"left_children":[1,3,-1,5,-1,7,-1,-1,-1],"loss_changes":[8.766244E-2,7.682385E-2,0E0,5.078957E-2,0E0,1.1584079E-2,0E0,0E0,0E0],"parents":[2147483647,0,0,1,1,3,3,5,5],"right_children":[2,4,-1,6,-1,8,-1,-1,-1],"split_conditions":[2.0425165E-1,8.626391E-2,-5.1182933E-2,1.1031053E-1,6.503532E-2,1.20103E-1,3.315769E-2,-1.5339535E-4,-3.8645323E-2],"split_indices":[15408,15408,0,8988,0,1518,0,0,0],"split_type":[0,0,0,0,0,0,0,0,0],"sum_hessian":[5.677805E0,4.539528E0,1.1382769E0,3.4011116E0,1.1384164E0,2.4008994E0,1.000212E0,1.0081338E0,1.3927658E0],"tree_param":{"num_deleted":"0","num_feature":"16336","num_nodes":"9","size_leaf_vector":"0"}},{"base_weights":[2.3140667E-3,-7.1908906E-2,1.2717852E-1,4.097177E-2,-1.788392E-1,-2.7802425E-2,9.130407E-2],"categories":[],"categories_nodes":[],"categories_segments":[],"categories_sizes":[],"default_left":[true,true,false,true,false,false,false],"id":40,"left_children":[1,3,-1,5,-1,-1,-1],"loss_changes":[7.0535906E-2,6.518447E-2,0E0,1.3426425E-2,0E0,0E0,0E0],"parents":[2147483647,0,0,1,1,3,3],"right_children":[2,4,-1,6,-1,-1,-1],"split_conditions":[1.9165953E-1,1.0329872E-1,3.815356E-2,5.1609308E-2,-5.3651765E-2,-8.340728E-3,2.7391223E-2],"split_indices":[5172,6255,0,461,0,0,0],"split_type":[0,0,0,0,0,0,0],"sum_hessian":[5.6240706E0,3.7933187E0,1.8307519E0,2.1453853E0,1.6479334E0,1.0957594E0,1.049626E0],"tree_param":{"num_deleted":"0","num_feature":"16336","num_nodes":"7","size_leaf_vector":"0"}},{"base_weights":[2.0625656E-3,5.8158126E-2,-1.4530592E-1,-1.6716937E-2,1.855303E-1,7.9234116E-2,-1.0180981E-1],"categories":[],"categories_nodes":[],"categories_segments":[],"categories_sizes":[],"default_left":[true,true,false,true,false,false,false],"id":41,"left_children":[1,3,-1,5,-1,-1,-1],"loss_changes":[6.292778E-2,5.5433176E-2,0E0,4.3772195E-2,0E0,0E0,0E0],"parents":[2147483647,0,0,1,1,3,3],"right_children":[2,4,-1,6,-1,-1,-1],"split_conditions":[2.0425165E-1,8.626391E-2,-4.3591775E-2,3.425894E-2,5.5659093E-2,2.3770235E-2,-3.0542944E-2],"split_indices":[15408,15408,0,947,0,0,0],"split_type":[0,0,0,0,0,0,0],"sum_hessian":[5.5899262E0,4.487227E0,1.1026995E0,3.3731143E0,1.1141124E0,1.6177663E0,1.7553482E0],"tree_param":{"num_deleted":"0","num_feature":"16336","num_nodes":"7","size_leaf_vector":"0"}},{"base_weights":[2.229356E-3,-6.0436208E-2,1.2520163E-1,-1.2059661E-1,6.2228326E-2,-1.8828091E-1,1.7407224E-2],"categories":[],"categories_nodes":[],"categories_segments":[],"categories_sizes":[],"default_left":[true,true,false,true,false,false,false],"id":42,"left_children":[1,3,-1,5,-1,-1,-1],"loss_changes":[5.804193E-2,4.450094E-2,0E0,3.7875764E-2,0E0,0E0,0E0],"parents":[2147483647,0,0,1,1,3,3],"right_children":[2,4,-1,6,-1,-1,-1],"split_conditions":[9.666255E-2,5.2041817E-2,3.756049E-2,1.8926978E-1,1.8668499E-2,-5.6484275E-2,5.2221674E-3],"split_indices":[5310,947,0,6255,0,0,0],"split_type":[0,0,0,0,0,0,0],"sum_hessian":[5.550011E0,4.0133715E0,1.53664E0,2.7040417E0,1.3093296E0,1.5698087E0,1.134233E0],"tree_param":{"num_deleted":"0","num_feature":"16336","num_nodes":"7","size_leaf_vector":"0"}},{"base_weights":[2.2234728E-3,-5.399195E-2,1.2694375E-1,2.374327E-2,-1.6033866E-1,-6.8274654E-2,8.147703E-2],"categories":[],"categories_nodes":[],"categories_segments":[],"categories_sizes":[],"default_left":[true,true,false,true,false,false,false],"id":43,"left_children":[1,3,-1,5,-1,-1,-1],"loss_changes":[5.2587163E-2,4.6777092E-2,0E0,2.6143048E-2,0E0,0E0,0E0],"parents":[2147483647,0,0,1,1,3,3],"right_children":[2,4,-1,6,-1,-1,-1],"split_conditions":[3E-1,2.2300622E-1,3.808313E-2,1.02369055E-1,-4.81016E-2,-2.0482397E-2,2.444311E-2],"split_indices":[16131,8284,0,1518,0,0,0],"split_type":[0,0,0,0,0,0,0],"sum_hessian":[5.5228777E0,4.1978626E0,1.3250153E0,2.873896E0,1.3239666E0,1.0375838E0,1.8363122E0],"tree_param":{"num_deleted":"0","num_feature":"16336","num_nodes":"7","size_leaf_vector":"0"}},{"base_weights":[5.701024E-4,-6.1383236E-2,1.0561195E-1,-1.5472102E-1,8.245663E-2,-1.875569E-1,-4.2441975E-2],"categories":[],"categories_nodes":[],"categories_segments":[],"categories_sizes":[],"default_left":[true,true,false,true,false,false,false],"id":44,"left_children":[1,3,-1,5,-1,-1,-1],"loss_changes":[4.8779454E-2,7.6136105E-2,0E0,3.8764179E-3,0E0,0E0,0E0],"parents":[2147483647,0,0,1,1,3,3],"right_children":[2,4,-1,6,-1,-1,-1],"split_conditions":[7.6442815E-2,1.983302E-1,3.1683587E-2,1.379104E-1,2.4736991E-2,-5.626707E-2,-1.2732593E-2],"split_indices":[5108,8284,0,1518,0,0,0],"split_type":[0,0,0,0,0,0,0],"sum_hessian":[5.499484E0,3.7206736E0,1.7788104E0,2.2105794E0,1.5100942E0,1.1916343E0,1.0189452E0],"tree_param":{"num_deleted":"0","num_feature":"16336","num_nodes":"7","size_leaf_vector":"0"}},{"base_weights":[-1.6334875E-3,4.8040505E-2,-1.3049355E-1,-1.4512961E-2,1.5499267E-1,5.957453E-2,-1.2669086E-1,1.2902877E-1,-4.5630872E-2],"categories":[],"categories_nodes":[],"categories_segments":[],"categories_sizes":[],"default_left":[true,true,false,true,false,true,false,false,false],"id":45,"left_children":[1,3,-1,5,-1,7,-1,-1,-1],"loss_changes":[4.770607E-2,3.839877E-2,0E0,4.3481566E-2,0E0,2.9884413E-2,0E0,0E0,0E0],"parents":[2147483647,0,0,1,1,3,3,5,5],"right_children":[2,4,-1,6,-1,8,-1,-1,-1],"split_conditions":[2.0425165E-1,8.626391E-2,-3.9148066E-2,1.458382E-1,4.6497803E-2,3.425894E-2,-3.800726E-2,3.870863E-2,-1.3689262E-2],"split_indices":[15408,15408,0,1518,0,947,0,0,0],"split_type":[0,0,0,0,0,0,0,0,0],"sum_hessian":[5.4735413E0,4.403308E0,1.0702333E0,3.3236804E0,1.0796276E0,2.2840898E0,1.0395906E0,1.2394117E0,1.0446781E0],"tree_param":{"num_deleted":"0","num_feature":"16336","num_nodes":"9","size_leaf_vector":"0"}},{"base_weights":[-2.0546303E-3,-5.9887644E-2,9.617309E-2,4.2240158E-2,-1.5768881E-1,-1.47351455E-2,7.97072E-2],"categories":[],"categories_nodes":[],"categories_segments":[],"categories_sizes":[],"default_left":[true,true,false,true,false,false,false],"id":46,"left_children":[1,3,-1,5,-1,-1,-1],"loss_changes":[4.2308796E-2,5.326405E-2,0E0,7.730467E-3,0E0,0E0,0E0],"parents":[2147483647,0,0,1,1,3,3],"right_children":[2,4,-1,6,-1,-1,-1],"split_conditions":[1.9165953E-1,1.0329872E-1,2.8851928E-2,5.1609308E-2,-4.7306646E-2,-4.420544E-3,2.391216E-2],"split_indices":[5172,6255,0,461,0,0,0],"split_type":[0,0,0,0,0,0,0],"sum_hessian":[5.4338093E0,3.6658216E0,1.7679878E0,2.0711489E0,1.5946727E0,1.0623595E0,1.0087894E0],"tree_param":{"num_deleted":"0","num_feature":"16336","num_nodes":"7","size_leaf_vector":"0"}},{"base_weights":[-1.3607306E-3,-5.298045E-2,1.008106E-1,-1.0484303E-1,5.241992E-2,7.2502894E-3,-1.8578964E-1],"categories":[],"categories_nodes":[],"categories_segments":[],"categories_sizes":[],"default_left":[true,true,false,true,false,false,false],"id":47,"left_children":[1,3,-1,5,-1,-1,-1],"loss_changes":[3.9141055E-2,3.2352857E-2,0E0,3.424975E-2,0E0,0E0,0E0],"parents":[2147483647,0,0,1,1,3,3],"right_children":[2,4,-1,6,-1,-1,-1],"split_conditions":[9.666255E-2,5.2041817E-2,3.0243183E-2,2.8172523E-2,1.5725976E-2,2.1750869E-3,-5.5736896E-2],"split_indices":[5310,947,0,461,0,0,0],"split_type":[0,0,0,0,0,0,0],"sum_hessian":[5.408743E0,3.9131625E0,1.4955804E0,2.6262136E0,1.2869488E0,1.4830062E0,1.1432073E0],"tree_param":{"num_deleted":"0","num_feature":"16336","num_nodes":"7","size_leaf_vector":"0"}},{"base_weights":[-2.233137E-3,-9.0879716E-2,5.4463625E-2,1.4842823E-1,-8.1614785E-2,2.0597118E-1,1.8427517E-2],"categories":[],"categories_nodes":[],"categories_segments":[],"categories_sizes":[],"default_left":[true,false,true,true,false,false,false],"id":48,"left_children":[1,-1,3,5,-1,-1,-1],"loss_changes":[3.7051164E-2,0E0,6.9920115E-2,1.8863462E-2,0E0,0E0,0E0],"parents":[2147483647,0,0,2,2,3,3],"right_children":[2,-1,4,6,-1,-1,-1],"split_conditions":[1.00672916E-1,-2.7263915E-2,1.458382E-1,3.6202624E-2,-2.4484437E-2,6.1791357E-2,5.5282554E-3],"split_indices":[1518,0,1518,461,0,0,0],"split_type":[0,0,0,0,0,0,0],"sum_hessian":[5.387125E0,1.8662678E0,3.5208573E0,2.0290241E0,1.4918331E0,1.0013887E0,1.0276355E0],"tree_param":{"num_deleted":"0","num_feature":"16336","num_nodes":"7","size_leaf_vector":"0"}},{"base_weights":[9.412041E-4,4.4843268E-2,-1.0778185E-1,9.67832E-2,-5.5814955E-2,1.2915453E-1,1.1199165E-2],"categories":[],"categories_nodes":[],"categories_segments":[],"categories_sizes":[],"default_left":[true,true,false,true,false,false,false],"id":49,"left_children":[1,3,-1,5,-1,-1,-1],"loss_changes":[3.515925E-2,3.2756172E-2,0E0,9.128444E-3,0E0,0E0,0E0],"parents":[2147483647,0,0,1,1,3,3],"right_children":[2,4,-1,6,-1,-1,-1],"split_conditions":[1.968985E-1,1.6666667E-1,-3.2334555E-2,1.4129624E-1,-1.6744487E-2,3.874636E-2,3.3597497E-3],"split_indices":[15408,16177,0,1518,0,0,0],"split_type":[0,0,0,0,0,0,0],"sum_hessian":[5.3534255E0,4.2320724E0,1.121353E0,2.816993E0,1.4150795E0,1.6745241E0,1.1424689E0],"tree_param":{"num_deleted":"0","num_feature":"16336","num_nodes":"7","size_leaf_vector":"0"}},{"base_weights":[-4.4715733E-4,-4.1059162E-2,1.0807837E-1,-1.409064E-1,8.828713E-2],"categories":[],"categories_nodes":[],"categories_segments":[],"categories_sizes":[],"default_left":[true,true,false,false,false],"id":50,"left_children":[1,3,-1,-1,-1],"loss_changes":[3.235641E-2,8.13308E-2,0E0,0E0,0E0],"parents":[2147483647,0,0,1,1],"right_children":[2,4,-1,-1,-1],"split_conditions":[2.6805294E-1,1.9559185E-1,3.242351E-2,-4.227192E-2,2.648614E-2],"split_indices":[2900,8284,0,0,0],"split_type":[0,0,0,0,0],"sum_hessian":[5.334473E0,4.3342066E0,1.0002666E0,2.3955889E0,1.9386176E0],"tree_param":{"num_deleted":"0","num_feature":"16336","num_nodes":"5","size_leaf_vector":"0"}},{"base_weights":[2.2599876E-3,-4.133797E-2,9.87896E-2,3.3924006E-2,-1.4700319E-1,-3.7221085E-2,9.595211E-2],"categories":[],"categories_nodes":[],"categories_segments":[],"categories_sizes":[],"default_left":[true,true,false,true,false,false,false],"id":51,"left_children":[1,3,-1,5,-1,-1,-1],"loss_changes":[3.0644374E-2,4.5167994E-2,0E0,2.0178923E-2,0E0,0E0,0E0],"parents":[2147483647,0,0,1,1,3,3],"right_children":[2,4,-1,6,-1,-1,-1],"split_conditions":[3E-1,2.2300622E-1,2.9636882E-2,1.379104E-1,-4.410096E-2,-1.1166326E-2,2.8785633E-2],"split_indices":[16131,8284,0,1518,0,0,0],"split_type":[0,0,0,0,0,0,0],"sum_hessian":[5.3111916E0,4.052585E0,1.2586063E0,2.763313E0,1.289272E0,1.4733453E0,1.2899679E0],"tree_param":{"num_deleted":"0","num_feature":"16336","num_nodes":"7","size_leaf_vector":"0"}},{"base_weights":[2.045468E-3,-4.6886396E-2,8.527952E-2,-1.2874117E-1,7.5021975E-2,-1.5313037E-1,-4.159498E-2],"categories":[],"categories_nodes":[],"categories_segments":[],"categories_sizes":[],"default_left":[true,true,false,true,false,false,false],"id":52,"left_children":[1,3,-1,5,-1,-1,-1],"loss_changes":[2.9628623E-2,5.564457E-2,0E0,2.731681E-4,0E0,0E0,0E0],"parents":[2147483647,0,0,1,1,3,3],"right_children":[2,4,-1,6,-1,-1,-1],"split_conditions":[7.6442815E-2,1.983302E-1,2.5583856E-2,1.2871549E-1,2.2506593E-2,-4.593911E-2,-1.2478494E-2],"split_indices":[5108,8284,0,1518,0,0,0],"split_type":[0,0,0,0,0,0,0],"sum_hessian":[5.293015E0,3.6083944E0,1.6846209E0,2.125314E0,1.4830803E0,1.0689776E0,1.0563364E0],"tree_param":{"num_deleted":"0","num_feature":"16336","num_nodes":"7","size_leaf_vector":"0"}},{"base_weights":[-2.585414E-4,-4.7851983E-2,7.780974E-2,3.7557002E-2,-1.312799E-1,-5.7306434E-3,6.2284518E-2],"categories":[],"categories_nodes":[],"categories_segments":[],"categories_sizes":[],"default_left":[true,true,false,true,false,false,false],"id":53,"left_children":[1,3,-1,5,-1,-1,-1],"loss_changes":[2.7041838E-2,3.712469E-2,0E0,3.5789646E-3,0E0,0E0,0E0],"parents":[2147483647,0,0,1,1,3,3],"right_children":[2,4,-1,6,-1,-1,-1],"split_conditions":[1.8117088E-1,1.0329872E-1,2.3342924E-2,4.917114E-2,-3.938397E-2,-1.7191931E-3,1.8685356E-2],"split_indices":[5172,6255,0,461,0,0,0],"split_type":[0,0,0,0,0,0,0],"sum_hessian":[5.275937E0,3.5181727E0,1.7577643E0,2.0101335E0,1.5080391E0,1.0101054E0,1.0000283E0],"tree_param":{"num_deleted":"0","num_feature":"16336","num_nodes":"7","size_leaf_vector":"0"}},{"base_weights":[-8.126951E-5,3.739266E-2,-9.8135054E-2,-2.1158485E-2,1.4024946E-1,4.361796E-2,-1.1371492E-1,9.363566E-2,-3.1607147E-2],"categories":[],"categories_nodes":[],"categories_segments":[],"categories_sizes":[],"default_left":[true,true,false,true,false,true,false,false,false],"id":54,"left_children":[1,3,-1,5,-1,7,-1,-1,-1],"loss_changes":[2.6666949E-2,3.459856E-2,0E0,3.023634E-2,0E0,1.5010795E-2,0E0,0E0,0E0],"parents":[2147483647,0,0,1,1,3,3,5,5],"right_children":[2,4,-1,6,-1,8,-1,-1,-1],"split_conditions":[2.0425165E-1,8.626391E-2,-2.9440517E-2,1.458382E-1,4.207484E-2,3.425894E-2,-3.4114476E-2,2.80907E-2,-9.482144E-3],"split_indices":[15408,15408,0,1518,0,947,0,0,0],"split_type":[0,0,0,0,0,0,0,0,0],"sum_hessian":[5.258719E0,4.252255E0,1.0064638E0,3.215899E0,1.036356E0,2.2029128E0,1.0129862E0,1.1761458E0,1.026767E0],"tree_param":{"num_deleted":"0","num_feature":"16336","num_nodes":"9","size_leaf_vector":"0"}},{"base_weights":[-5.333792E-4,-4.4268735E-2,8.452279E-2,-9.531366E-2,6.693941E-2,-1.6427167E-1,4.4796843E-2],"categories":[],"categories_nodes":[],"categories_segments":[],"categories_sizes":[],"default_left":[true,true,false,true,false,false,false],"id":55,"left_children":[1,3,-1,5,-1,-1,-1],"loss_changes":[2.6925247E-2,3.346975E-2,0E0,4.2946655E-2,0E0,0E0,0E0],"parents":[2147483647,0,0,1,1,3,3],"right_children":[2,4,-1,6,-1,-1,-1],"split_conditions":[9.666255E-2,2.350884E-1,2.5356838E-2,1.6649222E-1,2.0081826E-2,-4.9281504E-2,1.3439054E-2],"split_indices":[5310,6255,0,2900,0,0,0],"split_type":[0,0,0,0,0,0,0],"sum_hessian":[5.2321954E0,3.7721267E0,1.4600687E0,2.6833742E0,1.0887525E0,1.6827391E0,1.000635E0],"tree_param":{"num_deleted":"0","num_feature":"16336","num_nodes":"7","size_leaf_vector":"0"}},{"base_weights":[1.0897076E-3,3.728252E-2,-9.361516E-2,-3.5497442E-2,1.716364E-1,-9.1432676E-2,7.104115E-2,-2.3472232E-3,-1.3439183E-1],"categories":[],"categories_nodes":[],"categories_segments":[],"categories_sizes":[],"default_left":[true,true,false,true,false,true,false,false,false],"id":56,"left_children":[1,3,-1,5,-1,7,-1,-1,-1],"loss_changes":[2.4774292E-2,5.7016015E-2,0E0,3.156361E-2,0E0,1.19143035E-2,0E0,0E0,0E0],"parents":[2147483647,0,0,1,1,3,3,5,5],"right_children":[2,4,-1,6,-1,8,-1,-1,-1],"split_conditions":[1.5106209E-1,2.5324598E-1,-2.8084548E-2,1.4859328E-1,5.149092E-2,3.425894E-2,2.1312347E-2,-7.04167E-4,-4.031755E-2],"split_indices":[5310,5444,0,15408,0,947,0,0,0],"split_type":[0,0,0,0,0,0,0,0,0],"sum_hessian":[5.2095532E0,4.207809E0,1.0017445E0,3.206583E0,1.0012257E0,2.19562E0,1.0109631E0,1.0574332E0,1.1381868E0],"tree_param":{"num_deleted":"0","num_feature":"16336","num_nodes":"9","size_leaf_vector":"0"}},{"base_weights":[1.3486189E-3,3.9647616E-2,-9.315202E-2,-2.5426926E-2,1.5032376E-1,5.9882E-2,-1.407568E-1,-8.648274E-3,9.86089E-2],"categories":[],"categories_nodes":[],"categories_segments":[],"categories_sizes":[],"default_left":[true,true,false,true,false,true,false,false,false],"id":57,"left_children":[1,3,-1,5,-1,7,-1,-1,-1],"loss_changes":[2.6077077E-2,4.057102E-2,0E0,4.8457403E-2,0E0,8.921304E-3,0E0,0E0,0E0],"parents":[2147483647,0,0,1,1,3,3,5,5],"right_children":[2,4,-1,6,-1,8,-1,-1,-1],"split_conditions":[1.968985E-1,5.971387E-2,-2.7945606E-2,3.3860497E-2,4.509713E-2,1.0212059E-1,-4.222704E-2,-2.5944822E-3,2.9582672E-2],"split_indices":[15408,947,0,947,0,1518,0,0,0],"split_type":[0,0,0,0,0,0,0,0,0],"sum_hessian":[5.1846066E0,4.102433E0,1.0821732E0,3.0684984E0,1.0339347E0,2.0401707E0,1.0283277E0,1.0170707E0,1.0231001E0],"tree_param":{"num_deleted":"0","num_feature":"16336","num_nodes":"9","size_leaf_vector":"0"}},{"base_weights":[1.2407271E-3,-3.878919E-2,7.8030095E-2,2.3228154E-2,-1.3016209E-1,8.2638726E-2,-4.2806953E-2],"categories":[],"categories_nodes":[],"categories_segments":[],"categories_sizes":[],"default_left":[true,true,false,true,false,false,false],"id":58,"left_children":[1,3,-1,5,-1,-1,-1],"loss_changes":[2.1935508E-2,2.9722214E-2,0E0,1.7877415E-2,0E0,0E0,0E0],"parents":[2147483647,0,0,1,1,3,3],"right_children":[2,4,-1,6,-1,-1,-1],"split_conditions":[9.666255E-2,6.650413E-2,2.340903E-2,3.425894E-2,-3.9048627E-2,2.4791619E-2,-1.2842086E-2],"split_indices":[5310,5444,0,947,0,0,0],"split_type":[0,0,0,0,0,0,0],"sum_hessian":[5.151454E0,3.7115195E0,1.4399343E0,2.6551692E0,1.0563502E0,1.2653346E0,1.3898346E0],"tree_param":{"num_deleted":"0","num_feature":"16336","num_nodes":"7","size_leaf_vector":"0"}},{"base_weights":[2.3878609E-4,-6.756969E-2,4.208032E-2,1.0585274E-1,-8.4573194E-2,-1.4251986E-2,1.8055305E-1],"categories":[],"categories_nodes":[],"categories_segments":[],"categories_sizes":[],"default_left":[true,false,true,true,false,false,false],"id":59,"left_children":[1,-1,3,5,-1,-1,-1],"loss_changes":[2.02494E-2,0E0,4.4572797E-2,3.287409E-2,0E0,0E0,0E0],"parents":[2147483647,0,0,2,2,3,3],"right_children":[2,-1,4,6,-1,-1,-1],"split_conditions":[9.9593416E-2,-2.0270906E-2,2.312491E-1,1.2589079E-1,-2.537196E-2,-4.275596E-3,5.416592E-2],"split_indices":[1518,0,6255,2900,0,0,0],"split_type":[0,0,0,0,0,0,0],"sum_hessian":[5.1349154E0,1.7248024E0,3.410113E0,2.377321E0,1.0327921E0,1.2219136E0,1.1554074E0],"tree_param":{"num_deleted":"0","num_feature":"16336","num_nodes":"7","size_leaf_vector":"0"}},{"base_weights":[8.9039863E-4,3.432309E-2,-8.1683576E-2,-2.4867006E-2,1.3499337E-1,4.8828136E-2,-1.1344491E-1],"categories":[],"categories_nodes":[],"categories_segments":[],"categories_sizes":[],"default_left":[true,true,false,true,false,false,false],"id":60,"left_children":[1,3,-1,5,-1,-1,-1],"loss_changes":[1.9685896E-2,3.348998E-2,0E0,3.18399E-2,0E0,0E0,0E0],"parents":[2147483647,0,0,1,1,3,3],"right_children":[2,4,-1,6,-1,-1,-1],"split_conditions":[1.968985E-1,5.971387E-2,-2.4505073E-2,1.6666667E-1,4.0498015E-2,1.4648441E-2,-3.4033474E-2],"split_indices":[15408,947,0,16177,0,0,0],"split_type":[0,0,0,0,0,0,0],"sum_hessian":[5.115278E0,4.057006E0,1.058272E0,3.0290382E0,1.0279676E0,1.8983781E0,1.1306599E0],"tree_param":{"num_deleted":"0","num_feature":"16336","num_nodes":"7","size_leaf_vector":"0"}},{"base_weights":[5.815095E-5,4.0352885E-2,-7.831607E-2,1.1210096E-1,-7.078344E-2,-3.8122077E-2,2.1467838E-1],"categories":[],"categories_nodes":[],"categories_segments":[],"categories_sizes":[],"default_left":[true,true,false,true,false,false,false],"id":61,"left_children":[1,3,-1,5,-1,-1,-1],"loss_changes":[2.2410674E-2,4.5298386E-2,0E0,5.8026273E-2,0E0,0E0,0E0],"parents":[2147483647,0,0,1,1,3,3],"right_children":[2,4,-1,6,-1,-1,-1],"split_conditions":[1.458382E-1,1.6230568E-1,-2.3494823E-2,2.1385187E-1,-2.1235032E-2,-1.14366235E-2,6.440352E-2],"split_indices":[1518,2900,0,8284,0,0,0],"split_type":[0,0,0,0,0,0,0],"sum_hessian":[5.095623E0,3.685773E0,1.4098501E0,2.2345188E0,1.4512541E0,1.1616533E0,1.0728654E0],"tree_param":{"num_deleted":"0","num_feature":"16336","num_nodes":"7","size_leaf_vector":"0"}},{"base_weights":[1.4655812E-3,-3.9519303E-2,6.77359E-2,3.918669E-2,-1.1762742E-1],"categories":[],"categories_nodes":[],"categories_segments":[],"categories_sizes":[],"default_left":[true,true,false,false,false],"id":62,"left_children":[1,3,-1,-1,-1],"loss_changes":[1.9159783E-2,3.154318E-2,0E0,0E0,0E0],"parents":[2147483647,0,0,1,1],"right_children":[2,4,-1,-1,-1],"split_conditions":[1.8117088E-1,1.0329872E-1,2.0320771E-2,1.1756008E-2,-3.5288226E-2],"split_indices":[5172,6255,0,0,0],"split_type":[0,0,0,0,0],"sum_hessian":[5.0686345E0,3.381198E0,1.6874368E0,1.9323542E0,1.4488436E0],"tree_param":{"num_deleted":"0","num_feature":"16336","num_nodes":"5","size_leaf_vector":"0"}},{"base_weights":[4.6448407E-4,3.504946E-2,-6.687411E-2,-4.8717473E-2,1.3083124E-1,-1.19983524E-1,4.9815495E-2],"categories":[],"categories_nodes":[],"categories_segments":[],"categories_sizes":[],"default_left":[true,true,false,true,false,false,false],"id":63,"left_children":[1,3,-1,5,-1,-1,-1],"loss_changes":[1.6445903E-2,4.3735765E-2,0E0,2.8537514E-2,0E0,0E0,0E0],"parents":[2147483647,0,0,1,1,3,3],"right_children":[2,4,-1,6,-1,-1,-1],"split_conditions":[1.458382E-1,2.2221532E-1,-2.0062234E-2,1.0037024E-1,3.9249375E-2,-3.599506E-2,1.4944649E-2],"split_indices":[1518,6255,0,1518,0,0,0],"split_type":[0,0,0,0,0,0,0],"sum_hessian":[5.05521E0,3.6566603E0,1.3985497E0,2.212802E0,1.4438584E0,1.1577415E0,1.0550604E0],"tree_param":{"num_deleted":"0","num_feature":"16336","num_nodes":"7","size_leaf_vector":"0"}},{"base_weights":[1.8704716E-6,3.0027222E-2,-7.3928796E-2,-2.3772513E-2,1.2179641E-1,4.865384E-2,-1.1984368E-1],"categories":[],"categories_nodes":[],"categories_segments":[],"categories_sizes":[],"default_left":[true,true,false,true,false,false,false],"id":64,"left_children":[1,3,-1,5,-1,-1,-1],"loss_changes":[1.5618013E-2,2.759906E-2,0E0,3.3600993E-2,0E0,0E0,0E0],"parents":[2147483647,0,0,1,1,3,3],"right_children":[2,4,-1,6,-1,-1,-1],"split_conditions":[1.968985E-1,5.971387E-2,-2.2178639E-2,3.3860497E-2,3.6538925E-2,1.4596153E-2,-3.5953104E-2],"split_indices":[15408,947,0,947,0,0,0],"split_type":[0,0,0,0,0,0,0],"sum_hessian":[5.0357566E0,4.0036187E0,1.0321376E0,2.991061E0,1.0125579E0,1.9868069E0,1.004254E0],"tree_param":{"num_deleted":"0","num_feature":"16336","num_nodes":"7","size_leaf_vector":"0"}},{"base_weights":[-1.1811451E-3,-4.0153664E-2,6.5574095E-2,-7.835558E-2,4.489367E-2,-1.5727272E-4,-1.2534128E-1],"categories":[],"categories_nodes":[],"categories_segments":[],"categories_sizes":[],"default_left":[true,true,false,true,false,false,false],"id":65,"left_children":[1,3,-1,5,-1,-1,-1],"loss_changes":[1.828343E-2,1.787297E-2,0E0,1.2520893E-2,0E0,0E0,0E0],"parents":[2147483647,0,0,1,1,3,3],"right_children":[2,4,-1,6,-1,-1,-1],"split_conditions":[1.691832E-1,5.552975E-2,1.967223E-2,1.032961E-1,1.3468102E-2,-4.7181817E-5,-3.7602387E-2],"split_indices":[15408,947,0,6255,0,0,0],"split_type":[0,0,0,0,0,0,0],"sum_hessian":[5.015633E0,3.418415E0,1.597218E0,2.4131494E0,1.0052656E0,1.2823244E0,1.130825E0],"tree_param":{"num_deleted":"0","num_feature":"16336","num_nodes":"7","size_leaf_vector":"0"}},{"base_weights":[-1.6095358E-3,-3.590064E-2,6.47533E-2,-8.074571E-2,6.0427368E-2,-1.3628818E-1,2.9423187E-2],"categories":[],"categories_nodes":[],"categories_segments":[],"categories_sizes":[],"default_left":[true,true,false,true,false,false,false],"id":66,"left_children":[1,3,-1,5,-1,-1,-1],"loss_changes":[1.5993416E-2,2.4765683E-2,0E0,2.5850145E-2,0E0,0E0,0E0],"parents":[2147483647,0,0,1,1,3,3],"right_children":[2,4,-1,6,-1,-1,-1],"split_conditions":[9.666255E-2,2.350884E-1,1.9425992E-2,1.3789076E-1,1.812821E-2,-4.0886454E-2,8.826956E-3],"split_indices":[5310,6255,0,1518,0,0,0],"split_type":[0,0,0,0,0,0,0],"sum_hessian":[5.0065036E0,3.6035147E0,1.4029888E0,2.5691986E0,1.034316E0,1.550446E0,1.0187527E0],"tree_param":{"num_deleted":"0","num_feature":"16336","num_nodes":"7","size_leaf_vector":"0"}},{"base_weights":[-2.559157E-4,3.6063645E-2,-7.012416E-2,-3.266876E-2,1.4127974E-1,3.7003495E-2,-9.975181E-2],"categories":[],"categories_nodes":[],"categories_segments":[],"categories_sizes":[],"default_left":[true,true,false,true,false,false,false],"id":67,"left_children":[1,3,-1,5,-1,-1,-1],"loss_changes":[1.7734827E-2,3.790397E-2,0E0,2.0500444E-2,0E0,0E0,0E0],"parents":[2147483647,0,0,1,1,3,3],"right_children":[2,4,-1,6,-1,-1,-1],"split_conditions":[1.458382E-1,2.4979271E-1,-2.1037247E-2,1.648324E-1,4.2383924E-2,1.1101048E-2,-2.9925544E-2],"split_indices":[1518,5444,0,2900,0,0,0],"split_type":[0,0,0,0,0,0,0],"sum_hessian":[4.992273E0,3.6031063E0,1.3891667E0,2.5964704E0,1.0066359E0,1.4936072E0,1.1028632E0],"tree_param":{"num_deleted":"0","num_feature":"16336","num_nodes":"7","size_leaf_vector":"0"}},{"base_weights":[2.4203179E-4,3.0945031E-2,-7.512216E-2,7.466823E-2,-5.0293922E-2,1.0223316E-1,4.722858E-3],"categories":[],"categories_nodes":[],"categories_segments":[],"categories_sizes":[],"default_left":[true,true,false,true,false,false,false],"id":68,"left_children":[1,3,-1,5,-1,-1,-1],"loss_changes":[1.6149705E-2,2.1350376E-2,0E0,6.5020584E-3,0E0,0E0,0E0],"parents":[2147483647,0,0,1,1,3,3],"right_children":[2,4,-1,6,-1,-1,-1],"split_conditions":[1.968985E-1,1.6666667E-1,-2.253665E-2,1.4129624E-1,-1.5088177E-2,3.0669948E-2,1.4168574E-3],"split_indices":[15408,16177,0,1518,0,0,0],"split_type":[0,0,0,0,0,0,0],"sum_hessian":[4.9747643E0,3.9535153E0,1.021249E0,2.6227956E0,1.3307197E0,1.5502425E0,1.0725532E0],"tree_param":{"num_deleted":"0","num_feature":"16336","num_nodes":"7","size_leaf_vector":"0"}},{"base_weights":[-7.5664034E-4,-3.6807097E-2,5.8638465E-2,3.6407605E-2,-1.1023508E-1],"categories":[],"categories_nodes":[],"categories_segments":[],"categories_sizes":[],"default_left":[true,true,false,false,false],"id":69,"left_children":[1,3,-1,-1,-1],"loss_changes":[1.4928041E-2,2.7267706E-2,0E0,0E0,0E0],"parents":[2147483647,0,0,1,1],"right_children":[2,4,-1,-1,-1],"split_conditions":[1.8117088E-1,1.0329872E-1,1.759154E-2,1.0922282E-2,-3.3070527E-2],"split_indices":[5172,6255,0,0,0],"split_type":[0,0,0,0,0],"sum_hessian":[4.9637613E0,3.3255727E0,1.6381888E0,1.9176577E0,1.407915E0],"tree_param":{"num_deleted":"0","num_feature":"16336","num_nodes":"5","size_leaf_vector":"0"}},{"base_weights":[-1.3244725E-3,-3.7242536E-2,6.030412E-2,3.2467153E-2,-7.441282E-2,-8.644993E-3,-1.01357535E-1],"categories":[],"categories_nodes":[],"categories_segments":[],"categories_sizes":[],"default_left":[true,true,false,false,true,false,false],"id":70,"left_children":[1,3,-1,-1,5,-1,-1],"loss_changes":[1.542229E-2,1.376236E-2,0E0,0E0,4.723264E-3,0E0,0E0],"parents":[2147483647,0,0,1,1,4,4],"right_children":[2,4,-1,-1,6,-1,-1],"split_conditions":[1.691832E-1,1.0422723E-1,1.8091237E-2,9.740146E-3,3.8355634E-2,-2.5934982E-3,-3.0407261E-2],"split_indices":[15408,1518,0,0,461,0,0],"split_type":[0,0,0,0,0,0,0],"sum_hessian":[4.9525356E0,3.3789356E0,1.5736E0,1.2191164E0,2.1598191E0,1.0115721E0,1.148247E0],"tree_param":{"num_deleted":"0","num_feature":"16336","num_nodes":"7","size_leaf_vector":"0"}},{"base_weights":[-1.818192E-3,-6.77538E-2,3.4833115E-2,-4.272584E-2,1.4002888E-1,-1.1174767E-1,5.9530083E-2],"categories":[],"categories_nodes":[],"categories_segments":[],"categories_sizes":[],"default_left":[true,false,true,true,false,false,false],"id":71,"left_children":[1,-1,3,5,-1,-1,-1],"loss_changes":[1.6725538E-2,0E0,4.2543672E-2,3.0265173E-2,0E0,0E0,0E0],"parents":[2147483647,0,0,2,2,3,3],"right_children":[2,-1,4,6,-1,-1,-1],"split_conditions":[9.470746E-2,-2.0326141E-2,8.3403505E-2,1.21552564E-1,4.2008664E-2,-3.35243E-2,1.7859025E-2],"split_indices":[1518,0,5108,2900,0,0,0],"split_type":[0,0,0,0,0,0,0],"sum_hessian":[4.944429E0,1.4633181E0,3.481111E0,2.3455923E0,1.1355187E0,1.3449439E0,1.0006485E0],"tree_param":{"num_deleted":"0","num_feature":"16336","num_nodes":"7","size_leaf_vector":"0"}},{"base_weights":[-2.7044944E-4,2.9134082E-2,-7.204974E-2,-2.1929694E-2,9.674084E-2,6.866315E-2,-9.309924E-2],"categories":[],"categories_nodes":[],"categories_segments":[],"categories_sizes":[],"default_left":[true,true,false,true,false,false,false],"id":72,"left_children":[1,3,-1,5,-1,-1,-1],"loss_changes":[1.4601923E-2,1.908701E-2,0E0,2.9699396E-2,0E0,0E0,0E0],"parents":[2147483647,0,0,1,1,3,3],"right_children":[2,4,-1,6,-1,-1,-1],"split_conditions":[1.968985E-1,5.2041817E-2,-2.1614922E-2,1.0407585E-1,2.9022254E-2,2.0598946E-2,-2.7929772E-2],"split_indices":[15408,947,0,1518,0,0,0],"split_type":[0,0,0,0,0,0,0],"sum_hessian":[4.923721E0,3.9143252E0,1.0093956E0,2.6149027E0,1.2994225E0,1.165956E0,1.4489467E0],"tree_param":{"num_deleted":"0","num_feature":"16336","num_nodes":"7","size_leaf_vector":"0"}},{"base_weights":[-1.8967222E-4,-6.3351326E-2,3.469505E-2,9.426956E-2,-5.8480386E-2,1.5181518E-1,-9.745468E-3],"categories":[],"categories_nodes":[],"categories_segments":[],"categories_sizes":[],"default_left":[true,false,true,true,false,false,false],"id":73,"left_children":[1,-1,3,5,-1,-1,-1],"loss_changes":[1.5217181E-2,0E0,3.0228574E-2,2.002805E-2,0E0,0E0,0E0],"parents":[2147483647,0,0,2,2,3,3],"right_children":[2,-1,4,6,-1,-1,-1],"split_conditions":[9.470746E-2,-1.90054E-2,1.458382E-1,3.4358084E-2,-1.7544117E-2,4.5544554E-2,-2.9236407E-3],"split_indices":[1518,0,1518,947,0,0,0],"split_type":[0,0,0,0,0,0,0],"sum_hessian":[4.90875E0,1.4561862E0,3.452564E0,2.0988553E0,1.3537086E0,1.0554076E0,1.0434477E0],"tree_param":{"num_deleted":"0","num_feature":"16336","num_nodes":"7","size_leaf_vector":"0"}},{"base_weights":[9.319128E-4,-3.150231E-2,5.594506E-2,-7.248119E-2,3.2730687E-2],"categories":[],"categories_nodes":[],"categories_segments":[],"categories_sizes":[],"default_left":[true,true,false,false,false],"id":74,"left_children":[1,3,-1,-1,-1],"loss_changes":[1.2271389E-2,1.3809118E-2,0E0,0E0,0E0],"parents":[2147483647,0,0,1,1],"right_children":[2,4,-1,-1,-1],"split_conditions":[1.691832E-1,1.3755755E-1,1.6783519E-2,-2.174436E-2,9.819207E-3],"split_indices":[15408,1518,0,0,0],"split_type":[0,0,0,0,0],"sum_hessian":[4.889671E0,3.3449492E0,1.5447214E0,1.9637319E0,1.3812174E0],"tree_param":{"num_deleted":"0","num_feature":"16336","num_nodes":"5","size_leaf_vector":"0"}},{"base_weights":[1.4702423E-3,2.9826684E-2,-6.832092E-2,-2.2253497E-2,8.4521055E-2,-9.130553E-2,5.605405E-2],"categories":[],"categories_nodes":[],"categories_segments":[],"categories_sizes":[],"default_left":[true,true,false,true,false,false,false],"id":75,"left_children":[1,3,-1,5,-1,-1,-1],"loss_changes":[1.3686202E-2,1.5785774E-2,0E0,2.2919329E-2,0E0,0E0,0E0],"parents":[2147483647,0,0,1,1,3,3],"right_children":[2,4,-1,6,-1,-1,-1],"split_conditions":[1.968985E-1,1.3755755E-1,-2.0496277E-2,1.9220173E-1,2.5356317E-2,-2.7391661E-2,1.6816216E-2],"split_indices":[15408,1518,0,8284,0,0,0],"split_type":[0,0,0,0,0,0,0],"sum_hessian":[4.8859243E0,3.8814888E0,1.0044357E0,2.2920861E0,1.5894027E0,1.129819E0,1.1622672E0],"tree_param":{"num_deleted":"0","num_feature":"16336","num_nodes":"7","size_leaf_vector":"0"}},{"base_weights":[4.4716395E-5,3.4573212E-2,-6.629116E-2,-3.4178454E-2,1.1003895E-1,-8.867163E-2,4.0703107E-2],"categories":[],"categories_nodes":[],"categories_segments":[],"categories_sizes":[],"default_left":[true,true,false,true,false,false,false],"id":76,"left_children":[1,3,-1,5,-1,-1,-1],"loss_changes":[1.574713E-2,2.7216058E-2,0E0,1.637549E-2,0E0,0E0,0E0],"parents":[2147483647,0,0,1,1,3,3],"right_children":[2,4,-1,6,-1,-1,-1],"split_conditions":[1.458382E-1,2.2221532E-1,-1.9887349E-2,1.0037024E-1,3.3011686E-2,-2.6601491E-2,1.2210933E-2],"split_indices":[1518,6255,0,1518,0,0,0],"split_type":[0,0,0,0,0,0,0],"sum_hessian":[4.87442E0,3.5206842E0,1.353736E0,2.1285803E0,1.392104E0,1.1254233E0,1.0031569E0],"tree_param":{"num_deleted":"0","num_feature":"16336","num_nodes":"7","size_leaf_vector":"0"}},{"base_weights":[-1.922194E-4,2.9647548E-2,-5.8701877E-2,-6.0885996E-2,1.3488552E-1,-1.04234084E-1,1.3544307E-2],"categories":[],"categories_nodes":[],"categories_segments":[],"categories_sizes":[],"default_left":[true,true,false,true,false,false,false],"id":77,"left_children":[1,3,-1,5,-1,-1,-1],"loss_changes":[1.1973325E-2,5.1524486E-2,0E0,1.1519136E-2,0E0,0E0,0E0],"parents":[2147483647,0,0,1,1,3,3],"right_children":[2,4,-1,6,-1,-1,-1],"split_conditions":[1.1806546E-1,1.9375499E-1,-1.7610563E-2,1.3789076E-1,4.0465657E-2,-3.127023E-2,4.0632924E-3],"split_indices":[8988,8284,0,1518,0,0,0],"split_type":[0,0,0,0,0,0,0],"sum_hessian":[4.861088E0,3.5459504E0,1.3151373E0,2.1326933E0,1.4132571E0,1.0947105E0,1.037983E0],"tree_param":{"num_deleted":"0","num_feature":"16336","num_nodes":"7","size_leaf_vector":"0"}},{"base_weights":[-8.742955E-4,3.5532366E-2,-5.8787756E-2,-2.9416172E-2,1.1488677E-1,3.13237E-2,-7.374687E-2],"categories":[],"categories_nodes":[],"categories_segments":[],"categories_sizes":[],"default_left":[true,true,false,true,false,false,false],"id":78,"left_children":[1,3,-1,5,-1,-1,-1],"loss_changes":[1.4412415E-2,2.5088435E-2,0E0,1.0690714E-2,0E0,0E0,0E0],"parents":[2147483647,0,0,1,1,3,3],"right_children":[2,4,-1,6,-1,-1,-1],"split_conditions":[2.2300622E-1,1.875E-1,-1.7636327E-2,1.0431999E-1,3.4466032E-2,9.397111E-3,-2.2124061E-2],"split_indices":[8284,16081,0,1518,0,0,0],"split_type":[0,0,0,0,0,0,0],"sum_hessian":[4.844877E0,3.2120893E0,1.6327872E0,2.1124425E0,1.0996469E0,1.015061E0,1.0973815E0],"tree_param":{"num_deleted":"0","num_feature":"16336","num_nodes":"7","size_leaf_vector":"0"}},{"base_weights":[9.328131E-5,2.8380167E-2,-5.4087497E-2,8.958046E-2,-6.313429E-2,-2.6492508E-2,1.6612129E-1],"categories":[],"categories_nodes":[],"categories_segments":[],"categories_sizes":[],"default_left":[true,true,false,true,false,false,false],"id":79,"left_children":[1,3,-1,5,-1,-1,-1],"loss_changes":[1.0473201E-2,3.0788615E-2,0E0,3.1964865E-2,0E0,0E0,0E0],"parents":[2147483647,0,0,1,1,3,3],"right_children":[2,4,-1,6,-1,-1,-1],"split_conditions":[1.458382E-1,1.648324E-1,-1.622625E-2,2.1385187E-1,-1.8940289E-2,-7.947753E-3,4.983639E-2],"split_indices":[1518,2900,0,8284,0,0,0],"split_type":[0,0,0,0,0,0,0],"sum_hessian":[4.832022E0,3.487468E0,1.3445543E0,2.1025324E0,1.3849355E0,1.0953416E0,1.007191E0],"tree_param":{"num_deleted":"0","num_feature":"16336","num_nodes":"7","size_leaf_vector":"0"}},{"base_weights":[1.2541846E-3,3.877137E-2,-5.93777E-2,-1.9316718E-2,1.06184185E-1,2.8280457E-2,-5.5871196E-2],"categories":[],"categories_nodes":[],"categories_segments":[],"categories_sizes":[],"default_left":[true,true,false,true,false,false,false],"id":80,"left_children":[1,3,-1,5,-1,-1,-1],"loss_changes":[1.55310705E-2,1.8488301E-2,0E0,6.9751237E-3,0E0,0E0,0E0],"parents":[2147483647,0,0,1,1,3,3],"right_children":[2,4,-1,6,-1,-1,-1],"split_conditions":[2.2300622E-1,1.875E-1,-1.781331E-2,1.0431999E-1,3.1855255E-2,8.484137E-3,-1.6761359E-2],"split_indices":[8284,16081,0,1518,0,0,0],"split_type":[0,0,0,0,0,0,0],"sum_hessian":[4.8155785E0,3.197566E0,1.6180125E0,2.100806E0,1.0967603E0,1.0108877E0,1.0899181E0],"tree_param":{"num_deleted":"0","num_feature":"16336","num_nodes":"7","size_leaf_vector":"0"}},{"base_weights":[1.8762406E-3,3.5641428E-2,-4.655525E-2,6.601557E-2,-2.6670858E-2],"categories":[],"categories_nodes":[],"categories_segments":[],"categories_sizes":[],"default_left":[true,true,false,false,false],"id":81,"left_children":[1,3,-1,-1,-1],"loss_changes":[1.1152375E-2,9.3065165E-3,0E0,0E0,0E0],"parents":[2147483647,0,0,1,1],"right_children":[2,4,-1,-1,-1],"split_conditions":[1.6666667E-1,1.9878441E-1,-1.3966576E-2,1.9804671E-2,-8.001258E-3],"split_indices":[16177,6255,0,0,0],"split_type":[0,0,0,0,0],"sum_hessian":[4.8051057E0,2.986842E0,1.8182635E0,1.9680731E0,1.0187689E0],"tree_param":{"num_deleted":"0","num_feature":"16336","num_nodes":"5","size_leaf_vector":"0"}},{"base_weights":[9.399398E-4,-2.5501138E-2,5.944308E-2,-1.0387352E-1,7.9015836E-2,-1.4073877E-1,-1.3545766E-2],"categories":[],"categories_nodes":[],"categories_segments":[],"categories_sizes":[],"default_left":[true,true,false,true,false,false,false],"id":82,"left_children":[1,3,-1,5,-1,-1,-1],"loss_changes":[1.0488424E-2,4.6662804E-2,0E0,8.466173E-3,0E0,0E0,0E0],"parents":[2147483647,0,0,1,1,3,3],"right_children":[2,4,-1,6,-1,-1,-1],"split_conditions":[1.302441E-1,1.3753882E-1,1.7832924E-2,1.9169495E-1,2.3704752E-2,-4.222163E-2,-4.0637297E-3],"split_indices":[3089,1518,0,8284,0,0,0],"split_type":[0,0,0,0,0,0,0],"sum_hessian":[4.8004E0,3.6946654E0,1.1057343E0,2.114933E0,1.5797327E0,1.105612E0,1.009321E0],"tree_param":{"num_deleted":"0","num_feature":"16336","num_nodes":"7","size_leaf_vector":"0"}},{"base_weights":[-1.9944382E-4,3.2615837E-2,-6.256792E-2,8.8325806E-2,-5.3389475E-2,-1.1655026E-2,1.4761777E-1],"categories":[],"categories_nodes":[],"categories_segments":[],"categories_sizes":[],"default_left":[true,true,false,true,false,false,false],"id":83,"left_children":[1,3,-1,5,-1,-1,-1],"loss_changes":[1.3882113E-2,2.602967E-2,0E0,1.9957796E-2,0E0,0E0,0E0],"parents":[2147483647,0,0,1,1,3,3],"right_children":[2,4,-1,6,-1,-1,-1],"split_conditions":[1.458382E-1,1.648324E-1,-1.8770376E-2,2.119085E-1,-1.6016843E-2,-3.4965079E-3,4.4285335E-2],"split_indices":[1518,2900,0,8284,0,0,0],"split_type":[0,0,0,0,0,0,0],"sum_hessian":[4.785782E0,3.4484303E0,1.3373514E0,2.0764368E0,1.3719937E0,1.0720787E0,1.0043582E0],"tree_param":{"num_deleted":"0","num_feature":"16336","num_nodes":"7","size_leaf_vector":"0"}},{"base_weights":[9.1975566E-4,3.642025E-2,-5.6318562E-2,-1.3970657E-2,9.343894E-2,3.5554912E-2,-5.4911345E-2],"categories":[],"categories_nodes":[],"categories_segments":[],"categories_sizes":[],"default_left":[true,true,false,true,false,false,false],"id":84,"left_children":[1,3,-1,5,-1,-1,-1],"loss_changes":[1.3780032E-2,1.3286268E-2,0E0,8.204505E-3,0E0,0E0,0E0],"parents":[2147483647,0,0,1,1,3,3],"right_children":[2,4,-1,6,-1,-1,-1],"split_conditions":[2.2300622E-1,1.875E-1,-1.689557E-2,1.0431999E-1,2.8031683E-2,1.0666474E-2,-1.6473405E-2],"split_indices":[8284,16081,0,1518,0,0,0],"split_type":[0,0,0,0,0,0,0],"sum_hessian":[4.772128E0,3.1698341E0,1.6022938E0,2.0834994E0,1.0863348E0,1.0024253E0,1.0810741E0],"tree_param":{"num_deleted":"0","num_feature":"16336","num_nodes":"7","size_leaf_vector":"0"}},{"base_weights":[1.5704801E-3,-2.426871E-2,5.6483947E-2,-7.3516555E-2,6.0281657E-2,5.1622256E-3,-1.1434527E-1],"categories":[],"categories_nodes":[],"categories_segments":[],"categories_sizes":[],"default_left":[true,true,false,true,false,false,false],"id":85,"left_children":[1,3,-1,5,-1,-1,-1],"loss_changes":[9.54798E-3,2.3662388E-2,0E0,1.1412773E-2,0E0,0E0,0E0],"parents":[2147483647,0,0,1,1,3,3],"right_children":[2,4,-1,6,-1,-1,-1],"split_conditions":[5.971387E-2,1.691832E-1,1.6945185E-2,1.13445476E-1,1.8084498E-2,1.5486678E-3,-3.4303583E-2],"split_indices":[947,15408,0,1518,0,0,0],"split_type":[0,0,0,0,0,0,0],"sum_hessian":[4.762968E0,3.6184053E0,1.1445626E0,2.369025E0,1.2493805E0,1.1078026E0,1.2612224E0],"tree_param":{"num_deleted":"0","num_feature":"16336","num_nodes":"7","size_leaf_vector":"0"}},{"base_weights":[1.4704553E-3,3.075167E-2,-4.6060987E-2,-1.2749235E-2,8.0335826E-2,2.5149407E-2,-4.5359258E-2],"categories":[],"categories_nodes":[],"categories_segments":[],"categories_sizes":[],"default_left":[true,true,false,true,false,false,false],"id":86,"left_children":[1,3,-1,5,-1,-1,-1],"loss_changes":[9.4233425E-3,9.996267E-3,0E0,4.9457084E-3,0E0,0E0,0E0],"parents":[2147483647,0,0,1,1,3,3],"right_children":[2,4,-1,6,-1,-1,-1],"split_conditions":[2.2300622E-1,1.875E-1,-1.3818297E-2,3.3690475E-2,2.4100749E-2,7.5448225E-3,-1.3607778E-2],"split_indices":[8284,16081,0,461,0,0,0],"split_type":[0,0,0,0,0,0,0],"sum_hessian":[4.7529926E0,3.159588E0,1.5934044E0,2.0787485E0,1.0808396E0,1.0672255E0,1.0115229E0],"tree_param":{"num_deleted":"0","num_feature":"16336","num_nodes":"7","size_leaf_vector":"0"}},{"base_weights":[1.7658124E-3,3.3551756E-2,-4.1660175E-2,-4.240966E-2,1.1912799E-1],"categories":[],"categories_nodes":[],"categories_segments":[],"categories_sizes":[],"default_left":[true,true,false,false,false],"id":87,"left_children":[1,3,-1,-1,-1],"loss_changes":[9.330198E-3,3.0221848E-2,0E0,0E0,0E0],"parents":[2147483647,0,0,1,1],"right_children":[2,4,-1,-1,-1],"split_conditions":[1.6476506E-1,2.1385187E-1,-1.2498053E-2,-1.2722898E-2,3.5738397E-2],"split_indices":[2900,8284,0,0,0],"split_type":[0,0,0,0,0],"sum_hessian":[4.7467365E0,2.871964E0,1.8747727E0,1.7886755E0,1.0832884E0],"tree_param":{"num_deleted":"0","num_feature":"16336","num_nodes":"5","size_leaf_vector":"0"}},{"base_weights":[3.0817988E-3,3.655077E-2,-4.5417503E-2,6.8810016E-2,-2.1886662E-2],"categories":[],"categories_nodes":[],"categories_segments":[],"categories_sizes":[],"default_left":[true,true,false,false,false],"id":88,"left_children":[1,3,-1,-1,-1],"loss_changes":[1.0974186E-2,8.950849E-3,0E0,0E0,0E0],"parents":[2147483647,0,0,1,1],"right_children":[2,4,-1,-1,-1],"split_conditions":[1.6666667E-1,1.4129624E-1,-1.3625251E-2,2.0643005E-2,-6.565999E-3],"split_indices":[16177,1518,0,0,0],"split_type":[0,0,0,0,0],"sum_hessian":[4.7380576E0,2.949202E0,1.7888554E0,1.7858562E0,1.1633459E0],"tree_param":{"num_deleted":"0","num_feature":"16336","num_nodes":"5","size_leaf_vector":"0"}},{"base_weights":[2.238749E-3,-4.2053442E-2,3.1498287E-2,9.0156496E-2,-4.337416E-2],"categories":[],"categories_nodes":[],"categories_segments":[],"categories_sizes":[],"default_left":[true,false,true,false,false],"id":89,"left_children":[1,-1,3,-1,-1],"loss_changes":[8.753722E-3,0E0,2.1582512E-2,0E0,0E0],"parents":[2147483647,0,0,2,2],"right_children":[2,-1,4,-1,-1],"split_conditions":[1.0171215E-1,-1.2616034E-2,1.1220254E-1,2.704695E-2,-1.3012248E-2],"split_indices":[1518,0,6255,0,0],"split_type":[0,0,0,0,0],"sum_hessian":[4.732475E0,1.7086768E0,3.023798E0,1.5810236E0,1.4427744E0],"tree_param":{"num_deleted":"0","num_feature":"16336","num_nodes":"5","size_leaf_vector":"0"}},{"base_weights":[1.8199941E-3,-2.827751E-2,4.9695402E-2,3.618205E-2,-9.4304755E-2],"categories":[],"categories_nodes":[],"categories_segments":[],"categories_sizes":[],"default_left":[true,true,false,false,false],"id":90,"left_children":[1,3,-1,-1,-1],"loss_changes":[9.655318E-3,2.1086844E-2,0E0,0E0,0E0],"parents":[2147483647,0,0,1,1],"right_children":[2,4,-1,-1,-1],"split_conditions":[1.8117088E-1,1.0329872E-1,1.4908621E-2,1.0854615E-2,-2.8291428E-2],"split_indices":[5172,6255,0,0,0],"split_type":[0,0,0,0,0],"sum_hessian":[4.725507E0,3.152806E0,1.572701E0,1.8240641E0,1.3287419E0],"tree_param":{"num_deleted":"0","num_feature":"16336","num_nodes":"5","size_leaf_vector":"0"}},{"base_weights":[8.1721746E-4,2.6154151E-2,-5.666296E-2,-2.797574E-2,9.055375E-2,-9.307456E-2,4.7894426E-2],"categories":[],"categories_nodes":[],"categories_segments":[],"categories_sizes":[],"default_left":[true,true,false,true,false,false,false],"id":91,"left_children":[1,3,-1,5,-1,-1,-1],"loss_changes":[9.808653E-3,1.8751426E-2,0E0,2.071586E-2,0E0,0E0,0E0],"parents":[2147483647,0,0,1,1,3,3],"right_children":[2,4,-1,6,-1,-1,-1],"split_conditions":[3.431604E-1,1.9559185E-1,-1.6998889E-2,1.3789076E-1,2.7166126E-2,-2.792237E-2,1.4368328E-2],"split_indices":[5172,8284,0,1518,0,0,0],"split_type":[0,0,0,0,0,0,0],"sum_hessian":[4.7174153E0,3.6524324E0,1.0649829E0,2.2917423E0,1.36069E0,1.1113826E0,1.1803597E0],"tree_param":{"num_deleted":"0","num_feature":"16336","num_nodes":"7","size_leaf_vector":"0"}},{"base_weights":[-2.9329694E-5,3.1099183E-2,-5.9062634E-2,7.805803E-2,-4.272822E-2,2.3129384E-3,1.14697814E-1],"categories":[],"categories_nodes":[],"categories_segments":[],"categories_sizes":[],"default_left":[true,true,false,true,false,false,false],"id":92,"left_children":[1,3,-1,5,-1,-1,-1],"loss_changes":[1.2324418E-2,1.8561123E-2,0E0,8.1664305E-3,0E0,0E0,0E0],"parents":[2147483647,0,0,1,1,3,3],"right_children":[2,4,-1,6,-1,-1,-1],"split_conditions":[1.458382E-1,1.6230568E-1,-1.771879E-2,1.9229372E-1,-1.2818466E-2,6.9388153E-4,3.4409344E-2],"split_indices":[1518,2900,0,8284,0,0,0],"split_type":[0,0,0,0,0,0,0],"sum_hessian":[4.7071776E0,3.391839E0,1.3153386E0,2.0381463E0,1.3536927E0,1.0110791E0,1.0270673E0],"tree_param":{"num_deleted":"0","num_feature":"16336","num_nodes":"7","size_leaf_vector":"0"}},{"base_weights":[7.871044E-4,3.3411212E-2,-5.190022E-2,6.687838E-2,-2.8089188E-2],"categories":[],"categories_nodes":[],"categories_segments":[],"categories_sizes":[],"default_left":[true,true,false,false,false],"id":93,"left_children":[1,3,-1,-1,-1],"loss_changes":[1.1528319E-2,1.0373794E-2,0E0,0E0,0E0],"parents":[2147483647,0,0,1,1],"right_children":[2,4,-1,-1,-1],"split_conditions":[2.2300622E-1,1.4129624E-1,-1.5570066E-2,2.0063514E-2,-8.426757E-3],"split_indices":[8284,1518,0,0,0],"split_type":[0,0,0,0,0],"sum_hessian":[4.6980634E0,3.1274178E0,1.5706455E0,1.9686667E0,1.1587511E0],"tree_param":{"num_deleted":"0","num_feature":"16336","num_nodes":"5","size_leaf_vector":"0"}},{"base_weights":[-1.3943168E-4,-2.5089169E-2,5.3125426E-2,-6.87126E-2,4.7332034E-2,-1.0933783E-1,8.091632E-3],"categories":[],"categories_nodes":[],"categories_segments":[],"categories_sizes":[],"default_left":[true,true,false,true,false,false,false],"id":94,"left_children":[1,3,-1,5,-1,-1,-1],"loss_changes":[8.896804E-3,1.7643739E-2,0E0,1.1027715E-2,0E0,0E0,0E0],"parents":[2147483647,0,0,1,1,3,3],"right_children":[2,4,-1,6,-1,-1,-1],"split_conditions":[5.971387E-2,1.5739477E-1,1.5937628E-2,4.5656588E-2,1.4199611E-2,-3.280135E-2,2.4274897E-3],"split_indices":[947,15408,0,2900,0,0,0],"split_type":[0,0,0,0,0,0,0],"sum_hessian":[4.6916847E0,3.5553162E0,1.1363688E0,2.2507622E0,1.304554E0,1.1950533E0,1.0557089E0],"tree_param":{"num_deleted":"0","num_feature":"16336","num_nodes":"7","size_leaf_vector":"0"}},{"base_weights":[-1.6014323E-4,-2.8864369E-2,4.6118964E-2,3.0885778E-2,-8.9009486E-2],"categories":[],"categories_nodes":[],"categories_segments":[],"categories_sizes":[],"default_left":[true,true,false,false,false],"id":95,"left_children":[1,3,-1,-1,-1],"loss_changes":[8.881222E-3,1.7565444E-2,0E0,0E0,0E0],"parents":[2147483647,0,0,1,1],"right_children":[2,4,-1,-1,-1],"split_conditions":[1.8117088E-1,1.0329872E-1,1.383569E-2,9.265734E-3,-2.6702847E-2],"split_indices":[5172,6255,0,0,0],"split_type":[0,0,0,0,0],"sum_hessian":[4.683525E0,3.1228821E0,1.5606431E0,1.8106257E0,1.3122563E0],"tree_param":{"num_deleted":"0","num_feature":"16336","num_nodes":"5","size_leaf_vector":"0"}},{"base_weights":[-7.609612E-4,2.3486422E-2,-5.4760665E-2,-2.1797054E-2,7.6849885E-2,-8.5507914E-2,4.9864657E-2],"categories":[],"categories_nodes":[],"categories_segments":[],"categories_sizes":[],"default_left":[true,true,false,true,false,false,false],"id":96,"left_children":[1,3,-1,5,-1,-1,-1],"loss_changes":[8.718677E-3,1.2832732E-2,0E0,1.9224422E-2,0E0,0E0,0E0],"parents":[2147483647,0,0,1,1,3,3],"right_children":[2,4,-1,6,-1,-1,-1],"split_conditions":[3.431604E-1,1.9559185E-1,-1.64282E-2,1.3789076E-1,2.3054967E-2,-2.5652375E-2,1.4959398E-2],"split_indices":[5172,8284,0,1518,0,0,0],"split_type":[0,0,0,0,0,0,0],"sum_hessian":[4.676508E0,3.6173017E0,1.0592062E0,2.2767878E0,1.340514E0,1.1029731E0,1.1738147E0],"tree_param":{"num_deleted":"0","num_feature":"16336","num_nodes":"7","size_leaf_vector":"0"}},{"base_weights":[-1.260305E-3,2.6810242E-2,-5.3803667E-2,-2.1621116E-2,9.426845E-2,-6.564762E-2,3.6566216E-2],"categories":[],"categories_nodes":[],"categories_segments":[],"categories_sizes":[],"default_left":[true,true,false,true,false,false,false],"id":97,"left_children":[1,3,-1,5,-1,-1,-1],"loss_changes":[9.802373E-3,1.6288547E-2,0E0,1.098858E-2,0E0,0E0,0E0],"parents":[2147483647,0,0,1,1,3,3],"right_children":[2,4,-1,6,-1,-1,-1],"split_conditions":[1.458382E-1,1.205356E-1,-1.6141102E-2,1.8870167E-1,2.8280536E-2,-1.9694285E-2,1.0969865E-2],"split_indices":[1518,1518,0,6255,0,0,0],"split_type":[0,0,0,0,0,0,0],"sum_hessian":[4.668022E0,3.361786E0,1.3062363E0,2.3523872E0,1.0093986E0,1.2661579E0,1.0862293E0],"tree_param":{"num_deleted":"0","num_feature":"16336","num_nodes":"7","size_leaf_vector":"0"}},{"base_weights":[-2.8045295E-4,3.1736683E-2,-5.1478E-2,6.434014E-2,-2.5989976E-2],"categories":[],"categories_nodes":[],"categories_segments":[],"categories_sizes":[],"default_left":[true,true,false,false,false],"id":98,"left_children":[1,3,-1,-1,-1],"loss_changes":[1.0910206E-2,9.389488E-3,0E0,0E0,0E0],"parents":[2147483647,0,0,1,1],"right_children":[2,4,-1,-1,-1],"split_conditions":[2.2300622E-1,1.3887411E-1,-1.54434005E-2,1.9302042E-2,-7.796993E-3],"split_indices":[8284,1518,0,0,0],"split_type":[0,0,0,0,0],"sum_hessian":[4.6591463E0,3.100387E0,1.5587592E0,1.9081291E0,1.192258E0],"tree_param":{"num_deleted":"0","num_feature":"16336","num_nodes":"5","size_leaf_vector":"0"}},{"base_weights":[-8.936961E-4,3.4797784E-2,-3.755858E-2,-3.4218475E-2,8.211938E-2,3.3015568E-2,-9.870589E-2],"categories":[],"categories_nodes":[],"categories_segments":[],"categories_sizes":[],"default_left":[true,true,true,false,false,false,false],"id":99,"left_children":[1,3,5,-1,-1,-1,-1],"loss_changes":[8.704869E-3,1.386104E-2,1.7368076E-2,0E0,0E0,0E0,0E0],"parents":[2147483647,0,0,1,1,2,2],"right_children":[2,4,6,-1,-1,-1,-1],"split_conditions":[1.1319883E-1,1.3789076E-1,1.3687807E-1,-1.0265543E-2,2.4635816E-2,9.9046705E-3,-2.9611768E-2],"split_indices":[8284,1518,2900,0,0,0,0],"split_type":[0,0,0,0,0,0,0],"sum_hessian":[4.6531997E0,2.3837037E0,2.269496E0,1.0822254E0,1.3014783E0,1.2671078E0,1.0023881E0],"tree_param":{"num_deleted":"0","num_feature":"16336","num_nodes":"7","size_leaf_vector":"0"}},{"base_weights":[-1.5824182E-3,-2.6385486E-2,5.435941E-2,-9.125534E-2,6.265383E-2,-2.5336703E-2,-1.1129942E-1],"categories":[],"categories_nodes":[],"categories_segments":[],"categories_sizes":[],"default_left":[true,true,false,true,false,false,false],"id":100,"left_children":[1,3,-1,5,-1,-1,-1],"loss_changes":[9.267036E-3,3.2196097E-2,0E0,1.2220535E-3,0E0,0E0,0E0],"parents":[2147483647,0,0,1,1,3,3],"right_children":[2,4,-1,6,-1,-1,-1],"split_conditions":[1.302441E-1,1.3753882E-1,1.6307823E-2,9.418298E-2,1.879615E-2,-7.601011E-3,-3.3389825E-2],"split_indices":[3089,1518,0,1518,0,0,0],"split_type":[0,0,0,0,0,0,0],"sum_hessian":[4.6450977E0,3.5842712E0,1.0608267E0,2.0591693E0,1.5251019E0,1.0080525E0,1.0511167E0],"tree_param":{"num_deleted":"0","num_feature":"16336","num_nodes":"7","size_leaf_vector":"0"}},{"base_weights":[-2.1729665E-3,2.9323727E-2,-6.0401585E-2,6.592357E-2,-4.2477295E-2,-4.184904E-2,1.4072612E-1],"categories":[],"categories_nodes":[],"categories_segments":[],"categories_sizes":[],"default_left":[true,true,false,true,false,false,false],"id":101,"left_children":[1,3,-1,5,-1,-1,-1],"loss_changes":[1.2106761E-2,1.4180216E-2,0E0,3.217175E-2,0E0,0E0,0E0],"parents":[2147483647,0,0,1,1,3,3],"right_children":[2,4,-1,6,-1,-1,-1],"split_conditions":[1.458382E-1,1.0236891E-1,-1.8120477E-2,1.7562066E-1,-1.2743189E-2,-1.2554713E-2,4.2217836E-2],"split_indices":[1518,8988,0,8284,0,0,0],"split_type":[0,0,0,0,0,0,0],"sum_hessian":[4.6355023E0,3.3304293E0,1.3050734E0,2.260182E0,1.0702473E0,1.106508E0,1.1536739E0],"tree_param":{"num_deleted":"0","num_feature":"16336","num_nodes":"7","size_leaf_vector":"0"}},{"base_weights":[-1.7145795E-3,3.5460994E-2,-3.982594E-2,-1.6977953E-2,6.739487E-2,2.1839015E-2,-8.882636E-2],"categories":[],"categories_nodes":[],"categories_segments":[],"categories_sizes":[],"default_left":[true,true,true,false,false,false,false],"id":102,"left_children":[1,3,5,-1,-1,-1,-1],"loss_changes":[9.376358E-3,6.795078E-3,1.1749973E-2,0E0,0E0,0E0,0E0],"parents":[2147483647,0,0,1,1,2,2],"right_children":[2,4,6,-1,-1,-1,-1],"split_conditions":[1.1319883E-1,1.3789076E-1,1.3528442E-1,-5.093386E-3,2.0218462E-2,6.551705E-3,-2.6647909E-2],"split_indices":[8284,1518,2900,0,0,0,0],"split_type":[0,0,0,0,0,0,0],"sum_hessian":[4.6211367E0,2.3744915E0,2.2466455E0,1.07597E0,1.2985213E0,1.2402071E0,1.0064385E0],"tree_param":{"num_deleted":"0","num_feature":"16336","num_nodes":"7","size_leaf_vector":"0"}},{"base_weights":[-2.0941417E-3,2.8502654E-2,-5.8513775E-2,-1.4813513E-2,8.551897E-2,2.4402283E-2,-5.2260198E-2],"categories":[],"categories_nodes":[],"categories_segments":[],"categories_sizes":[],"default_left":[true,true,false,true,false,false,false],"id":103,"left_children":[1,3,-1,5,-1,-1,-1],"loss_changes":[1.136173E-2,1.1919918E-2,0E0,6.1265863E-3,0E0,0E0,0E0],"parents":[2147483647,0,0,1,1,3,3],"right_children":[2,4,-1,6,-1,-1,-1],"split_conditions":[1.458382E-1,2.1372429E-1,-1.7554134E-2,1.6666667E-1,2.5655692E-2,7.3206853E-3,-1.567806E-2],"split_indices":[1518,5444,0,16177,0,0,0],"split_type":[0,0,0,0,0,0,0],"sum_hessian":[4.615569E0,3.313463E0,1.3021064E0,2.3035836E0,1.0098794E0,1.295366E0,1.0082176E0],"tree_param":{"num_deleted":"0","num_feature":"16336","num_nodes":"7","size_leaf_vector":"0"}},{"base_weights":[-1.5146835E-3,-3.063641E-2,4.445122E-2,2.131692E-2,-8.440487E-2],"categories":[],"categories_nodes":[],"categories_segments":[],"categories_sizes":[],"default_left":[true,true,false,false,false],"id":104,"left_children":[1,3,-1,-1,-1],"loss_changes":[8.868855E-3,1.3043059E-2,0E0,0E0,0E0],"parents":[2147483647,0,0,1,1],"right_children":[2,4,-1,-1,-1],"split_conditions":[7.8755125E-2,1.1220254E-1,1.3335367E-2,6.395076E-3,-2.5321463E-2],"split_indices":[5172,6255,0,0,0],"split_type":[0,0,0,0,0],"sum_hessian":[4.608093E0,3.0250607E0,1.583032E0,1.8454512E0,1.1796094E0],"tree_param":{"num_deleted":"0","num_feature":"16336","num_nodes":"5","size_leaf_vector":"0"}},{"base_weights":[-2.0708977E-3,2.370887E-2,-4.9488597E-2,-2.2774557E-2,7.4669085E-2,-4.589154E-2,1.1684519E-2],"categories":[],"categories_nodes":[],"categories_segments":[],"categories_sizes":[],"default_left":[true,true,false,true,false,false,false],"id":105,"left_children":[1,3,-1,5,-1,-1,-1],"loss_changes":[8.021447E-3,1.1898686E-2,0E0,2.9401407E-3,0E0,0E0,0E0],"parents":[2147483647,0,0,1,1,3,3],"right_children":[2,4,-1,6,-1,-1,-1],"split_conditions":[1.458382E-1,2.2221532E-1,-1.4846579E-2,9.777458E-2,2.2400726E-2,-1.3767462E-2,3.505356E-3],"split_indices":[1518,6255,0,1518,0,0,0],"split_type":[0,0,0,0,0,0,0],"sum_hessian":[4.6021194E0,3.305179E0,1.2969402E0,2.017764E0,1.2874149E0,1.0090623E0,1.0087019E0],"tree_param":{"num_deleted":"0","num_feature":"16336","num_nodes":"7","size_leaf_vector":"0"}},{"base_weights":[-1.9365234E-3,2.1655971E-2,-5.370921E-2,-3.231545E-2,5.6559157E-2,1.09787874E-1,-2.106934E-2],"categories":[],"categories_nodes":[],"categories_segments":[],"categories_sizes":[],"default_left":[true,true,false,false,true,false,false],"id":106,"left_children":[1,3,-1,-1,5,-1,-1],"loss_changes":[7.998935E-3,1.0412475E-2,0E0,0E0,1.52510125E-2,0E0,0E0],"parents":[2147483647,0,0,1,1,4,4],"right_children":[2,4,-1,-1,6,-1,-1],"split_conditions":[3.431604E-1,2.6995542E-2,-1.6112763E-2,-9.694636E-3,5.319574E-2,3.2936364E-2,-6.3208025E-3],"split_indices":[5172,461,0,0,947,0,0],"split_type":[0,0,0,0,0,0,0],"sum_hessian":[4.596485E0,3.5572011E0,1.0392842E0,1.4261147E0,2.1310863E0,1.0184664E0,1.1126201E0],"tree_param":{"num_deleted":"0","num_feature":"16336","num_nodes":"7","size_leaf_vector":"0"}},{"base_weights":[-1.2022213E-3,3.3708327E-2,-3.7150815E-2,-2.1228373E-2,6.857272E-2,1.4285305E-2,-7.565327E-2],"categories":[],"categories_nodes":[],"categories_segments":[],"categories_sizes":[],"default_left":[true,true,true,false,false,false,false],"id":107,"left_children":[1,3,5,-1,-1,-1,-1],"loss_changes":[8.265754E-3,7.89019E-3,7.4755284E-3,0E0,0E0,0E0,0E0],"parents":[2147483647,0,0,1,1,2,2],"right_children":[2,4,6,-1,-1,-1,-1],"split_conditions":[1.1319883E-1,1.3789076E-1,1.2812282E-1,-6.3685123E-3,2.0571817E-2,4.2855917E-3,-2.2695981E-2],"split_indices":[8284,1518,2900,0,0,0,0],"split_type":[0,0,0,0,0,0,0],"sum_hessian":[4.5884824E0,2.3594663E0,2.2290163E0,1.0678865E0,1.2915797E0,1.223499E0,1.0055172E0],"tree_param":{"num_deleted":"0","num_feature":"16336","num_nodes":"7","size_leaf_vector":"0"}},{"base_weights":[-1.6003569E-3,-3.4719467E-2,3.7771355E-2,3.9915066E-2,-8.199718E-2,8.979298E-2,-3.229175E-2],"categories":[],"categories_nodes":[],"categories_segments":[],"categories_sizes":[],"default_left":[true,true,true,false,false,false,false],"id":108,"left_children":[1,3,5,-1,-1,-1,-1],"loss_changes":[8.592552E-3,1.5812727E-2,1.39436E-2,0E0,0E0,0E0,0E0],"parents":[2147483647,0,0,1,1,2,2],"right_children":[2,4,6,-1,-1,-1,-1],"split_conditions":[1.2330186E-1,1.0407585E-1,1.0427602E-1,1.197452E-2,-2.4599155E-2,2.6937896E-2,-9.687526E-3],"split_indices":[2900,1518,6255,0,0,0,0],"split_type":[0,0,0,0,0,0,0],"sum_hessian":[4.583893E0,2.5538123E0,2.0300803E0,1.0507644E0,1.5030478E0,1.0034332E0,1.0266472E0],"tree_param":{"num_deleted":"0","num_feature":"16336","num_nodes":"7","size_leaf_vector":"0"}},{"base_weights":[-2.973202E-4,-2.4025306E-2,4.964915E-2,-6.115853E-2,4.6982754E-2,2.7257442E-3,-1.0568018E-1],"categories":[],"categories_nodes":[],"categories_segments":[],"categories_sizes":[],"default_left":[true,true,false,true,false,false,false],"id":109,"left_children":[1,3,-1,5,-1,-1,-1],"loss_changes":[7.7981437E-3,1.46132E-2,0E0,9.838939E-3,0E0,0E0,0E0],"parents":[2147483647,0,0,1,1,3,3],"right_children":[2,4,-1,6,-1,-1,-1],"split_conditions":[5.971387E-2,9.539446E-2,1.4894745E-2,1.2345527E-2,1.4094827E-2,8.177233E-4,-3.1704057E-2],"split_indices":[947,3089,0,461,0,0,0],"split_type":[0,0,0,0,0,0,0],"sum_hessian":[4.573492E0,3.4523628E0,1.1211292E0,2.3579812E0,1.0943816E0,1.3539585E0,1.0040226E0],"tree_param":{"num_deleted":"0","num_feature":"16336","num_nodes":"7","size_leaf_vector":"0"}},{"base_weights":[-5.670277E-4,2.5156274E-2,-4.4198774E-2,6.0327433E-2,-9.650306E-3],"categories":[],"categories_nodes":[],"categories_segments":[],"categories_sizes":[],"default_left":[true,true,false,false,false],"id":110,"left_children":[1,3,-1,-1,-1],"loss_changes":[7.357662E-3,5.6481166E-3,0E0,0E0,0E0],"parents":[2147483647,0,0,1,1],"right_children":[2,4,-1,-1,-1],"split_conditions":[1.3255188E-1,1.0255061E-1,-1.32596325E-2,1.8098231E-2,-2.895092E-3],"split_indices":[5444,1518,0,0,0],"split_type":[0,0,0,0,0],"sum_hessian":[4.5649056E0,3.1382036E0,1.4267018E0,1.1962273E0,1.9419764E0],"tree_param":{"num_deleted":"0","num_feature":"16336","num_nodes":"5","size_leaf_vector":"0"}},{"base_weights":[-4.806745E-5,-2.6643578E-2,4.14484E-2,1.7876867E-2,-7.2644375E-2],"categories":[],"categories_nodes":[],"categories_segments":[],"categories_sizes":[],"default_left":[true,true,false,false,false],"id":111,"left_children":[1,3,-1,-1,-1],"loss_changes":[7.241468E-3,